100_makeup_1,0,3.642,-0.022313,-0.165211,0.036704,-0.131988,-0.052861,-0.138184,-0.013971,-0.269522,0.156215,-0.189976,0.012513,-0.114976,-0.015314,-0.362628,-0.041667,-0.030635,-0.138921,-0.120792,-0.236441,-0.025042,-0.051972,-0.204695,0.042268,0.105376,-0.185629,-0.285803,-0.001696,0.102281,-0.245659,0.088647,0.088293,-0.154417,-0.142648,-0.127108,0.018365,-0.207746,-0.398675,-0.208785,-0.142836,-0.09004,0.009673,0.012709,-0.122901,-0.203609,-0.161733,-0.149891,-0.020654,0.018062,0.034962,0.131913,-0.252747,0.130602,0.005785,0.057181,0.005193,0.058847,-0.192732,-0.374383,-0.036465,0.088293,-0.050934,0.01953,-0.14819,-0.038444,0.008644,0.08824,-0.575498,0.037769,-0.295645,0.07463,-0.443106,-0.21484,0.068153,0.041149,-0.536708,0.057758,-0.097396,0.058813,-0.226183,-0.218352,0.032387,-0.010713,0.054048,-0.001234,-0.005788,0.019058,-0.035579,0.035734,0.079074,0.027151,-0.087395,-0.063577,0.027742,-0.1388,-0.405953,-0.145705,0.023742,-0.015529,-0.016263,0.074132,-0.429997,-0.314704,-0.129607,0.113395,0.032837,-0.024121,0.004269,-0.465606,0.06236,0.051681,0.044063,0.054768,0.067986,0.032836,-0.354656,-0.195286,0.028622,0.029793,-0.057763,-0.414998,-0.330202,-0.043905,-0.421206,-0.159748,-0.480097,0.014539,-0.004542,-0.230224,0.049999,-0.092674,0.038886,-0.047909,-0.167217,-0.416422,-0.334342,0.072058,0.013917,-0.387924,-0.055516,0.025744,0.036411,-0.014266,-0.022034,-0.066452,-0.07895,-0.001577,-0.016955,-0.15146,0.138597,-0.201992,0.043598,0.005266,-0.296982,-0.234259,0.049575,-0.164049,0.043651,-0.069832,-0.246136,-0.037676,-0.185372,-0.173926,0.100529,-0.158897,-0.060918,-0.100398,-0.043245,0.047509,0.040789,-0.153622,0.10728,-0.530343,0.049304,-0.23567,0.040193,-0.494155,-0.255902,0.004501,-0.040031,0.006951,0.037162,0.053592,0.07135,-0.054629,-0.282247,-0.000354,-0.013615,-0.460365,0.026182,-0.121243,-0.240677,-0.218506,0.071907,-0.170575,-0.049415,0.142758,0.008447,0.09943,-0.118539,-0.191226,-0.646594,-0.060972,-0.222043,-0.041751,0.039856,-0.092761,-0.053329,-0.026681,-0.135355,0.036537,-0.238278,-0.100566,-0.316516,-0.028922,0.026407,0.100824,-0.052456,0.057108,-0.334951,-0.089444,-0.107385,-0.070869,0.119097,0.036694,-0.355232,-0.051618,0.049018,-0.260796,-0.493803,-0.167577,0.038456,0.037695,-0.046579,0.143879,-0.221152,0.02763,-0.150449,-0.326103,-0.437008,0.036794,0.196606,-0.177311,0.031257,-0.099711,-0.552215,-0.101298,-0.294858,-0.238963,-0.149241,0.084204,0.018636,0.107546,-0.044642,0.01731,-0.013498,-0.176962,0.006861,0.067795,-0.374311,-0.142603,0.034113,0.054558,-0.149166,-0.146202,-0.049092,-0.296263,-0.323319,0.010465,-0.311237,0.135641,-0.019326,0.037263,-0.129593,0.00873,-0.113517,0.044418,0.038109,-0.022185,-0.174711,-0.0884,-0.212312,0.002855,-0.184484,-0.011621,0.034758,-0.038099,0.077853,-0.000177,-0.165014,-0.335022,-0.239538,0.067658,-0.233245,-0.034123,-0.074383,-0.409167,-0.016266,-0.272238,-0.020682,0.033452,0.125566,0.022251,0.20593,-0.09654,-0.016593,0.024058,0.011043,0.002622,0.670019,-0.042965,0.039763,-0.003066,0.038801,-0.053368,0.12316,0.014133,-0.007328,0.003714,-0.114164,0.269018,-0.04002,-0.05542,0.275952,0.335295,-0.060363,-0.019926,0.182875,0.46807,0.040454,0.494355,0.227195,-0.019142,0.003859,-0.02758,0.226129,-0.088503,-0.011589,-0.052447,-0.008289,-0.020715,0.187622,0.149345,-0.082492,-0.04001,-0.057307,-0.087804,-0.006502,0.098499,0.231243,0.524683,-0.033211,0.281591,0.014101,0.577237,0.065887,0.13003,-0.062297,-0.131932,0.017364,0.264033,0.053714,0.340422,-0.121452,0.018164,0.060706,0.148942,-0.059637,0.174829,-0.052032,0.079613,-0.133862,-0.006583,0.225843,0.462825,-0.059254,0.599857,0.010501,0.209187,-0.026589,-0.078938,0.137814,0.09959,0.205448,0.016489,0.052541,0.028793,0.032226,0.19837,0.47735,0.184387,-0.034716,-0.04174,0.369981,0.038502,-0.13179,0.000054,0.125191,0.041776,0.083655,0.437998,-0.034666,-0.074852,0.005035,0.298484,0.130988,0.004166,0.233852,-0.135889,0.079272,0.344258,0.342269,0.25671,0.347617,0.180191,-0.095447,-0.072281,0.367109,0.043401,0.074269,-0.034192,0.001806,0.171708,-0.044698,0.007713,-0.0476,0.208382,0.10581,0.047801,0.257736,-0.044603,0.24001,0.02266,-0.0535,-0.06219,-0.085413,0.513157,0.029248,-0.031418,0.212499,0.070553,0.060207,0.036766,0.004256,0.018754,-0.01596,0.009403,0.02019,-0.069271,0.270003,-0.10196,0.185605,0.082969,-0.075013,-0.063113,0.052353,-0.053393,0.40764,0.012303,-0.034139,0.0242,0.055642,-0.030245,0.587433,-0.017504,-0.016916,0.0095,0.15748,0.174436,0.341451,-0.048056,0.600426,-0.079895,0.145017,0.028526,0.246643,-0.09732,-0.000557,0.018584,-0.000329,0.20983,0.260117,0.392936,0.322983,0.025196,-0.031765,0.013695,0.132326,-0.080432,0.089111,-0.030302,-0.028832,-0.002504,0.200346,-0.027518,0.008791,0.350002,0.134808,0.232288,-0.051668,0.107455,-0.098141,0.097775,-0.013618,-0.009319,0.040111,-0.068698,0.027978,0.119218,0.034578,0.125986,-0.019795,0.007946,0.014677,0.015753,0.068967,0.426116,0.024597,0.600063,0.026002,0.004507,0.008445,-0.070587,0.176698,0.079987,0.01746,0.02483,0.124383,-0.042634,-0.07551,-0.044751,0.134684,0.074046,0.043663,0.318633,-0.062126,0.321037,0.07242,-0.044438,-0.066515,0.308368,0.739481,0.001752,0.048581,0.016231,-0.133789,0.010679,-0.072775,-0.007094,-0.010939,0.489602,0.169578,0.181213,0.119267,0.206367,0.072712,0.008038,0.218147,0.265187,-0.064582,-0.110481,0.474597,0.574492,-0.020856,-0.100647,0.049993,0.001914,-0.059515,0.057269,0.000765,0.237162,0.104063,0.334664,0.065312,0.08115,0.007405,0.045838,0.174488,0.055725,-0.045651,-0.064789,-0.11947,0.005105,-0.037815,0.294994,0.123871,0.026737,0.151105,0.013197,-0.009866,-0.037531,0.018481,0.246172,0.005637,-0.024831,0.003338,-0.062329,0.121884,-0.087151,0.083033,0.188054,-1
100_makeup_2,3.642,9.552,-0.019094,-0.592273,0.061867,-0.714692,-0.048813,0.057351,-0.078925,-0.17423,0.151103,-0.278925,-0.065501,-0.225545,0.045845,-0.842852,0.039334,-0.249554,-0.259451,0.005154,-0.407918,0.039476,-0.063586,-0.821631,0.022597,0.088539,-0.523609,-0.518191,-0.000165,0.040141,-0.325093,0.052399,0.018608,-0.499682,-0.393548,0.057864,0.026319,-0.548679,-0.652344,-0.382132,-0.369004,-0.345361,0.027275,-0.040066,-0.624197,-0.411166,-0.446633,-0.533039,-0.006023,-0.126765,0.068748,0.039145,-0.425328,0.041879,0.057915,0.095341,0.018489,-0.001705,-0.518373,-0.98815,0.083582,0.060199,0.007671,0.059488,-0.348796,-0.473768,0.029272,0.041644,-1.10273,0.086306,-0.984845,-0.047175,-0.872879,-0.500319,0.041464,0.022899,-0.846284,0.051755,-0.146133,0.000737,-0.621215,-0.28051,0.045431,0.031756,0.05673,-0.002922,-0.029613,-0.435688,0.031082,-0.05435,0.015172,0.038507,-0.259425,-0.196937,0.017918,0.000021,-0.810589,-0.557213,0.045753,-0.108441,0.10763,0.056159,-0.67026,-1.070773,-0.604246,0.099241,0.072667,-0.630426,-0.03789,-1.047295,0.009009,0.032999,0.108232,0.001456,-0.019507,0.021065,-0.597846,-0.78429,0.087397,-0.017634,-0.350126,-0.944025,-0.081146,-0.036611,-0.842233,-0.609312,-0.905317,0.00284,-0.004956,-0.208529,0.039282,-0.175488,0.06835,-0.155391,-0.604291,-0.562801,-0.354831,0.043564,0.022463,-1.139808,0.066955,-0.065106,-0.115058,-0.105963,-0.247499,-0.070839,-0.071386,-0.27866,-0.128548,-0.323087,0.052608,-0.773159,0.054236,-0.034153,-0.669911,-0.63827,-0.100199,-0.245083,0.059159,-0.078673,-0.701325,-0.067137,0.054917,-0.789351,0.112417,-0.385882,-0.414142,-0.653345,-0.133858,-0.006549,0.058622,-0.689214,0.136546,-1.052048,-0.033688,0.032252,0.013837,-1.004835,-0.379583,-0.036561,-0.23183,0.095301,0.035812,0.078058,0.078509,-0.261448,-0.46512,0.017821,0.012711,-0.614618,-0.045516,-0.031174,-0.541804,0.071923,0.066945,-0.419464,-0.485857,0.10342,-0.026585,0.086919,-0.17863,-0.038559,-1.325365,-0.165004,-0.511667,-0.010514,-0.1643,-0.881417,-0.126738,0.031146,0.12054,0.121889,-0.480626,-0.285224,-0.595017,0.022401,0.011844,0.07147,-0.154917,0.100551,-0.238511,-0.354486,-0.068828,-0.458808,0.057935,0.049082,-0.489766,0.055341,0.046598,-0.325042,-1.190824,-0.771629,-0.012546,0.063808,0.001957,0.098891,-0.68025,0.085782,-0.109439,-0.631377,-0.945358,0.052346,0.146943,-0.23695,-0.120098,-0.279404,-1.511043,-0.074193,-0.654039,-0.514007,0.008249,0.056943,0.080161,0.038735,0.055476,-0.023171,-0.407162,-0.076114,0.039769,0.004626,-0.789511,-0.631643,0.029075,0.029289,-0.292165,-0.479708,-0.019653,-0.241115,-0.545167,0.025087,-0.496805,0.03129,-0.015537,0.026309,0.040171,0.015795,-0.389545,0.004747,0.017129,0.007851,-0.281475,-0.469965,-0.790418,-0.415559,-0.308676,-0.004996,0.076148,-0.160081,0.029846,-0.000951,-0.236738,-1.183015,-0.233352,0.118325,-0.451873,-0.217141,-0.191752,-0.903961,-0.192058,-1.126697,-0.091319,0.061029,0.046753,-0.054838,0.539127,-0.032082,-0.005957,0.326182,0.0285,-0.043159,1.547228,-0.047987,0.046212,0.019325,0.066207,-0.052837,0.096638,-0.029077,-0.03561,0.054795,0.007917,0.721485,0.149599,-0.041226,0.349085,0.908868,-0.047592,0.006095,0.068421,1.264505,0.071777,1.105096,0.18408,-0.104608,-0.06575,0.275001,0.374996,-0.0149,-0.030556,-0.020601,-0.048309,0.018427,0.236427,-0.011767,-0.054502,-0.074528,-0.051803,-0.087762,0.066511,-0.003563,0.649952,1.308704,-0.043258,1.19872,0.18177,1.676512,0.075597,0.584331,-0.028376,-0.071598,0.089081,0.561454,0.270535,0.624872,-0.00418,-0.009021,0.507217,0.794254,-0.096565,0.624752,-0.086528,0.107497,-0.090746,0.05031,0.13843,0.462639,-0.048404,1.134502,0.018348,0.51828,-0.072073,0.000742,0.436701,0.034014,0.13923,0.014859,0.136916,-0.064712,0.047354,0.196787,0.835358,0.128355,0.005052,0.041152,1.150693,0.23094,-0.140041,-0.03222,0.193395,-0.001662,0.311801,0.944644,0.031969,-0.061976,-0.125508,1.071002,0.556974,-0.111275,0.143769,-0.098337,0.266418,0.868147,0.819223,0.532176,0.843547,0.292721,-0.070871,-0.067959,0.807399,0.153595,-0.071713,-0.068235,0.02191,0.295084,-0.056015,0.002406,-0.000682,0.671847,0.09845,0.051061,0.723024,-0.004243,0.285847,0.078494,-0.111187,0.001789,-0.050798,1.07997,0.20826,-0.079984,0.083845,-0.039942,-0.00267,0.161396,-0.045711,-0.063303,-0.031305,0.01853,0.030352,-0.022617,1.35577,-0.076264,0.355711,0.038974,-0.065505,-0.016966,-0.054466,-0.047889,0.891521,-0.038347,-0.046825,0.02286,0.113499,-0.048225,1.346316,-0.0593,0.042382,0.061968,-0.016934,0.42682,0.454156,-0.070197,1.181461,-0.029121,-0.021011,0.097898,0.624631,-0.144404,-0.032138,0.016345,0.003643,0.23726,0.797891,1.2232,1.077767,0.010083,-0.038933,0.08194,0.20345,-0.035441,-0.005508,0.068849,-0.020619,0.225263,0.588204,-0.024285,0.008731,0.620572,0.325965,0.764973,0.023265,0.087532,-0.169808,0.010314,-0.009849,0.40898,-0.061712,-0.096139,0.056519,0.092979,0.429282,0.779256,-0.001435,-0.050902,-0.057896,0.043951,0.146479,0.844366,-0.034592,1.125509,0.028934,0.082797,-0.004083,-0.063326,0.808396,0.112257,-0.086728,0.199602,0.633836,-0.037046,-0.07892,-0.088477,0.378847,0.241309,0.113763,0.572762,-0.114209,0.761378,0.031362,0.005591,-0.011783,0.658804,2.046741,-0.034617,-0.000501,-0.072018,-0.0765,-0.018684,-0.048509,-0.055089,0.018861,0.656334,0.593066,0.624573,0.192386,0.365654,0.018044,0.13349,0.35868,0.209578,-0.057135,-0.057441,0.950176,1.071852,0.001732,-0.040982,0.120683,-0.000673,0.052067,0.141244,-0.015553,1.437082,0.021172,0.704468,0.05001,0.131259,-0.004143,0.009772,0.516801,0.306866,-0.024184,-0.079634,-0.091227,0.027483,-0.015121,0.63374,0.725766,-0.001744,0.387267,0.020005,-0.032178,-0.14594,-0.009878,0.638771,0.003628,-0.082544,-0.026749,-0.075919,-0.043725,-0.132087,-0.024071,0.237091,-1
100_makeup_3,9.552,14.197,-0.384011,-0.316022,0.040886,-0.427108,-0.096385,0.015794,-0.263905,-0.292212,0.156263,-0.04181,0.026262,-0.03468,0.028256,-0.586862,0.048686,0.056009,-0.382115,-0.078311,-0.007827,0.097434,-0.050472,-0.401855,0.067203,-0.022861,-0.270612,-0.587057,-0.131039,0.037792,-0.477423,0.040815,0.062867,-0.528956,-0.23056,-0.066548,0.04927,-0.241036,-0.30534,-0.186215,-0.078757,-0.129364,0.003819,0.166473,-0.304676,-0.081234,-0.35638,-0.353385,-0.020961,-0.136773,0.039712,0.007022,-0.113207,0.009808,-0.182623,0.059462,-0.115708,-0.023196,-0.267572,-0.595235,0.032403,-0.00312,-0.056128,0.056544,-0.25999,-0.235468,-0.049071,0.036514,-0.918207,-0.085902,-0.730294,-0.021558,-0.624522,-0.613313,0.09115,0.100063,-0.755927,0.048734,0.013428,0.068441,-0.294371,-0.217951,-0.034985,-0.028383,0.032226,0.059361,-0.006665,-0.503019,-0.17707,-0.039633,0.057625,0.060288,-0.032927,-0.017076,0.060559,0.006036,-0.353555,-0.341469,-0.014876,-0.288852,-0.067542,0.10596,-0.66181,-0.637118,-0.196258,0.041821,-0.021125,-0.224009,-0.030402,-0.748248,-0.037381,0.145917,0.032245,0.080775,0.060493,0.014945,-0.294423,-0.508674,0.063901,-0.099584,-0.11422,-0.56241,-0.270874,0.068272,-0.580287,-0.57428,-0.418343,0.057001,-0.018944,-0.274041,-0.021608,-0.18284,0.006702,-0.013377,-0.465174,-0.343969,-0.429796,0.064483,-0.038812,-0.670556,-0.152073,-0.023401,-0.178191,0.022282,-0.248114,0.009386,0.027977,-0.546167,-0.039457,-0.371899,0.062691,-0.352386,0.005213,-0.176642,-0.648818,-0.56329,-0.286835,-0.245532,0.088009,-0.042212,-0.358477,0.023114,-0.021333,-0.716371,0.109861,-0.210471,-0.245162,-0.530988,0.003985,0.024231,-0.002963,-0.396679,-0.047975,-0.780491,0.154047,-0.197564,-0.035514,-0.729238,-0.258796,0.058991,-0.327096,0.056345,-0.003039,0.043142,0.035188,-0.281774,-0.414323,0.035456,-0.108209,-0.389211,-0.185277,-0.017617,-0.717867,0.002977,0.082635,-0.291598,-0.380258,-0.002947,0.02678,0.030939,-0.150746,-0.386522,-1.148981,-0.34505,-0.345895,-0.051077,-0.215128,-0.314724,-0.061111,-0.041128,-0.056471,-0.058183,-0.440487,-0.335653,-0.165113,-0.065573,-0.067604,0.040694,-0.17027,0.064014,-0.224312,-0.192508,-0.163832,-0.391839,0.020079,-0.074245,-0.356564,-0.003041,0.021286,-0.207545,-0.729701,-0.288463,0.05215,-0.010828,0.07108,-0.050415,-0.812278,-0.017707,-0.18957,-0.557373,-0.755051,0.00024,0.071716,-0.39443,-0.146081,-0.132394,-0.944603,-0.197669,-0.662459,-0.02511,0.007128,0.06337,0.069248,0.043371,-0.005542,-0.05763,-0.26318,-0.027118,0.040654,-0.049955,-0.484607,-0.231228,0.051513,0.091572,-0.074471,-0.436073,0.029901,-0.242822,-0.115204,-0.025547,-0.211006,0.027235,-0.111999,0.12251,0.048002,0.050205,-0.448916,0.015139,0.117652,0.04515,-0.149956,-0.123319,-0.660956,-0.42586,-0.516844,0.130031,0.049129,-0.186772,0.040076,0.036974,-0.218063,-0.675118,-0.092755,0.059389,-0.370674,-0.217802,-0.169631,-0.623458,0.005168,-0.928082,-0.093438,-0.005191,-0.130291,-0.02004,0.43782,-0.055558,-0.078113,0.088491,-0.100137,-0.093823,1.073319,-0.035596,0.358293,0.021413,0.207411,-0.048272,0.14747,0.170587,-0.045972,0.132044,0.075333,0.343185,0.003785,0.059253,0.140436,0.471403,0.054574,-0.154118,-0.042513,0.728254,-0.093893,0.777072,0.444543,-0.072714,-0.020122,-0.044382,0.135896,-0.04719,-0.054686,0.006441,0.025987,-0.060522,0.047475,0.318085,-0.06702,-0.041416,-0.056223,-0.009868,0.187375,0.018223,0.313105,0.8017,0.011147,0.873659,-0.079102,0.791459,-0.017232,0.374546,-0.069803,-0.03476,0.21854,0.306417,0.014866,0.4605,-0.041752,-0.055194,0.106165,0.465608,-0.108444,0.281249,-0.014794,0.093825,-0.031263,-0.01773,0.321587,0.289669,-0.043342,1.089209,0.140114,0.386536,-0.017738,-0.010352,-0.023709,0.020921,0.088524,0.353586,0.062747,-0.068932,-0.004346,0.125356,0.54025,0.238402,0.053456,0.070956,0.72075,0.145545,0.027461,-0.039386,0.44776,-0.047178,-0.051777,0.945085,-0.096118,-0.065089,-0.009609,0.438795,0.1808,-0.03767,0.06522,0.015415,-0.032761,0.782322,0.411245,0.547916,0.353619,0.127908,0.024239,0.035597,0.472704,-0.014553,0.064558,-0.049967,-0.158436,0.16456,-0.127981,-0.039405,-0.040148,0.316642,0.163125,-0.076687,0.406672,0.013853,0.082111,0.087857,0.019217,0.147297,-0.024446,0.711657,0.182989,-0.089924,0.014406,0.033427,-0.03677,0.158287,-0.050334,0.164984,0.199952,-0.073128,0.018736,-0.045736,1.053606,0.075816,0.352695,-0.058001,0.051452,-0.071401,0.01408,-0.015156,0.636434,-0.004907,-0.018912,0.059591,0.113549,-0.034419,0.726651,0.026275,0.004245,-0.016595,0.082616,0.465622,0.319187,-0.012319,0.572731,-0.038631,0.289778,-0.029379,0.526268,-0.00673,-0.021653,0.078072,-0.120698,0.092584,0.337187,0.733744,0.515024,-0.099153,-0.064335,0.291096,-0.106358,-0.020548,-0.002256,0.014112,-0.113482,0.009307,0.330888,0.055957,-0.009729,0.562611,0.328727,0.558914,-0.021232,-0.058074,-0.067585,-0.037048,0.037803,0.054052,0.026247,-0.048746,-0.009935,0.011564,0.038318,0.088521,-0.051669,-0.080297,0.004452,-0.059125,0.011325,0.457081,0.018056,0.703029,-0.00755,-0.020933,-0.024414,-0.028223,0.596036,-0.058663,-0.056978,0.110548,0.454258,-0.020113,0.022731,-0.076991,0.275023,0.135378,0.102593,0.346479,-0.043994,0.517015,-0.038344,-0.027162,-0.107466,0.409667,1.555495,-0.1126,-0.036166,-0.012862,-0.123874,-0.067619,-0.078434,-0.016611,0.026783,0.472458,0.519403,0.454248,0.232209,0.037667,-0.093109,-0.000137,0.097938,0.323353,-0.036239,0.020938,0.726159,0.583018,0.024391,-0.019955,0.041593,0.005333,0.021602,0.019757,-0.045771,0.916313,-0.05415,0.752943,0.292385,0.292898,-0.060774,0.098915,0.24148,0.378167,0.02356,0.013307,-0.079137,-0.020202,-0.073892,0.663799,0.391498,0.001297,0.269981,0.239188,-0.053786,-0.064716,-0.040476,0.397248,-0.047039,-0.042739,-0.049374,-0.019473,0.028975,-0.107834,-0.024558,0.265543,-1
100_makeup_4,14.197,20.545,0.044344,-0.895138,0.021408,-1.075088,-0.014302,0.035944,0.033291,-0.472194,0.118031,-0.784214,-0.405548,-0.291007,0.009261,-1.24078,0.055046,-0.614924,-0.259551,-0.093596,-0.838978,0.031554,0.113658,-1.002006,0.006152,0.09901,-0.589793,-1.049021,-0.012198,0.099736,0.015314,0.099538,-0.032353,-1.329536,-0.900987,-0.010804,0.080405,-0.506208,-0.865476,-0.20467,-0.767838,-0.176237,0.030673,-0.023457,-0.473748,-0.542854,-1.138398,-0.728849,-0.018584,-0.428757,0.103142,0.048269,-0.590921,0.147755,0.032769,0.147938,-0.277168,-0.004414,-0.52746,-1.478744,0.06431,0.056154,-0.009932,0.038365,-0.537363,-0.749711,0.013838,0.062167,-1.937073,0.045894,-1.454847,-0.124262,-1.764114,-0.543754,0.066409,0.08884,-1.546622,0.075729,-0.637476,-0.037367,-0.605706,-0.00143,0.085239,-0.430032,0.006528,-0.089886,0.033834,-1.002636,0.002518,-0.089902,0.0493,-0.075353,0.046908,-0.386473,0.101753,-0.110867,-1.386948,-1.169413,0.063292,-0.261068,-0.00998,0.042625,-0.830012,-1.575913,-0.496159,0.08418,-0.032176,-0.907591,0.050556,-1.451418,-0.016358,0.14317,-0.011964,0.106033,0.051362,-0.045924,-0.679493,-1.005713,0.082162,0.009692,-1.082458,-1.496933,0.053565,0.032986,-1.113255,-0.222414,-1.088435,0.070832,0.006034,-0.489193,0.057089,0.01455,0.047945,0.016708,-1.151628,-1.042965,-0.856449,0.089363,-0.033831,-1.813945,0.076596,-0.020169,0.012941,-0.217751,-0.479781,-0.530328,-0.33957,0.015171,0.026962,-0.567428,0.049611,-0.817929,0.030151,-0.196595,-1.144174,-1.044073,-0.492543,-0.612321,0.136943,0.046198,-0.9233,-0.459133,-0.465023,-1.253829,0.046463,-0.168108,-0.031611,-0.457782,-0.013738,-0.003024,0.052011,-1.070707,0.170049,-2.027456,-0.214354,0.034396,0.000195,-2.288827,-0.609787,0.027282,-0.053145,0.019213,0.143327,0.075582,0.090479,-0.439001,-0.678368,0.011142,-0.03362,-1.536098,-0.166402,-0.215238,-0.948355,-0.018151,0.018861,-0.933283,-0.403508,0.047427,0.070887,0.065518,-0.331277,0.034251,-2.221149,0.003651,-0.726999,0.027593,-0.514034,-1.240616,0.015881,0.009954,0.051755,0.041219,-0.613711,-1.072268,-0.805925,-0.141466,0.081456,0.087335,-0.239218,0.036014,-0.37079,0.024132,-0.195841,-0.530056,0.045643,0.049883,-1.320604,-0.031896,0.020989,-0.488107,-2.025624,-1.514183,-0.04403,0.027334,0.010651,0.077631,-1.437412,0.080455,-0.368614,-0.756839,-0.98225,0.046271,0.119657,-0.488058,-0.015571,-0.624388,-2.069715,-0.243193,-0.919064,-0.994537,0.044525,0.030559,0.047827,0.080029,0.056475,-0.062901,-0.399512,-0.593292,-0.02457,-0.004215,-1.259477,-0.891046,-0.020596,0.132228,-0.250895,-0.885456,-0.021871,-0.449415,-0.459072,-0.028245,-0.835042,0.021247,-0.027252,0.034876,-0.071714,0.042959,-0.70656,-0.017281,0.009191,-0.004864,-0.624927,-0.596412,-1.140211,-0.424987,-0.558984,0.054622,0.002266,-0.021751,-0.077923,0.003344,-0.330296,-1.959163,-0.399336,0.027356,-0.849144,-0.373934,-0.299752,-1.947892,0.020719,-1.951268,-0.046388,-0.029662,0.237435,-0.02509,0.670377,-0.023319,0.00644,0.539751,0.257248,-0.053198,2.784706,-0.090101,0.007815,0.076439,0.628728,-0.037713,0.550245,-0.027586,0.04861,-0.049588,-0.042102,0.921568,0.14737,-0.016408,0.530689,1.645488,-0.057894,-0.100441,0.157063,1.665173,0.027738,1.483011,0.82511,-0.060339,0.0176,0.570765,0.748617,-0.039542,-0.077319,-0.021478,0.01304,-0.05759,0.729747,-0.015731,0.022702,-0.042895,-0.149411,-0.028175,0.229906,-0.065148,0.74093,1.844557,0.010034,1.58424,0.368061,2.918369,-0.080923,0.456352,-0.027768,-0.104675,0.373414,0.569328,0.00597,1.163948,-0.010873,-0.032853,0.571418,0.954219,-0.053717,1.148485,-0.072772,-0.000746,-0.153264,-0.015562,0.795243,0.804698,-0.110529,1.912076,-0.12439,0.332758,0.043645,0.089462,1.033653,-0.075619,0.287492,-0.030281,0.16631,-0.002402,0.048157,-0.055684,1.036106,0.083849,0.151721,-0.059861,1.550771,-0.008216,-0.026991,-0.118563,0.805287,-0.050711,0.601003,1.684856,-0.063898,-0.08481,-0.023141,1.761522,0.865017,-0.071823,0.077257,-0.025936,0.011549,1.69992,0.899664,0.94334,1.092275,0.182938,-0.109627,-0.028632,1.340413,0.460787,-0.114475,-0.047771,0.365547,0.20213,-0.006519,0.062042,-0.077758,1.093178,0.03786,-0.092015,1.130684,0.118352,0.522104,0.066595,-0.08163,-0.080458,-0.019412,1.546823,0.239675,-0.05472,0.811317,0.143119,0.033624,-0.024971,-0.049044,-0.037512,-0.017648,0.173921,0.198926,-0.020684,1.61909,-0.022633,0.532408,-0.002867,-0.04944,-0.068539,0.02934,-0.106816,1.81559,0.116271,-0.086419,-0.050095,-0.062326,0.006086,1.901997,0.03098,0.113646,-0.032915,0.068915,0.432013,1.130648,-0.035647,2.449392,-0.145313,0.029036,0.139166,0.722618,-0.063283,0.008029,0.163756,0.013218,0.860873,1.427132,1.796664,1.699786,0.026669,-0.006709,0.141243,0.400293,-0.021344,0.023613,-0.007824,0.001617,0.38256,0.623781,-0.125406,-0.010289,1.293416,0.519998,1.535123,-0.004798,0.048589,-0.069834,0.157867,-0.033621,0.05327,-0.007173,-0.054936,0.739424,0.401418,0.897825,1.087755,-0.004085,-0.014896,0.003424,-0.101952,0.720697,1.602178,0.02687,1.618061,-0.056762,0.316496,0.018666,0.038457,1.150109,0.459432,-0.062986,0.119366,1.124759,0.028406,-0.064546,-0.110124,0.257497,0.629916,0.087398,1.159058,-0.013484,1.327169,-0.073111,-0.040561,-0.05194,1.02558,3.256897,-0.025219,-0.0063,0.040528,-0.104066,0.021779,-0.050767,-0.095464,0.420234,1.386734,1.015552,0.53089,0.572367,0.18217,0.03917,-0.024696,0.50599,0.684007,-0.032578,-0.018248,1.419986,1.734532,-0.001626,-0.045832,0.018707,-0.015695,-0.006475,0.342387,-0.025085,1.45106,0.123992,1.255029,0.110527,0.611209,-0.011387,-0.009192,1.131531,0.235808,-0.041353,-0.060245,-0.026996,0.023496,0.016826,0.667052,1.231965,0.017159,0.197904,0.166143,-0.000544,-0.067182,-0.011087,1.156059,-0.02454,0.01045,-0.005312,-0.088409,0.320676,-0.056887,-0.04157,0.357421,-1
100_makeup_5,20.545,23.275,-0.029648,-0.129809,0.019949,-0.149766,-0.123926,0.056844,0.025473,-0.102445,0.163694,-0.212309,0.004159,0.027134,0.066443,-0.119953,-0.044987,-0.137557,0.030311,0.02878,-0.177423,0.008537,-0.068091,-0.158446,0.0353,0.149385,-0.094758,-0.244814,0.02935,0.069596,0.039111,0.057652,0.040231,-0.213771,-0.041784,-0.027334,0.026772,-0.202029,-0.28118,-0.012188,-0.030363,0.025302,0.029996,0.027469,-0.073115,-0.048748,-0.32609,-0.161702,-0.043955,-0.272354,0.003043,0.110712,-0.025096,0.111082,-0.075694,0.114207,-0.121315,0.051511,-0.081788,-0.271658,0.044873,0.052011,-0.083769,0.049054,-0.333392,-0.164421,0.032848,0.040825,-0.311396,0.059801,-0.468768,0.016531,-0.394697,-0.128251,0.083288,-0.010136,-0.361755,0.051757,-0.310744,0.018102,-0.11814,-0.108787,0.053662,-0.040864,0.082858,0.009068,0.054575,-0.028974,-0.023376,0.023069,0.088513,-0.008039,-0.039503,-0.085827,-0.002139,-0.031269,-0.204854,-0.083228,0.046351,-0.003062,0.023919,0.11365,-0.104262,-0.334369,-0.245452,0.098345,0.072392,-0.320976,-0.074894,-0.579023,-0.020433,0.01329,-0.053452,0.006163,0.007318,0.000053,-0.240032,-0.289678,0.049497,-0.033479,-0.295574,-0.247236,0.013944,-0.04399,-0.237356,-0.042505,-0.387436,0.009392,0.018503,-0.101942,0.109709,-0.020662,0.017696,0.026699,-0.203917,-0.161407,-0.225992,0.046999,-0.084807,-0.263074,0.04427,0.011314,0.036524,-0.101152,-0.165694,-0.182233,-0.161494,-0.064602,0.034521,-0.062558,0.116497,-0.372201,0.068234,-0.016126,-0.323149,-0.345323,-0.035759,-0.280351,0.06956,0.021368,-0.24208,-0.109922,0.053265,-0.184131,0.118015,-0.008459,-0.112051,-0.106022,-0.085475,0.024555,0.091113,-0.188669,0.132408,-0.548137,-0.035396,0.033399,0.003489,-0.57923,-0.018088,-0.079673,-0.141464,0.061021,0.025117,0.099613,0.063876,-0.084402,-0.095076,-0.02053,-0.020663,-0.356725,-0.102095,-0.131367,-0.160796,-0.092174,0.042528,-0.166859,0.01277,0.119803,-0.020278,0.111882,-0.121809,0.006634,-0.418885,-0.134203,-0.167153,-0.06254,-0.021708,-0.123423,0.051036,0.02692,0.083457,0.062902,-0.114341,-0.315971,-0.14405,-0.002699,0.018002,0.1011,-0.007159,0.074839,-0.061424,0.072243,-0.032827,-0.130448,0.07795,0.024997,-0.331727,0.060652,0.023855,-0.035858,-0.379127,-0.262592,-0.085031,0.082828,-0.160102,0.144692,-0.303344,0.087624,-0.131315,-0.092504,-0.324192,0.026337,0.144966,-0.118103,-0.057497,-0.011443,-0.55489,0.009333,-0.172776,-0.158155,-0.096675,0.085389,0.034464,0.032338,-0.01504,0.009599,-0.045248,-0.071008,-0.000467,0.055047,-0.297867,-0.199973,0.031742,0.03702,-0.116037,-0.126364,-0.04245,-0.150746,-0.001201,-0.006565,-0.106687,0.074952,-0.018588,0.016055,0.119526,-0.014613,-0.042951,-0.046523,0.024252,-0.024044,-0.075858,-0.086098,-0.234762,-0.112711,-0.062552,-0.03573,0.091165,0.009686,0.020341,-0.012004,0.011826,-0.393705,-0.076932,0.074969,-0.082701,-0.086587,-0.046587,-0.347983,-0.022998,-0.249836,-0.014427,0.022561,0.016781,0.011336,0.186543,-0.088832,-0.025225,0.227302,0.119172,0.014068,0.592582,-0.067154,0.014738,0.124367,0.142035,-0.044846,0.238015,-0.040898,0.073923,0.034196,-0.04924,0.158346,-0.018827,-0.087938,0.114302,0.462191,-0.01235,0.012613,0.062909,0.383877,0.0859,0.50723,0.069954,-0.066217,0.087554,0.028623,0.178763,-0.066392,0.002953,0.009468,0.039835,0.040222,0.034858,0.035305,-0.029034,-0.047371,-0.038582,-0.051553,-0.033501,-0.019008,0.134991,0.316604,0.035787,0.51223,0.035244,0.428701,0.010195,0.097591,-0.040649,-0.113944,0.149211,0.215462,0.06736,0.193032,-0.127085,-0.031846,0.067715,0.212574,-0.084873,0.219509,-0.067424,0.130796,-0.084565,0.057024,0.343341,0.077495,-0.048508,0.391982,0.046664,0.122319,-0.05232,-0.000765,0.211384,-0.009967,0.128216,0.027422,0.172172,-0.003466,-0.015332,0.087,0.223394,0.018504,0.029378,-0.03298,0.188298,0.00001,-0.107627,0.007699,0.209302,0.018427,0.0305,0.444413,0.032536,-0.097301,-0.013734,0.303067,0.080898,-0.064173,-0.008874,-0.144751,0.037585,0.298103,0.059674,0.277987,0.166738,0.164114,-0.060292,-0.059135,0.35326,-0.011438,-0.095108,-0.043465,0.048567,0.147831,-0.030774,0.005092,-0.032265,0.242642,0.118013,0.084857,0.366356,0.024337,0.14455,0.043166,-0.076638,-0.014106,-0.035155,0.444151,-0.003727,-0.047805,0.338132,0.061335,0.17224,-0.069505,-0.01485,-0.003538,-0.047049,0.029349,0.25353,-0.032199,0.518722,-0.07761,0.165122,0.051652,-0.066454,-0.079914,-0.020723,-0.064905,0.379694,0.043808,-0.049497,-0.046599,0.067663,-0.069035,0.381206,0.027463,-0.006176,-0.034514,-0.026515,0.040308,0.228221,-0.080539,0.542074,-0.070958,0.01973,0.061692,0.081045,-0.159659,-0.00423,0.004888,-0.056615,0.267221,0.382963,0.266912,0.318707,-0.006202,-0.049316,0.05008,0.008522,-0.094168,-0.009451,-0.034682,-0.026801,0.065383,0.168446,-0.013688,0.035068,0.296709,0.101186,0.344451,-0.068336,0.050245,-0.12324,0.002248,0.010229,-0.015501,-0.017837,-0.11521,0.117363,0.265071,0.202586,0.121261,0.003083,-0.037112,-0.015425,0.001716,0.242318,0.292359,0.019446,0.321412,0.059951,0.134775,-0.025459,-0.039853,0.226498,0.060199,-0.070603,0.111436,0.135625,0.036931,-0.058043,-0.07513,0.00067,0.174987,-0.013141,0.311076,-0.105775,0.416062,0.04703,-0.0157,-0.04236,0.108014,0.559232,0.021922,0.012097,0.062048,-0.110208,0.034542,-0.081423,-0.027137,0.000827,0.28826,0.086725,0.267461,0.24167,0.009954,-0.011759,-0.042395,0.053335,0.130886,-0.04971,-0.104978,0.034056,0.489187,-0.007016,-0.049712,0.041684,0.018348,0.02207,0.019282,0.005763,0.138181,0.055934,0.117492,0.140543,0.190488,0.020598,0.027312,0.089895,0.069773,-0.026332,-0.063152,-0.095363,-0.034335,-0.046309,0.154785,0.330353,0.07374,0.041062,0.075026,0.098401,-0.084301,0.011144,0.290557,-0.004862,-0.014076,0.025692,-0.077322,0.157093,-0.128057,-0.004917,0.062628,1
100_makeup_6,23.275,27.533,0.044344,-0.02509,-0.028204,-0.060364,0.00644,0.035944,0.033291,-0.078337,0.118031,-0.197128,-0.024441,0.076439,0.009261,-0.180244,0.055046,-0.068199,0.04861,-0.159682,-0.103046,0.031554,0.113658,-0.016408,0.006152,0.09901,-0.210313,-0.314545,-0.083389,0.099736,0.015314,0.099538,-0.081849,-0.211524,0.0176,-0.010804,0.080405,-0.172008,-0.260522,-0.071327,-0.025313,-0.235482,0.030673,-0.015731,0.022702,-0.128089,-0.425494,-0.085504,-0.048765,-0.145985,0.103142,0.048269,0.010034,0.147755,0.032769,0.147938,-0.34249,-0.024443,-0.087916,-0.373146,0.06431,0.056154,-0.059934,0.038365,-0.010873,-0.173646,0.013838,0.062167,-0.216661,0.045894,-0.270316,-0.009165,-0.53899,-0.078598,0.066409,0.08884,-0.388368,0.075729,-0.378191,-0.135343,0.043645,-0.00143,0.085239,-0.23596,-0.053213,-0.030281,0.033834,-0.014769,0.048157,-0.165968,0.0493,-0.327599,0.046908,-0.196986,0.101753,-0.008216,-0.189042,-0.338927,0.063292,-0.18512,-0.00998,0.042625,-0.18487,-0.350778,-0.092829,0.08418,-0.153104,-0.261992,0.050556,-0.167106,-0.021316,0.14317,-0.011964,0.106033,0.051362,-0.132785,-0.253855,-0.181359,0.082162,0.009692,-0.365699,-0.195951,0.053565,0.032986,-0.086748,0.062042,-0.270783,0.070832,0.006034,-0.311498,0.057089,-0.087009,0.047945,-0.035382,-0.191175,-0.221783,-0.149836,0.089363,-0.116497,-0.341399,0.076596,-0.024301,0.012941,-0.122822,-0.099413,-0.077595,-0.092357,0.015171,0.026962,-0.05695,0.049611,-0.066943,0.030151,-0.002867,-0.103595,-0.262772,0.02934,-0.362661,0.136943,0.046198,-0.300967,-0.187256,-0.232348,-0.076127,0.046463,0.03098,-0.10057,-0.20196,-0.066809,-0.003024,0.052011,-0.10684,0.170049,-0.521569,0.029036,0.027515,0.000195,-0.287886,-0.019913,0.027282,0.013218,0.019213,0.143327,0.075582,0.090479,0.026669,-0.082676,0.011142,-0.03362,-0.045268,0.023613,-0.007824,-0.053232,-0.090396,0.018861,-0.323233,-0.047261,0.047427,0.070887,0.065518,-0.100933,0.048589,-0.240144,0.003651,-0.079027,0.000417,-0.007173,-0.109272,-0.023022,0.009954,0.051755,0.041219,-0.037253,-0.110202,-0.083868,-0.395138,0.081456,0.087335,0.019328,0.036014,-0.152245,0.010783,-0.003394,0.038457,0.045643,0.049883,-0.243611,-0.158786,0.020989,0.028406,-0.290685,-0.370838,-0.090736,0.027334,0.010651,0.077631,-0.17828,0.080455,-0.37327,-0.12648,-0.207716,0.046271,0.119657,-0.082704,-0.025781,0.040528,-0.329867,0.021779,-0.253372,-0.282407,0.044525,0.030559,0.047827,0.080029,0.056475,-0.236777,0.037334,-0.060323,-0.044654,-0.004215,-0.116942,-0.167247,-0.020596,0.132228,-0.10997,-0.142064,-0.113529,-0.015695,-0.046182,-0.072882,-0.078038,0.021247,-0.083106,0.034876,-0.161154,0.042959,-0.029094,-0.009192,0.009191,-0.004864,-0.100562,-0.211398,-0.09854,0.023496,-0.042981,0.054622,-0.020342,-0.025621,-0.188406,-0.14139,-0.12613,-0.145633,-0.123444,0.027356,-0.02454,0.01045,-0.053093,-0.324176,0.020719,-0.224057,-0.223893,-0.029662,0.145291,0.014237,0.021408,-0.023319,0.054983,0.04715,0.048927,-0.053198,0.396013,-0.090101,0.007815,0.260243,0.105726,-0.037713,0.177371,-0.027586,0.138243,-0.049588,-0.042102,0.108587,0.295213,-0.009916,0.076644,0.308348,-0.057894,-0.100441,-0.012198,0.318705,0.030079,0.339005,-0.032353,-0.060339,0.102127,0.036099,0.289091,-0.039542,-0.077319,-0.021478,0.01304,-0.05759,0.142572,0.052405,0.06383,-0.042895,-0.149411,-0.028175,-0.018584,-0.065148,0.336578,0.125062,0.018401,0.454446,0.145601,0.525546,-0.080923,-0.004414,-0.027768,-0.104675,0.170157,0.219847,-0.009932,0.135222,0.072537,-0.032853,0.053296,0.20717,-0.053717,0.185283,-0.072772,-0.000746,-0.153264,-0.015562,0.271817,0.254703,-0.110529,0.347576,-0.12439,-0.037367,0.081466,0.02179,0.327678,-0.075619,0.006528,-0.025488,0.09787,-0.002402,0.154168,-0.055684,0.25613,-0.075353,0.170158,-0.059861,0.284694,0.033142,-0.026991,-0.118563,0.232809,-0.050711,0.000602,0.168016,-0.063898,-0.08481,-0.023141,0.259902,-0.032176,-0.071823,0.230049,-0.025936,0.011549,0.518565,0.020037,0.351241,0.221172,-0.045924,-0.109627,-0.028632,0.24804,0.049312,-0.114475,-0.047771,0.084627,0.075489,-0.006519,0.122099,-0.077758,0.304728,0.012935,-0.092015,0.296717,0.01455,0.093445,0.016708,-0.08163,-0.080458,-0.019412,0.30705,-0.033831,-0.05472,0.244978,-0.020169,0.037741,-0.024971,-0.049044,-0.037512,-0.017648,0.107955,0.057109,-0.020684,0.20147,-0.022633,0.146287,0.038,-0.04944,-0.068539,0.082114,-0.106816,0.39703,0.06984,-0.086419,-0.050095,-0.062326,0.006086,0.155141,0.091242,-0.031611,-0.032915,-0.013738,0.029899,0.171309,-0.035647,0.486204,-0.145313,0.097184,0.034396,0.086511,-0.063283,0.008029,0.030406,0.072345,0.022354,0.462603,0.350003,0.37515,0.052108,-0.006709,0.098704,0.015084,-0.021344,0.042477,0.068956,0.001617,-0.018151,0.122826,-0.125406,-0.010289,0.19376,0.140156,0.245586,-0.004798,0.168247,-0.069834,0.061238,-0.033621,0.027593,0.024966,-0.054936,0.015881,0.085748,0.219351,0.126832,-0.004085,-0.014896,0.003424,-0.101952,0.24198,0.300231,0.02687,0.187554,-0.056762,0.024132,0.018666,0.172885,0.216986,0.103399,-0.062986,-0.031896,0.129325,0.053571,-0.064546,-0.110124,-0.04403,0.053946,0.073157,0.107551,-0.013484,0.25152,-0.073111,-0.040561,-0.05194,0.090154,0.439322,-0.025219,-0.015571,0.105943,-0.104066,0.064975,-0.050767,-0.095464,0.165961,0.113074,0.205194,0.217324,0.165973,-0.062901,0.03917,-0.024696,-0.02457,0.013253,-0.032578,-0.018248,0.018244,0.504188,-0.001626,-0.045832,-0.021871,0.027248,-0.006475,-0.028245,-0.025085,0.061823,-0.027252,0.06158,-0.071714,0.133438,-0.011387,0.001004,0.084635,0.014728,-0.041353,-0.060245,-0.026996,0.040027,0.016826,0.223607,0.002266,0.017159,-0.077923,0.003344,-0.000544,-0.067182,-0.011087,0.073243,-0.019754,0.013327,-0.005312,-0.088409,0.15439,-0.056887,-0.046388,0.022441,1
100_makeup_7,27.533,31.004,-0.012779,-0.270858,0.089933,-0.133016,0.06853,0.014034,0.02514,-0.168271,0.116851,-0.111853,-0.02175,-0.117125,0.031745,-0.519661,0.06348,0.027803,-0.199462,-0.024313,-0.091322,0.050407,-0.193216,-0.260525,-0.039648,-0.046574,-0.060715,-0.438868,-0.061673,0.092131,-0.290679,0.101244,0.032917,-0.550116,-0.257271,-0.02015,-0.042267,-0.065591,-0.426808,-0.14686,-0.141322,0.016437,-0.025369,-0.00977,-0.272205,0.000854,-0.243944,0.0105,0.020569,-0.205097,0.08768,0.102037,-0.082889,0.093026,-0.251216,0.094146,-0.17111,0.035405,-0.050452,-0.339661,-0.052299,0.097249,-0.242556,0.047509,-0.088868,-0.348906,-0.146497,0.029772,-0.633488,0.026175,-0.554949,0.024975,-0.215153,-0.669198,0.015795,0.071778,-0.598338,0.106174,-0.353622,-0.000991,-0.263192,-0.070915,-0.05885,0.03802,0.021624,-0.16464,-0.356662,-0.226466,0.009475,0.020117,0.035797,0.022466,-0.057884,-0.032811,0.103892,-0.003301,-0.041354,-0.296766,0.059242,-0.049065,0.02542,0.125169,-0.389453,-0.529237,-0.441529,0.026314,-0.037659,-0.236279,-0.117881,-0.533785,-0.164342,0.075685,0.112206,0.044846,-0.016444,-0.005432,-0.207561,-0.354268,0.021465,-0.003889,-0.00677,-0.519057,-0.307541,0.018844,-0.53814,-0.329575,-0.311905,0.098012,0.02587,-0.232221,0.046107,0.016881,0.023553,0.032129,-0.101061,-0.368879,-0.25835,0.070127,-0.05805,-0.382248,-0.070248,0.06864,-0.177167,0.05746,-0.134344,-0.076104,-0.030859,-0.20575,0.064719,-0.179442,0.022927,-0.140347,0.033834,-0.086357,-0.425551,-0.423143,-0.017566,-0.061208,0.101768,0.005332,-0.332258,0.012098,-0.188872,-0.321399,-0.002108,-0.039605,0.005097,0.018176,0.037821,0.061887,0.05771,-0.086662,0.019883,-0.750877,0.002159,-0.29812,-0.008098,-0.623303,-0.268928,-0.043995,-0.01687,0.022662,0.02825,0.086544,0.080285,-0.356571,-0.249869,0.027938,-0.03823,-0.439326,-0.158949,-0.001579,-0.505427,-0.229849,0.013971,-0.309687,-0.433273,-0.030959,0.057653,0.005425,-0.060683,-0.388344,-0.701779,-0.195481,-0.269541,0.069149,-0.106131,0.043644,-0.040039,-0.024963,-0.014891,0.035281,-0.222388,-0.383034,-0.328696,0.045264,0.00886,0.042664,-0.13885,0.118372,-0.507334,-0.05494,-0.062856,-0.059356,-0.002805,-0.281208,-0.436832,-0.055547,0.058366,-0.076012,-0.648033,-0.129456,0.026134,-0.074744,0.003974,0.060564,-0.464379,0.041798,-0.27957,-0.220034,-0.610112,0.109272,0.139963,-0.190053,-0.266209,-0.00679,-0.657746,-0.052012,-0.298618,-0.181791,-0.142356,0.068844,0.067114,-0.114631,0.012744,0.004415,-0.177911,-0.033241,-0.038939,-0.017396,-0.400116,-0.24081,0.156615,0.055035,-0.058303,-0.124816,-0.21631,-0.552936,0.000439,0.013636,-0.402561,0.107485,0.01875,0.067613,-0.281636,0.076633,-0.19677,0.031468,-0.013747,0.00325,0.032259,-0.034906,-0.244675,-0.216955,-0.217232,0.078662,0.027058,-0.130807,0.003834,0.023189,-0.127141,-0.51481,-0.153693,0.040478,-0.269633,-0.063235,-0.215673,-0.504612,-0.015671,-0.234151,0.022013,-0.108424,0.018518,-0.023013,0.456392,-0.029689,0.092484,0.084728,0.040813,-0.013586,0.622652,0.054889,0.009208,0.009097,0.074446,-0.097881,0.284701,0.142664,-0.000587,0.034147,-0.018262,0.254901,-0.035885,-0.089668,-0.018832,0.33681,-0.016708,-0.072326,-0.032171,0.53003,-0.054072,0.751509,0.236108,-0.128288,-0.091207,0.021415,-0.029912,0.04251,-0.019168,-0.000887,-0.072968,0.02276,0.085251,0.047006,-0.070464,0.014591,-0.012534,0.06996,0.192304,0.003918,0.177249,0.567108,-0.062889,0.402888,-0.067353,0.522876,0.005316,0.158097,-0.048257,-0.004338,-0.018485,0.468792,-0.008935,0.362139,0.005068,-0.058268,-0.040677,0.323253,-0.060453,0.352357,-0.0847,0.182624,-0.012564,-0.137152,0.303556,0.289112,-0.14182,0.835236,0.033398,0.15009,-0.092744,-0.05704,0.183352,0.174279,0.136666,-0.02883,-0.06844,-0.00613,0.080915,0.170159,0.502772,0.097141,0.0221,0.122537,0.464738,0.065685,0.021547,-0.077108,0.071957,-0.048146,0.191581,0.692298,-0.049756,-0.066057,-0.107153,0.390224,-0.034853,-0.056333,0.005901,-0.054723,-0.037811,0.435975,0.335578,0.370896,0.299787,0.251505,-0.002905,-0.040569,0.335936,0.009263,0.017109,-0.100298,-0.011964,0.400978,-0.073834,-0.119362,-0.04232,0.460105,0.23341,-0.060178,0.188549,0.035819,0.347138,0.175868,0.026397,-0.04174,-0.047264,0.578168,0.021925,-0.036094,0.097919,0.158226,-0.089428,0.210158,0.00936,0.010978,0.021918,-0.060446,0.09964,-0.06661,0.543588,-0.067808,0.113961,0.021695,-0.047752,-0.065647,-0.005192,0.025489,0.417894,0.070387,-0.048259,0.132929,-0.039901,-0.029879,0.541664,-0.02796,0.033777,0.140125,0.29533,0.155969,0.245144,0.003341,0.491867,-0.109767,0.04049,-0.079171,0.301122,-0.068367,-0.090966,-0.019776,0.018039,0.240951,0.417577,0.471855,0.402785,-0.005678,-0.023377,0.047391,-0.019822,-0.097963,-0.08872,0.109861,-0.098104,-0.03348,0.136012,-0.08386,-0.110641,0.056673,0.275754,0.270508,0.028755,-0.064224,-0.118307,-0.009113,-0.081426,0.348387,-0.104099,0.126305,0.102181,0.097505,0.026809,0.043588,0.038748,-0.060098,-0.040571,0.158455,0.309605,0.321778,0.010359,0.660122,-0.072044,0.059209,0.023616,0.009273,0.182002,-0.001506,-0.055462,-0.000317,0.36026,-0.042909,-0.111296,0.017544,0.037471,-0.028545,0.023487,0.34279,-0.10111,0.483753,-0.05127,-0.050582,-0.104814,0.391632,0.672306,-0.083971,-0.011967,0.011747,-0.104583,-0.018702,-0.0478,-0.017109,-0.022376,0.363184,0.424976,-0.050377,0.362612,0.005221,-0.031036,0.047405,0.132807,0.07358,-0.148677,-0.039451,0.625142,0.713799,0.042595,0.018886,-0.033643,-0.109005,0.031381,0.117166,-0.011217,0.493814,0.205483,0.51406,-0.095173,0.459543,-0.0664,0.047584,0.110184,0.178273,0.057833,-0.026965,-0.012569,-0.048368,-0.051517,0.511136,0.470337,-0.028379,0.086602,0.117362,0.007702,-0.042857,0.04244,0.267424,-0.056784,0.008726,0.001225,-0.07206,0.155525,-0.042308,0.217739,-0.009613,1
100_makeup_8,31.004,32.6,0.028531,-0.000178,0.159021,0.036683,-0.077789,0.008363,-0.006452,-0.032168,0.055485,-0.010114,0.006878,-0.077532,0.032045,-0.021148,0.009934,-0.014629,-0.037207,-0.06743,-0.023522,0.040992,-0.003283,-0.045367,0.022554,0.111815,0.018322,-0.118876,-0.048263,0.082415,-0.02895,0.154345,0.099165,0.007073,0.01436,-0.048245,0.045513,0.020642,-0.054728,-0.079179,-0.018911,-0.053267,-0.030833,0.057793,-0.122129,-0.030929,-0.07509,-0.053048,0.043386,-0.018466,0.066229,0.106133,-0.041503,0.069093,-0.073332,0.058639,0.050253,0.050904,-0.017588,-0.065253,-0.037708,0.120773,0.016187,-0.040223,-0.003965,0.034342,-0.057876,0.017691,0.046024,0.097905,-0.113945,0.094453,-0.073395,-0.107484,0.016875,0.080011,-0.037604,0.135376,-0.044984,0.044349,-0.050979,0.002969,-0.001623,0.026189,0.036346,0.02252,-0.047104,0.087782,0.00959,0.057877,0.055476,0.048381,0.007893,-0.048157,0.085476,0.051083,-0.070758,-0.052077,-0.0263,-0.014335,-0.04467,0.037494,-0.14365,-0.002356,-0.035179,0.087059,0.020846,0.038535,0.017226,-0.080459,0.075515,0.097327,0.012243,0.071653,0.067994,0.053733,-0.098239,-0.040718,0.059274,-0.032368,-0.034007,-0.01873,-0.055702,0.044228,-0.013709,0.027835,-0.09438,0.088788,-0.017192,-0.060623,0.008968,-0.106814,0.074799,0.006288,-0.017761,-0.112703,-0.083404,0.119137,0.030391,-0.068089,0.039701,0.030227,0.010503,0.036466,-0.046241,0.095587,0.024135,-0.030179,0.020266,-0.055152,0.073307,-0.04172,0.013474,0.00125,-0.032471,-0.041517,0.072598,-0.021548,0.101064,0.048687,-0.044336,0.043488,-0.001051,-0.028064,0.045815,0.016824,-0.083273,-0.077187,0.036084,0.036212,0.017029,-0.059356,0.077881,-0.108533,0.092686,-0.037275,0.095309,-0.082015,0.043129,0.013306,0.008548,0.000551,0.066448,0.097165,0.034293,-0.006083,-0.034996,-0.031725,-0.032711,-0.020979,-0.00039,-0.040991,-0.114184,-0.075088,0.013597,-0.07076,0.007041,0.006781,0.076503,0.091615,-0.009357,-0.032526,-0.098132,-0.100868,-0.05894,-0.064399,0.006059,-0.014116,-0.035868,0.000857,0.010884,0.048105,-0.00148,0.011757,0.0008,-0.032716,0.043055,0.010144,-0.047308,0.071158,-0.005231,0.002592,-0.032172,-0.004675,0.049101,-0.034953,-0.048207,-0.000622,0.058626,-0.063838,-0.076718,-0.002152,0.059751,-0.00315,-0.021341,0.001197,-0.081777,-0.016894,0.026814,-0.01284,-0.122861,-0.034913,0.131079,-0.031729,-0.015614,0.006513,-0.086803,0.093185,-0.097804,0.027067,-0.084617,0.001669,0.019932,0.072313,-0.012577,-0.039385,-0.055217,0.026488,0.033049,-0.001656,-0.068468,-0.038753,-0.022476,0.093151,-0.012643,-0.021007,-0.028106,-0.009254,-0.090066,0.017121,-0.015725,0.132326,0.037117,0.069348,-0.022027,0.052572,-0.042585,-0.007511,0.115835,-0.001346,0.015433,-0.063485,-0.073532,0.080718,-0.00543,0.038664,0.054681,0.06187,0.042854,0.025178,-0.073537,-0.00774,-0.047496,0.036993,0.006756,-0.015997,-0.091355,-0.113929,0.002359,-0.031533,0.010849,0.05484,0.028531,-0.000178,0.159021,0.036683,-0.077789,0.008363,-0.006452,-0.032168,0.055485,-0.010114,0.006878,-0.077532,0.032045,-0.021148,0.009934,-0.014629,-0.037207,-0.06743,-0.023522,0.040992,-0.003283,-0.045367,0.022554,0.111815,0.018322,-0.118876,-0.048263,0.082415,-0.02895,0.154345,0.099165,0.007073,0.01436,-0.048245,0.045513,0.020642,-0.054728,-0.079179,-0.018911,-0.053267,-0.030833,0.057793,-0.122129,-0.030929,-0.07509,-0.053048,0.043386,-0.018466,0.066229,0.106133,-0.041503,0.069093,-0.073332,0.058639,0.050253,0.050904,-0.017588,-0.065253,-0.037708,0.120773,0.016187,-0.040223,-0.003965,0.034342,-0.057876,0.017691,0.046024,0.097905,-0.113945,0.094453,-0.073395,-0.107484,0.016875,0.080011,-0.037604,0.135376,-0.044984,0.044349,-0.050979,0.002969,-0.001623,0.026189,0.036346,0.02252,-0.047104,0.087782,0.00959,0.057877,0.055476,0.048381,0.007893,-0.048157,0.085476,0.051083,-0.070758,-0.052077,-0.0263,-0.014335,-0.04467,0.037494,-0.14365,-0.002356,-0.035179,0.087059,0.020846,0.038535,0.017226,-0.080459,0.075515,0.097327,0.012243,0.071653,0.067994,0.053733,-0.098239,-0.040718,0.059274,-0.032368,-0.034007,-0.01873,-0.055702,0.044228,-0.013709,0.027835,-0.09438,0.088788,-0.017192,-0.060623,0.008968,-0.106814,0.074799,0.006288,-0.017761,-0.112703,-0.083404,0.119137,0.030391,-0.068089,0.039701,0.030227,0.010503,0.036466,-0.046241,0.095587,0.024135,-0.030179,0.020266,-0.055152,0.073307,-0.04172,0.013474,0.00125,-0.032471,-0.041517,0.072598,-0.021548,0.101064,0.048687,-0.044336,0.043488,-0.001051,-0.028064,0.045815,0.016824,-0.083273,-0.077187,0.036084,0.036212,0.017029,-0.059356,0.077881,-0.108533,0.092686,-0.037275,0.095309,-0.082015,0.043129,0.013306,0.008548,0.000551,0.066448,0.097165,0.034293,-0.006083,-0.034996,-0.031725,-0.032711,-0.020979,-0.00039,-0.040991,-0.114184,-0.075088,0.013597,-0.07076,0.007041,0.006781,0.076503,0.091615,-0.009357,-0.032526,-0.098132,-0.100868,-0.05894,-0.064399,0.006059,-0.014116,-0.035868,0.000857,0.010884,0.048105,-0.00148,0.011757,0.0008,-0.032716,0.043055,0.010144,-0.047308,0.071158,-0.005231,0.002592,-0.032172,-0.004675,0.049101,-0.034953,-0.048207,-0.000622,0.058626,-0.063838,-0.076718,-0.002152,0.059751,-0.00315,-0.021341,0.001197,-0.081777,-0.016894,0.026814,-0.01284,-0.122861,-0.034913,0.131079,-0.031729,-0.015614,0.006513,-0.086803,0.093185,-0.097804,0.027067,-0.084617,0.001669,0.019932,0.072313,-0.012577,-0.039385,-0.055217,0.026488,0.033049,-0.001656,-0.068468,-0.038753,-0.022476,0.093151,-0.012643,-0.021007,-0.028106,-0.009254,-0.090066,0.017121,-0.015725,0.132326,0.037117,0.069348,-0.022027,0.052572,-0.042585,-0.007511,0.115835,-0.001346,0.015433,-0.063485,-0.073532,0.080718,-0.00543,0.038664,0.054681,0.06187,0.042854,0.025178,-0.073537,-0.00774,-0.047496,0.036993,0.006756,-0.015997,-0.091355,-0.113929,0.002359,-0.031533,0.010849,0.05484,1
100_makeup_9,32.6,34.133,0.008236,-0.079334,0.034075,-0.041677,-0.029582,0.005613,-0.064519,0.015114,0.17041,-0.081851,-0.004084,-0.126539,0.047931,-0.155605,0.04538,-0.07186,-0.05923,-0.023576,0.008668,0.051755,-0.07963,-0.110074,0.053555,0.051944,-0.000572,-0.159683,-0.079444,0.071171,-0.058425,0.041502,0.016021,-0.147229,-0.098813,0.053377,0.03943,-0.026843,-0.134605,-0.069203,-0.051587,0.02294,0.088205,-0.05755,-0.083962,-0.048643,-0.04906,-0.041408,0.033129,-0.00747,0.091187,0.032443,-0.056677,0.09336,0.065051,0.142043,-0.035087,-0.011427,-0.00792,-0.102238,0.021456,0.010282,-0.043361,0.01984,0.016655,-0.138633,0.011958,0.026689,-0.174151,0.142291,-0.107838,0.027581,-0.112699,-0.144275,0.080167,-0.019486,-0.172105,0.06463,-0.126929,0.040129,-0.027589,-0.0657,-0.019446,-0.093048,0.029796,0.021469,-0.047254,-0.174479,-0.033513,-0.022966,0.027142,0.070962,0.056789,-0.073551,0.003369,0.002659,-0.123862,-0.084575,-0.008829,-0.013638,0.078583,0.081995,-0.122264,-0.19635,-0.062864,0.077687,0.018506,-0.011158,-0.065772,-0.106449,0.016598,0.035381,0.072492,-0.026404,0.030253,-0.008393,-0.005553,-0.068817,0.092885,-0.068771,-0.070356,-0.253291,-0.04124,-0.023166,-0.135762,-0.05039,-0.096389,0.040006,-0.076467,-0.049149,0.058764,0.048858,0.047372,0.065984,-0.096207,-0.146911,-0.123039,0.039433,0.028538,-0.265817,0.060163,-0.021085,-0.054979,0.011545,-0.065456,-0.106764,-0.018935,0.011082,-0.02007,-0.17888,0.068561,0.011345,0.00177,0.050923,-0.073117,-0.072585,-0.052035,-0.075501,0.106581,0.034332,-0.040562,-0.03524,-0.092794,-0.116202,0.043218,-0.072677,0.088682,0.029108,0.01447,0.043013,0.049719,-0.095621,0.104282,-0.181546,-0.064025,-0.076205,-0.039406,-0.161504,-0.106273,-0.017425,-0.090106,0.051137,0.005029,0.032221,0.121816,-0.063891,-0.040059,0.010222,0.014346,-0.091175,-0.106111,0.028252,-0.107646,0.05282,0.081648,-0.071284,-0.029515,0.079481,-0.008071,0.108167,0.047694,-0.024228,-0.167629,0.040989,-0.063519,0.003893,-0.076079,-0.114228,0.032513,0.009047,0.049409,0.041768,-0.116324,-0.108184,-0.113177,0.009543,0.054678,0.077768,-0.041485,0.116911,-0.110104,0.045208,0.020713,-0.073603,0.060805,-0.103513,-0.067111,-0.034884,0.029095,-0.027183,-0.163779,-0.062653,-0.011916,0.037918,-0.028015,0.03144,-0.108715,0.051527,-0.030573,-0.030796,-0.092223,0.018058,0.120574,-0.025535,-0.100892,-0.042149,-0.143065,0.00519,-0.089176,-0.125658,0.064987,0.061164,-0.00279,0.047375,0.017735,-0.043418,-0.041355,-0.123723,0.025111,-0.009574,-0.131646,-0.068337,0.05993,0.03514,0.001995,-0.036936,-0.004918,-0.05901,-0.120128,0.012793,-0.115237,0.009043,-0.012309,0.002456,-0.050564,-0.011917,-0.072415,0.007613,0.065056,0.010631,-0.101113,-0.025205,-0.111329,-0.064089,-0.11668,0.047115,0.119982,0.010653,-0.035287,-0.02311,-0.15597,-0.214957,-0.047026,0.090142,-0.076349,-0.027412,-0.064237,-0.168931,-0.01463,-0.129233,-0.028247,-0.00732,0.008368,-0.030686,0.187017,-0.038949,-0.012431,0.009889,-0.003004,0.049246,0.210075,-0.019175,0.008122,-0.028287,0.059747,-0.033416,0.114624,-0.050045,0.00831,0.011036,0.017719,0.103032,-0.07251,-0.054374,0.05522,0.076628,0.013634,-0.04497,-0.039989,0.147264,0.029939,0.186281,0.062756,-0.066085,-0.096522,0.070834,0.062386,0.000739,-0.054146,-0.007952,-0.021857,0.058775,0.127175,0.008366,-0.032642,-0.046265,-0.035722,-0.025164,0.036861,0.008389,0.125908,0.121035,-0.03702,0.163112,0.082916,0.209333,-0.021143,0.013093,0.009332,-0.052433,0.021657,0.08647,0.004441,0.094062,0.034142,-0.076089,0.047805,0.057633,-0.066737,0.190529,-0.040643,0.030147,-0.063321,-0.004321,0.083588,0.016727,-0.089072,0.223445,-0.100472,0.052126,0.007095,-0.038384,0.017839,-0.069941,0.034285,0.060719,0.088569,-0.109927,-0.017336,0.001236,0.1212,0.088669,0.081163,-0.055481,0.116386,0.004729,-0.118255,-0.013327,0.009095,-0.00443,0.082106,0.193308,-0.042315,-0.100791,0.009954,0.149831,0.090939,0.007285,-0.040297,-0.070276,0.032571,0.117001,0.097214,0.042235,0.052366,0.034538,0.004083,-0.057217,0.173608,-0.002342,-0.032532,-0.117659,0.051259,0.043747,-0.058286,-0.010685,-0.093509,0.11921,-0.041709,0.040531,0.065625,0.088387,0.077304,0.072145,-0.067241,-0.063231,-0.080308,0.12899,0.063686,-0.160848,0.085838,0.01478,-0.003759,0.079109,-0.056063,-0.092974,0.011838,0.037427,0.001372,-0.091535,0.109158,0.095992,0.074988,0.094469,-0.006235,-0.020901,-0.040067,-0.043341,0.178975,0.06768,-0.029043,-0.009409,-0.040962,-0.11523,0.173498,0.010869,0.110575,0.064562,0.087065,0.09279,0.077119,-0.048477,0.124392,-0.02057,-0.024026,-0.005347,-0.013283,-0.116022,-0.057263,0.004594,-0.031344,0.058395,0.067097,0.105637,0.190295,-0.010771,-0.022258,0.05695,0.042921,-0.058694,-0.105834,0.038145,-0.044343,0.082788,0.086161,-0.052678,-0.014587,0.084486,0.081815,0.158835,0.061834,0.050756,-0.086288,0.066769,-0.027458,0.063295,-0.073204,-0.098699,0.05513,0.026176,0.052841,0.045032,-0.064966,-0.079844,-0.080133,0.01401,0.066618,0.101781,-0.017129,0.237544,0.028773,0.058345,0.022175,-0.045606,0.118239,-0.037509,-0.060958,0.006588,0.113671,-0.026306,-0.115186,-0.052356,0.023452,0.059722,-0.026709,0.056132,-0.094442,0.054531,-0.023966,0.018748,0.032479,0.095011,0.201547,0.019943,0.012634,-0.039456,-0.033145,0.018366,-0.05132,-0.08609,0.090434,0.062312,0.092583,0.059943,0.038027,-0.01288,-0.026904,-0.105483,0.044074,0.054394,-0.076933,-0.067616,0.196884,0.148814,0.023641,0.014526,0.006933,0.012079,-0.078807,0.015491,-0.026329,0.124638,0.055047,0.137753,0.009513,0.007448,-0.025766,0.023562,0.121641,0.022601,-0.062834,0.015186,-0.073329,-0.01144,-0.033486,0.127851,0.205124,0.033067,0.026264,0.000616,-0.094675,-0.098014,-0.005728,0.123283,-0.022386,0.041517,0.013621,-0.100055,-0.002041,-0.074483,0.03254,0.008684,-1
101_movies_1,0,6.643,0.091853,-0.514829,0.084446,-0.641058,-0.188644,0.015729,0.00239,-0.247173,0.093832,-0.484212,-0.017751,-0.523601,-0.006711,-0.780762,0.10027,-0.148169,-0.169101,-0.175618,-0.42685,0.000213,-0.059837,-0.813158,-0.017863,0.075799,-0.358917,-0.878996,0.003092,0.026548,-0.471206,0.096062,0.038603,-0.627907,-0.467859,-0.004168,-0.016563,-0.667764,-0.429087,-0.429282,-0.575838,-0.450354,0.036457,-0.04019,-0.60222,-0.387652,-0.49286,-0.614161,-0.006424,-0.028343,0.022361,0.085907,-0.439518,-0.013843,0.007219,0.082113,-0.152674,-0.073024,-0.592995,-1.167678,0.004401,0.031321,-0.061488,0.034469,-0.337099,-0.450251,-0.01347,0.084085,-1.341306,0.025709,-1.113928,0.075212,-1.18255,-0.743774,-0.040496,-0.0258,-1.066947,0.064964,-0.481354,0.008003,-0.411974,-0.273846,0.003134,-0.128671,-0.047883,0.003251,0.000475,-0.374465,-0.026613,0.098184,0.070264,0.024032,-0.004181,-0.472812,0.014338,0.058306,-1.02528,-0.799735,0.035474,-0.291992,0.019066,0.097018,-1.00274,-1.106651,-0.516027,-0.000387,0.060701,-0.307109,-0.011586,-0.93723,0.003274,0.094352,0.015744,0.057988,-0.022265,0.035495,-0.620482,-0.662388,0.066384,-0.009621,-0.467691,-0.956484,-0.09177,0.009297,-0.783614,-0.715805,-1.125628,0.13419,-0.021314,-0.274481,0.00561,-0.370077,0.048468,0.004453,-0.342923,-0.851364,-0.68028,0.087792,0.021997,-1.19209,0.023332,0.075566,0.020357,0.066068,-0.284994,0.065388,-0.295256,0.01766,-0.012579,-0.459207,0.156975,-0.633217,0.024275,-0.171512,-0.894965,-0.878663,-0.129318,-0.423179,0.026044,0.020917,-0.718542,-0.06016,-0.386122,-0.946105,0.030521,-0.257068,-0.298378,-0.50796,0.031151,0.0983,0.073726,-0.638187,0.071065,-1.514227,-0.046009,-0.157376,0.121055,-1.307727,-0.50199,0.049033,-0.216516,0.022684,0.052163,0.102074,0.062639,-0.383023,-0.532545,-0.013118,0.051807,-0.84607,-0.055874,0.031104,-0.876399,-0.113434,0.001967,-0.773447,-0.422164,0.05224,0.030311,0.144738,-0.211936,-0.257188,-1.698643,-0.251162,-0.64141,0.041627,-0.227455,-0.63132,0.049099,0.018031,-0.001714,0.053162,-0.224081,-0.354408,-0.83107,-0.066307,-0.071123,0.004053,-0.31369,0.059593,-0.466271,-0.020342,-0.101554,-0.549428,0.085623,-0.063068,-0.628543,-0.070928,0.082207,-0.321889,-1.29816,-0.600554,0.026592,-0.035891,-0.004801,-0.073155,-0.765916,0.05508,-0.132116,-0.566408,-1.13034,-0.02989,0.071462,-0.429861,-0.319413,-0.048149,-1.613936,-0.088578,-0.88627,-0.495362,-0.101525,0.037472,0.061829,0.035301,0.018905,-0.041698,-0.28234,-0.018189,0.033667,0.084209,-0.92133,-0.811486,-0.007505,0.122479,-0.427079,-0.768712,-0.020254,-0.434074,-0.888847,-0.032125,-0.496309,0.060934,0.05359,0.109246,-0.126019,0.019363,-0.903968,-0.071781,0.052142,0.032149,-0.330495,-0.418591,-0.678792,-0.487758,-0.387246,0.04605,0.105551,-0.038678,0.008085,0.061432,-0.482064,-1.042261,-0.187134,-0.050474,-0.711428,0.066183,-0.272411,-1.121108,0.016531,-1.064431,-0.178851,-0.00546,0.152634,0.037242,0.662358,0.031917,0.032918,0.106867,0.005593,0.079353,1.815775,-0.02871,0.097414,-0.170285,0.015914,-0.056655,0.405302,0.024617,-0.035904,0.000086,0.052466,0.538032,0.066343,-0.005833,0.381378,1.046443,-0.021506,-0.02752,0.034034,1.198683,-0.082089,1.297855,0.933325,-0.069965,-0.059614,0.243,0.404889,-0.095418,-0.025915,0.071203,0.001714,-0.019408,0.466089,0.02552,-0.028431,0.026191,0.011916,-0.040451,0.189937,0.027856,0.44452,1.557382,0.020516,1.098703,0.092628,1.815699,0.018182,0.550361,0.021307,0.004834,0.043783,0.811603,0.147126,0.72721,0.014948,-0.082808,0.203789,0.939333,-0.100994,0.547298,-0.067841,0.300697,-0.006734,-0.072319,0.213165,0.892261,-0.071372,1.603834,0.027899,0.410808,0.009673,-0.000329,0.492151,-0.03873,0.202447,0.077593,0.047759,-0.016758,0.002349,0.370762,0.950951,0.14117,0.013154,-0.084656,1.194461,0.089534,-0.036177,-0.040467,0.403243,0.055282,0.028973,1.039421,-0.079523,0.026408,-0.055591,1.008067,0.401052,-0.096231,0.11351,-0.006784,0.105989,1.177895,0.470537,0.979597,0.940509,0.234875,0.047613,-0.014926,0.76021,0.050692,0.049046,-0.063759,-0.063662,0.191713,-0.075632,-0.115767,-0.065115,1.023905,0.034526,0.039042,0.715658,0.012583,0.493513,0.10495,0.090765,-0.049908,-0.010016,1.263087,0.320136,-0.106566,0.093814,0.469309,0.033526,0.260035,0.044375,0.250668,0.000506,0.14009,0.057665,0.002231,1.417801,0.10731,0.363272,-0.104129,-0.004626,-0.069764,-0.024814,-0.0242,1.193045,0.374797,-0.068956,-0.055461,-0.093656,-0.112271,1.429555,0.021929,0.023595,0.022736,0.120765,0.420907,0.965327,-0.091939,1.388995,-0.151234,0.03437,-0.008497,0.82784,-0.102583,-0.010633,0.161698,-0.030523,0.353966,0.901914,1.367058,1.275266,-0.052276,-0.037858,0.026132,0.106756,-0.033232,-0.039294,0.069687,-0.05982,-0.064829,0.42468,-0.074502,-0.05815,0.773197,0.541745,1.062826,-0.018104,-0.163623,-0.141746,-0.038839,-0.095717,0.069282,-0.003321,0.013935,0.193068,0.181634,0.156644,0.791619,-0.067554,-0.034021,-0.115995,0.00731,0.133994,0.779699,-0.052293,1.25233,-0.083831,0.028039,-0.071797,-0.049385,0.719671,0.105889,0.037734,0.004667,0.753669,0.046845,-0.113621,-0.031707,0.5033,0.228534,0.223779,0.688244,-0.020867,0.521129,-0.073234,-0.001882,-0.048212,0.571826,2.186895,0.015501,-0.049961,-0.030801,-0.007183,-0.022809,-0.047081,-0.060858,-0.085217,0.69462,0.830737,0.611491,0.128164,0.004379,-0.034956,0.020159,0.36556,0.621839,0.004661,-0.059649,0.873611,1.384985,-0.021762,-0.085577,0.003799,-0.052498,-0.02857,0.147115,-0.071903,1.329872,0.153161,0.955115,-0.051248,0.33086,-0.073565,0.064339,0.885425,0.312054,0.02736,0.035484,-0.034406,-0.039073,0.054771,0.575455,0.800975,-0.009074,0.244854,0.079144,-0.060997,-0.000176,-0.009059,0.395546,-0.041976,0.066731,-0.039055,-0.051109,0.065641,-0.074763,0.002709,0.166484,1
101_movies_2,6.643,17.29,-0.004608,-0.318315,0.061221,-1.291388,-0.108093,0.06555,-0.231972,-0.556509,0.107027,-0.789569,-0.013158,-0.886167,0.056742,-1.611026,0.051411,-0.531657,-0.646344,-0.106315,-1.118051,-0.018562,-0.245326,-1.868658,0.018149,0.033305,-0.513321,-1.66359,-0.044119,0.098949,-0.982588,0.115702,-0.004842,-1.208981,-0.683294,0.049414,0.002815,-1.117309,-1.157446,-0.962193,-1.068578,-0.659876,-0.028348,-0.017615,-1.124539,-0.805231,-1.2034,-1.012397,0.051437,-0.152598,0.055379,0.068522,-1.121714,0.090817,-0.066595,0.127503,-0.356504,-0.0371,-1.207085,-2.139151,0.039616,0.034118,-0.053141,0.029718,-0.463687,-0.873213,0.006915,0.069572,-2.795998,0.071074,-2.674361,-0.01196,-2.27389,-1.862919,0.137105,-0.016424,-1.929997,0.084235,-0.521502,-0.016098,-1.310477,-0.814703,0.033904,-0.11004,0.005109,-0.035169,0.05298,-0.75771,-0.071622,0.025776,0.006925,0.004645,-0.371456,-0.462432,0.061165,-0.158448,-2.398324,-1.227556,0.011846,-0.463216,0.052756,0.139923,-1.751237,-2.345333,-1.16948,0.032407,-0.021591,-0.905544,-0.069419,-2.686393,-0.005461,0.089369,0.07003,-0.012728,0.055116,0.139289,-1.342733,-1.203854,0.052856,-0.031077,-0.833317,-1.849521,-0.155979,0.013272,-1.862488,-1.445475,-1.898486,0.053854,0.004583,-0.725908,0.053912,-1.088643,-0.023479,-0.211721,-1.300532,-1.875165,-1.542531,0.118607,-0.012758,-2.155729,0.099625,0.079316,0.047701,0.001096,-0.731565,-0.062071,-0.379516,-0.384104,0.071201,-1.301868,0.147508,-1.311258,0.057044,-0.34331,-1.706761,-1.870571,-0.331956,-0.504615,0.040859,-0.018658,-1.629546,-0.071281,-0.441749,-1.934416,0.096018,-0.823903,-0.885615,-1.41922,-0.296744,-0.003259,0.041991,-1.507759,0.026204,-2.584667,-0.041639,-0.352431,0.036137,-2.654189,-1.071013,-0.267337,-0.314539,0.096526,0.084321,0.00482,0.048501,-0.662648,-1.151695,-0.034754,0.031046,-1.790575,-0.306526,-0.130521,-1.868455,-0.374133,0.006384,-0.765115,-0.776768,0.07297,0.047357,0.095243,-0.469443,-0.605706,-3.682755,-0.557454,-0.994239,-0.012547,-0.358756,-1.109522,-0.098326,0.071502,0.117574,-0.015799,-0.952562,-0.81751,-1.102337,-0.168557,0.055821,0.060687,-0.610202,0.074488,-0.788408,-0.165887,-0.003945,-0.855196,0.051757,-0.010658,-1.683848,0.045016,0.008975,-0.741296,-2.809936,-1.349276,-0.049688,0.038475,-0.049957,-0.019805,-1.880065,0.077671,-0.420468,-1.428252,-2.556557,0.057934,0.073387,-0.84022,-0.372754,-0.691204,-3.201832,-0.346947,-1.778497,-0.86033,-0.038141,0.051669,0.018087,0.073907,0.127002,0.056687,-1.096679,0.066436,-0.006639,0.002007,-1.979465,-1.290277,0.02318,0.121201,-1.047286,-1.367271,0.020262,-0.745479,-1.225982,-0.006639,-1.299153,0.027616,0.003854,0.03537,-0.005719,0.069698,-0.955085,-0.018359,0.048158,0.01602,-0.276104,-1.216298,-1.530185,-0.973655,-1.190639,0.019921,0.091731,0.018124,0.063306,0.00237,-1.086029,-1.811354,-0.445584,-0.001333,-0.762224,-0.092821,-0.708892,-2.366137,-0.016418,-2.122023,-0.229851,-0.016335,0.147091,0.028844,1.340966,-0.009102,-0.039825,0.425438,0.048233,-0.024033,3.514262,-0.043762,0.240635,0.019558,0.209009,-0.036645,0.635728,-0.091598,0.005661,-0.013785,-0.062321,1.256099,-0.060384,-0.007072,0.852355,1.856404,0.033362,-0.052593,-0.005732,2.859971,-0.015359,2.676244,1.322633,-0.018587,-0.057282,0.392426,0.701299,-0.01694,-0.04101,-0.023386,0.0155,0.035886,0.659368,0.364557,-0.087628,-0.004581,-0.05704,-0.010606,0.549438,-0.055709,1.243736,2.967231,-0.037543,2.563667,-0.05196,3.630214,-0.010357,0.99541,-0.019214,-0.012586,0.086324,1.318904,0.400009,1.241628,-0.057437,-0.065805,0.499202,1.607963,-0.121175,1.442538,-0.137506,0.854567,-0.047271,-0.05017,1.176177,1.692323,-0.053205,3.609161,-0.031789,1.042488,-0.042558,-0.028101,0.918754,-0.001449,0.670746,0.331963,0.084872,-0.004624,-0.006647,0.339117,1.723373,0.585525,-0.022958,0.000886,2.348179,0.001494,-0.005061,0.036585,0.891132,0.010235,0.42091,2.380644,0.01553,-0.099962,-0.055931,1.977871,0.862577,-0.080256,0.564873,-0.169236,0.15709,2.576695,1.468441,1.457333,1.985228,0.619243,-0.043222,-0.042526,1.833166,0.047848,-0.065548,0.004284,-0.0039,0.613291,-0.071473,-0.023157,-0.145908,1.752822,0.251712,-0.039742,1.757339,-0.005689,0.701592,0.038898,-0.07424,-0.022145,-0.025676,2.670836,0.415582,-0.063973,0.21637,0.590532,0.090757,0.214834,-0.037486,0.188027,0.023342,-0.00728,0.523512,-0.001866,2.737677,0.00084,1.278445,-0.017489,-0.095169,-0.115638,0.070947,-0.03279,2.122571,0.116502,-0.054671,0.040837,0.010647,-0.097131,3.152607,-0.06502,-0.021489,-0.056052,-0.057042,1.018014,1.332852,-0.034591,2.390299,-0.101456,0.297654,0.019638,1.675114,-0.148979,-0.054339,-0.018871,0.020994,0.906671,1.755574,2.946881,2.295803,-0.112026,0.004446,0.033339,0.213562,-0.057151,0.007922,-0.02298,-0.065637,-0.052756,1.47776,-0.041779,0.016618,1.623206,0.96628,2.026709,-0.060688,-0.006259,-0.058363,-0.064271,-0.001054,0.007625,0.032702,-0.033978,0.004824,0.41132,0.806342,1.58295,-0.023053,-0.161802,-0.06588,0.050373,0.622831,1.718427,0.035082,2.655244,-0.030884,0.028757,0.015449,-0.025186,1.33161,0.278556,-0.03863,0.233809,1.627854,-0.014298,-0.17179,-0.101738,1.004963,0.6832,0.246562,1.084253,-0.057559,1.499092,-0.002929,-0.030461,-0.08009,1.331533,4.580945,0.065693,0.01574,0.012927,-0.07891,-0.002718,-0.084392,-0.047663,-0.002496,1.33477,1.73488,1.18355,0.486551,0.256635,-0.009966,0.138663,0.628354,0.967162,-0.078718,-0.039594,2.110694,3.005657,-0.046155,0.008542,0.030192,-0.064194,0.066647,0.10685,-0.055712,2.925909,0.351518,1.770328,0.349226,0.63505,-0.015182,0.349905,1.442661,1.23346,-0.017105,0.020168,-0.085821,-0.121862,0.031929,1.346323,1.508169,0.04989,1.087174,0.003278,0.032391,-0.072334,-0.004275,1.250437,-0.014907,-0.069465,-0.019799,-0.063177,0.030727,-0.029187,0.019458,0.855813,1
101_movies_3,17.29,23.475,-0.005618,-0.056888,0.011079,-0.286244,-0.012974,0.101448,-0.276409,-0.180618,0.101667,-0.065611,0.023797,-0.481801,0.004423,-0.548025,0.020662,-0.093049,-0.447935,-0.038035,-0.002019,-0.004719,-0.032435,-0.60113,-0.015207,0.054239,-0.262699,-0.753774,-0.230643,0.050826,-0.496992,0.111836,0.086339,-0.533402,-0.263552,0.053185,-0.025662,-0.325468,-0.384421,-0.28884,0.028142,-0.306063,0.014731,0.104016,-0.298005,-0.23942,-0.235697,-0.251068,0.045142,-0.036805,0.073534,-0.013122,-0.192638,0.092557,0.01549,0.118528,-0.025089,-0.029368,-0.445708,-0.537365,-0.025003,0.027139,-0.047278,0.009869,-0.167838,-0.016182,-0.005055,0.018243,-0.872,0.030483,-0.811847,0.009607,-0.299836,-0.865255,0.018686,0.030629,-0.619365,0.206871,0.036538,-0.028246,-0.393234,-0.103069,-0.074562,-0.050344,0.01253,0.097319,-0.253129,-0.44842,-0.041631,0.03738,-0.009156,0.048195,-0.16439,0.021778,0.06972,-0.075123,-0.427984,-0.179898,0.022642,-0.337626,-0.014634,0.085516,-0.647698,-0.598528,-0.186654,0.044451,0.011455,-0.082914,-0.023428,-0.781272,-0.066673,0.128557,0.020365,0.117827,0.043437,0.009422,-0.275829,-0.327766,0.012614,-0.073847,0.079535,-0.551686,-0.270118,0.071044,-0.601971,-0.729728,-0.364243,0.055226,0.0332,-0.36996,-0.009809,-0.191433,-0.005288,-0.258181,-0.166148,-0.483563,-0.299238,0.109017,-0.020657,-0.822803,-0.027372,-0.058165,-0.38251,0.058422,-0.182089,0.004488,0.029296,-0.255119,0.017769,-0.490827,0.061489,0.008912,0.066082,-0.478532,-0.404939,-0.508215,-0.107754,0.007293,0.071658,-0.081574,-0.269365,0.079659,-0.003423,-0.852503,0.110464,-0.111885,-0.07977,-0.031878,-0.18299,0.042148,0.016354,-0.63478,-0.053073,-1.029474,0.084359,-0.244546,0.006333,-0.811373,-0.387167,-0.039863,-0.222101,0.029772,0.079795,0.039924,-0.04265,-0.604546,-0.256549,0.068574,-0.095247,-0.542782,-0.023872,-0.10228,-0.41064,-0.256122,-0.057909,-0.142965,-0.486311,0.021365,0.035417,0.070235,-0.045475,-0.706154,-1.04366,-0.135424,-0.221418,-0.01674,-0.133385,-0.26076,-0.003922,0.034449,0.007025,0.076401,-0.48366,-0.507645,-0.348904,-0.264731,-0.107138,-0.077406,-0.300404,0.100332,-0.40665,-0.231143,-0.08252,-0.136074,0.008528,-0.134491,-0.487875,-0.036745,0.097639,0.034647,-0.710669,-0.145319,0.037911,-0.144194,-0.00537,-0.009029,-0.547675,0.010558,-0.385153,-0.576184,-0.669371,0.04023,0.029984,-0.247472,-0.27344,-0.026812,-0.857842,-0.205736,-0.332258,-0.206818,-0.051194,0.053076,0.031575,0.048829,0.110492,0.04807,-0.654837,-0.042933,0.003615,0.018098,-0.329429,-0.311513,0.03298,0.057421,-0.614024,-0.325321,0.007134,-0.42877,-0.216041,-0.084741,-0.416241,0.067211,-0.002871,0.083503,0.010186,0.016113,-0.123335,0.091027,0.049535,0.079347,-0.042202,-0.290645,-0.594076,-0.531385,-0.443656,0.094988,0.063387,-0.247051,0.065573,0.018375,-0.144198,-0.622371,-0.162724,-0.024435,-0.150629,-0.0262,-0.394751,-0.524411,0.02003,-0.528977,0.085789,-0.037919,0.018396,0.010751,0.31467,-0.047969,0.022655,0.300531,-0.035809,-0.072874,1.089281,0.049982,0.318303,-0.060674,0.085961,-0.095938,0.07191,-0.006927,-0.108841,-0.012789,0.099421,0.352222,-0.027765,-0.045936,0.040089,0.418996,0.030445,-0.099017,-0.120531,0.878399,-0.098415,0.980063,0.261012,-0.06067,-0.075116,0.236505,0.039277,-0.002049,-0.033277,-0.011273,0.044832,0.002353,0.07293,0.314237,-0.00624,-0.012766,0.004532,0.0132,0.236563,0.000082,0.155254,0.599085,-0.001013,0.92081,0.021454,1.062327,0.153993,0.245322,-0.090776,-0.049947,0.123992,0.379049,-0.002883,0.413598,-0.053596,0.016551,0.078742,0.385658,-0.047919,0.41303,-0.099506,0.059148,0.066742,-0.164474,0.269173,0.414899,-0.038385,1.362574,0.180693,0.177859,0.011741,0.002435,-0.033274,0.045631,0.370628,0.283037,-0.051237,-0.076731,0.016448,0.403988,0.491481,0.167549,-0.048755,0.114511,0.984016,-0.004539,0.061879,0.039317,0.34101,-0.085432,0.090815,0.825265,-0.074992,-0.112813,-0.004558,0.667807,0.157928,-0.004571,0.136682,-0.075187,-0.058814,0.797742,0.34054,0.695249,0.448328,0.344392,0.023069,-0.047034,0.524318,-0.010355,0.148962,-0.061541,-0.060475,0.274501,-0.054475,-0.124253,-0.003092,0.689739,0.351822,-0.052146,0.305348,-0.034177,0.106439,-0.074653,0.023607,-0.040859,-0.012937,0.854118,0.099484,-0.10585,0.031025,0.052277,-0.044016,0.069423,-0.00501,0.161806,0.08395,-0.006209,0.183064,-0.038243,0.980045,0.038948,0.463322,-0.077009,-0.028893,-0.042427,0.012343,0.067669,0.49406,0.007783,0.004518,0.15679,0.076739,-0.137767,1.187699,-0.001476,0.024007,0.021366,-0.025145,0.416126,0.445642,-0.076618,0.499715,-0.173585,0.247035,-0.06747,0.50952,-0.150139,-0.027204,-0.001498,-0.073983,0.151062,0.675389,0.748947,0.547914,-0.083316,0.057021,0.177818,-0.044038,-0.006342,0.041608,0.027921,0.032496,-0.065125,0.241923,-0.056238,-0.002895,0.364695,0.382855,0.611578,0.032865,-0.094245,-0.098922,-0.013371,0.030314,0.076844,0.006802,0.011489,0.086217,0.257347,0.084802,0.45824,-0.054392,-0.059283,-0.075169,-0.076197,-0.050569,0.075463,-0.049973,0.855785,-0.096188,-0.037428,0.059204,-0.000889,0.214937,-0.074283,-0.052116,0.007838,0.612563,0.036553,-0.064869,0.022756,0.295813,-0.022864,0.033963,0.112045,-0.055823,0.289413,-0.041769,-0.023866,-0.092254,0.452951,1.125998,0.033509,-0.00832,0.013117,-0.054359,-0.041259,-0.03559,0.01645,0.001358,0.62914,0.546811,0.16595,0.368857,0.069112,-0.103034,0.003071,0.141204,0.372903,-0.052499,0.036281,0.757579,1.10414,-0.064602,-0.022393,0.052633,-0.052751,-0.069139,-0.020414,-0.009088,0.881469,0.019159,0.947849,0.095437,0.245995,-0.029737,0.109212,0.364325,0.514581,0.019435,-0.021073,-0.061176,-0.115206,0.006564,0.516779,0.601568,-0.041394,0.3763,0.195985,0.012108,-0.075414,-0.024979,0.113955,0.026995,-0.021854,-0.085427,-0.056642,0.029536,-0.015969,0.216938,0.055534,1
101_movies_4,23.475,26.714,0.018396,-0.009502,0.011079,-0.368054,-0.007924,0.101448,-0.035809,-0.072874,0.101667,0.018541,-0.002418,-0.185781,0.004423,-0.494952,0.020662,-0.066268,-0.528598,-0.096339,-0.166101,-0.004719,-0.032435,-0.428634,-0.015207,0.054239,-0.058546,-0.576912,-0.120531,0.050826,-0.544029,0.111836,0.086339,-0.358174,-0.156178,0.053185,-0.025662,-0.407135,-0.389178,-0.196992,-0.180614,-0.087622,0.014731,0.104016,-0.162354,-0.173723,-0.072946,-0.254771,0.045142,0.000082,0.073534,-0.013122,-0.19752,0.092557,-0.024423,0.118528,-0.025089,-0.029368,-0.573937,-0.700018,-0.034734,0.027139,-0.002883,0.009869,-0.121624,-0.142863,-0.005055,0.018243,-0.771767,0.030483,-0.636899,0.009607,-0.48621,-0.258523,0.018686,0.030629,-0.468043,0.206871,0.036538,-0.028246,-0.239718,-0.217788,-0.033274,-0.136133,0.01253,0.097319,-0.051237,-0.216084,-0.120645,0.03738,-0.009156,0.048195,-0.152256,-0.158679,0.06972,-0.089203,-0.503972,-0.118652,0.022642,-0.315007,-0.014634,0.085516,-0.555317,-0.751079,-0.070644,0.044451,0.011455,-0.127724,-0.023428,-0.545389,-0.15681,0.128557,0.020365,0.117827,0.043437,0.009422,-0.252657,-0.323724,0.012614,-0.013912,-0.132835,-0.431228,-0.371693,0.071044,-0.314519,-0.502104,-0.496359,0.055226,0.0332,-0.362796,-0.009809,-0.35259,-0.0192,-0.18117,-0.182985,-0.561805,-0.441526,0.109017,-0.020657,-0.540669,-0.027372,-0.136624,-0.044016,0.069423,-0.104855,0.004488,-0.185539,-0.085174,0.017769,-0.183813,0.061489,-0.214279,0.066082,-0.334952,-0.337345,-0.577958,0.012343,-0.082841,0.071658,-0.093961,-0.297236,-0.060202,-0.003423,-0.571688,0.110464,-0.146178,-0.289297,-0.189481,-0.210015,0.042148,0.016354,-0.506495,-0.053073,-0.485345,0.084359,-0.20734,0.006333,-0.725618,-0.222524,-0.043059,-0.189077,0.029772,0.079795,0.039924,-0.04265,-0.261517,-0.289374,0.068574,-0.158435,-0.594631,-0.127482,0.027921,-0.391995,-0.078029,-0.057909,-0.224401,-0.177575,0.021365,0.035417,0.070235,-0.109817,-0.261324,-0.874057,-0.101356,-0.068157,-0.027823,0.00419,-0.034264,-0.093482,0.034449,0.007025,0.076401,-0.271632,-0.32289,-0.309172,-0.118029,-0.050569,-0.077406,-0.049973,0.100332,-0.209508,-0.227715,0.054492,-0.365298,0.008528,-0.304357,-0.63303,-0.018055,0.097639,-0.223522,-0.856825,-0.305504,0.037911,-0.117641,-0.00537,-0.009029,-0.387172,0.010558,-0.258107,-0.451314,-0.667746,0.04023,0.029984,-0.088226,-0.00832,-0.425429,-0.754774,-0.041259,-0.397237,-0.195182,-0.030602,0.053076,0.031575,0.048829,0.110492,-0.095599,-0.360361,0.003071,0.003615,0.018098,-0.381877,-0.085051,0.03298,0.057421,-0.602612,-0.450904,-0.109408,-0.052751,-0.311419,-0.211491,-0.307046,0.067211,-0.002871,0.083503,0.010186,-0.075475,-0.361079,0.091027,0.049535,0.079347,-0.228075,-0.267935,-0.554059,-0.399685,0.006564,0.094988,0.063387,-0.172095,0.065573,0.018375,-0.324552,-0.620652,-0.384643,-0.024435,-0.234198,-0.021854,-0.218438,-0.691205,0.02003,-0.550275,-0.068048,-0.037919,0.078922,0.010751,0.112637,-0.047969,0.022655,0.104115,0.048489,0.061539,1.035033,0.049982,0.023797,-0.060674,0.078311,-0.095938,0.079513,-0.006927,-0.108841,-0.012789,0.099421,0.296732,-0.029411,-0.045936,0.252964,0.562435,0.030445,-0.099017,0.030222,0.556663,-0.098415,0.646641,0.335529,-0.06067,-0.075116,0.179157,0.011691,-0.002049,-0.033277,-0.011273,0.028142,0.002353,0.223222,0.388509,-0.00624,-0.012766,0.004532,0.0132,0.223457,0.114031,0.237512,0.660027,-0.001013,0.572103,0.021454,1.004945,-0.016119,0.188889,-0.090776,-0.049947,-0.025003,0.135665,0.003265,0.366801,-0.053596,0.016551,0.0653,0.264917,-0.047919,0.464904,-0.099506,0.16295,0.066742,-0.164474,0.172514,0.548594,-0.038385,1.043689,0.113029,0.283122,0.011741,0.002435,0.081706,-0.050344,0.242779,0.119537,-0.013715,-0.076731,-0.041631,0.145718,0.536109,0.311881,-0.048755,0.021778,0.71786,-0.004539,0.061879,0.039317,0.441897,-0.085432,0.119187,0.572732,-0.074992,-0.112813,-0.004558,0.303098,0.163245,-0.004571,0.145649,-0.075187,-0.058814,0.598228,0.465228,0.486653,0.684374,0.215895,0.023069,-0.047034,0.337999,-0.010355,0.079535,-0.061541,-0.060475,0.094912,-0.054475,-0.124253,-0.003092,0.298575,0.147745,-0.052146,0.531846,-0.034177,-0.005288,-0.074653,0.023607,-0.040859,-0.012937,0.660672,0.109822,-0.10585,0.098851,-0.058165,0.003066,0.132243,-0.00501,0.082343,0.029296,-0.006209,0.173607,-0.038243,0.836875,0.038948,0.276371,-0.077009,-0.028893,-0.042427,0.073681,0.007293,0.429014,0.007783,0.004518,0.079659,0.084924,-0.137767,0.799726,-0.001476,0.024007,0.021366,-0.025145,0.141492,0.585444,-0.076618,0.560893,-0.173585,0.117451,-0.06747,0.310752,-0.150139,-0.027204,-0.039863,-0.073983,0.203237,0.374817,0.679082,0.334918,-0.083316,0.057021,0.113608,-0.044038,-0.006342,-0.023872,0.068835,0.032496,-0.065125,0.362875,-0.056238,-0.002895,0.534759,0.08032,0.549125,0.032865,-0.094245,-0.098922,-0.013371,0.030314,-0.01674,0.006802,0.011489,-0.003922,0.179972,0.249292,0.441492,-0.054392,-0.059283,-0.075169,-0.076197,0.018191,0.388527,-0.045257,0.65749,-0.096188,-0.037428,0.059204,-0.000889,0.059422,-0.134491,-0.052116,0.007838,0.519213,0.034647,-0.064869,0.022756,0.406986,-0.022864,0.239392,0.188911,-0.055823,0.587764,-0.041769,-0.023866,-0.092254,0.263373,0.978165,0.033509,0.152705,0.013117,-0.054359,-0.035254,-0.03559,0.01645,0.001358,0.489477,0.495794,0.242784,0.273382,0.04807,-0.103034,0.021773,0.19587,0.399861,-0.052499,0.036281,0.586483,0.991406,-0.064602,-0.022393,0.052633,0.115361,-0.069139,-0.020414,-0.009088,0.92177,0.198724,0.367873,0.320454,0.016113,-0.029737,0.139913,0.375364,0.570753,0.019435,-0.021073,-0.061176,-0.115206,0.058122,0.391237,0.285715,-0.041394,0.270788,0.131128,0.012108,-0.075414,-0.024979,0.134182,0.026995,0.131351,-0.085427,-0.056642,0.042313,-0.015969,0.085789,0.246479,1
101_movies_5,26.714,33.367,0.070131,-0.453366,0.085174,-0.517152,0.019738,0.018396,-0.106498,0.006938,0.077924,-0.732311,-0.020443,-0.017608,0.002975,-0.510511,-0.037604,-0.275341,-0.197735,-0.154375,-0.370825,-0.003168,0.127508,-0.689508,-0.069518,0.101736,-0.441129,-0.672057,-0.068002,0.022847,0.016459,0.098135,0.017613,-0.560109,-0.090863,-0.185826,0.019384,-0.353551,-0.383812,-0.178416,-0.544655,-0.002149,0.044326,0.076084,-0.144582,-0.186357,-0.764924,-0.25364,-0.037918,-0.360852,-0.009235,0.075755,-0.208705,0.037308,-0.427531,0.058705,-0.084371,0.023473,-0.239692,-1.109714,0.09146,0.021077,-0.098794,0.037261,-0.532505,-0.130659,-0.038457,0.037095,-0.798504,0.048688,-1.066432,0.036657,-0.871294,-0.574407,0.035133,0.080496,-1.075997,0.076624,-0.154537,0.018437,-0.601428,-0.006661,-0.067007,-0.042737,0.06752,-0.010138,-0.05121,-0.442342,0.064601,-0.033745,0.065254,0.046692,0.013713,-0.342756,0.172117,0.032163,-0.66411,-0.408763,0.01332,0.025647,-0.044974,0.112178,-0.676804,-0.84234,-0.193951,0.077883,0.010338,-0.561465,-0.036151,-1.1366,0.026912,0.061506,0.006915,0.1859,0.04114,0.084504,-0.170907,-0.734152,0.069384,-0.052164,-0.290851,-0.817826,-0.07464,0.039262,-0.722459,-0.393872,-0.881228,0.044233,-0.011785,-0.453468,-0.038795,-0.055466,0.089247,0.013844,-0.425266,-0.745348,-0.489606,0.091984,-0.014574,-1.252992,0.05593,-0.036937,-0.089033,-0.299574,-0.10893,-0.037018,-0.228655,-0.028174,-0.009797,-0.464798,0.031805,-0.448447,0.035781,-0.301728,-0.907141,-0.912509,-0.160997,-0.552588,0.108019,-0.069063,-0.557423,-0.186558,-0.038436,-0.842325,0.05566,0.030868,0.000402,-0.467761,0.014833,0.015264,0.020536,-0.811687,0.008998,-1.648868,0.08208,0.014404,0.079174,-1.281878,-0.338285,-0.243734,-0.189991,0.057825,0.096099,0.015416,0.015248,-0.77372,-0.393256,-0.18823,-0.255566,-1.072228,0.060293,-0.10254,-0.850253,-0.014468,-0.033471,-0.718813,-0.281608,-0.068551,0.024177,-0.020779,-0.162488,-0.613423,-1.33537,-0.310172,-0.319169,-0.203274,-0.031659,-0.347367,0.036929,0.033959,-0.039132,0.036784,-0.680313,-0.653754,-0.49744,-0.034676,-0.014206,0.020027,-0.123583,0.04372,-0.275952,0.003542,-0.242368,-0.081505,0.017971,-0.00182,-0.829208,-0.021444,0.094541,-0.069955,-1.199469,-0.782572,0.059791,-0.069821,0.006578,-0.022945,-1.013699,0.012245,-0.184143,-0.563848,-0.984584,-0.012369,0.001002,-0.273372,-0.58177,-0.459548,-1.283432,-0.190198,-0.983626,-0.737668,-0.059932,0.042605,0.065599,-0.030844,0.017264,0.019688,-0.555385,0.019724,0.092824,0.028362,-0.871971,-0.790242,0.020966,0.148208,0.069467,-0.569903,-0.075243,-0.410349,-0.393994,0.014306,-0.354003,0.099774,-0.088675,0.095813,0.028957,-0.056606,-0.15504,-0.018873,0.110217,0.034179,0.052832,-0.427493,-0.815787,-0.379276,-0.339416,0.037666,0.115442,0.057274,-0.015254,0.018049,-0.384649,-0.922846,-0.459796,0.004708,-0.264185,-0.311877,-0.488884,-1.169564,-0.004455,-1.146093,0.043673,-0.041859,0.208779,-0.019086,0.435007,0.011705,0.169982,0.377044,-0.041333,0.077902,1.615735,-0.04673,-0.018026,-0.000571,0.327061,-0.00281,0.264503,-0.04466,-0.060238,-0.003949,0.054235,0.41709,0.343662,-0.068913,0.128713,1.013464,-0.053518,-0.092352,-0.054512,1.03914,0.071262,1.303581,0.561516,0.03603,0.08435,-0.043218,0.281007,-0.007622,-0.008353,-0.024464,-0.062581,0.064658,0.38062,0.300783,0.066087,-0.009632,-0.00193,-0.00155,0.101829,-0.002132,0.28649,1.128634,-0.019009,0.883813,-0.121331,1.590003,0.033872,0.36517,-0.06837,-0.07048,0.812063,0.521455,-0.026691,0.65876,-0.043234,0.043384,0.469604,0.520141,0.03008,0.585333,-0.075644,0.247501,-0.060262,-0.061938,0.559057,0.400134,-0.12439,1.19346,-0.028384,0.211532,-0.115223,0.036444,0.20237,0.035009,0.422196,0.0745,0.154833,-0.027765,0.079988,0.166229,0.795406,0.242052,0.141686,-0.002631,1.22468,0.063488,-0.011115,0.012739,0.490996,0.107443,0.076368,1.302518,-0.140362,0.000303,-0.035269,1.031065,0.636384,0.039248,-0.029144,-0.091037,0.061787,1.187673,0.604766,0.997932,0.666851,0.51196,0.002524,-0.076591,0.955377,0.154238,0.050334,-0.013968,-0.009055,0.317199,-0.017584,-0.065274,-0.065825,0.908187,0.058821,-0.074872,0.53618,0.023922,0.471324,0.092051,-0.013119,-0.088935,-0.034848,0.964669,0.16823,-0.078497,0.635377,0.144946,0.172803,-0.004206,-0.008551,0.014029,-0.051713,0.016724,0.08466,-0.102044,1.12808,-0.049773,0.472102,-0.073283,-0.107533,-0.078441,0.050487,-0.063028,0.941966,-0.011838,-0.002663,-0.066477,0.015397,-0.101804,0.927649,0.062539,0.026585,0.090733,0.053623,0.495601,0.532604,-0.035312,1.499901,-0.126815,0.10892,0.043282,0.766683,-0.042832,-0.038157,-0.038656,0.009656,0.578137,1.325191,1.0447,0.576996,-0.115646,-0.019792,0.022478,-0.074775,-0.045331,0.064028,0.013876,-0.064484,0.085998,0.339547,-0.086606,-0.017065,0.771944,0.30182,0.911105,0.025038,-0.071394,-0.011523,-0.042562,0.036319,-0.017365,0.005866,0.011752,0.403991,0.266069,0.562606,0.407965,-0.01472,-0.02386,0.015777,0.017347,0.289113,0.962698,-0.078741,0.744627,-0.02746,0.213057,-0.033019,0.050046,0.803836,0.064136,-0.017359,0.241552,0.728985,0.017999,0.014939,-0.041179,0.386888,0.170101,0.041822,0.443043,-0.060529,0.769782,-0.076813,-0.051491,-0.064836,0.33397,1.760196,-0.025345,-0.12681,-0.095433,-0.101605,-0.004598,-0.133449,-0.045845,0.060735,0.798972,0.863694,0.108278,0.573281,0.389957,-0.026237,0.171816,0.292137,0.428141,-0.104882,-0.068536,0.662613,1.616483,0.339749,-0.025525,-0.072103,-0.030227,-0.002239,0.174024,0.029114,0.921966,-0.028935,0.962352,0.150105,0.184136,0.013595,-0.018243,0.858137,0.245028,0.084742,-0.018506,-0.032073,0.005267,-0.04941,0.411481,1.054064,0.079139,0.171353,0.200452,-0.06137,0.023206,-0.11092,0.320681,-0.033843,-0.075135,-0.120878,-0.087703,0.36037,-0.140697,0.258718,0.061451,1
102_books_1,0,4.956,-0.111091,-0.174327,0.061867,-0.168682,-0.005957,0.031409,-0.050299,-0.186648,0.151103,-0.047987,-0.065501,-0.02139,0.045845,-0.369644,0.039334,-0.029077,-0.084069,0.005154,0.002399,0.039476,-0.063586,-0.310444,-0.03268,0.010193,-0.163558,-0.170529,0.053892,0.040141,-0.187101,0.052399,0.018608,-0.407453,-0.179229,0.057864,-0.078475,-0.0149,-0.268647,-0.042076,-0.232892,-0.071273,0.027275,-0.050573,-0.287713,-0.087364,-0.149325,-0.087762,-0.006023,-0.035774,0.068748,0.039145,-0.188148,0.041879,-0.126752,0.095341,-0.012739,-0.001705,-0.188087,-0.193271,-0.031791,0.060199,-0.074834,0.059488,-0.00418,-0.218338,-0.08539,0.041644,-0.332755,0.086306,-0.368787,-0.064296,-0.251496,-0.298723,0.041464,0.022899,-0.512186,0.051755,0.004271,0.000737,-0.233717,-0.163118,-0.045716,0.031756,0.05673,-0.002922,-0.088919,-0.227354,0.026998,-0.05435,0.015172,0.038507,-0.113782,0.041152,0.017918,-0.080541,-0.140041,-0.266519,0.045753,-0.114622,0.062376,0.056159,-0.199529,-0.306491,-0.271394,0.099241,0.058181,-0.20821,-0.03789,-0.167668,-0.114694,0.032999,0.108232,0.001456,-0.044657,0.021065,-0.129767,-0.307835,0.087397,-0.017634,-0.074864,-0.430037,-0.067864,-0.036611,-0.399547,-0.363932,-0.215292,0.00284,-0.004956,-0.219979,0.039282,-0.127789,0.06835,0.078494,-0.224911,-0.29053,-0.195306,0.043564,0.022463,-0.231001,-0.050915,-0.039942,-0.252222,-0.105963,-0.129509,-0.13091,-0.071386,-0.130882,0.030352,-0.270335,0.052608,-0.208743,0.054236,0.038974,-0.21281,-0.182642,-0.054466,-0.047889,0.059159,-0.038347,-0.183372,-0.067137,-0.197563,-0.18241,0.112417,-0.091088,0.042382,0.056653,-0.016934,-0.006549,0.058622,-0.080141,0.136546,-0.440731,-0.021011,-0.231171,0.013837,-0.384913,-0.249265,-0.107969,-0.029488,0.095301,0.035812,0.078058,0.078509,-0.057983,-0.06443,0.017821,-0.011166,-0.283081,-0.103287,-0.09486,-0.286191,-0.001764,0.066945,-0.280946,-0.259313,0.10342,-0.026585,0.066665,0.023265,-0.274477,-0.522971,0.010314,-0.1728,-0.010514,-0.272879,-0.096139,-0.204128,-0.03124,-0.007425,0.121889,-0.001435,-0.255016,-0.227427,0.043951,-0.142793,0.07147,-0.159315,0.100551,-0.263086,0.082797,-0.004083,-0.063326,0.055296,0.038184,-0.337215,0.01783,0.046598,-0.227653,-0.403199,-0.155551,-0.012546,-0.005921,0.001957,0.098891,-0.323527,0.085782,-0.0731,-0.205344,-0.4154,0.052346,0.146943,-0.276362,-0.068606,-0.072018,-0.504719,-0.164721,-0.273585,-0.197777,-0.06498,0.056943,0.080161,0.038735,0.055476,-0.023171,-0.061706,-0.076114,0.039769,-0.075355,-0.46247,-0.065069,0.029075,0.029289,0.001732,-0.040982,-0.181433,-0.332457,0.039734,0.0139,-0.182598,0.03129,-0.015537,0.026309,-0.235113,0.015795,-0.315305,0.009772,0.017129,0.007851,-0.024184,-0.146013,-0.119811,-0.03871,-0.174497,-0.004996,0.076148,-0.116445,0.029846,-0.000951,-0.032178,-0.308871,-0.046462,0.118325,-0.215173,-0.082544,-0.055366,-0.321376,-0.111172,-0.324846,-0.025353,0.061029,-0.019094,-0.054838,0.298701,-0.032082,0.274707,0.057351,0.0285,-0.043159,0.564638,0.004309,-0.054334,0.019325,0.128051,-0.052837,0.226681,-0.026543,-0.03561,0.008718,0.007917,0.229567,0.019797,-0.041226,0.022597,0.088539,-0.047592,0.006095,0.068421,0.33104,0.071777,0.410977,0.137491,-0.104608,-0.06575,0.166723,0.026319,0.040229,-0.030556,-0.020601,-0.048309,0.018427,0.068419,-0.011767,-0.054502,-0.074528,-0.051803,0.05633,0.028154,-0.003563,0.31962,0.473242,-0.043258,0.324085,0.057915,0.528796,0.018489,0.128145,-0.028376,-0.071598,0.083582,0.212461,0.007671,0.323969,0.011672,-0.009021,0.029272,0.205975,-0.096565,0.245372,-0.086528,-0.047175,-0.090746,0.05031,0.111729,0.204409,-0.048404,0.42397,0.018348,0.017362,-0.072073,0.000742,0.045431,0.085771,0.073082,0.034721,-0.029613,-0.064712,0.031082,0.000577,0.114624,0.084954,0.005052,0.076475,0.398925,0.000021,-0.081912,-0.03222,0.144924,-0.001662,0.10763,0.416536,0.031969,-0.061976,-0.125508,0.123919,0.072667,-0.111275,-0.004674,-0.098337,0.009009,0.3446,0.383198,0.258983,-0.019507,0.153872,-0.070871,-0.067959,0.297334,0.012294,-0.071713,-0.068235,0.02191,0.055581,-0.056015,0.002406,-0.000682,0.296993,0.104979,0.051061,0.202983,-0.004243,0.207396,0.099038,-0.111187,0.001789,-0.050798,0.344012,0.116534,-0.079984,0.083845,0.030119,-0.00267,0.092213,-0.045711,-0.070839,0.052462,0.01853,0.142291,-0.022617,0.286973,-0.076264,0.266901,0.123857,-0.065505,-0.016966,0.001526,0.064653,0.447468,0.118481,-0.046825,0.030789,0.054917,-0.048225,0.254531,-0.0593,0.064959,0.061968,0.273705,0.262397,0.288768,-0.070197,0.41749,-0.029121,0.038559,0.032252,0.098145,-0.144404,-0.032138,0.016345,0.003643,0.16021,0.181314,0.331005,0.403895,0.010083,-0.038933,0.054242,0.012711,-0.035441,-0.045516,-0.031174,-0.020619,0.071923,0.18098,-0.024285,0.008731,0.106723,0.152748,0.086919,0.077065,0.087532,-0.169808,0.035746,-0.009849,0.068692,-0.061712,-0.089349,0.056519,0.031146,0.12054,0.247088,0.015383,-0.050902,-0.057896,0.128127,0.011844,0.296133,-0.034592,0.485647,0.028934,0.101995,0.143417,-0.034184,0.057935,0.049082,-0.086728,0.055341,0.165373,-0.037046,-0.07892,-0.088477,0.15332,0.063808,0.049521,0.222627,-0.114209,0.324043,0.031362,0.005591,-0.011783,0.423662,0.589702,-0.034617,-0.000501,0.045592,-0.0765,-0.018684,-0.048509,-0.055089,0.008249,0.299373,0.30469,0.133258,0.105336,0.147132,0.018044,0.053952,0.099904,0.004626,-0.057135,-0.057441,0.44502,0.188196,0.070018,-0.017677,-0.019653,-0.000673,0.052067,0.025087,-0.015553,0.334794,0.138074,0.170936,0.040171,0.252886,-0.004143,0.0338,0.069649,0.120599,-0.005218,-0.079634,-0.091227,0.027483,-0.015121,0.288599,0.21672,-0.001744,0.078986,0.058055,-0.009838,-0.14594,-0.009878,0.249981,0.003628,0.007972,-0.026749,-0.075919,-0.043725,-0.132087,-0.024071,0.144324,1
102_books_2,4.956,7.954,-0.022313,0.022251,0.036704,-0.314796,-0.052861,0.024058,-0.090215,-0.007291,0.156215,-0.372627,0.039763,-0.003066,0.038801,-0.335502,-0.041667,-0.242281,-0.253995,0.003714,-0.427654,-0.025042,-0.051972,-0.348954,0.042268,0.105376,-0.270532,-0.356001,-0.067933,0.102281,-0.16359,0.088647,0.088293,-0.325836,-0.09814,-0.131242,0.018365,-0.458433,-0.011589,-0.285768,-0.490206,-0.069563,0.009673,0.012709,-0.082492,-0.301542,-0.057307,-0.379249,-0.020654,-0.225789,-0.049902,0.131913,-0.26182,0.130602,0.014101,0.057181,0.004791,0.058847,-0.606977,-0.666863,0.017364,0.088293,-0.1798,0.01953,-0.398019,0.018164,-0.012144,0.08824,-0.721942,0.037769,-0.493337,0.079613,-0.750493,-0.223066,0.068153,0.041149,-0.745539,0.057758,-0.09915,0.058813,-0.292285,-0.216519,-0.148608,-0.010713,0.054048,0.016489,0.052541,-0.389387,-0.035579,0.035734,0.079074,0.027151,-0.086706,-0.261741,0.027742,-0.050491,-0.653978,0.000054,0.023742,-0.049735,-0.016263,0.074132,-0.411695,-0.600052,-0.254236,0.113395,0.032837,-0.294599,0.004269,-0.700619,-0.027753,0.051681,0.044063,0.054768,0.067986,0.032836,-0.189631,-0.475073,0.028622,0.029793,-0.057763,-0.387718,0.001806,-0.043905,-0.452812,-0.565503,-0.655448,0.014539,-0.004542,0.047801,0.049999,-0.21696,0.038886,0.02266,-0.380551,-0.291261,-0.355655,0.072058,0.029095,-0.799262,-0.055516,0.025744,-0.236036,-0.172149,-0.053493,0.018754,-0.540828,-0.001577,0.02019,-0.104052,0.138597,-0.526863,-0.016681,-0.109986,-0.744401,-0.348833,-0.008305,-0.175234,0.043651,0.012303,-0.548814,-0.196239,0.055642,-0.491232,0.100529,-0.252205,-0.126598,-0.160774,-0.043245,0.047509,0.040789,-0.445219,0.10728,-0.248841,0.049304,0.028526,0.040193,-0.721594,-0.166482,-0.132011,-0.088427,0.006951,0.037162,0.053592,0.07135,0.00472,-0.385319,-0.000354,-0.013615,-0.723123,0.026182,-0.34862,-0.401161,-0.097426,0.071907,-0.147318,-0.11808,0.142758,0.008447,0.09943,-0.192518,-0.030846,-0.933873,-0.214436,-0.072345,-0.098782,-0.126356,-0.248667,0.027978,-0.026681,0.034578,0.036537,-0.213188,-0.143907,-0.420387,-0.028922,0.007286,0.100824,-0.212196,0.057108,0.014527,-0.067945,0.008445,-0.110087,0.119097,0.036694,-0.633989,0.02483,0.049018,-0.266844,-0.583732,-0.177688,0.038456,0.074046,-0.046579,0.143879,-0.543349,0.02763,-0.164412,-0.096282,-0.541396,0.036794,0.196606,-0.300526,-0.170882,-0.17,-0.956251,-0.140838,-0.481624,-0.433778,-0.406209,0.084204,0.018636,0.107546,-0.044642,0.01731,-0.033237,-0.275057,0.006861,0.067795,-0.542002,-0.603838,0.034113,0.054558,-0.212606,-0.406469,-0.458719,-0.014766,-0.419838,0.000936,-0.265919,0.135641,-0.190599,0.037263,0.065312,0.00873,0.007405,0.044418,0.038109,-0.022185,-0.062233,-0.064789,-0.292997,-0.092272,-0.237276,-0.011621,0.034758,0.013643,0.077853,-0.000177,-0.485433,-0.440158,-0.306812,0.067658,-0.297487,-0.034123,-0.054543,-0.516483,-0.016425,-0.575589,-0.263766,0.033452,0.139445,0.055227,0.297623,-0.09654,0.046761,0.163883,0.011043,0.002622,0.803991,-0.042965,0.252096,0.00486,0.166814,-0.053368,0.240848,-0.030635,-0.007328,0.109854,-0.114164,0.423646,0.094694,-0.05542,0.089816,0.853038,-0.060363,-0.019926,-0.001696,0.566202,0.040454,0.405953,0.298513,-0.019142,0.003859,-0.02758,0.336247,-0.088503,0.005481,-0.052447,-0.008289,-0.020715,0.212644,0.077952,0.094081,-0.04001,0.049929,-0.087804,0.136102,0.018062,0.034962,0.57669,-0.033211,0.641796,0.291641,0.780084,0.005193,0.273754,-0.062297,-0.131932,0.259554,0.266008,0.053714,0.262991,-0.121452,0.12433,0.060706,0.180031,-0.059637,0.375442,-0.052032,0.244955,-0.133862,-0.006583,0.312846,0.377813,-0.059254,0.801997,0.010501,0.361542,-0.026589,-0.078938,0.032387,0.118815,0.361675,0.15383,0.350911,0.019058,0.059951,0.173598,0.543067,0.170457,-0.034716,-0.04174,0.57483,0.038502,-0.13179,0.238689,0.100024,-0.015529,0.200446,0.690594,-0.034666,-0.074852,0.005035,0.290597,0.138727,0.004166,0.137499,-0.135889,0.06236,0.493254,0.413864,0.353962,0.43516,0.176598,-0.095447,-0.072281,0.465312,0.245952,0.060913,-0.034192,0.003925,0.034925,-0.044698,0.007713,-0.0476,0.455575,0.293626,0.066379,0.665777,-0.044603,0.127433,0.056912,-0.0535,-0.06219,-0.085413,0.598533,0.029248,-0.031418,0.381964,0.228748,0.060207,-0.014266,-0.022034,0.278089,-0.01596,0.102982,0.308945,-0.069271,0.668307,-0.10196,0.043598,0.005266,-0.075013,-0.063113,0.049575,-0.053393,0.403447,0.154234,-0.034139,0.0242,0.134941,-0.030245,0.864765,-0.017504,-0.060918,-0.100398,-0.02118,0.336854,0.422129,-0.048056,0.736591,-0.079895,0.05557,0.180513,0.329412,-0.09732,-0.000557,0.004501,-0.000329,0.23134,0.441616,0.816707,0.452804,0.025196,-0.031765,0.177023,0.053443,-0.080432,0.050692,-0.030302,-0.028832,-0.002504,0.370593,-0.027518,0.008791,0.502744,0.154348,0.306464,-0.051668,0.107455,-0.098141,-0.060972,-0.013618,-0.041751,0.039856,-0.068698,0.231895,0.318279,0.219088,0.312336,-0.019795,0.007946,0.014677,-0.017082,0.026407,0.375379,0.024597,0.542787,0.026002,0.004507,0.030445,-0.070869,0.434741,0.165411,0.01746,0.139152,0.422414,-0.042634,-0.07551,-0.044751,0.100786,0.186818,0.058668,0.31419,-0.062126,0.440479,0.07242,-0.044438,-0.066515,0.20276,1.19783,0.001752,0.048581,0.016231,-0.133789,0.010679,-0.072775,-0.007094,-0.010939,0.463989,0.559386,0.124731,0.433139,0.183002,-0.013498,0.008038,0.147435,0.47601,-0.064582,-0.110481,0.600215,0.969149,-0.020856,-0.100647,0.049993,0.001914,-0.059515,0.010465,0.000765,0.640919,-0.019326,0.327577,0.336043,0.14543,0.129098,0.062885,0.102797,0.161676,-0.045651,-0.030951,-0.11947,0.002855,-0.037815,0.190762,0.535488,0.026737,0.190635,0.077588,-0.009866,-0.037531,0.018481,0.342708,0.005637,0.100437,0.003338,-0.062329,-0.016266,-0.087151,-0.020682,0.08115,1
102_books_3,7.954,13.305,-0.436891,-0.613167,0.019949,-0.187183,-0.107632,-0.164811,-0.215687,-0.497462,0.163694,-0.093885,0.014738,0.027134,-0.187794,-0.776863,-0.044987,-0.040898,-0.150809,0.034196,-0.111512,0.008537,-0.068091,-0.672981,0.0353,0.149385,-0.48982,-0.666035,-0.077937,0.069596,-0.598691,0.057652,0.069954,-0.421379,-0.041784,0.028623,0.026759,-0.273119,-0.636854,-0.230822,-0.080235,-0.281808,0.034858,-0.237971,-0.618108,-0.048748,-0.377891,-0.323933,-0.033501,-0.437472,0.003043,0.110712,-0.271954,0.111082,0.035244,0.114207,0.010195,0.051511,-0.166902,-0.968914,0.044873,0.052011,-0.098348,0.049054,-0.127085,-0.287651,0.032848,0.040825,-0.719575,0.059801,-0.802105,-0.249087,-0.598261,-0.475291,0.083288,-0.010136,-0.715754,0.051757,0.046664,0.018102,-0.328477,-0.17531,-0.247734,-0.016552,0.082858,0.009068,0.054575,-0.664892,-0.023376,0.023069,0.088513,0.018504,-0.039503,-0.03298,-0.002139,-0.271397,-0.407842,-0.349315,0.046351,-0.320529,0.0305,0.11365,-0.665147,-0.781748,-0.241513,0.098345,0.080898,-0.143557,-0.008874,-0.662032,-0.178391,0.01329,0.059674,0.006163,0.007318,0.000053,-0.46675,-0.401377,0.049497,-0.068614,-0.110245,-0.769126,-0.444001,-0.04399,-0.430774,-1.029573,-0.388627,0.009392,0.018503,-0.547187,0.109709,-0.379501,-0.176367,0.026699,-0.508413,-0.5583,-0.51935,0.046999,-0.003727,-1.085274,0.04427,-0.089214,-0.398941,-0.227322,-0.378058,-0.003538,-0.047049,-0.079131,-0.307287,-0.379807,0.116497,-0.35292,0.068234,-0.088132,-0.656447,-0.440453,-0.125804,-0.064905,0.06956,0.021368,-0.297322,-0.046599,0.067663,-0.785454,0.118015,-0.506313,-0.054281,-0.376403,-0.026515,0.040308,0.091113,-0.580531,0.132408,-0.672984,0.01973,-0.335052,0.003489,-0.892756,-0.181735,-0.240971,-0.300762,0.061021,0.025117,0.099613,0.063876,-0.290411,-0.418234,-0.037649,-0.063386,-0.834578,-0.028228,-0.034682,-0.396404,-0.210769,0.042528,-0.42093,-0.375848,0.119803,-0.020278,0.111882,-0.068336,-0.546684,-1.016183,0.002248,-0.217942,-0.06254,-0.505042,-0.367887,-0.206593,0.02692,-0.162564,0.062902,-0.113135,-0.812078,-0.460156,-0.089844,-0.001464,0.1011,-0.360568,0.074839,-0.38913,-0.212014,-0.08549,-0.039853,0.07795,0.01092,-0.615827,-0.15159,0.023855,-0.230462,-0.959045,-0.573027,0.00067,-0.160506,-0.013141,0.144692,-0.729728,0.087624,-0.345838,-0.522014,-0.862586,0.026337,0.144966,-0.435413,-0.058561,-0.091049,-1.080477,0.009333,-0.455638,-0.309464,-0.395688,0.085389,0.034464,0.032338,-0.01504,0.009954,-0.252358,-0.042395,-0.000467,0.055047,-0.336899,-0.215653,0.031742,0.03702,-0.334463,-0.377629,-0.282257,-0.060895,-0.250353,0.019282,-0.53452,0.074952,-0.018588,0.016055,0.101461,-0.014613,-0.461772,0.024125,0.024252,-0.024044,-0.152187,-0.63064,-0.420218,-0.514252,-0.313369,-0.03573,0.091165,-0.266356,0.020341,-0.012004,-0.093604,-0.850861,-0.484817,0.044104,-0.548645,-0.014076,-0.026468,-0.857947,-0.022998,-0.999087,-0.132117,0.062628,-0.029648,0.011336,0.134472,-0.088832,-0.025225,0.056844,0.025473,0.014068,1.426492,-0.067154,0.23346,0.052333,0.066443,-0.044846,0.256214,0.075238,0.030311,0.192294,-0.04924,0.71199,0.347212,-0.087938,0.302848,0.318169,-0.01235,0.012613,0.02935,0.812393,0.039111,0.885616,0.208309,-0.066217,0.06571,0.215559,0.026772,-0.066392,0.002953,-0.012188,-0.030363,0.040222,0.31452,0.027469,-0.029034,-0.009488,-0.038582,-0.051553,0.212692,-0.019008,0.170073,0.878717,-0.025096,0.914703,0.051718,1.145332,0.28291,0.373815,-0.040649,-0.113944,0.187269,0.282122,0.06736,0.524832,0.055426,-0.031846,0.141265,0.267053,-0.084873,0.621174,-0.067424,0.016531,-0.084565,0.057024,0.164947,0.643952,-0.048508,1.049504,0.153898,0.048236,-0.05232,-0.000765,0.053662,-0.009967,0.288386,0.50767,0.058927,-0.003466,0.203799,0.399442,0.657594,0.221577,0.063716,0.319488,1.0594,0.00001,-0.107627,0.007699,0.504557,-0.003062,0.134853,0.980789,0.032536,-0.097301,-0.013734,0.458615,0.132395,-0.064173,0.339371,-0.144751,0.037585,0.509369,0.264166,0.774637,0.073871,0.167027,-0.060292,-0.059135,0.819977,-0.011438,-0.095108,-0.043465,0.048567,0.531546,-0.030774,0.005092,-0.032265,0.502718,0.32266,0.084857,0.560799,-0.020662,0.017696,0.196373,-0.076638,-0.014106,-0.035155,0.768728,0.381824,-0.047805,0.289128,0.011314,0.036524,-0.069505,-0.01485,0.114363,-0.035583,0.029349,0.034521,-0.032199,0.914748,-0.07761,0.496785,-0.016126,-0.066454,-0.079914,-0.020723,0.019252,0.584853,0.122047,-0.049497,0.059628,0.09303,-0.069035,1.252056,0.027463,-0.006176,-0.034514,0.280542,0.442102,0.421802,-0.080539,1.086917,-0.070958,0.162835,0.033399,0.419799,-0.159659,-0.00423,0.004888,-0.056615,0.14871,0.627705,0.779364,0.674365,-0.006202,-0.049316,-0.02053,0.008522,-0.094168,-0.009451,0.001441,-0.026801,0.065383,0.374994,-0.013688,0.035068,0.641483,0.536597,0.368566,-0.011018,0.050245,-0.12324,0.055435,0.010229,-0.048271,-0.017837,-0.11521,0.051036,0.330594,0.083457,0.129763,0.003083,-0.037112,-0.015425,0.001716,0.018002,0.50283,0.019446,0.788693,0.059951,0.072243,-0.025459,0.035474,0.477785,0.060199,-0.070603,0.060652,0.126831,-0.035858,-0.058043,-0.07513,0.17642,0.082828,0.220037,0.1684,-0.105775,0.6418,0.04703,-0.0157,-0.04236,0.494118,1.375947,0.021922,0.012097,-0.011443,-0.110208,0.01655,-0.081423,-0.027137,0.000827,0.553177,0.691134,0.311297,0.505126,0.263162,-0.011759,-0.024097,0.152234,0.226138,-0.04971,-0.104978,0.786804,0.862362,-0.007016,-0.049712,0.041684,0.018348,-0.001201,0.07994,0.005763,0.712669,0.307264,0.70263,0.119526,0.190603,0.020598,0.027312,0.496292,0.26981,-0.026332,-0.063152,-0.095363,-0.034335,-0.062552,0.463183,0.484892,0.009686,0.226057,0.105477,0.011826,-0.084301,0.011144,0.074969,-0.004862,0.193547,0.025692,-0.077322,0.124055,-0.128057,-0.004917,0.17627,1
