100_makeup_1,0,3.642,0.0209276667,-0.0275351667,0.0343216667,-0.021998,-0.0027655,-0.0230306667,-0.0023285,-0.0449203333,0.1116698333,-0.0316626667,0.0020855,-0.0191626667,-0.0025523333,-0.060438,0.0205266667,0.0023555,-0.0231535,-0.020132,-0.0394068333,0.0448363333,-0.00667,-0.0341158333,0.045992,0.0558825,-0.0309381667,-0.0476338333,0.0304791667,0.0780116667,-0.0409431667,0.0823925,0.0378658333,-0.0257361667,-0.0237746667,-0.0211846667,0.0376881667,-0.0346243333,-0.0664458333,-0.0347975,-0.023806,-0.0150066667,0.0312703333,0.0248908333,-0.0204835,-0.0339348333,-0.0269555,-0.0249818333,-0.0010836667,0.0164165,0.0385405,0.0874471667,-0.0421245,0.0469318333,0.0009641667,0.0962061667,0.0109811667,0.0216716667,-0.032122,-0.0623971667,-0.0060775,0.0440055,-0.008489,0.056737,-0.0246983333,-0.0064073333,0.0014406667,0.0248236667,-0.0959163333,0.0291381667,-0.0492741667,0.0124383333,-0.073851,-0.0358066667,0.0376405,0.0771375,-0.0894513333,0.0999761667,-0.0162326667,0.0348645,-0.0376971667,-0.036392,0.022969,0.0165983333,0.0342413333,-0.0002056667,-0.0009646667,0.0047988333,0.005371,0.0330616667,0.0795583333,0.0307311667,-0.0145658333,-0.0105961667,0.0616635,-0.0231333333,-0.0676588333,-0.0242841667,0.0208651667,0.0069626667,0.0139425,0.0729996667,-0.0716661667,-0.0524506667,-0.0216011667,0.0497473333,0.0218313333,-0.0040201667,0.0389753333,-0.077601,0.013212,0.0573763333,0.0570448333,0.042785,0.0579361667,0.0300318333,-0.0591093333,-0.0325476667,0.0611848333,0.0072335,0.0123781667,-0.0691663333,-0.0550336667,0.028618,-0.070201,-0.0266246667,-0.0800161667,0.0347303333,0.017635,-0.0383706667,0.042956,-0.0154456667,0.0400016667,-0.0079848333,-0.0278695,-0.0694036667,-0.0557236667,0.0855261667,0.0023195,-0.064654,0.0354165,0.0117588333,0.0060685,0.0061276667,0.0007093333,-0.0110753333,-0.0131583333,0.0015671667,-0.0028258333,-0.0252433333,0.0450005,-0.0336653333,0.0309341667,0.0138281667,-0.049497,-0.0390431667,0.0087255,-0.0273415,0.06794,-0.0116386667,-0.0410226667,-0.0062793333,-0.0308953333,-0.0289876667,0.0979055,-0.0264828333,-0.0028193333,0.0015833333,0.0262466667,0.0290726667,0.0569085,-0.0256036667,0.100071,-0.0883905,0.0241695,-0.0392783333,0.0411071667,-0.0823591667,-0.0426503333,0.0030973333,-0.0066718333,0.0349716667,0.0433528333,0.0654893333,0.0538305,-0.0091048333,-0.0470411667,0.0022825,0.0220543333,-0.0767275,0.0148518333,-0.0202071667,-0.0401128333,-0.0364176667,0.033391,-0.0284291667,-0.0082358333,0.0583336667,0.022468,0.0387146667,-0.0197565,-0.031871,-0.1077656667,0.0162958333,-0.0370071667,-0.0015531667,0.0066851667,-0.0154601667,-0.0088881667,0.0198696667,-0.0225591667,0.0209976667,-0.039713,-0.016761,-0.0527526667,0.0026255,0.0114945,0.0710193333,-0.0087426667,0.1000105,-0.0558251667,-0.0149073333,-0.0178975,-0.0117645,0.0294496667,0.0133311667,-0.0592053333,-0.008603,0.0207305,-0.043466,-0.0823005,-0.0279295,0.0224473333,0.0062825,0.0072771667,0.0531055,-0.0368586667,0.0535061667,-0.0250748333,-0.0543505,-0.0728346667,0.0513946667,0.1232468333,-0.0295518333,0.0052095,-0.0166185,-0.0920358333,-0.016883,-0.049143,-0.0398271667,-0.0248735,0.0816003333,0.028263,0.0302021667,0.0198778333,0.0343945,0.0121186667,-0.0294936667,0.0363578333,0.0441978333,-0.0623851667,-0.0237671667,0.0790995,0.0957486667,-0.024861,-0.024367,-0.008182,-0.0493771667,-0.0538865,0.0095448333,-0.0518728333,0.039527,0.0173438333,0.0557773333,-0.0215988333,0.013525,-0.0189195,0.0076396667,0.0290813333,0.0092875,-0.0291185,-0.0147333333,-0.0353853333,0.0008508333,-0.0307473333,0.0491656667,0.0206451667,-0.0063498333,0.0251841667,0.0021995,-0.0275023333,-0.055837,-0.039923,0.0410286667,-0.0388741667,-0.0041385,-0.0123971667,-0.0681945,0.020314,-0.045373,0.0138388333,0.0313423333,-1
100_makeup_2,3.642,9.552,0.0031168667,-0.0394848667,0.0359418,-0.0476461333,-0.0032542,0.0217454667,-0.0052616667,-0.0116153333,0.1031485333,-0.018595,0.0030808,-0.0150363333,0.0044138,-0.0561901333,0.0064425333,-0.0166369333,-0.0172967333,0.003653,-0.0271945333,0.048099,0.0099732667,-0.0547754,0.0232723333,0.0605912,-0.0349072667,-0.0345460667,-0.000011,0.0843003333,-0.0216728667,0.0736730667,0.012272,-0.0333121333,-0.0262365333,0.0183334,0.0249997333,-0.0365786,-0.0434896,-0.0254754667,-0.0246002667,-0.0230240667,0.0157618,-0.0026710667,-0.0416131333,-0.0274110667,-0.0297755333,-0.0355359333,0.0044340667,-0.008451,0.0433301333,0.0872469333,-0.0283552,0.0799146667,0.012118,0.1117674667,0.0050398,0.0389554,-0.0345582,-0.0658766667,0.0059387333,0.0374302667,0.0180356667,0.0416581333,-0.0232530667,-0.0315845333,0.0338144667,0.0529502667,-0.0735153333,0.0416501333,-0.0656563333,0.0071664667,-0.0581919333,-0.0333546,0.0092286667,0.0308426,-0.0564189333,0.0756334667,-0.0097422,0.034552,-0.0414143333,-0.0187006667,0.0291134,0.0022676,0.009282,0.0009906,0.0091277333,-0.0290458667,0.0031569333,0.0131191333,0.0556905333,0.008557,-0.017295,-0.0131291333,0.0767128667,0.015396,-0.0540392667,-0.0371475333,0.012893,-0.0072294,0.0207867333,0.0629762667,-0.044684,-0.0713848667,-0.0402830667,0.0714001333,0.0371316,-0.0420284,0.0095846,-0.0698196667,0.0177612,0.0578764667,0.0546148667,0.0354784,0.0562364667,0.0195147333,-0.0398564,-0.052286,0.0538266,0.0102396667,-0.0233417333,-0.062935,-0.0054097333,0.0196722667,-0.0561488667,-0.0406208,-0.0603544667,0.0447898,0.0065633333,-0.0139019333,0.0482016,-0.0116992,0.0190564667,-0.0103594,-0.0402860667,-0.0375200667,-0.0236554,0.071998,0.013884,-0.0759872,0.0044636667,-0.0043404,-0.0076705333,0.0107597333,-0.0164999333,-0.0042202,-0.002087,-0.0185773333,-0.0085698667,-0.0215391333,0.0903846667,-0.0515439333,0.0237140667,-0.0022768667,-0.0446607333,-0.0425513333,-0.0066799333,-0.0163388667,0.0594347333,-0.0052448667,-0.046755,0.001524,0.0075666,-0.0526234,0.0897544,-0.0257254667,-0.0276094667,-0.0435563333,-0.0089238667,0.0284546667,0.0302770667,-0.0459476,0.0787640667,-0.0701365333,-0.0022458667,0.0065265333,0.0416420667,-0.066989,-0.0253055333,-0.0024374,-0.0154553333,0.0158173333,0.0531927333,0.0815466667,0.0718511333,-0.0174298667,-0.031008,0.0054626667,0.0135633333,-0.0409745333,-0.0003672,0.0045899333,-0.0361202667,0.0150175333,0.0392136,-0.0279642667,-0.0323904667,0.0413714667,0.021731,0.0509982,-0.0119086667,-0.0025706,-0.0883576667,-0.0110002667,-0.0341111333,0.0272653333,-0.0109533333,-0.0587611333,-0.0084492,0.0061986,0.0286188,0.0519504,-0.0320417333,-0.0190149333,-0.0396678,0.0014934,0.0097652667,0.0562910667,-0.0103278,0.0750339333,-0.0159007333,-0.0236324,-0.0045885333,-0.0305872,0.0538930667,0.0074838,-0.0326510667,0.0133068,0.0422557333,-0.0216694667,-0.0793882667,-0.0514419333,0.0252564667,0.0160872667,0.0075842,0.0381841333,-0.04535,0.0507585333,-0.0072959333,-0.0420918,-0.0630238667,0.0439202667,0.1364494,-0.0157966667,-0.0080065333,-0.0186269333,-0.1007362,-0.0049462,-0.0436026,-0.0342671333,0.0012574,0.0437556,0.0395377333,0.0416382,0.0128257333,0.0243769333,-0.0271441333,0.0088993333,0.023912,0.0139718667,-0.0526340667,-0.0421095333,0.0633450667,0.0714568,-0.0194776667,-0.0319805333,0.0080455333,-0.0160743333,-0.0363444667,0.0094162667,-0.0331203333,0.0958054667,0.0014114667,0.0469645333,0.003334,0.0087506,-0.0259696667,0.0003164667,0.0344534,0.0204577333,-0.018765,-0.031331,-0.0526945333,-0.0277039333,-0.0205784,0.0422493333,0.0483844,-0.0106720667,0.0258178,0.0013336667,-0.0157825333,-0.0788676667,-0.0155568,0.0425847333,-0.0301248667,-0.0144760667,-0.0127834667,-0.0602640667,-0.0128038667,-0.0751131333,-0.0060879333,0.0158060667,-1
100_makeup_3,9.552,14.197,-0.0349100909,-0.0287292727,0.0398018182,-0.038828,-0.0087622727,0.0080446364,-0.0239913636,-0.0265647273,0.0975744545,-0.0038009091,0.0325720909,-0.0031527273,0.0188555455,-0.0533510909,0.0134063636,0.0155079091,-0.0347377273,0.012004,-0.0007115455,0.0311986364,0.0003440909,-0.0365322727,0.0127669091,0.0428548182,-0.0246010909,-0.0533688182,-0.0119126364,0.0662049091,-0.0434020909,0.0706429091,0.040413,-0.0480869091,-0.02096,-0.0060498182,0.0123541818,-0.0219123636,-0.0277581818,-0.0169286364,-0.0071597273,-0.0117603636,0.0003471818,0.0289168182,-0.0276978182,-0.0073849091,-0.0323981818,-0.0321259091,0.0170340909,-0.0124339091,0.0284640909,0.0728818182,-0.0102915455,0.0794235455,-0.0166020909,0.0719508182,-0.0105189091,0.0340496364,-0.0243247273,-0.0541122727,0.0198672727,0.0278560909,0.0013514545,0.0418636364,-0.0236354545,-0.0214061818,0.0096513636,0.042328,-0.0834733636,0.0255680909,-0.0663903636,0.0085295455,-0.0567747273,-0.0557557273,0.0292351818,0.0263335455,-0.0687206364,0.099019,0.0127376364,0.0351396364,-0.026761,-0.0198137273,-0.0021553636,0.0019019091,0.0080476364,0.0321441818,0.0057042727,-0.045729,-0.0160972727,0.011396,0.0491136364,0.0216729091,-0.0029933636,-0.0015523636,0.0655227273,0.0132313636,-0.0321413636,-0.0310426364,0.0407054545,-0.0262592727,-0.004707,0.0859168182,-0.0601645455,-0.0579198182,-0.0178416364,0.0398904545,0.0164363636,-0.0203644545,0.0059290909,-0.0680225455,-0.0029782727,0.0711201818,0.0373859091,0.0498105455,0.0321471818,0.011628,-0.0267657273,-0.0462430909,0.0429730909,-0.001323,-0.0103836364,-0.0511281818,-0.0246249091,0.01496,-0.0527533636,-0.0522072727,-0.0380311818,0.0287856364,0.0148295455,-0.0249128182,0.0369701818,-0.0166218182,0.0074646364,0.007987,-0.0422885455,-0.0312699091,-0.0390723636,0.0646960909,0.0166353636,-0.0609596364,-0.0138248182,-0.0021273636,-0.0161991818,0.0143897273,-0.0225558182,0.0149985455,0.0181774545,-0.0496515455,0.0017032727,-0.033809,0.0957823636,-0.0320350909,0.0320631818,-0.0160583636,-0.0589834545,-0.0512081818,-0.0260759091,-0.0223210909,0.0578576364,-0.0004460909,-0.0325888182,0.0021012727,0.0103226364,-0.0651246364,0.0660591818,-0.0191337273,-0.0222874545,-0.0482716364,0.0075105455,0.0423292727,0.029017,-0.0360617273,0.0520664545,-0.0709537273,0.0263434545,-0.0179603636,0.0478425455,-0.0662943636,-0.0235269091,0.0053628182,-0.029736,0.0084167273,0.0306533636,0.066704,0.0468203636,-0.0256158182,-0.0376657273,0.0264632727,-0.0098371818,-0.0353828182,-0.0168433636,0.0012829091,-0.0652606364,0.0002706364,0.0300807273,-0.0265089091,-0.0345689091,0.0511464545,0.0298842727,0.0508103636,-0.0137041818,-0.0351383636,-0.1044528182,-0.0313681818,-0.031445,0.0049138182,-0.0195570909,-0.0286112727,-0.0055555455,0.0010512727,0.0034834545,0.0080473636,-0.0400442727,-0.0305139091,-0.0150102727,-0.005375,-0.0061458182,0.0415528182,-0.0154790909,0.0639117273,-0.020392,-0.0175007273,-0.0148938182,-0.0356217273,0.0541850909,-0.005333,-0.0324149091,0.0100498182,0.0412961818,-0.0188677273,-0.0663364545,-0.0262239091,0.0250020909,0.0123070909,0.0064618182,0.0314980909,-0.0738434545,0.0470013636,-0.0172336364,-0.0506702727,-0.068641,0.0372424545,0.1414086364,-0.0358572727,-0.0132800909,-0.0120358182,-0.085873,-0.0179699091,-0.0602235455,-0.0022827273,0.000648,0.0429507273,0.0472184545,0.0412952727,0.0211099091,0.0034242727,-0.0239254545,-0.0024652727,0.0089034545,0.0293957273,-0.0440551818,-0.0210207273,0.0660144545,0.0530016364,-0.0067700909,-0.039643,0.0027182727,-0.0220747273,-0.0104730909,0.0017960909,-0.0191823636,0.0833011818,-0.0101817273,0.0684493636,0.0265804545,0.0266270909,-0.0408105455,0.0089922727,0.0219527273,0.0343788182,-0.0136323636,-0.0112108182,-0.0600869091,-0.0387145455,-0.0469858182,0.0603453636,0.0355907273,-0.0169792727,0.0245437273,0.0217443636,-0.0198239091,-0.0613743636,-0.0084322727,0.0361134545,-0.0336976364,-0.0198001818,-0.015421,-0.056678,0.0026340909,-0.0843710909,-0.0084943636,0.0241402727,-1
100_makeup_4,14.197,20.545,0.0103232609,-0.0389190435,0.0291468261,-0.0467429565,-0.0006218261,0.0234674348,0.0111846957,-0.0205301739,0.1210741739,-0.0340962609,-0.0176325217,-0.0126524783,0.027336,-0.0539469565,0.0239236957,-0.0267358261,-0.0112848261,-0.0040693913,-0.0364773043,0.0400681739,0.0064073913,-0.0435654783,0.0230734348,0.0715429565,-0.0256431739,-0.0456096087,0.0068288261,0.0723988261,0.001206,0.0644787391,0.0358743478,-0.057805913,-0.0391733478,0.0248158696,0.0325485652,-0.0220090435,-0.0376293913,-0.0088986957,-0.0333842609,-0.0076624783,0.0317281304,-0.0010198696,-0.0205977391,-0.0236023478,-0.0494955652,-0.031689087,0.009995913,-0.0186416087,0.0322143478,0.0801981304,-0.0256922174,0.06888,0.0160026522,0.1268856087,-0.0120507826,0.0198413913,-0.0229330435,-0.0642932174,0.0162353913,0.0247533913,0.0002595652,0.0506064348,-0.0233636087,-0.0325961304,0.0248442609,0.0414877826,-0.0842205652,0.0499341304,-0.0632542174,-0.0054026957,-0.0767006087,-0.0236414783,0.0345757826,0.0349868696,-0.0672444348,0.0831337391,-0.0277163478,0.0144677391,-0.0263350435,0.0038896522,0.0449414348,-0.0186970435,0.0124996522,-0.003908087,0.0072308696,-0.0435928696,0.0001094783,-0.0039087826,0.045048087,0.0036456087,0.0065965652,-0.0168031739,0.0674248261,-0.0048203043,-0.060302087,-0.0508440435,0.0350124783,-0.0113507826,0.0261305652,0.0732546087,-0.0360874783,-0.0685179565,-0.0215721304,0.076587913,0.0376094348,-0.0394604783,0.003359,-0.0631051304,-0.0007112174,0.0739095652,0.0391158261,0.0410147826,0.0474902174,0.0079538261,-0.0295431739,-0.0437266522,0.0582788261,0.0200342174,-0.0470633913,-0.0650840435,0.0158933478,0.0087882609,-0.0484023913,-0.0096701739,-0.0473232609,0.0475294783,0.001646087,-0.0212692609,0.0491601739,0.0051457391,0.0227001739,0.0028954348,-0.0500707826,-0.0453463043,-0.037236913,0.0672531739,0.0104206522,-0.0788671739,0.0352746522,0.0062225652,0.001461913,-0.0094674348,-0.0208600435,-0.0230577391,-0.014763913,0.0075617826,0.0086489565,-0.0246707826,0.0703952174,-0.0355621304,0.0231481739,-0.0085476087,-0.0497466957,-0.0453944783,-0.021414913,-0.0266226522,0.0789386957,0.0050552609,-0.0401434783,-0.0199623043,-0.0202183913,-0.0545143043,0.0826955217,-0.0073090435,0.0049411304,-0.0199035652,0.0029963043,0.0187831739,0.0491586087,-0.0465524783,0.1064953043,-0.0881502609,-0.0093197391,0.0060506957,0.0314181739,-0.0995142174,-0.0265124783,0.0071198261,-0.0023106522,0.0374292609,0.0620492174,0.0781158261,0.0739037391,-0.019087,-0.0294942609,0.006141,0.0174040435,-0.0667868696,-0.0072348696,-0.0093581739,-0.0412328261,0.0166330435,0.027120913,-0.0405775217,-0.0175438261,0.0562354783,0.0226086087,0.0667444783,-0.0144033478,0.0014891739,-0.0965716957,0.0068637826,-0.0316086522,0.002316087,-0.0223493043,-0.0539398261,0.0321488696,0.0174529565,0.0390358696,0.0472936957,-0.026683087,-0.0466203478,-0.0350402174,-0.0061506957,0.0313346522,0.069659913,-0.0104007826,0.0703504783,-0.0161213043,0.0137606957,-0.0085148261,-0.023045913,0.0500047391,0.0199753043,-0.0574175652,0.0051898261,0.0489025652,-0.0212220435,-0.0880706087,-0.0658340435,0.0111955217,0.0273876522,0.003799913,0.0503938261,-0.0624961739,0.057703,-0.0160266957,-0.0329060435,-0.0427065217,0.0445904348,0.1416042174,-0.021219913,-0.000273913,-0.0271473043,-0.0899876087,-0.0105736087,-0.0399593043,-0.0432407391,0.0182710435,0.0602927826,0.0441544348,0.0230821739,0.0248855217,0.0079204348,-0.017370087,-0.0257953043,0.0219995652,0.0297394348,-0.0547598696,-0.0387411304,0.0617385217,0.0754144348,-0.0109084783,-0.038498087,0.0008133478,-0.0195397826,-0.0199596522,0.0148863913,-0.0363061739,0.0630895652,0.0053909565,0.0545664783,0.0048055217,0.0265743043,-0.03072,-0.0007513478,0.049197,0.0102525217,-0.0271707391,-0.0259309565,-0.0495743913,-0.0184776957,-0.0243036522,0.0290022609,0.0535636957,-0.0009456957,0.0086045217,0.0072236087,-0.0143606957,-0.085181,-0.0173624348,0.0502634348,-0.0369193043,-0.016258,-0.0130326957,-0.0846909565,0.0139424348,-0.0848377391,-0.0018073913,0.0155400435,-1
100_makeup_5,20.545,23.275,0.0033562,-0.0259618,0.0373086,-0.0299532,-0.0247852,0.0454604,0.0238344,-0.020489,0.1185164,-0.0424618,0.0008318,0.0248734,0.028407,-0.0239906,0.047603,-0.0275114,0.0147846,0.005756,-0.0354846,0.0316692,-0.0037654,-0.0316892,0.0228604,0.0924382,-0.0189516,-0.0489628,0.0125818,0.0767754,0.01718,0.101446,0.0080462,-0.0427542,0.0175108,-0.0054668,0.0357526,-0.0404058,-0.056236,0.0018936,0.007967,0.0050604,0.0059992,0.007061,-0.014623,-0.0094742,-0.065218,-0.0323404,-0.008791,-0.0544708,0.0269982,0.0633208,0.0071574,0.102446,-0.0151388,0.0857402,-0.024263,0.0195182,-0.0163576,-0.0543316,0.0298422,0.0430924,-0.0167538,0.0386064,-0.0666784,-0.0328842,0.013543,0.0425148,-0.0622792,0.0439018,-0.0937536,0.0261592,-0.0789394,-0.0256502,0.0686682,0.015499,-0.072351,0.0783964,-0.0621488,0.0244638,-0.023628,-0.0217574,0.0422768,-0.0081728,0.0256432,0.0054844,0.0344344,-0.0057948,-0.0030664,0.0174,0.0446788,-0.0016078,0.0058756,-0.0171654,0.0376596,-0.0062538,-0.0409708,-0.0166456,0.0418604,0.0036854,0.0047838,0.0888826,-0.0208524,-0.0668738,-0.0490904,0.0606134,0.0144784,-0.0641952,-0.0149788,-0.1158046,-0.0040866,0.0596206,-0.0106904,0.0555974,0.0333476,0.0328228,-0.0480064,-0.0579356,0.070652,-0.0066958,-0.0591148,-0.0494472,0.0027888,0.0295662,-0.0474712,-0.008501,-0.0774872,0.0485284,0.0236026,-0.0203884,0.0732712,0.0048674,0.02891,0.0086332,-0.0407834,-0.0322814,-0.0451984,0.0888302,-0.0169614,-0.0526148,0.0676264,0.012267,0.034448,-0.0202304,-0.0331388,-0.0364466,-0.0322988,-0.0129204,0.050706,-0.0125116,0.1037444,-0.0744402,0.0330244,0.0103304,-0.0646298,-0.0690646,-0.0071518,-0.0560702,0.0759388,0.0087616,-0.048416,-0.0219844,0.010653,-0.0368262,0.0762412,-0.0016918,-0.0224102,-0.0212044,-0.017095,0.004911,0.0456442,-0.0377338,0.1084148,-0.1096274,-0.0070792,0.0123384,0.016209,-0.115846,-0.0036176,-0.0159346,-0.0282928,0.0534442,0.0765926,0.0533824,0.0637414,-0.0168804,-0.0190152,0.010016,-0.0041326,-0.071345,-0.020419,-0.0262734,-0.0321592,-0.0184348,0.0336892,-0.0333718,0.002554,0.0593418,0.0202372,0.0688902,-0.0243618,0.0013268,-0.083777,-0.0268406,-0.0334306,-0.0031002,-0.0043416,-0.0246846,0.0234726,0.0530142,0.0405172,0.0242522,-0.0228682,-0.0631942,-0.02881,-0.0005398,0.0484636,0.0584718,-0.0014318,0.0642824,-0.0122848,0.026955,-0.0065654,-0.0260896,0.0452996,0.0049994,-0.0663454,0.0222872,0.027125,0.0073862,-0.0758254,-0.0525184,-0.0170062,0.0349974,-0.0320204,0.0622152,-0.0606688,0.0832124,-0.026263,-0.0185008,-0.0648384,0.0216028,0.1118464,-0.0236206,-0.0114994,0.0124096,-0.110978,0.0069084,-0.0345552,-0.031631,-0.019335,0.057652,0.017345,0.0534922,0.048334,0.0019198,-0.0090496,-0.0142016,0.010667,0.0261772,-0.0595734,-0.0399946,0.0068112,0.0978374,-0.0232074,-0.0252728,-0.00849,-0.0301492,0.004414,-0.001313,-0.0213374,0.0276362,0.0111868,0.0234984,0.0281086,0.0380976,-0.0085902,-0.0093046,0.017979,0.0139546,-0.0151716,-0.0172196,-0.0469524,-0.0225422,-0.0092618,0.030957,0.0660706,0.014748,0.0082124,0.0150052,0.0196802,-0.078741,-0.0153864,0.0581114,-0.0165402,-0.0173174,-0.0093174,-0.0695966,0.0314186,-0.0499672,-0.0028854,0.0045122,1
100_makeup_6,23.275,27.533,0.03632275,0.00355925,-0.007051,-0.015091,0.01374575,0.0117875,0.01223175,-0.01958425,0.09900325,-0.049282,-0.00611025,0.06506075,0.0264315,-0.045061,0.04434275,-0.01704975,0.03456075,-0.0399205,-0.0257615,0.02714675,0.07380325,-0.002479,0.019161,0.077087,-0.05257825,-0.07863625,-0.02084725,0.07967625,0.00751975,0.08475125,-0.02046225,-0.052881,0.02553175,0.00902475,0.07227275,-0.043002,-0.0651305,-0.01783175,-0.00632825,-0.0588705,0.035643,0.01310125,0.0159575,-0.03202225,-0.1063735,-0.021376,-0.01219125,-0.03649625,0.0841445,0.0312655,0.00460025,0.1136115,0.03640025,0.1313865,-0.0856225,-0.00611075,-0.021979,-0.0932865,0.04253925,0.05496175,-0.0149835,0.0338055,0.01813425,-0.0434115,0.013324,0.0517925,-0.05416525,0.04632075,-0.067579,-0.00229125,-0.1347475,-0.0196495,0.06795425,0.06367575,-0.097092,0.086894,-0.09454775,-0.03383575,0.0203665,0.0054475,0.0819195,-0.05899,-0.01330325,-0.006372,0.0244675,-0.00369225,0.038542,-0.041492,0.0640325,-0.08189975,0.0425395,-0.0492465,0.0711735,0.0082855,-0.0472605,-0.08473175,0.05820225,-0.04628,0.0001505,0.042004,-0.0462175,-0.0876945,-0.02320725,0.0649755,-0.038276,-0.065498,0.05751225,-0.0417765,-0.005329,0.12964125,0.00500925,0.08781025,0.055293,-0.03319625,-0.06346375,-0.04533975,0.06201,0.012328,-0.09142475,-0.04898775,0.02115675,0.01887225,-0.021687,0.03052475,-0.06769575,0.076182,0.00323375,-0.0778745,0.07417925,-0.02175225,0.02336125,-0.0088455,-0.04779375,-0.05544575,-0.037459,0.0767625,-0.02912425,-0.08534975,0.0612445,-0.00607525,0.00943525,-0.0307055,-0.02485325,-0.01939875,-0.02308925,0.02698875,0.01427725,-0.0142375,0.0503675,-0.01673575,0.03657175,0.0095,-0.02589875,-0.065693,0.0205285,-0.09066525,0.0992575,0.01746,-0.07524175,-0.046814,-0.058087,-0.01903175,0.03878525,0.0228105,-0.0251425,-0.05049,-0.01670225,0.00747475,0.04282725,-0.02671,0.121551,-0.13039225,0.024296,0.00687875,0.02162775,-0.0719715,-0.00497825,0.0076015,0.01808625,0.0055885,0.11565075,0.08750075,0.0937875,0.013027,-0.020669,0.024676,0.003771,-0.011317,0.01061925,0.017239,-0.013308,-0.022599,0.0307065,-0.08080825,-0.01181525,0.04844,0.035039,0.0613965,-0.02523325,0.04206175,-0.060036,0.0153095,-0.01975675,0.00010425,0.0062415,-0.027318,-0.0057555,0.021437,0.05483775,0.031708,-0.00931325,-0.0275505,-0.020967,-0.0987845,0.060495,0.07505775,0.004832,0.0468885,-0.03806125,0.00269575,-0.0008485,0.04322125,0.0542465,0.02584975,-0.06090275,-0.0396965,0.03233125,0.01339275,-0.07267125,-0.0927095,-0.022684,0.0134865,0.01828925,0.02688775,-0.04457,0.06288,-0.0933175,-0.03162,-0.051929,0.0225385,0.1098305,-0.020676,-0.00644525,0.02648575,-0.08246675,0.01624375,-0.063343,-0.07060175,0.04149025,0.0282685,0.0512985,0.054331,0.04149325,-0.05919425,0.0093335,-0.01508075,-0.0111635,0.00331325,-0.0292355,-0.04181175,0.004561,0.126047,-0.0274925,-0.035516,-0.02838225,0.006812,-0.0115455,-0.0182205,-0.0195095,0.01545575,-0.0207765,0.015395,-0.0402885,0.0333595,-0.0072735,0.000251,0.02115875,0.003682,-0.0251405,-0.0528495,-0.024635,0.01000675,-0.01074525,0.05590175,-0.0050855,-0.00640525,-0.0471015,-0.0353475,-0.0315325,-0.03640825,-0.030861,0.01831075,-0.0049385,0.00333175,-0.01327325,-0.081044,0.0385975,-0.05601425,-0.05597325,0.00561025,1
100_makeup_7,27.533,31.004,0.0026454286,-0.038694,0.0651988571,-0.0190022857,0.00979,0.012104,0.0058304286,-0.0240387143,0.0889502857,-0.015979,0.0013154286,-0.0167321429,0.004535,-0.0742372857,0.0406715714,0.0203805714,-0.0284945714,-0.0034732857,-0.013046,0.0364144286,-0.0276022857,-0.0372178571,-0.0026902857,0.0481157143,-0.0086735714,-0.0626954286,-0.0088104286,0.0757185714,-0.0415255714,0.1073584286,0.0337297143,-0.078588,-0.036753,-0.0028785714,-0.0042731429,-0.0093701429,-0.0609725714,-0.02098,-0.0201888571,0.0023481429,0.0121787143,0.0067151429,-0.0388864286,0.000122,-0.0348491429,0.0015,0.027472,-0.0292995714,0.0253212857,0.0810154286,-0.0118412857,0.0575554286,-0.035888,0.0746965714,-0.0244442857,0.0225852857,-0.0068938571,-0.048523,-0.0026407143,0.0669702857,-0.0346508571,0.0517341429,-0.0126954286,-0.0498437143,-0.0209281429,0.046179,-0.0904982857,0.0503367143,-0.0792784286,0.0260891429,-0.0307361429,-0.0955997143,0.0433651429,0.0413017143,-0.0854768571,0.1193194286,-0.0505174286,0.0214414286,-0.0375988571,-0.0081485714,0.0261931429,0.024897,0.0195237143,-0.02352,-0.0509517143,-0.0323522857,0.0115592857,0.0243084286,0.0718245714,0.0138772857,0.0031571429,0.0175052857,0.0663911429,0.0093835714,-0.0059077143,-0.0423951429,0.0102795714,-0.006878,0.0273687143,0.0988997143,-0.0556361429,-0.0756052857,-0.0630755714,0.0557462857,-0.0053798571,-0.0337541429,-0.0168401429,-0.076255,-0.0234774286,0.0622821429,0.0479397143,0.0529851429,0.0428267143,0.0359292857,-0.0296515714,-0.0506097143,0.0479908571,0.0013232857,0.0024441429,-0.074151,-0.0439344286,0.0572825714,-0.0768771429,-0.0470821429,-0.0445578571,0.0657292857,0.0333442857,-0.0331744286,0.0269355714,0.005117,0.0495911429,0.025124,-0.0144372857,-0.052697,-0.0369071429,0.0825954286,-0.0082928571,-0.0546068571,0.0139884286,0.0226037143,-0.0253095714,0.0300225714,-0.019192,-0.010872,-0.0044084286,-0.0293928571,0.0142342857,-0.0256345714,0.0776554286,-0.0200495714,0.0162801429,-0.0123367143,-0.060793,-0.060449,-0.0025094286,-0.008744,0.0596991429,0.0007617143,-0.0474654286,0.0189898571,-0.0269817143,-0.0459141429,0.0773805714,-0.0056578571,0.0048252857,0.0200178571,0.04219,0.0222812857,0.0350205714,-0.0123802857,0.0702667143,-0.1072681429,0.0003084286,-0.0425885714,0.0430174286,-0.0890432857,-0.0384182857,-0.006285,-0.00241,0.0344215714,0.0596538571,0.0674078571,0.0575407143,-0.0509387143,-0.0356955714,0.0067701429,-0.0054614286,-0.0627608571,-0.022707,0.0156944286,-0.0722038571,-0.0328355714,0.0194302857,-0.044241,-0.0618961429,0.0080961429,0.0393934286,0.038644,-0.008669,-0.0554777143,-0.1002541429,-0.0279258571,-0.0385058571,0.0497695714,-0.0151615714,0.0180435714,0.0145972857,0.0139292857,0.0038298571,0.0050401429,-0.0317697143,-0.0547191429,-0.0469565714,0.0226364286,0.0442292857,0.0459682857,-0.0198357143,0.0943031429,-0.0724762857,-0.0078485714,-0.0089794286,-0.0084794286,0.0260002857,-0.0401725714,-0.0624045714,-4.52857142857E-05,0.0514657143,-0.0108588571,-0.0925761429,-0.0184937143,0.0037334286,-0.0106777143,0.0005677143,0.04897,-0.0663398571,0.0691075714,-0.0399385714,-0.0314334286,-0.0871588571,0.0559474286,0.0960437143,-0.0271504286,-0.0380298571,-0.00097,-0.0939637143,-0.0026717143,-0.0426597143,-0.0259701429,-0.0203365714,0.0518834286,0.0607108571,-0.0163758571,0.0518017143,0.0006307143,-0.0254158571,-0.0047487143,0.0189724286,0.0105114286,-0.0571594286,-0.0344014286,0.089306,0.1019712857,-0.008329,-0.0178308571,-0.0309014286,-0.0789908571,0.004483,0.016738,-0.0575087143,0.0705448571,0.0293547143,0.0734371429,-0.0402337143,0.065649,-0.02811,0.0044954286,0.0157405714,0.0254675714,0.0082618571,-0.0049865714,-0.0349535714,-0.0309935714,-0.0310331429,0.0730194286,0.067191,-0.0186867143,0.0123717143,0.016766,-0.018163,-0.0735442857,-0.0219561429,0.0382034286,-0.038519,-0.0090335714,-0.0308104286,-0.0720874286,0.0222178571,-0.0334501429,0.0311055714,-0.0154891429,1
100_makeup_8,31.004,32.6,0.028531,-0.000178,0.159021,0.036683,-0.077789,0.008363,-0.006452,-0.032168,0.055485,-0.010114,0.006878,-0.077532,0.032045,-0.021148,0.009934,-0.014629,-0.037207,-0.06743,-0.023522,0.040992,-0.003283,-0.045367,0.022554,0.111815,0.018322,-0.118876,-0.048263,0.082415,-0.02895,0.154345,0.099165,0.007073,0.01436,-0.048245,0.045513,0.020642,-0.054728,-0.079179,-0.018911,-0.053267,-0.030833,0.057793,-0.122129,-0.030929,-0.07509,-0.053048,0.043386,-0.018466,0.066229,0.106133,-0.041503,0.069093,-0.073332,0.058639,0.050253,0.050904,-0.017588,-0.065253,-0.037708,0.120773,0.016187,-0.040223,-0.003965,0.034342,-0.057876,0.017691,0.046024,0.097905,-0.113945,0.094453,-0.073395,-0.107484,0.016875,0.080011,-0.037604,0.135376,-0.044984,0.044349,-0.050979,0.002969,-0.001623,0.026189,0.036346,0.02252,-0.047104,0.087782,0.00959,0.057877,0.055476,0.048381,0.007893,-0.048157,0.085476,0.051083,-0.070758,-0.052077,-0.0263,-0.014335,-0.04467,0.037494,-0.14365,-0.002356,-0.035179,0.087059,0.020846,0.038535,0.017226,-0.080459,0.075515,0.097327,0.012243,0.071653,0.067994,0.053733,-0.098239,-0.040718,0.059274,-0.032368,-0.034007,-0.01873,-0.055702,0.044228,-0.013709,0.027835,-0.09438,0.088788,-0.017192,-0.060623,0.008968,-0.106814,0.074799,0.006288,-0.017761,-0.112703,-0.083404,0.119137,0.030391,-0.068089,0.039701,0.030227,0.010503,0.036466,-0.046241,0.095587,0.024135,-0.030179,0.020266,-0.055152,0.073307,-0.04172,0.013474,0.00125,-0.032471,-0.041517,0.072598,-0.021548,0.101064,0.048687,-0.044336,0.043488,-0.001051,-0.028064,0.045815,0.016824,-0.083273,-0.077187,0.036084,0.036212,0.017029,-0.059356,0.077881,-0.108533,0.092686,-0.037275,0.095309,-0.082015,0.043129,0.013306,0.008548,0.000551,0.066448,0.097165,0.034293,-0.006083,-0.034996,-0.031725,-0.032711,-0.020979,-0.00039,-0.040991,-0.114184,-0.075088,0.013597,-0.07076,0.007041,0.006781,0.076503,0.091615,-0.009357,-0.032526,-0.098132,-0.100868,-0.05894,-0.064399,0.006059,-0.014116,-0.035868,0.000857,0.010884,0.048105,-0.00148,0.011757,0.0008,-0.032716,0.043055,0.010144,-0.047308,0.071158,-0.005231,0.002592,-0.032172,-0.004675,0.049101,-0.034953,-0.048207,-0.000622,0.058626,-0.063838,-0.076718,-0.002152,0.059751,-0.00315,-0.021341,0.001197,-0.081777,-0.016894,0.026814,-0.01284,-0.122861,-0.034913,0.131079,-0.031729,-0.015614,0.006513,-0.086803,0.093185,-0.097804,0.027067,-0.084617,0.001669,0.019932,0.072313,-0.012577,-0.039385,-0.055217,0.026488,0.033049,-0.001656,-0.068468,-0.038753,-0.022476,0.093151,-0.012643,-0.021007,-0.028106,-0.009254,-0.090066,0.017121,-0.015725,0.132326,0.037117,0.069348,-0.022027,0.052572,-0.042585,-0.007511,0.115835,-0.001346,0.015433,-0.063485,-0.073532,0.080718,-0.00543,0.038664,0.054681,0.06187,0.042854,0.025178,-0.073537,-0.00774,-0.047496,0.036993,0.006756,-0.015997,-0.091355,-0.113929,0.002359,-0.031533,0.010849,0.05484,1
100_makeup_9,32.6,34.133,0.004118,-0.039667,0.0935085,-0.0194745,-0.014791,0.0049445,-0.0322595,0.007557,0.1050375,-0.0409255,0.004061,-0.0632695,0.0298735,-0.0778025,0.057312,-0.0250225,-0.029615,-0.011788,0.0088595,0.051516,-0.039815,-0.055037,0.0267775,0.038314,0.006817,-0.0798415,-0.039722,0.073632,-0.0292125,0.0931405,0.031378,-0.0736145,-0.0494065,0.035417,0.019715,0.0003695,-0.0673025,-0.0346015,-0.0257935,0.0293875,0.0635875,-0.028775,-0.041981,-0.0243215,-0.017861,-0.020704,0.0184305,-0.003735,0.062954,0.0605175,-0.0283385,0.081556,0.041458,0.1046665,-0.0175435,0.0065465,-0.00396,-0.051119,0.0108285,0.043235,0.0022205,0.047031,0.017071,-0.0693165,0.005979,0.0288165,-0.0870755,0.0952645,-0.053919,0.0150735,-0.0563495,-0.0721375,0.0400835,0.0083635,-0.0860525,0.1117225,-0.0634645,0.026063,-0.0137945,-0.03285,-0.009723,-0.0349705,0.0171425,0.0107345,-0.023627,-0.0872395,-0.008668,0.000618,0.0606,0.0443345,0.0283945,-0.0367755,0.058193,0.0023645,-0.0591275,-0.0422875,-0.0044145,-0.006819,0.0392915,0.096654,-0.061132,-0.098175,-0.031432,0.0749155,0.009253,0.0036425,-0.032886,-0.0532245,0.008299,0.0585005,0.048607,0.0211175,0.026183,0.017269,0.0020415,-0.0286085,0.086804,-0.0343855,-0.016266,-0.1266455,-0.02062,0.0218735,-0.067881,-0.025195,-0.0481945,0.059605,-0.0208545,-0.0245745,0.029382,0.0441935,0.038652,0.0360725,-0.0336205,-0.0734555,-0.0615195,0.064495,0.031843,-0.1329085,0.042919,0.00739,-0.0274895,0.0395545,-0.0280315,-0.053382,0.005919,0.005541,-0.010035,-0.08944,0.054579,0.047996,0.037494,0.0254615,-0.0365585,-0.0362925,-0.0260175,-0.0377505,0.0894875,0.03384,-0.020281,-0.0047045,-0.046397,-0.058101,0.086749,0.0054345,0.044341,0.032281,0.0435325,0.046395,0.0385595,-0.0478105,0.062196,-0.090773,-0.012013,-0.0381025,-0.0066415,-0.080752,-0.0531365,0.002297,-0.045053,0.0255685,0.0335485,0.0528185,0.0951475,-0.0319455,-0.0200295,0.005111,0.007173,-0.0455875,-0.052917,0.0190725,-0.053823,0.02641,0.0430805,-0.035642,-0.0147575,0.0397405,0.0409075,0.0794175,0.030917,-0.012114,-0.0838145,0.0333845,-0.0317595,0.0316475,-0.0380395,-0.057114,0.0162565,0.0045235,0.0247045,0.022516,-0.058162,-0.039922,-0.0565885,0.0047715,0.033309,0.0508905,-0.0207425,0.118772,-0.055052,0.022604,0.0103565,-0.022803,0.0591195,-0.0517565,-0.030479,-0.017442,0.0568355,-0.0135915,-0.0818895,-0.0313265,0.011726,0.018959,-0.0133545,0.01572,-0.0543575,0.0272655,-0.011983,-0.015398,-0.0461115,0.0475055,0.1007735,-0.0127675,-0.050446,-0.0210745,-0.0715325,0.009183,-0.044588,-0.062829,0.045217,0.031156,0.0462915,0.0299715,0.0088675,-0.021709,-0.0206775,-0.0618615,0.0125555,0.027197,-0.065823,-0.033808,0.098442,0.074407,0.0009975,-0.018468,-0.002459,-0.029505,-0.060064,0.0077455,-0.0576185,0.062319,0.0275235,0.0688765,-0.025282,0.003724,-0.0362075,0.011781,0.0608205,0.0113005,-0.031417,-0.0126025,-0.0556645,-0.0320445,-0.05834,0.0639255,0.102562,0.0053265,-0.0176435,0.000308,-0.077985,-0.1074785,-0.023513,0.0616415,-0.0381745,0.0207585,-0.0321185,-0.0844655,-0.0010205,-0.0646165,0.01627,-0.00366,-1
101_movies_1,0,6.643,0.0089784706,-0.0302840588,0.0389622353,-0.0377092941,-0.0110967059,0.0062862941,0.0001405882,-0.0145395882,0.1068102941,-0.0284830588,0.0057302353,-0.0308000588,0.0009361176,-0.0459271765,0.0238412941,-0.0087158235,-0.0099471176,-0.0103304706,-0.0251088235,0.0316489412,0.0039025294,-0.0478328235,0.022434,0.0615554706,-0.0211127647,-0.0517056471,0.0001818824,0.0705107647,-0.027718,0.0763444118,0.0549014706,-0.0369357059,-0.0275211176,0.0142941176,0.023817,-0.0392802353,-0.0252404118,-0.0252518824,-0.0338728235,-0.0264914118,0.027417,-0.0023641176,-0.0354247059,-0.0228030588,-0.0289917647,-0.0361271176,0.0111727647,-0.0016672353,0.0261482353,0.0916107059,-0.025854,0.0646295882,0.0054487059,0.1068058235,-0.0089808235,0.0323741765,-0.0348820588,-0.0686869412,0.0002588824,0.0477413529,0.0086544706,0.0427770588,-0.0198293529,-0.0264853529,0.0119875882,0.0552548824,-0.0789003529,0.032194,-0.0655251765,0.0176880588,-0.0695617647,-0.0437514118,0.0125391176,0.0524859412,-0.0627615882,0.0943431765,-0.0283149412,0.0241651765,-0.0242337647,-0.0161085882,0.0289500588,-0.0075688824,0.0119086471,0.0045642941,0.0028093529,-0.0220273529,0.0001381765,0.0218095294,0.0559382941,0.0083041176,-0.0002459412,-0.0278124706,0.0702624118,0.0052667059,-0.0603105882,-0.0470432353,0.0237201765,-0.017176,0.0017042941,0.0611424118,-0.0589847059,-0.0650971176,-0.0303545294,0.0592980588,0.0235912941,-0.0180652353,0.0066770588,-0.0551311765,0.0062346471,0.0692879412,0.0276786471,0.0576233529,0.0553240588,0.0138161765,-0.0364989412,-0.038964,0.0447182353,0.0029818824,-0.0275112353,-0.0562637647,-0.0053982353,0.0112772353,-0.0460949412,-0.0421061765,-0.0662134118,0.0602297059,0.0020309412,-0.0161459412,0.0420975294,-0.0217692353,0.0290301765,0.0061735294,-0.0201719412,-0.0500802353,-0.0400164706,0.0742992353,0.0188315294,-0.0701229412,0.0055184706,0.0276064118,0.0019721176,0.0152961765,-0.0167643529,0.0147451765,-0.017368,0.0082405882,0.0033920588,-0.0270121765,0.0834000588,-0.0372480588,0.0213689412,-0.0100889412,-0.052645,-0.0516860588,-0.0076069412,-0.0248928824,0.0701791176,0.0220468824,-0.0422671765,-0.0035388235,-0.0227130588,-0.0556532353,0.0840914706,-0.0151216471,-0.0175516471,-0.02988,0.0071038235,0.0247592353,0.0567839412,-0.0375404118,0.0817055882,-0.0890721765,0.0020217647,-0.0092574118,0.0486964706,-0.0769251176,-0.0295288235,0.0095116471,-0.0127362353,0.0208215294,0.0530537647,0.0804151765,0.0750156471,-0.0225307647,-0.0313261765,0.0015371765,0.0062797647,-0.0497688235,-0.0032867059,0.0040992353,-0.0515528824,-0.0066725882,0.0249811765,-0.0454968824,-0.0248331765,0.0454821765,0.0318673529,0.0625191765,-0.0124668235,-0.0151287059,-0.0999201765,-0.0147742353,-0.03773,0.0024486471,-0.0133797059,-0.0371364706,0.0113569412,0.0106843529,0.0092143529,0.0465658235,-0.0131812353,-0.0208475294,-0.0488864706,-0.0039004118,0.007882,0.0458646471,-0.0184523529,0.0736664706,-0.0274277059,-0.0011965882,-0.0059737647,-0.0323192941,0.0423335882,0.0062287647,-0.0369731176,-0.0041722353,0.0443334706,-0.0189346471,-0.0763623529,-0.0353267059,0.0296058824,0.0134431765,0.0131634706,0.0404849412,-0.0450538824,0.0306546471,-0.0077715294,-0.0333181176,-0.0664905882,0.0336368235,0.1286408824,-0.0252859412,-0.018789,-0.0028322941,-0.0949374118,-0.0052104706,-0.0521335294,-0.0291389412,-0.0059720588,0.04086,0.0488668824,0.0359700588,0.0075390588,0.0002575882,-0.0166082353,0.0011858235,0.0215035294,0.0365787647,-0.0541958824,-0.0477344706,0.0513888824,0.0814697059,-0.0251222941,-0.0452183529,0.0002234706,-0.0255337647,-0.0522851176,0.0086538235,-0.0291946471,0.0782277647,0.0090094706,0.0561832353,-0.0074128824,0.0194623529,-0.0531745882,0.0037846471,0.0520838235,0.0183561176,-0.0194408824,-0.024623,-0.0399289412,-0.0286916471,-0.0227791765,0.0338502941,0.0471161765,-0.0005337647,0.0144031765,0.0036136471,-0.0283567059,-0.0613094706,-0.0110078824,0.0232674118,-0.0418487059,0.0038931176,-0.0160241765,-0.0659475294,0.0009724118,-0.0626135882,-0.0105206471,0.0097931765,1
101_movies_2,6.643,17.29,0.0040858611,-0.0088420833,0.0372490556,-0.0358718889,-0.0030025833,0.0118177222,-0.0064436667,-0.0154585833,0.0976183889,-0.0219324722,0.0066843056,-0.02461575,0.0058058056,-0.0447507222,0.0176591111,-0.01476825,-0.017954,-0.0029531944,-0.0310569722,0.0348916389,-0.0068146111,-0.0519071667,0.0236765278,0.0515667778,-0.0142589167,-0.0462108333,-0.0012255278,0.0794436389,-0.0272941111,0.0743401111,0.0367398056,-0.0335828056,-0.0189803889,0.0109007222,0.0194805278,-0.0310363611,-0.0321512778,-0.0267275833,-0.0296827222,-0.0183298889,0.0183157778,0.0101265833,-0.0312371944,-0.0223675278,-0.0334277778,-0.0281221389,0.0152621667,-0.0042388333,0.0345482222,0.0824230833,-0.0311587222,0.0712129722,-0.0018498611,0.1008392778,-0.0099028889,0.0276502778,-0.0335301389,-0.0594208611,0.0023978889,0.0366362222,0.0111113611,0.0344896667,-0.0128801944,-0.0242559167,0.0138667222,0.0446656389,-0.0776666111,0.0400705,-0.0742878056,0.0237379722,-0.0631636111,-0.05174775,0.0326715833,0.0470089722,-0.0536110278,0.1002544722,-0.0144861667,0.028958,-0.0364021389,-0.0226306389,0.0255209444,-0.0030566667,0.0186318333,0.0092211944,0.0014716667,-0.0210475,-0.0001846389,0.0094199167,0.0478714722,0.0162645833,-0.0103182222,-0.0128453333,0.0652271944,-0.0044013333,-0.0666201111,-0.0340987778,0.0247536667,-0.0128671111,0.0116919444,0.066129,-0.0486454722,-0.0651481389,-0.0324855556,0.0549408611,0.0239604722,-0.025154,0.0156909167,-0.0746220278,0.0043636111,0.0715748611,0.0407900278,0.0404814722,0.0551452222,0.0172011944,-0.0372981389,-0.0334403889,0.0509212778,-0.00086325,-0.0231476944,-0.0513755833,-0.00433275,0.0170358611,-0.0517357778,-0.0401520833,-0.0527357222,0.0486895,0.006992,-0.0201641111,0.0488149722,-0.0302400833,0.0194886667,-0.0058811389,-0.0361258889,-0.0520879167,-0.0428480833,0.0741898889,0.0115439444,-0.0598813611,0.0060102778,0.0164036667,0.0025210278,0.0059676111,-0.02032125,0.0052229722,-0.0105421111,-0.0106695556,0.014542,-0.036163,0.0760465833,-0.0364238333,0.0355123611,-0.0095363889,-0.0474100278,-0.0519603056,-0.009221,-0.0140170833,0.0589603056,0.0032361667,-0.0452651667,-0.0019800278,-0.0122708056,-0.0537337778,0.0875724167,-0.0228861944,-0.0246004167,-0.0394227778,-0.0082428889,0.0282781667,0.0370236667,-0.0418821944,0.0663971944,-0.0717963056,0.0082681667,-0.00978975,0.0465309444,-0.0737274722,-0.0297503611,-0.0074260278,-0.0087371944,0.0251853056,0.0487659444,0.0818578056,0.0637723056,-0.0184068889,-0.0319915278,0.0009260833,0.0059322778,-0.0497381944,-0.0085146111,-0.0036255833,-0.0519015278,-0.0103925833,0.0410488889,-0.0212531944,-0.0215768889,0.0450890556,0.0268411111,0.0562974722,-0.0130400833,-0.0168251667,-0.10229875,-0.0154848333,-0.02761775,0.0002118056,-0.0099654444,-0.0308200556,-0.0027312778,0.0114255556,0.0223983889,0.0439708333,-0.0264600556,-0.0227086111,-0.0306204722,-0.0046821389,0.0173008611,0.0477340833,-0.0169500556,0.0737567778,-0.0219002222,-0.0046079722,-0.0001095833,-0.0237554444,0.0369891667,0.0077376667,-0.0467735556,0.0064946944,0.0452181667,-0.0205915556,-0.0780537778,-0.0374798889,0.0279156389,0.0189777778,0.0068489444,0.0301181389,-0.0522240278,0.0416414444,-0.0116796667,-0.0396736667,-0.0710154722,0.0369870278,0.1272484722,-0.0233394444,-0.0103542778,-0.0192001111,-0.0889397778,-0.0096374167,-0.0494026944,-0.0238980556,-0.0010594722,0.0370769444,0.0481911111,0.0328763889,0.0135153056,0.00712875,-0.0304633056,0.00385175,0.0174542778,0.0268656111,-0.0549851389,-0.0358410278,0.0586303889,0.0834904722,-0.0290912778,-0.03797975,0.0005628333,-0.02070775,-0.0340550556,0.0029680556,-0.0360875833,0.08127525,0.0097643889,0.0491757778,0.0097007222,0.0176402778,-0.0265301389,0.0097195833,0.0400739167,0.0342627778,-0.0076695556,-0.0337860556,-0.0425051389,-0.0270459722,-0.0330733056,0.0373978611,0.0418935833,0.0005034444,0.0301992778,9.10555555556E-05,-0.0301674722,-0.0503153889,-0.0123773333,0.0347343611,-0.0211728889,-0.0019295833,-0.0196914444,-0.0657260278,-0.0004560556,-0.0589450833,-0.00638475,0.0237725833,1
101_movies_3,17.29,23.475,-0.0005107273,-0.0051716364,0.0286063636,-0.0260221818,-0.0011794545,0.027321,-0.0251280909,-0.0164198182,0.0990255455,-0.0059646364,0.0289366364,-0.0438000909,0.0078146364,-0.0498204545,0.0065372727,-0.008459,-0.0407213636,-0.0034577273,-0.0001835455,0.0320201818,-0.0025240909,-0.0546481818,0.0036444545,0.0380905455,-0.0238817273,-0.0685249091,-0.0209675455,0.0798544545,-0.0451810909,0.0890966364,0.0237283636,-0.0484910909,-0.0239592727,0.0215004545,0.0035706364,-0.029588,-0.0349473636,-0.0262581818,0.0040756364,-0.0278239091,0.00663,0.028567,-0.0270913636,-0.0217654545,-0.021427,-0.0228243636,0.0215057273,-0.0033459091,0.014114,0.0544622727,-0.0175125455,0.08371,0.0014081818,0.0965751818,0.0139993636,0.022302,-0.0405189091,-0.0488513636,0.011272,0.034459,-0.004298,0.0375998182,-0.015258,-0.0014710909,0.0071583636,0.0350598182,-0.0792727273,0.0375481818,-0.0738042727,0.0053770909,-0.0272578182,-0.0786595455,0.0244702727,0.0377180909,-0.0563059091,0.1238703636,0.0164266364,0.016169,-0.0357485455,-0.0093699091,-0.0067783636,0.0041482727,0.0336934545,0.0257306364,-0.0230117273,-0.0407654545,0.0014952727,0.0367261818,0.0446800909,0.0152317273,-0.0149445455,0.0104100909,0.089456,-0.0068293636,-0.0389076364,-0.0163543636,0.0310009091,-0.0306932727,0.0082559091,0.0750240909,-0.0588816364,-0.0544116364,-0.0169685455,0.0607097273,0.0143570909,-0.0075376364,0.0124256364,-0.0710247273,-0.0060611818,0.072522,0.0309581818,0.0632044545,0.0407570909,0.0313083636,-0.0250753636,-0.0297969091,0.0476652727,-0.0067133636,0.013542,-0.0501532727,-0.0245561818,0.0249546364,-0.0547246364,-0.0663389091,-0.033113,0.0627035455,0.0319838182,-0.0336327273,0.0277589091,-0.017403,0.0096762727,-0.023471,-0.0151043636,-0.0439602727,-0.0272034545,0.0776470909,0.009044,-0.0748002727,0.0028204545,0.0047524545,-0.0347736364,0.0053110909,-0.0165535455,0.0147096364,0.0076318182,-0.0231926364,0.0166421818,-0.0446206364,0.089095,0.0008101818,0.0421201818,-0.0435029091,-0.0368126364,-0.0462013636,-0.0097958182,0.0061517273,0.0449145455,-0.0074158182,-0.0244877273,0.0142536364,0.0069762727,-0.0775002727,0.1079726364,-0.0101713636,-0.0072518182,-0.002898,-0.0166354545,0.0378296364,0.0405129091,-0.0577072727,0.0454286364,-0.0935885455,0.0224577273,-0.0222314545,0.04632,-0.0737611818,-0.035197,-0.0001361818,-0.020191,0.0137329091,0.061399,0.0680860909,0.0498103636,-0.0549587273,-0.0233226364,0.0161652727,-0.0086588182,-0.0493438182,0.0037825455,-0.0092981818,-0.0373309091,-0.0232838182,0.021993,-0.0129968182,-0.0442100909,0.0331540909,0.034805,0.055598,-0.0041340909,-0.0641958182,-0.0948781818,-0.0123112727,-0.0201289091,0.0069858182,-0.0121259091,-0.0237054545,0.0078379091,0.0233951818,0.0077092727,0.0416581818,-0.0439690909,-0.0461495455,-0.0317185455,-0.0240664545,-0.0097398182,0.0068602727,-0.0273094545,0.0777986364,-0.0369681818,-0.021013,-0.0075018182,-0.0123703636,0.0195397273,-0.006753,-0.0443522727,-0.0033404545,0.0556875455,0.003323,-0.0646062727,-0.0132108182,0.0268920909,-0.0131085455,0.0030875455,0.0101859091,-0.0497886364,0.0263102727,-0.0350139091,-0.0523803636,-0.0608519091,0.0411773636,0.1023634545,-0.0224974545,-0.0248581818,-0.0024374545,-0.0779856364,-0.0187032727,-0.0302052727,-0.0188016364,-0.004654,0.0571945455,0.0497100909,0.0150863636,0.0335324545,0.0062829091,-0.0595306364,-0.003903,0.0128367273,0.0339002727,-0.0299480909,-0.0283193636,0.0688708182,0.1003763636,-0.0558203636,-0.0295746364,0.0006485455,-0.0389790909,-0.0196400909,-0.0077037273,-0.0378400909,0.0801335455,0.0017417273,0.0861680909,0.0086760909,0.0223631818,-0.0112122727,0.0099283636,0.0331204545,0.0467800909,-0.0038365455,-0.0264222727,-0.0540069091,-0.0483077273,-0.0403323636,0.0469799091,0.054688,-0.0224591818,0.0342090909,0.0178168182,-0.0131089091,-0.0565791818,-0.0147930909,0.0103595455,-0.0136935455,-0.0023818182,-0.0358864545,-0.0476737273,0.0026850909,-0.0480888182,0.0197216364,0.0050485455,1
101_movies_4,23.475,26.714,0.0078922,-0.0009502,0.0112637,-0.0368054,-0.0007924,0.0104115,0.0048489,0.0061539,0.1035033,0.0018541,-0.0002418,-0.0185781,0.0078311,-0.0494952,0.0079513,-0.0066268,-0.0528598,-0.0096339,-0.0166101,0.0296732,-0.0029411,-0.0428634,0.0252964,0.0562435,-0.0058546,-0.0576912,0.0030222,0.0556663,-0.0544029,0.0646641,0.0335529,-0.0358174,-0.0156178,0.0179157,0.0011691,-0.0407135,-0.0389178,-0.0196992,-0.0180614,-0.0087622,0.0223222,0.0388509,-0.0162354,-0.0173723,-0.0072946,-0.0254771,0.0223457,0.0114031,0.0237512,0.0660027,-0.019752,0.0572103,-0.0024423,0.1004945,-0.0016119,0.0188889,-0.0573937,-0.0700018,-0.0034734,0.0135665,0.0003265,0.0366801,-0.0121624,-0.0142863,0.00653,0.0264917,-0.0771767,0.0464904,-0.0636899,0.016295,-0.048621,-0.0258523,0.0172514,0.0548594,-0.0468043,0.1043689,0.0113029,0.0283122,-0.0239718,-0.0217788,0.0081706,-0.0136133,0.0242779,0.0119537,-0.0013715,-0.0216084,-0.0120645,0.0145718,0.0536109,0.0311881,-0.0152256,-0.0158679,0.071786,-0.0089203,-0.0503972,-0.0118652,0.0441897,-0.0315007,0.0119187,0.0572732,-0.0555317,-0.0751079,-0.0070644,0.0303098,0.0163245,-0.0127724,0.0145649,-0.0545389,-0.015681,0.0598228,0.0465228,0.0486653,0.0684374,0.0215895,-0.0252657,-0.0323724,0.0337999,-0.0013912,-0.0132835,-0.0431228,-0.0371693,0.0094912,-0.0314519,-0.0502104,-0.0496359,0.0298575,0.0147745,-0.0362796,0.0531846,-0.035259,-0.00192,-0.018117,-0.0182985,-0.0561805,-0.0441526,0.0660672,0.0109822,-0.0540669,0.0098851,-0.0136624,0.0003066,0.0132243,-0.0104855,0.0082343,-0.0185539,-0.0085174,0.0173607,-0.0183813,0.0836875,-0.0214279,0.0276371,-0.0334952,-0.0337345,-0.0577958,0.0073681,-0.0082841,0.0429014,-0.0093961,-0.0297236,-0.0060202,0.0084924,-0.0571688,0.0799726,-0.0146178,-0.0289297,-0.0189481,-0.0210015,0.0141492,0.0585444,-0.0506495,0.0560893,-0.0485345,0.0117451,-0.020734,0.0310752,-0.0725618,-0.0222524,-0.0043059,-0.0189077,0.0203237,0.0374817,0.0679082,0.0334918,-0.0261517,-0.0289374,0.0113608,-0.0158435,-0.0594631,-0.0127482,0.0068835,-0.0391995,-0.0078029,0.0362875,-0.0224401,-0.0177575,0.0534759,0.008032,0.0549125,-0.0109817,-0.0261324,-0.0874057,-0.0101356,-0.0068157,-0.0027823,0.000419,-0.0034264,-0.0093482,0.0179972,0.0249292,0.0441492,-0.0271632,-0.032289,-0.0309172,-0.0118029,0.0018191,0.0388527,-0.0045257,0.065749,-0.0209508,-0.0227715,0.0054492,-0.0365298,0.0059422,-0.0304357,-0.063303,-0.0018055,0.0519213,-0.0223522,-0.0856825,-0.0305504,0.0406986,-0.0117641,0.0239392,0.0188911,-0.0387172,0.0587764,-0.0258107,-0.0451314,-0.0667746,0.0263373,0.0978165,-0.0088226,0.0152705,-0.0425429,-0.0754774,-0.0035254,-0.0397237,-0.0195182,-0.0030602,0.0489477,0.0495794,0.0242784,0.0273382,-0.0095599,-0.0360361,0.0021773,0.019587,0.0399861,-0.0381877,-0.0085051,0.0586483,0.0991406,-0.0602612,-0.0450904,-0.0109408,0.0115361,-0.0311419,-0.0211491,-0.0307046,0.092177,0.0198724,0.0367873,0.0320454,-0.0075475,-0.0361079,0.0139913,0.0375364,0.0570753,-0.0228075,-0.0267935,-0.0554059,-0.0399685,0.0058122,0.0391237,0.0285715,-0.0172095,0.0270788,0.0131128,-0.0324552,-0.0620652,-0.0384643,0.0134182,-0.0234198,0.0131351,-0.0218438,-0.0691205,0.0042313,-0.0550275,-0.0068048,0.0246479,1
101_movies_5,26.714,33.367,0.0139186,-0.0302244,0.0290004667,-0.0344768,0.0113321333,0.0251362667,-0.0070998667,0.0051934667,0.1077156667,-0.0488207333,-0.0013628667,-3.80666666667E-05,0.0218040667,-0.0340340667,0.0176335333,-0.0183560667,-0.0131823333,-0.0102916667,-0.0247216667,0.027806,0.0229108,-0.0459672,0.0085808667,0.0675642667,-0.0294086,-0.0448038,-0.0036341333,0.069276,0.0047508,0.0869054,0.0374344,-0.0373406,-0.0060575333,-0.0123884,0.0187338,-0.0235700667,-0.0255874667,-0.0118944,-0.0363103333,0.0043105333,0.0253746667,0.0200522,-0.0096388,-0.0124238,-0.0509949333,-0.0169093333,0.0067886,-0.0240568,0.0190993333,0.0752422667,-0.0139136667,0.0589208667,-0.0285020667,0.1060002,-0.0056247333,0.0243446667,-0.0159794667,-0.0739809333,0.0541375333,0.0347636667,-0.0065862667,0.0439173333,-0.0355003333,-0.0087106,0.0313069333,0.0346760667,-0.0532336,0.0390222,-0.0710954667,0.0165000667,-0.0580862667,-0.0382938,0.0372704667,0.0266756,-0.0717331333,0.079564,-0.0103024667,0.0141021333,-0.0400952,-0.0004440667,0.0134913333,-0.0028491333,0.0281464,0.0049666667,0.0103222,-0.0294894667,0.0053325333,0.0110819333,0.0530270667,0.0161368,0.0094457333,-0.0228504,0.0816453333,0.0042325333,-0.044274,-0.0272508667,0.0327330667,0.0071628667,0.0050912,0.0868345333,-0.0451202667,-0.056156,-0.0129300667,0.0687376667,0.0424256,-0.037431,-0.0024100667,-0.0757733333,0.0041191333,0.0791782,0.0403177333,0.0665288,0.0444567333,0.0341306667,-0.0113938,-0.0489434667,0.0636918,0.0102825333,-0.0193900667,-0.0545217333,-0.004976,0.0211466,-0.0481639333,-0.0262581333,-0.0587485333,0.0605458,0.0039214,-0.0302312,0.0357453333,0.0015948,0.0314216,0.0061367333,-0.0283510667,-0.0496898667,-0.0326404,0.0643112667,0.0112153333,-0.0835328,0.0423584667,0.0096630667,0.0115202,-0.0199716,-0.007262,-0.0024678667,-0.0152436667,0.0011149333,0.005644,-0.0309865333,0.0752053333,-0.0298964667,0.0314734667,-0.0201152,-0.0604760667,-0.0608339333,-0.0107331333,-0.0368392,0.0627977333,-0.0046042,-0.0371615333,-0.0124372,-0.0025624,-0.056155,0.0618432667,0.0041692667,0.0017723333,-0.0311840667,0.0035748667,0.0330400667,0.0355069333,-0.0541124667,0.0999934,-0.1099245333,0.005472,0.0028854667,0.0511122,-0.0854585333,-0.0225523333,-0.0162489333,-0.0126660667,0.0385424667,0.0883460667,0.0696466667,0.0384664,-0.0515813333,-0.0262170667,-0.0125486667,-0.0170377333,-0.0714818667,0.0042685333,-0.006836,-0.0566835333,0.0057332,0.0226364667,-0.0479208667,-0.0187738667,0.0514629333,0.0201213333,0.0607403333,-0.0108325333,-0.0408948667,-0.0890246667,-0.0206781333,-0.0212779333,-0.0135516,-0.0021106,-0.0231578,0.0269327333,0.0177379333,0.0375070667,0.0271976667,-0.0453542,-0.0435836,-0.0331626667,-0.0023117333,0.0192742,0.0641798667,-0.0082388667,0.0496418,-0.0183968,0.0142038,-0.0161578667,-0.0054336667,0.0535890667,0.0042757333,-0.0552805333,0.0161034667,0.048599,-0.0046636667,-0.0799646,-0.0521714667,0.0257925333,0.0113400667,0.0027881333,0.0295362,-0.0675799333,0.0513188,-0.0122762,-0.0375898667,-0.0656389333,0.0222646667,0.1173464,-0.0182248,-0.0387846667,-0.0306365333,-0.0855621333,-0.0126798667,-0.0655750667,-0.0491778667,0.004049,0.0532648,0.0575796,0.0072185333,0.0382187333,0.0259971333,-0.0370256667,0.0114544,0.0194758,0.0285427333,-0.0581314,-0.0526828,0.0441742,0.1077655333,0.0226499333,-0.0379935333,-0.0050162,-0.0273566,-0.0262662667,0.0116016,-0.0236002,0.0614644,-0.0059116667,0.0641568,0.010007,0.0122757333,-0.010336,-0.0012162,0.0572091333,0.0163352,0.0056494667,-0.0284995333,-0.0543858,-0.0252850667,-0.0226277333,0.0274320667,0.0702709333,0.0052759333,0.0114235333,0.0133634667,-0.0256432667,-0.0615230667,-0.0306530667,0.0213787333,-0.0176123333,-0.0207918,-0.0325922667,-0.0779709333,0.0240246667,-0.0764062,0.0172478667,0.0040967333,1
102_books_1,0,4.956,-0.0222182,-0.0348654,0.0597402,-0.0337364,0.0549414,0.0062818,-0.0100598,-0.0373296,0.1129276,0.0008618,-0.0108668,-0.004278,0.0256102,-0.0739288,0.0453362,-0.0053086,-0.0168138,0.0017436,0.0004798,0.0459134,0.0039594,-0.0620888,-0.006536,0.0020386,-0.0327116,-0.0341058,0.0107784,0.066208,-0.0374202,0.0821954,0.0274982,-0.0814906,-0.0358458,0.0333446,-0.015695,0.0080458,-0.0537294,-0.0084152,-0.0465784,-0.0142546,0.0136838,-0.0101146,-0.0575426,-0.0174728,-0.029865,0.011266,0.0056308,-0.0071548,0.063924,0.0946484,-0.0376296,0.064817,-0.0253504,0.1057592,-0.0025478,0.025629,-0.0376174,-0.0386542,-0.0063582,0.0424922,-0.0149668,0.0647938,0.0023344,-0.0436676,-0.017078,0.041195,-0.066551,0.0490744,-0.0737574,-0.0128592,-0.0502992,-0.0597446,0.0223458,0.0408818,-0.1024372,0.084794,0.0008542,0.0034724,-0.0467434,-0.0326236,-0.0091432,0.0171542,0.0146164,0.0069442,-0.0177838,-0.0454708,0.0053996,0.0001154,0.0229248,0.0169908,-0.0227564,0.015295,0.079785,-0.0161082,-0.0163824,-0.0533038,0.0289848,-0.0229244,0.0124752,0.0833072,-0.0399058,-0.0612982,-0.0542788,0.0247838,0.0116362,-0.041642,-0.0009348,-0.0335336,-0.0229388,0.06892,0.0766396,0.0517966,-0.0089314,0.0307744,-0.0259534,-0.061567,0.0594668,0.0024588,-0.0149728,-0.0860074,-0.0135728,0.0111162,-0.0799094,-0.0727864,-0.0430584,0.0593986,0.0209958,-0.0439958,0.0405966,-0.0255578,0.0414792,0.0198076,-0.0449822,-0.058106,-0.0390612,0.0688024,0.0233068,-0.0462002,-0.010183,0.0060238,-0.0504444,0.0184426,-0.0259018,-0.026182,0.0104924,-0.0261764,0.0284582,-0.054067,0.0573946,-0.0417486,0.0533802,0.0247714,-0.042562,-0.0365284,0.0003052,0.0129306,0.0894936,0.0236962,-0.0366744,0.0061578,-0.0395126,-0.036482,0.0509062,-0.0182176,0.0129918,0.0113306,0.054741,0.0524794,0.0577536,-0.0160282,0.083498,-0.0881462,0.0077118,-0.0462342,0.019629,-0.0769826,-0.049853,-0.0215938,-0.0058976,0.032042,0.0362628,0.066201,0.080779,-0.0115966,-0.012886,0.0108484,-0.0022332,-0.0566162,-0.0206574,-0.018972,-0.0572382,-0.0003528,0.036196,-0.0561892,-0.0518626,0.0213446,0.0305496,0.013333,0.015413,-0.0548954,-0.1045942,0.0071492,-0.03456,0.0137384,-0.0545758,-0.0178698,-0.0408256,-0.006248,-0.001485,0.0494176,0.0030766,-0.0510032,-0.0454854,0.0256254,-0.0285586,0.0592266,-0.031863,0.0971294,-0.0526172,0.020399,0.0286834,-0.0068368,0.0110592,0.0076368,-0.067443,0.003566,0.0330746,-0.0455306,-0.0806398,-0.0311102,0.030664,-0.0011842,0.0099042,0.0445254,-0.0647054,0.0648086,-0.01462,-0.0410688,-0.08308,0.0847324,0.1179404,-0.0552724,-0.0137212,0.0091184,-0.1009438,-0.0329442,-0.054717,-0.0395554,-0.012996,0.0598746,0.060938,0.0266516,0.0210672,0.0294264,-0.0123412,0.0107904,0.0199808,-0.015071,-0.092494,-0.0130138,0.089004,0.0376392,0.0140036,-0.0035354,-0.0362866,-0.0664914,0.0079468,0.00278,-0.0365196,0.0669588,0.0276148,0.0341872,-0.0470226,0.0505772,-0.063061,0.00676,0.0139298,0.0241198,-0.0010436,-0.0292026,-0.0239622,-0.007742,-0.0348994,0.0577198,0.043344,-0.023289,0.0157972,0.011611,-0.0019676,-0.0617742,-0.0092924,0.0499962,-0.0430346,0.0015944,-0.0110732,-0.0642752,-0.0222344,-0.0649692,-0.0050706,0.0288648,1
102_books_2,4.956,7.954,0.0139445,0.0055227,0.0297623,-0.0314796,0.0046761,0.0163883,-0.0090215,-0.0007291,0.0803991,-0.0372627,0.0252096,0.000486,0.0166814,-0.0335502,0.0240848,-0.0242281,-0.0253995,0.0109854,-0.0427654,0.0423646,0.0094694,-0.0348954,0.0089816,0.0853038,-0.0270532,-0.0356001,-0.0067933,0.0566202,-0.016359,0.0405953,0.0298513,-0.0325836,-0.009814,-0.0131242,0.0336247,-0.0458433,0.0005481,-0.0285768,-0.0490206,-0.0069563,0.0212644,0.0077952,0.0094081,-0.0301542,0.0049929,-0.0379249,0.0136102,-0.0225789,-0.0049902,0.057669,-0.026182,0.0641796,0.0291641,0.0780084,0.0004791,0.0273754,-0.0606977,-0.0666863,0.0259554,0.0266008,-0.01798,0.0262991,-0.0398019,0.012433,-0.0012144,0.0180031,-0.0721942,0.0375442,-0.0493337,0.0244955,-0.0750493,-0.0223066,0.0312846,0.0377813,-0.0745539,0.0801997,-0.009915,0.0361542,-0.0292285,-0.0216519,-0.0148608,0.0118815,0.0361675,0.015383,0.0350911,-0.0389387,0.0059951,0.0173598,0.0543067,0.0170457,-0.0086706,-0.0261741,0.057483,-0.0050491,-0.0653978,0.0238689,0.0100024,-0.0049735,0.0200446,0.0690594,-0.0411695,-0.0600052,-0.0254236,0.0290597,0.0138727,-0.0294599,0.0137499,-0.0700619,-0.0027753,0.0493254,0.0413864,0.0353962,0.043516,0.0176598,-0.0189631,-0.0475073,0.0465312,0.0245952,0.0060913,-0.0387718,0.0003925,0.0034925,-0.0452812,-0.0565503,-0.0655448,0.0455575,0.0293626,0.0066379,0.0665777,-0.021696,0.0127433,0.0056912,-0.0380551,-0.0291261,-0.0355655,0.0598533,0.0029095,-0.0799262,0.0381964,0.0228748,-0.0236036,-0.0172149,-0.0053493,0.0278089,-0.0540828,0.0102982,0.0308945,-0.0104052,0.0668307,-0.0526863,-0.0016681,-0.0109986,-0.0744401,-0.0348833,-0.0008305,-0.0175234,0.0403447,0.0154234,-0.0548814,-0.0196239,0.0134941,-0.0491232,0.0864765,-0.0252205,-0.0126598,-0.0160774,-0.002118,0.0336854,0.0422129,-0.0445219,0.0736591,-0.0248841,0.005557,0.0180513,0.0329412,-0.0721594,-0.0166482,-0.0132011,-0.0088427,0.023134,0.0441616,0.0816707,0.0452804,0.000472,-0.0385319,0.0177023,0.0053443,-0.0723123,0.0050692,-0.034862,-0.0401161,-0.0097426,0.0370593,-0.0147318,-0.011808,0.0502744,0.0154348,0.0306464,-0.0192518,-0.0030846,-0.0933873,-0.0214436,-0.0072345,-0.0098782,-0.0126356,-0.0248667,0.0231895,0.0318279,0.0219088,0.0312336,-0.0213188,-0.0143907,-0.0420387,-0.0017082,0.0007286,0.0375379,-0.0212196,0.0542787,0.0014527,-0.0067945,0.0030445,-0.0110087,0.0434741,0.0165411,-0.0633989,0.0139152,0.0422414,-0.0266844,-0.0583732,-0.0177688,0.0100786,0.0186818,0.0058668,0.031419,-0.0543349,0.0440479,-0.0164412,-0.0096282,-0.0541396,0.020276,0.119783,-0.0300526,-0.0170882,-0.017,-0.0956251,-0.0140838,-0.0481624,-0.0433778,-0.0406209,0.0463989,0.0559386,0.0124731,0.0433139,0.0183002,-0.0033237,-0.0275057,0.0147435,0.047601,-0.0542002,-0.0603838,0.0600215,0.0969149,-0.0212606,-0.0406469,-0.0458719,-0.0014766,-0.0419838,0.0000936,-0.0265919,0.0640919,-0.0190599,0.0327577,0.0336043,0.014543,0.0129098,0.0062885,0.0102797,0.0161676,-0.0062233,-0.0030951,-0.0292997,-0.0092272,-0.0237276,0.0190762,0.0535488,0.0013643,0.0190635,0.0077588,-0.0485433,-0.0440158,-0.0306812,0.0342708,-0.0297487,0.0100437,-0.0054543,-0.0516483,-0.0016425,-0.0575589,-0.0263766,0.008115,1
102_books_3,7.954,13.305,-0.033607,-0.0471666923,0.010344,-0.0143986923,-0.0082793846,-0.0126777692,-0.0165913077,-0.0382663077,0.1097301538,-0.0072219231,0.0179584615,0.0040256154,-0.0144456923,-0.0597586923,0.0197087692,0.0057875385,-0.0116006923,0.0147918462,-0.0085778462,0.0547684615,0.0267086154,-0.0517677692,0.023296,0.0244745385,-0.0376784615,-0.0512334615,-0.0059951538,0.0624917692,-0.0460531538,0.0681243077,0.0160237692,-0.0324137692,0.0050546154,0.0165814615,0.0020583846,-0.0210091538,-0.0489887692,-0.0177555385,-0.0061719231,-0.0216775385,0.0241938462,-0.0183054615,-0.0475467692,-0.0007298462,-0.0290685385,-0.0249179231,0.0163609231,-0.0336516923,0.0130825385,0.0675936154,-0.0209195385,0.0703617692,0.0039783077,0.0881024615,0.0217623077,0.028755,-0.0128386154,-0.0745318462,0.0144053077,0.0217016923,-0.0075652308,0.0403716923,0.0042635385,-0.022127,0.0108665385,0.0205425385,-0.0553519231,0.0477826154,-0.0617003846,-0.0191605385,-0.0460200769,-0.0365608462,0.0126882308,0.0495347692,-0.055058,0.0807310769,0.0118383077,0.0037104615,-0.0252674615,-0.0134853846,-0.0190564615,-0.0012732308,0.0221835385,0.0390515385,0.0045328462,-0.0511455385,0.0156768462,0.0307263077,0.0505841538,0.0170443846,0.0049012308,0.024576,0.0814923077,-0.0208766923,-0.0313724615,-0.0268703846,0.0388120769,-0.0246560769,0.0103733077,0.0754453077,-0.0511651538,-0.0601344615,-0.0185779231,0.0352780769,0.0101842308,-0.0110428462,0.0261054615,-0.0509255385,-0.0137223846,0.0391822308,0.0203204615,0.0595874615,0.0056823846,0.0128482308,-0.0359038462,-0.0308751538,0.0630751538,-0.005278,-0.0084803846,-0.0591635385,-0.0341539231,0.0408881538,-0.0331364615,-0.0791979231,-0.0298943846,0.0386706154,0.02482,-0.0420913077,0.0431383846,-0.0291923846,-0.0135666923,0.0151056154,-0.0391086923,-0.0429461538,-0.03995,0.0591329231,0.0293710769,-0.0834826154,0.0222406154,-0.0068626154,-0.0306877692,-0.0174863077,-0.0290813846,0.0087971538,-0.0027371538,-0.006087,-0.0236374615,-0.0292159231,0.0703652308,-0.0271476923,0.0382142308,-0.0067793846,-0.0504959231,-0.033881,-0.0096772308,0.0014809231,0.0449886923,0.0093882308,-0.0228709231,0.0045867692,0.0071561538,-0.0604195385,0.096312,-0.0389471538,-0.0041754615,-0.0289540769,0.0215801538,0.0340078462,0.0324463077,-0.0446562308,0.083609,-0.051768,0.0125257692,-0.0257732308,0.0322922308,-0.0686735385,-0.0139796154,-0.0185362308,-0.0231355385,0.0114392308,0.048285,0.0599510769,0.0518742308,-0.0223393077,-0.0321718462,-0.0028960769,-0.0048758462,-0.0641983077,-0.0021713846,0.0001108462,-0.0304926154,-0.016213,0.0288456923,-0.0323792308,-0.0289113846,0.0493448462,0.0412766923,0.0283512308,-0.0008475385,-0.0420526154,-0.0781679231,0.0042642308,-0.0167647692,-0.0037131538,-0.0388493846,-0.028299,-0.0158917692,0.0254303077,-0.0125049231,0.0099817692,-0.0087026923,-0.0624675385,-0.0353966154,-0.0069110769,-0.0001126154,0.0386792308,-0.027736,0.0606686923,-0.0299330769,-0.0163087692,-0.0065761538,0.0027287692,0.0367526923,0.00084,-0.0473713077,-0.0116607692,0.0097562308,-0.0177278462,-0.0737726923,-0.044079,0.0135707692,-0.0123466154,0.0169259231,0.0129538462,-0.0561329231,0.0493692308,-0.0266029231,-0.0401549231,-0.0663527692,0.0380090769,0.1058420769,-0.0334933077,-0.0045046923,-0.0070037692,-0.0831136154,0.0012730769,-0.0350490769,-0.0238049231,-0.0304375385,0.0425520769,0.0531641538,0.0239459231,0.0388558462,0.0202432308,-0.0194121538,-0.0018536154,0.0117103077,0.0173952308,-0.0259153077,-0.0165886923,0.0605233846,0.0663355385,-0.0257279231,-0.0290483846,-0.0217120769,-0.0046842308,-0.0192579231,0.0061492308,-0.0411169231,0.0548206923,0.0236356923,0.0540484615,0.0078046923,0.0146617692,-0.0355209231,0.0018557692,0.0381763077,0.0207546154,-0.0117066923,-0.0485107692,-0.0323244615,-0.0395578462,-0.0241053077,0.0356294615,0.0372993846,-0.0204889231,0.017389,0.0081136154,-0.0072003077,-0.0654508462,-0.0372936154,0.0033926154,-0.0422034615,0.0148882308,-0.002036,-0.0659959231,0.0095426923,-0.0768528462,-0.0101628462,0.0135592308,1
102_books_4,13.305,19.397,0.03300825,-0.014513125,0.040572375,-0.040125125,-0.0148725,0.023082625,0.012228625,-0.011391875,0.073103375,-0.0004045,0.0346935,-0.019469625,-0.03243225,-0.05012275,0.01087625,0.007007875,-0.02264975,-0.00687975,-0.017155375,0.04153825,0.0077865,-0.044338125,0.026248125,0.072563875,-0.02207675,-0.07022925,-0.002225375,0.075318625,-0.030049875,0.089502,0.028421875,-0.065134125,-0.01923075,-0.004079,0.019336375,-0.03700975,-0.0409845,-0.02483325,-0.001491875,-0.00152025,0.036708,0.001326625,-0.02781875,-0.046577875,-0.016761375,-0.0508545,-0.0174705,0.005010375,0.033646875,0.060612,-0.000163625,0.02364275,0.013573125,0.100185875,-0.017938,0.013504625,-0.022365625,-0.06763975,0.0296575,0.001272875,-0.001919125,0.04778675,-0.017909125,-0.030207625,0.020795125,0.0703345,-0.10133175,0.020809625,-0.076784125,0.00572925,-0.05927575,-0.014722625,0.0256385,0.05820075,-0.04831875,0.087899625,-0.047089,0.0370155,-0.03900625,-0.008824625,0.01577775,-0.000625875,0.018826625,0.002392,-0.007578,-0.0487945,0.010145875,-0.02353025,0.0548755,-0.00296775,-0.00906525,-0.00692125,0.106315125,-0.0081395,-0.033102625,-0.023990875,0.04948575,0.008208875,0.0077285,0.06545925,-0.044069125,-0.076053875,-0.0331745,0.03702225,0.009659,0.015547375,0.026422375,-0.033473375,0.0006765,0.061486125,0.03437825,0.050121375,0.054429,0.015925,-0.023327125,-0.014874125,0.064370625,0.009172625,-0.01312875,-0.038887625,0.001531875,0.023594125,-0.0430895,-0.054824,-0.028284,0.04114825,0.031564,-0.033992375,0.04429475,-0.003464375,-0.004584375,-0.0003015,-0.015173375,-0.061492625,-0.025197375,0.06767125,0.02134525,-0.0738975,-0.00529325,0.02974025,-0.0357695,0.000394375,-0.003500125,0.027395125,-0.028981125,-0.020413,0.006953,-0.01615275,0.0700335,-0.015294,0.038089,-0.022296875,-0.04330525,-0.0385225,-0.003661625,0.00180225,0.0456325,-0.016221375,-0.041735375,-0.001645375,-0.01176275,-0.048655625,0.099817,-0.016592375,-0.0196805,-0.034040875,-0.00744075,0.037606,0.0299695,-0.071716625,0.050289375,-0.073215625,0.004013125,0.00155575,0.051883375,-0.0521925,-0.027185625,-0.001583,-0.012059,0.015951625,0.057579875,0.08461525,0.042633875,-0.016202875,-0.010072875,-0.004410625,-0.013529875,-0.068175,-0.00533075,-0.000135,-0.021136375,0.001103375,0.0147475,-0.033468625,-0.03856175,0.02181575,0.028674125,0.035998375,-0.0011415,-0.027306125,-0.099983125,-0.01072375,-0.01655975,0.016664625,0.007596,-0.005354625,-0.002420875,0.004010625,0.033766625,0.02819925,-0.036054,-0.032713625,-0.042984125,-0.017680875,0.0169515,0.028282375,-0.014207375,0.055481875,-0.0238565,-0.027690625,-0.01569475,-0.02617,0.038530125,0.006729375,-0.018455375,-0.036075,0.048046125,-0.0025715,-0.05978725,-0.047664375,0.00742125,-0.0088715,0.009245375,0.022162875,-0.03807475,0.04447625,-0.020033875,-0.0547675,-0.0969725,0.0361675,0.11529925,-0.037902,-0.030302375,-0.03306425,-0.0918315,-0.01388525,-0.007574,-0.03444,-0.039928625,0.030921125,0.05878075,0.003230375,0.024061625,-0.0264855,-0.0174115,0.010175,0.008463875,0.023876,-0.051559,-0.0319885,0.061477375,0.10595725,-0.0723815,-0.025372,-0.018437875,-0.021553,-0.0236865,0.001490875,-0.0372725,0.068312625,0.011576,0.054097375,0.00993525,0.026427125,-0.0278135,-0.003204125,0.02401975,0.030806,0.0054845,-0.01206975,-0.028902625,-0.01541175,-0.01946625,0.05815675,0.031079875,-0.009183125,0.021661125,0.003597625,-0.0286925,-0.05516,-0.020806875,0.01361575,-0.046549625,0.00320275,-0.012868625,-0.038860375,0.029853,-0.05763375,-0.013109375,0.003085125,1
102_books_5,19.397,34.133,-0.0027931887,-0.0329307547,0.0330257547,-0.0382458302,0.0112501698,0.0059967736,-0.0158779811,-0.0175956981,0.1023401698,-0.0121925094,0.0169679245,-0.0236621887,-0.0069419245,-0.0541784717,0.0303404151,0.0025117925,-0.0253336038,0.0075079811,-0.0046255849,0.0445491698,0.0254370189,-0.0441222642,0.0177778302,0.0379517358,-0.0231586792,-0.0530883585,-0.0058771132,0.0666817547,-0.0605882642,0.0711873962,0.028516566,-0.039854717,-0.0256489811,0.017485283,0.0116011509,-0.0224407358,-0.0351186226,-0.0198218113,-0.030033434,-0.0253619434,0.0190593019,-0.0017283774,-0.027379717,-0.0215503585,-0.0232303208,-0.0300653396,0.0099865283,-0.0081976226,0.0279111887,0.0786705283,-0.0199710755,0.0580054906,0.0028221887,0.1025669623,-0.0022768491,0.0289918302,-0.023364566,-0.0550672642,0.0097978302,0.0217266981,0.0001018302,0.0449838113,0.0080244528,-0.0241191132,0.0017302642,0.0500291509,-0.0899754906,0.0382538868,-0.0759134528,-0.0061301698,-0.0428333962,-0.0459546792,0.0124133019,0.0403112075,-0.0689079623,0.1111687736,-0.0156695094,0.0196378679,-0.029362,-0.0078924151,0.0147758302,0.0115403019,0.0095837547,-0.0005288679,-0.0055231887,-0.0508198302,0.0083725283,0.0146159434,0.0553669623,0.0145266038,-0.0017367925,0.0016053396,0.083209283,-0.0051804717,-0.0252552642,-0.0365720755,0.0259273585,-0.0078341132,0.0125014717,0.0651523774,-0.0579910943,-0.0721540377,-0.0362770377,0.0305228113,0.0232533962,-0.0322049811,0.0120094906,-0.0452223396,-0.0095033208,0.0514410943,0.0346435283,0.0450177358,0.0292539811,0.0067061887,-0.0266880189,-0.0399674717,0.0499239623,0.0015294906,0.0016253585,-0.0585031698,-0.0206955283,0.0288347358,-0.0524089057,-0.0640949623,-0.0628271132,0.0515160377,0.0146407736,-0.0226001698,0.0560576226,-0.0142695849,0.0098820189,-0.0075586981,-0.0356123774,-0.0397416415,-0.0394227547,0.0685940377,0.0177178868,-0.0731765283,0.0003535283,0.0149612453,-0.030941,0.0093473774,-0.0178873585,0.0105090189,0.0001367736,-0.0184744151,-0.0010559245,-0.0302523962,0.0817793019,-0.0275187358,0.0279481132,-0.0120766226,-0.0466166604,-0.0489029434,-0.0138813585,-0.0089336604,0.0550889623,0.0024815094,-0.0497954717,-0.0008919811,-0.0094603019,-0.064814,0.0909461132,-0.0381411887,-0.0115454151,-0.0133089623,0.0151316226,0.0408826415,0.0535800943,-0.0274336981,0.0688619245,-0.0616800755,-0.0152318679,-0.0141156792,0.0527046415,-0.0594558302,-0.0387253396,-0.0044645472,-0.018249566,0.0221896981,0.0422677925,0.0840038113,0.0698012075,-0.0319536415,-0.0257391887,0.0058285472,0.000556283,-0.0470695094,-0.0040836226,0.0097498113,-0.0538996226,-0.0063563019,0.0173256604,-0.042442434,-0.0438153585,0.0259803774,0.0237483585,0.0364506604,-0.0056022642,-0.0523230755,-0.1057926981,-0.0036678113,-0.0237503774,0.0061133585,-0.0261238302,-0.0361781887,-0.0049821698,0.0130799245,-6.94150943396E-05,0.0386427547,-0.0295261509,-0.0386453774,-0.0398491321,-0.005204717,-0.0097376981,0.0332884528,-0.0432434906,0.0792079245,-0.0337241887,-0.0232919623,-0.0086592075,-0.0207309057,0.0310577547,0.0119570755,-0.0438808868,-0.0014695094,0.0398009811,-0.0255953208,-0.076136283,-0.0326026981,0.0147669057,-0.0104620189,0.0194522642,0.0157309057,-0.040916434,0.0491347547,-0.0360811509,-0.0414989623,-0.072092566,0.0456085283,0.1180461698,-0.0328132453,-0.0230704151,-0.0105562264,-0.0835393585,-0.0110000377,-0.0427198302,-0.030513434,-0.0242229811,0.028877,0.0426536415,0.0104565094,0.0242815283,0.0133110189,-0.0134484906,0.0088976415,0.028266,0.027054434,-0.0558888491,-0.0244674528,0.072886566,0.0740886604,-0.0190006604,-0.0244423019,-0.0181058868,-0.0257242642,-0.0365176792,0.0049496415,-0.0465261509,0.0738686604,0.0096590189,0.0575465094,-0.0124019434,0.018229283,-0.0405578679,-0.0086450755,0.027401717,0.0299361698,-0.0105189623,-0.0162089057,-0.0315132075,-0.0318676226,-0.0234052642,0.053315434,0.042088434,-0.0180829811,0.0061651132,0.0131933585,-0.0227753396,-0.0639251132,-0.0233290189,0.0248121509,-0.0438538491,0.0051916038,-0.0122251698,-0.0464966226,-0.0080177736,-0.0567493396,-0.008338566,0.0137491321,1
103_books_1,0,1.478,0.0112833333,-0.0419413333,0.0398733333,-0.051696,-0.0201513333,-0.0019456667,-0.0310503333,-0.0095863333,0.085263,0.009284,0.0001066667,-0.037771,-0.0068803333,-0.005944,0.005381,-0.011074,-0.0074156667,-0.00454,-0.0119893333,0.051304,-0.0007973333,-0.0530956667,0.042805,0.048441,-0.0297926667,-0.0564323333,-0.0023253333,0.1000996667,-0.0402196667,0.076095,0.0560876667,-0.0471113333,-0.058359,0.04567,0.0291466667,-0.0332343333,-0.0415916667,-0.0036663333,-0.034702,-0.0231076667,0.0342123333,0.0092493333,-0.0147023333,-0.0400833333,-0.0256003333,-0.022479,-0.0083796667,-0.0076666667,0.0219766667,0.1011843333,-0.024573,0.0852436667,0.018397,0.1132716667,-0.0165053333,0.0581143333,-0.0358746667,-0.074421,-0.0119003333,0.044304,0.046564,0.0637916667,-0.0282886667,-0.0386123333,0.019381,0.0834963333,-0.1147616667,0.0523833333,-0.0571623333,-0.01194,-0.0428693333,-0.0256686667,-0.0225736667,0.0628726667,-0.063498,0.076563,-0.0273276667,0.014835,-0.06003,0.004599,-0.009438,-0.0110046667,0.0145403333,0.011725,0.0103003333,-0.0254806667,0.0187693333,0.025792,0.058507,0.005372,-0.0158403333,0.0026333333,0.076223,0.0118206667,-0.0545933333,-0.0649776667,0.015819,-0.0034513333,0.0057676667,0.07996,-0.05478,-0.0848993333,-0.0456153333,0.0576146667,0.01963,-0.0124633333,0.023078,-0.0764653333,-0.0140663333,0.0573613333,0.025034,0.0036963333,0.0529023333,-0.010028,-0.0292776667,-0.034572,0.07043,0.0033463333,-0.0063383333,-0.0770836667,0.0062456667,0.027661,-0.055738,-0.0696136667,-0.0477946667,0.0493733333,0.036719,-0.0086833333,0.0487986667,-0.0276803333,0.021142,0.0029623333,-0.0367553333,-0.0526986667,-0.0173436667,0.0796946667,0.0078076667,-0.0642173333,0.0094506667,0.0243053333,-0.012621,0.012627,0.011527,0.027402,-0.0491876667,-0.003479,-0.0060823333,-0.0385466667,0.0731656667,-0.0464573333,-0.005688,-0.0187596667,-0.0603933333,-0.0497226667,-0.0092523333,-0.0019773333,0.0458753333,-0.0066746667,-0.039152,0.0018783333,-0.009263,-0.0665476667,0.114659,-0.0050816667,-0.001174,-0.025794,-0.016837,0.0299046667,0.0285866667,-0.026344,0.0522546667,-0.0836046667,0.01476,-0.017513,0.0506996667,-0.0454653333,-0.027723,-0.0104983333,-0.0281993333,0.0244296667,0.024708,0.108075,0.0565663333,-0.0204733333,-0.0184646667,-0.0202763333,0.009958,-0.063057,-0.005205,0.0099706667,-0.0437926667,-0.0109383333,0.0263006667,-0.0175086667,-0.0666756667,0.036289,0.040437,0.0020313333,0.0101586667,-0.0380103333,-0.0951933333,-0.0157366667,-0.049611,0.0239736667,-0.0108633333,-0.0595516667,0.0252766667,-0.004556,0.0052213333,0.0647366667,-0.0319456667,-0.0283576667,-0.0480823333,-0.0076856667,-0.001622,0.0343433333,-0.0337023333,0.078183,0.00141,-0.0228266667,0.01497,-0.0301293333,0.0414436667,0.0263453333,-0.045175,0.0024393333,0.030255,-0.0161003333,-0.0402143333,-0.0383243333,0.0278326667,0.0245423333,0.0387786667,0.065552,-0.068247,0.045537,-0.0347896667,-0.0487316667,-0.0781056667,0.0717526667,0.1170253333,-0.0197583333,-0.0163363333,-0.0103916667,-0.11882,-0.020452,-0.0363576667,-0.0390043333,0.0101113333,0.0232803333,0.0505953333,0.0270606667,0.0264383333,-0.0106376667,-0.0033326667,-0.0156346667,0.038624,0.0173096667,-0.0526923333,-0.039711,0.0808576667,0.092301,-0.035269,-0.0428363333,0.0265973333,-0.051403,-0.0613653333,0.0347706667,-0.04752,0.0753823333,0.0069006667,0.053503,-9.53333333333E-05,0.009663,-0.0525483333,0.001513,0.0543586667,0.0242006667,-0.016837,0.00395,-0.0251153333,-0.058066,-0.0383393333,0.0433813333,0.0626076667,0.0063083333,0.009052,-0.010726,-0.0206253333,-0.0661276667,-0.0371363333,0.027712,-0.063862,-0.0243023333,-0.0198916667,-0.0244583333,0.0107556667,-0.0835663333,-0.003009,0.0281973333,1
103_books_2,1.478,5.234,-0.01358025,-0.044385125,0.046968,-0.039491,0.027482125,0.036489,0.004225125,-0.012512375,0.116093,-0.0275355,-0.016237125,-0.0359045,0.023707125,-0.03626325,0.03196225,-0.030337125,-0.01137875,0.022275375,-0.007330125,0.07110925,-0.024815,-0.084807,-0.021768,0.04373975,-0.014007,-0.015727,-0.00261575,0.05497575,-0.016470625,0.061136375,0.04479275,-0.0617335,-0.070800125,0.04868475,0.021688375,-0.0287995,-0.05136725,-0.006964375,-0.0432055,0.01668425,0.037953875,0.00039275,-0.03870375,-0.0218055,-0.03667325,-0.0252665,0.006076375,-0.0261575,0.035437125,0.0771585,-0.035073375,0.087536875,0.01879875,0.094215875,-0.008618875,0.029978375,-0.027623125,-0.038233125,-0.021818625,0.020689375,0.0314355,0.027010375,-0.033800625,-0.03585225,0.007438125,0.0373355,-0.046896,0.02178675,-0.06427225,0.038851125,-0.038798625,-0.063354375,0.015466875,0.018197375,-0.048755125,0.082626125,0.019373375,0.0402815,-0.025947375,-0.01030625,0.009483625,-0.007748125,-0.004159375,0.03578475,0.0029015,-0.029199125,-0.02340925,-0.025531125,0.02558125,0.024785125,-0.01648175,0.00396425,0.023872625,-0.004292,-0.047317375,-0.002898375,0.04775275,-0.000145625,0.04115425,0.082322375,-0.044054375,-0.041702375,-0.033118875,0.089533,0.0253065,-0.03646525,0.011282,-0.09271125,-0.015520875,0.080070125,0.042890375,0.021025625,0.044347375,0.0124145,-0.001029625,-0.0599695,0.032955875,0.009814875,-0.025664625,-0.053214375,0.056098125,0.003740375,-0.05556825,-0.03755575,-0.008402125,0.05225925,-0.0199965,-0.025860375,0.06199775,-0.01757175,0.00719075,-0.006789375,-0.036720125,-0.02637025,-0.03299975,0.05942575,0.0045415,-0.0464395,-0.000473625,0.006524125,-0.0288385,0.033470375,-0.029148,0.00017675,-0.01472525,-0.014686,0.03078275,-0.0491695,0.08826575,-0.05249975,0.04326175,0.001373625,-0.03776875,-0.052284875,-0.05001075,-0.00178225,0.106341375,0.019332625,-0.051652375,-0.02834225,-0.01493875,-0.09267525,0.074654625,0.01845675,-0.029651375,-0.014546125,0.000382625,0.03736075,0.018384,-0.066117375,0.065271875,-0.08737275,0.003484625,0.0091265,0.03823225,-0.14389025,-0.032025375,-0.011581375,-0.0200425,0.00581325,0.02486125,0.071795,0.073904125,-0.007286625,-0.018015,0.03707675,0.018626375,-0.043945375,-0.027214,-0.00884625,-0.067012625,0.0399555,0.016295875,-0.012105875,-0.023918375,0.02158425,0.018203625,0.049945125,0.001165625,-0.00179475,-0.11594425,-0.016111125,-0.035921,0.02957275,-0.059574,-0.046377,0.0180295,0.025414375,0.01638675,0.05248875,-0.023616875,-0.0341595,-0.03813475,0.023327625,0.031302,0.04823125,-0.0067105,0.065964375,-0.020323625,0.029932,-0.026386,-0.0458805,0.055247625,-0.0184755,-0.05063825,0.01152625,0.044783,-0.019598625,-0.063199375,-0.037239125,0.037876125,0.051021,-0.01093075,0.047119375,-0.08688925,0.04673725,-0.012632,-0.0186155,-0.0253335,0.0603595,0.14068425,-0.02196725,-0.01637325,-0.048354625,-0.079074125,-0.019868625,-0.055918375,-0.004666,0.011275,0.040137,0.021472875,0.043115875,0.010394125,0.00796125,-0.080601375,0.016950375,0.003114375,0.03802275,-0.04480375,-0.031850125,0.056186,0.040504875,-0.001854125,-0.036283875,0.00405025,-0.0087555,0.00700275,0.015233125,-0.012801875,0.090197,0.0156255,0.04288,0.0801555,0.01948875,-0.062086125,-0.005254625,0.00522,0.024535,-0.00440075,-0.03004875,-0.060991125,-0.0480725,-0.03571725,0.032992375,0.061198625,-0.002475625,0.032626875,-0.0093205,-0.001171,-0.08504675,0.010555,0.061836125,-0.030798875,-0.008523875,-0.011553875,-0.080519375,-0.02164325,-0.102764125,0.020275375,-0.00424475,1
103_books_3,5.234,7.567,0.025121,-0.004167,0.02594475,-0.00706675,0.02558925,0.007702,-0.00795875,-0.00695925,0.04615675,-0.02248225,0.021655,-0.0080255,-0.022992,-0.00664675,0.0395225,-0.00751375,-0.007689,0.0608745,-0.012495,0.0826475,0.00634825,-0.0050825,0.026317,0.0825315,0.00718075,-0.0554975,0.020711,0.03693175,-0.0550445,0.032724,0.026831,-0.02795975,-0.00165775,-0.02050725,0.05335775,-0.058696,0.00197425,0.014175,-0.05518075,-0.01671325,0.01912975,0.02783375,0.027041,-0.0163565,0.01206075,-0.05897625,0.0411495,0.0015005,-0.03861925,0.05484475,0.00336025,0.04539075,0.0425765,0.0656525,0.00425475,0.03946225,-0.058284,-0.03183775,-0.02210975,-0.015697,0.00908325,-0.004441,-0.03692075,-0.0009805,-0.02320075,0.00321725,-0.0606815,-0.01314925,-0.04863575,0.0213195,-0.02902925,-0.00084575,0.000166,0.063336,-0.05645325,0.104075,-0.0186725,0.065838,-0.0374375,-0.043532,-0.0083815,-0.00743075,0.01311225,0.0187155,0.01907725,-0.04723775,-0.0017575,0.038433,0.0345685,0.03148825,0.00642025,-0.01948375,-0.00640275,-0.01051475,-0.045625,0.0571695,0.0012215,-0.0054695,-0.002357,0.05084475,-0.03446725,-0.05726225,-0.02640925,-0.0259785,-0.01152675,-0.023087,0.03202075,-0.05961275,0.00846125,0.0252965,0.0129645,0.02800375,0.007698,-0.03834725,-0.02245675,-0.03971425,0.05596375,0.010994,0.033256,-0.01616425,0.0088825,-0.02505375,-0.0326715,-0.11958125,-0.04601725,-0.00646025,0.03802225,0.04742475,0.08542775,-0.02575625,-0.0291115,-0.02221,-0.044371,-0.011235,-0.00646775,0.0583475,0.00323775,-0.05869,0.05667625,0.015365,-0.00447,0.0187065,-0.023708,0.04051675,-0.05554875,0.015633,0.03071875,0.02221525,0.05935425,-0.04043,-0.01324825,-0.0135785,-0.09439525,-0.01495225,0.0000405,0.00765425,0.06265875,0.03573825,-0.08215825,-0.03125725,-0.011482,-0.06686375,0.10273825,-0.02722875,0.015999,-0.03301575,0.0168295,0.00873625,0.01052775,-0.04374525,0.00585825,0.00915575,-0.015146,0.0182545,0.03128375,-0.05780775,0.02160175,-0.01066475,-0.008155,0.01434525,0.020042,0.068424,0.02680575,-0.0086045,-0.038051,0.01720925,0.02744125,-0.032042,0.001042,-0.035621,-0.03613275,-0.03259925,0.05428725,0.01740125,-0.029035,0.0403375,-0.01300525,-0.01242875,-0.03837025,-0.005863,-0.093467,-0.00197475,-0.026582,-0.00176,-0.02880975,0.001658,-0.0149575,0.047103,0.028634,0.037282,-0.0324595,-0.02808275,-0.04562475,0.02026775,-0.006215,0.00881,-0.05944025,0.0717025,0.02713975,-0.0141065,0.03184925,-0.00307525,0.017842,0.03844575,-0.05150125,-0.000402,0.01000075,-0.02603475,-0.0210105,0.023941,-0.006187,0.0076325,0.03247925,0.02381225,-0.06689125,0.04327425,-0.035817,0.00842225,-0.06297125,-0.007498,0.10776975,-0.02966425,-0.023691,-0.0364255,-0.080455,0.00261275,-0.0225875,-0.01201,-0.0628545,0.013278,0.03708875,0.02966825,0.08049025,0.00460525,0.05799975,-0.02013225,-0.011586,0.0470205,-0.05914675,-0.0483215,0.0779945,0.09936075,-0.050023,-0.03386625,-0.05882725,0.008358,-0.025061,-0.00338725,-0.02388075,0.058341,-0.01804625,-0.01232,0.042412,0.02140425,0.01555575,0.00227175,-0.02906975,0.02569225,0.020028,-0.01968425,-0.00296025,0.00987575,-0.03425725,0.041047,0.0768465,0.00708875,0.03632925,-0.00924775,-0.040452,-0.01591,-0.041245,0.008559,-0.04821375,0.049007,0.01248425,-0.042765,-0.010379,-0.058404,-0.06699275,0.016047,-1
103_books_4,7.567,11.761,-0.0130905455,-0.0175452727,0.0286300909,-0.032546,0.015137,0.0073058182,-0.012961,-0.0262693636,0.0996599091,-0.0011367273,0.0151606364,-0.0206568182,0.0034851818,-0.058793,0.0219614545,-0.0001809091,-0.0176225455,0.0131971818,-0.0051912727,0.0279635455,0.0108164545,-0.052723,0.0261431818,0.0453473636,-0.0151461818,-0.0504986364,0.0104971818,0.0734210909,-0.0472244545,0.0548778182,0.0362135455,-0.0483242727,-0.012896,-0.0116928182,-0.0089516364,-0.029057,-0.0279539091,-0.0180124545,-0.013897,-0.0171012727,0.0087497273,0.012144,-0.0268263636,-0.0145494545,-0.0051984545,-0.0288364545,0.0334653636,-0.0307126364,0.0239556364,0.0782156364,-0.0350444545,0.0599153636,-0.0033453636,0.0960858182,-0.0156346364,0.0161512727,-0.0445893636,-0.0689808182,0.0112301818,0.0143712727,-0.0172076364,0.0513570909,-0.0078217273,-0.0143950909,0.0155367273,0.0315598182,-0.0905867273,0.0354210909,-0.0806307273,0.0110303636,-0.0414613636,-0.063131,0.0228016364,0.0379561818,-0.0431085455,0.1051879091,1.84545454545E-05,0.0178432727,-0.0391942727,-0.0221306364,0.0119077273,0.0168896364,0.0187215455,0.0017026364,-0.005865,-0.0389606364,0.0015297273,0.0288262727,0.0463458182,0.0308211818,-0.0050063636,-0.0122134545,0.0721249091,-0.0170949091,-0.0390525455,-0.043313,0.0227914545,-0.0168100909,0.0003909091,0.0735871818,-0.0457892727,-0.0694775455,-0.0253849091,0.0220716364,0.0294816364,-0.0251305455,0.0229407273,-0.0462544545,-0.0030063636,0.0493635455,0.0468938182,0.0475060909,0.0309899091,0.0194537273,-0.0405864545,-0.038295,0.043939,-0.0097139091,-0.0053017273,-0.0433799091,-0.0348300909,0.0339792727,-0.0524205455,-0.0636366364,-0.049358,0.0348951818,0.0309211818,-0.0086399091,0.0569388182,-0.0240542727,0.0154149091,-0.0111445455,-0.0494437273,-0.045405,-0.0333219091,0.0689889091,0.0028912727,-0.0572167273,0.0057572727,0.0153702727,-0.0299638182,0.0068397273,-0.024608,0.0073481818,0.0008247273,-0.0207853636,0.0155813636,-0.0230028182,0.091966,-0.0362314545,0.0321449091,-0.0248393636,-0.0622376364,-0.0430934545,-0.0134561818,-0.003888,0.046272,0.0052330909,-0.0315998182,-0.0115054545,-0.015264,-0.0644913636,0.0919578182,-0.0434614545,-0.0022012727,-0.0188102727,0.0072106364,0.0317327273,0.0450191818,-0.0402234545,0.0826858182,-0.0615668182,-0.0195742727,-0.0171867273,0.0573398182,-0.0611478182,-0.0471505455,-0.0144091818,-0.0275056364,0.0274960909,0.0291328182,0.0834526364,0.0672686364,-0.0484465455,-0.0298570909,-0.0117445455,-0.0048939091,-0.0433534545,-0.0116583636,0.0051989091,-0.04097,-0.0143909091,0.0320955455,-0.0459697273,-0.0326349091,0.0515589091,0.040903,0.0495302727,-0.0132743636,-0.055595,-0.0971286364,0.0008567273,-0.0232513636,-0.0047738182,-0.0211959091,-0.0358512727,0.0063887273,0.0013353636,0.0031887273,0.0339719091,-0.0287934545,-0.0474095455,-0.0347185455,-0.0064365455,-0.0028132727,0.0290531818,-0.0219628182,0.0795081818,-0.0321060909,-0.011352,-0.0004805455,-0.0038587273,0.0193586364,0.0163484545,-0.0503477273,0.0071735455,0.0449628182,-0.0197554545,-0.0783523636,-0.033567,0.0240049091,-0.0036928182,0.0098010909,0.023509,-0.049641,0.0433575455,-0.0227070909,-0.0524892727,-0.0887189091,0.0514356364,0.1185253636,-0.0448300909,-0.0345752727,-0.0108157273,-0.08809,-0.0072568182,-0.0451386364,-0.0190138182,-0.0233152727,0.0381389091,0.0597420909,-0.0011599091,0.0300777273,0.0217695455,-0.019184,0.0022219091,0.0165091818,0.0353633636,-0.0598000909,-0.0096608182,0.0734806364,0.0732125455,-0.0334266364,-0.0240296364,-0.0095096364,-0.0193675455,-0.029844,0.0111408182,-0.039013,0.0700429091,-0.0076663636,0.0415581818,-0.0023428182,0.0188883636,-0.0352217273,0.0089130909,0.0370434545,0.0267590909,-0.0009705455,-0.0171926364,-0.0421030909,-0.0546134545,-0.0571049091,0.0508359091,0.0164181818,-0.0180289091,0.0006403636,0.0197872727,-0.0311398182,-0.0592423636,-0.012372,0.0160390909,-0.0410877273,0.00651,-0.015112,-0.0538314545,-0.0148271818,-0.0522464545,-0.0057257273,0.0322459091,1
103_books_5,11.761,15.415,-0.000664875,-0.02761175,0.05505875,-0.030744125,0.006319125,-0.014603,-0.003359125,-0.01384275,0.09711875,0.019974625,0.015344375,-0.025412625,0.007476,-0.056447375,0.022972125,0.0107445,-0.01849575,0.011757875,-0.01404125,0.03730775,-0.004191125,-0.055090125,0.00800325,0.028188,-0.037816375,-0.068758375,-0.009252125,0.0841765,-0.059149875,0.0866915,0.043234625,-0.0710795,-0.04816,0.00898725,-0.0150095,-0.015691875,-0.0239425,-0.019357625,-0.04113925,-0.0054965,0.008071,-0.001023875,-0.040700125,-0.0143385,-0.0168665,-0.010693,0.008029375,-0.014239375,0.0420425,0.098476875,-0.03901675,0.070130125,-0.004535375,0.100173,-0.00147375,0.03996825,-0.0426735,-0.044238625,-0.0164245,0.054106875,0.009054125,0.051043625,-0.00474675,-0.039991125,-0.007448875,0.069797125,-0.084410875,0.048160125,-0.084058625,0.01227025,-0.031997625,-0.066432125,-0.000886875,0.045163375,-0.08106,0.113158375,-0.008946875,0.022829,-0.048743375,-0.037122875,-0.01167375,0.0066115,0.01984575,0.002652,-0.014929875,-0.032496625,0.005760625,0.020435375,0.068768875,0.0209675,-0.033346125,-0.008545,0.070601125,0.008035125,-0.03073,-0.0558635,0.02774325,-0.030043625,-0.005442875,0.086433,-0.064369875,-0.08209925,-0.046264125,0.034916125,-0.003455,-0.033422625,0.026572875,-0.06563475,-0.009875875,0.050657375,0.048578625,0.030387125,0.022628375,-0.003385125,-0.028006125,-0.030532375,0.035343625,-0.016254375,0.003543875,-0.077162875,-0.010390125,0.03179425,-0.063865,-0.088828125,-0.049841375,0.05646225,0.039550625,-0.018573875,0.0370775,-0.015146375,0.00783275,0.0055725,-0.02024775,-0.047788125,-0.03930425,0.081433125,0.022667,-0.062897625,-0.033024375,0.03343,-0.050876125,0.025015,-0.00212975,0.02270975,0.00269075,-0.032097125,0.009402875,-0.044783625,0.073879625,-0.051544375,0.026759375,-0.01264075,-0.05597875,-0.053297625,-0.013818875,0.002724,0.065652375,0.015584875,-0.03970475,0.015951625,-0.010596125,-0.059947875,0.084437375,-0.02422975,-0.018207,-0.0089005,0.010751375,0.055373375,0.045825,-0.0203055,0.038022625,-0.073763625,0.023460625,-0.032612375,0.0355445,-0.045321625,-0.052801625,-0.00548575,-0.023707625,0.01712725,0.030394625,0.10423975,0.078995125,-0.022886,-0.02316625,0.010324875,-0.009215375,-0.051001,-0.014511875,0.015000875,-0.06135125,-0.02545075,0.0207325,-0.0460315,-0.062708125,0.01948775,0.050570375,0.012169125,0.0076125,-0.05362925,-0.105963125,0.0002035,-0.04585275,0.02799675,-0.035907,-0.018227125,-0.01337675,-0.008773375,-0.009996625,0.044448375,-0.012434625,-0.0306835,-0.038434375,0.00820825,-0.006919875,0.029974875,-0.027520625,0.087177375,-0.022815875,0.002350375,0.016117625,-0.013509125,0.030245625,0.0195575,-0.0260395,-0.016208625,0.0394355,-0.0234215,-0.0687445,-0.0151685,0.025498875,-0.0014975,0.02211175,0.044559125,-0.05599375,0.0472835,-0.0352475,-0.05202225,-0.100632875,0.062687375,0.125951625,-0.039776375,-0.01725625,0.015839375,-0.099601375,-0.01291225,-0.04225075,-0.030593625,-0.01333875,0.040244,0.060005125,0.016795,0.01183375,0.011318375,-0.011964375,-0.000485625,0.004924625,0.02549675,-0.078917625,-0.0359845,0.100977125,0.059339875,-0.023698375,-0.010772625,0.005140125,-0.045437375,-0.04052225,0.010562375,-0.0299395,0.09906925,0.01050625,0.0529985,-0.02852225,0.0354755,-0.052020625,0.00141625,0.0258545,0.025000125,-0.00405775,-0.017562875,-0.040112125,-0.0443865,-0.04611225,0.059265625,0.0310485,-0.008944875,0.012152875,0.006109375,-0.029977875,-0.042255,0.000911625,0.02642125,-0.051529125,0.004288875,-0.016637375,-0.032259375,-0.005799125,-0.056281125,-0.004010875,0.014196875,-1
103_books_6,15.415,21.18,0.0219422727,-0.0226851818,0.0417716364,-0.0487559091,-0.003788,0.0248847273,0.0049810909,-0.0169742727,0.1163657273,-0.0106220909,-0.0038705455,-0.0468207273,0.025875,-0.0531484545,0.0282538182,-0.0177217273,-0.0090237273,0.0087019091,-0.0121575455,0.0510141818,-0.0135950909,-0.0523281818,0.0163661818,0.0569035455,-0.0227092727,-0.0509795455,-0.0100011818,0.0525370909,-0.0285262727,0.0638921818,0.0526556364,-0.0512440909,-0.046257,0.0284804545,0.0377912727,-0.0110345455,-0.0459795455,-0.0136948182,-0.040124,-0.0125826364,0.0374604545,-0.0010132727,-0.0404093636,-0.02704,-0.0269520909,-0.0375103636,0.0104604545,-0.0051949091,0.0338338182,0.0735417273,-0.0359337273,0.0643164545,0.0185783636,0.1070150909,-0.005583,0.022311,-0.0431212727,-0.0647661818,-0.0022825455,0.0187655455,0.0081913636,0.0466314545,-0.005944,-0.0331216364,0.0093001818,0.0304086364,-0.0694963636,0.0490596364,-0.0689348182,0.0046362727,-0.0483327273,-0.0327458182,0.012365,0.0337835455,-0.0769096364,0.0903317273,-0.0312490909,0.0251719091,-0.0383081818,-0.0036597273,0.0323282727,-0.0123955455,0.006535,0.0093893636,0.0061590909,-0.0727970909,-0.0126770909,0.01641,0.0454442727,0.0258482727,0.0053968182,-0.0151892727,0.052502,-0.0020395455,-0.0555875455,-0.0345287273,0.0124156364,0.0005144545,0.0439398182,0.0748636364,-0.0598474545,-0.0671128182,-0.0299087273,0.0662721818,0.0427321818,-0.0309447273,0.0065278182,-0.0548415455,0.0008950909,0.0532013636,0.0316912727,0.0260349091,0.0270749091,0.0025533636,-0.0220228182,-0.0381777273,0.0593701818,-0.0151245455,-0.0117697273,-0.0863979091,0.0050198182,-0.0004241818,-0.0623481818,-0.0304383636,-0.0579224545,0.0636024545,0.0003667273,-0.0067119091,0.0480085455,-0.0025511818,0.0275068182,0.0092512727,-0.0302358182,-0.036193,-0.0421911818,0.0583692727,0.0140316364,-0.0816344545,0.0195171818,0.0175283636,-0.0265568182,0.0174339091,-0.0201739091,-0.0213184545,-0.0102740909,-0.0090533636,0.0163572727,-0.0271029091,0.0799551818,-0.0344501818,0.0245666364,-0.0206196364,-0.0396547273,-0.0237031818,-0.0212691818,-0.0096502727,0.0785308182,0.0155124545,-0.0424701818,-0.0078155455,-0.0207562727,-0.0569135455,0.0956280909,-0.0172206364,0.0059724545,-0.0213674545,0.0148490909,0.0234726364,0.0451835455,-0.0440474545,0.0837454545,-0.0724574545,-0.011824,-0.0050972727,0.0356582727,-0.0901307273,-0.0478394545,0.0028915455,-0.0237422727,0.0207212727,0.0288119091,0.0743751818,0.0760735455,-0.0240797273,-0.0290306364,0.0084354545,0.0109571818,-0.0654155455,-0.0269160909,-0.0085249091,-0.0557823636,0.025307,0.0260953636,-0.0357274545,-0.0221783636,0.0702027273,0.027248,0.0690060909,-0.0066199091,-0.0210268182,-0.1013226364,0.0079820909,-0.0138006364,0.003084,-0.0396865455,-0.0462136364,0.0093510909,0.0260459091,0.0032716364,0.0492100909,-0.0218736364,-0.0319316364,-0.0511727273,-0.0001559091,0.0226466364,0.0432415455,-0.0134936364,0.0840848182,-0.0200475455,0.0217617273,-0.0061043636,-0.0278276364,0.0440405455,0.0039653636,-0.0389164545,0.0087747273,0.0529551818,-0.0357782727,-0.0756848182,-0.0418059091,0.0274200909,0.0251370909,0.0153509091,0.0472179091,-0.0506359091,0.0303237273,-0.0142570909,-0.0172126364,-0.0507337273,0.031938,0.1397008182,-0.0251115455,0.0022708182,-0.0117255455,-0.0789537273,-0.0229619091,-0.0424614545,-0.0418644545,-0.005487,0.0426329091,0.0368120909,0.0224934545,0.0287785455,0.0195082727,-0.0271231818,-0.0360713636,0.0407412727,0.0271909091,-0.0684709091,-0.0439820909,0.0607782727,0.0582683636,-0.0008114545,-0.0265692727,0.0058647273,-0.0313250909,-0.0458515455,0.0246780909,-0.0330407273,0.0657517273,0.0168760909,0.0637254545,0.0059833636,0.0328930909,-0.0368348182,-0.0053326364,0.0401360909,0.0249792727,-0.0136620909,-0.0274199091,-0.0527064545,-0.0268233636,-0.0234133636,0.0367335455,0.0613793636,-0.0013205455,0.0257808182,-0.0081709091,-0.0129969091,-0.0852570909,-0.0187490909,0.0352729091,-0.0421127273,0.0006915455,-0.0021955455,-0.0661211818,-0.0110903636,-0.065598,-0.0046703636,0.0187379091,1
103_books_7,21.18,26.772,0.0280698333,-0.0281071667,0.0350598333,-0.0233626667,-0.00361,0.00562,0.029243,-0.0217326667,0.1193185,-0.0334973333,-0.008523,0.0103571667,0.0269303333,-0.0513648333,0.036862,-0.0307645,0.00549,-0.0271385,-0.0362295,0.0545108333,-0.0042825,-0.034652,0.0286101667,0.0827148333,-0.0376203333,-0.0624021667,0.0097435,0.0800756667,0.0123525,0.0955741667,0.015918,-0.0537273333,-0.0217113333,-0.0219288333,0.0423678333,-0.0275363333,-0.032202,0.0140908333,-0.0146436667,0.005307,0.02556,0.0011986667,-0.013752,-0.0213796667,-0.0581771667,-0.0159195,0.0098911667,-0.0309506667,0.0356346667,0.0667051667,-0.0235686667,0.0708781667,0.008982,0.1052881667,-0.021303,0.0346726667,-0.0351426667,-0.0467551667,0.0228361667,0.0456711667,-0.0164533333,0.048998,-0.0294963333,-0.0254641667,0.0325675,0.0318906667,-0.0650105,0.055198,-0.0812158333,0.020327,-0.0853261667,-0.039589,0.025686,0.0255091667,-0.0834725,0.0711125,-0.0405366667,0.0456081667,-0.0121173333,-0.0256621667,0.0266973333,-0.0159763333,0.0061985,0.0061291667,0.0232011667,-0.029601,0.0020113333,-0.0019763333,0.0514383333,0.0172003333,-0.0157973333,-0.0327888333,0.0429715,-0.0070086667,-0.0605555,-0.0224628333,0.030426,0.0060185,0.0109381667,0.0780381667,-0.0269056667,-0.036858,-0.0098166667,0.0718316667,0.0180095,-0.0547185,-0.0073035,-0.0739428333,0.01222,0.0787996667,0.0114423333,0.0519085,0.0548463333,0.0226256667,-0.0105588333,-0.045095,0.0755643333,0.0113125,-0.0271301667,-0.0719365,0.0148965,0.0117643333,-0.065028,-0.0059183333,-0.0697795,0.0340975,0.0203848333,-0.0458356667,0.0508065,0.020336,0.0287051667,0.0146095,-0.0144608333,-0.03341,-0.0343033333,0.078321,0.0208003333,-0.0697973333,0.0483201667,0.0163146667,0.0183358333,-0.0051063333,-0.0254456667,-0.0232668333,-0.0230491667,-0.0072533333,0.0106005,-0.016387,0.0779823333,-0.0600368333,0.0262108333,0.017613,-0.052573,-0.047689,-0.0189343333,-0.0383535,0.0754285,0.005135,-0.0530768333,-0.007828,-0.0101525,-0.0429091667,0.0543526667,-0.0005151667,-0.0121688333,-0.0542898333,0.0189173333,0.0263473333,0.0295536667,-0.0470383333,0.1070503333,-0.1027235,-0.0046616667,0.0033445,0.0278801667,-0.0992883333,-0.0075191667,-0.017546,-0.0247325,0.023512,0.0789615,0.0758956667,0.0681113333,0.0073818333,-0.0462768333,0.0093018333,-0.0049286667,-0.06332,-0.0097156667,-0.0108323333,-0.0548705,-0.006548,0.036795,-0.0514605,-0.003145,0.075378,0.0540866667,0.0533366667,-0.0251773333,-0.0033456667,-0.0990713333,-0.0022633333,-0.0383656667,0.0079305,-0.0137421667,-0.0367646667,0.0194158333,0.0138331667,0.0443816667,-0.0007675,-0.0296443333,-0.0372461667,-0.0512951667,0.0072753333,0.050728,0.0547176667,-0.0113543333,0.0599931667,-0.0256243333,0.0319146667,-0.006592,-0.0279763333,0.0787931667,-0.0247776667,-0.0426933333,0.012993,0.0321275,-0.0233035,-0.0709671667,-0.0413561667,0.0040073333,0.02328,-0.0067331667,0.0577418333,-0.0602173333,0.0474575,-0.0058271667,-0.0229638333,-0.0602781667,0.0060495,0.1443021667,-0.037463,-0.0015093333,0.007543,-0.0895201667,-0.0193266667,-0.0485378333,-0.0523366667,0.0009486667,0.0811865,0.0310556667,0.0632043333,0.0430961667,0.0183601667,-0.0188196667,-0.0332831667,0.0047453333,0.0494725,-0.0611371667,-0.0410251667,0.0301786667,0.0812566667,0.0093255,-0.020453,-0.019197,-0.023263,-0.0471851667,-0.0012573333,-0.0042746667,0.0583775,0.0174901667,0.0331175,0.0111816667,0.0449223333,-0.022374,-0.0176243333,0.0528378333,0.0214848333,-0.0185003333,-0.0320605,-0.0615613333,-0.0076461667,-0.0209876667,0.028336,0.0586278333,0.012395,0.0102571667,-0.0008863333,-0.0132868333,-0.0583501667,-0.003124,0.0543358333,-0.0312945,0.0033966667,-0.01416,-0.0914543333,0.03494,-0.0661585,-0.0245431667,0.0082863333,1
103_books_8,26.772,30.325,0.0045895,-0.012007,0.0512721667,-0.0496431667,0.0102781667,0.0172686667,0.0235243333,-0.001469,0.081751,-0.0533015,0.0271056667,-0.0527958333,-0.005058,-0.0301015,0.0095563333,-0.0103961667,-0.0139701667,-0.0105243333,-0.0156986667,0.0254053333,-0.0005201667,-0.042977,0.003418,0.096139,-0.0369435,-0.005557,0.0122413333,0.0512296667,-0.029252,0.0543908333,0.0432491667,-0.0418555,-0.0446423333,0.0075376667,0.0375071667,-0.054766,-0.0243201667,-0.0308406667,-0.0179445,0.0040531667,0.058994,0.0338366667,-0.010641,-0.0395218333,-0.0103063333,-0.0170921667,-0.003748,-0.0361228333,-0.0071433333,0.1012235,-0.01269,0.0749636667,0.00793,0.0738806667,0.0080735,0.0442405,-0.0432195,-0.0777953333,0.0319863333,0.0462996667,0.0485466667,0.0446693333,-0.0347975,0.00101,-0.0206616667,0.0413551667,-0.082192,0.0266831667,-0.0531263333,0.0418348333,-0.0389278333,-0.0331051667,0.035606,-0.001221,-0.0756365,0.0835783333,0.0057421667,0.0265041667,-0.0464526667,0.0012895,0.0209,-0.0196045,0.0588863333,0.0303165,-0.0014778333,-0.0293408333,-0.007125,0.0176275,0.0599676667,0.020471,-0.0164608333,0.0116636667,0.027925,-0.0158293333,-0.045065,0.0102508333,0.0267131667,0.0115928333,0.037169,0.0855563333,-0.0479775,-0.063499,-0.0361271667,0.0479101667,0.0408621667,-0.0550768333,0.0020146667,-0.0766943333,-0.006367,0.0287593333,0.0587315,0.0394531667,0.0248495,0.0118091667,-0.0278486667,-0.0725243333,0.0341288333,-0.0143296667,-0.0167463333,-0.0380733333,0.0033371667,-0.009291,-0.08238,-0.0574271667,-0.0383568333,0.0556015,0.0171415,0.0063371667,0.029356,-0.010842,0.0312868333,0.0030975,-0.0401353333,-0.0444221667,-0.0392665,0.045271,-0.0065651667,-0.0590495,0.004074,0.0139036667,-0.0322905,-0.0075166667,-0.0206611667,0.0009155,-0.0221163333,-0.001249,0.021789,-0.0408448333,0.076741,-0.03383,0.0255856667,-0.0096951667,-0.0404153333,-0.0704735,-0.0309753333,-0.0157438333,0.0582773333,0.008018,-0.0503878333,0.0035555,-0.0026826667,-0.0590658333,0.1052056667,0.0029155,0.016167,0.0090578333,0.0149243333,0.0434098333,0.032973,-0.056868,0.0484341667,-0.0823708333,0.004718,-0.0018723333,0.0334146667,-0.10296,-0.0152685,0.003482,-0.033106,0.0225443333,0.0225408333,0.0713438333,0.0507625,-0.0344226667,-0.0418723333,0.0126271667,-0.002806,-0.0464425,-0.010129,-0.0217205,-0.0499601667,-0.004087,0.0243413333,-0.0241953333,-0.0181991667,0.0545025,0.0074315,0.0353385,0.0080008333,-0.0381955,-0.0977841667,-0.0042981667,0.022029,0.0197156667,-0.021376,-0.0361955,0.0291798333,0.02257,0.0135303333,0.0457151667,-0.0273813333,-0.037394,-0.0559135,0.0077103333,0.0235195,0.0420506667,-0.039659,0.0386528333,-0.0171971667,0.0137563333,-0.0192411667,-0.0453611667,0.0213838333,0.0033545,-0.0521195,0.0238726667,0.0409701667,-0.0160295,-0.061703,-0.03953,-0.0050255,0.040025,0.0196745,0.0544375,-0.0510603333,0.0431496667,-0.0025145,-0.0301626667,-0.0716033333,0.0312938333,0.09864,-0.0053151667,-0.0361416667,-0.0161093333,-0.0733411667,-0.0294348333,-0.0887905,-0.0089975,-0.02982,0.0646175,0.0332275,-0.0040663333,0.0176371667,0.0056016667,-0.0413463333,-0.0200135,0.007947,0.0501641667,-0.058739,-0.0404313333,0.043616,0.087258,-0.0041473333,-0.0181236667,0.0028488333,-0.0132443333,-0.0131803333,0.0180445,-0.01744,0.056882,-0.0147491667,0.0381428333,0.0506788333,0.0090018333,-0.0050088333,0.0104455,0.0273236667,0.022785,-0.001279,-0.0244091667,-0.0806761667,-0.040107,-0.0462595,0.03002,0.0660103333,-0.0113281667,0.0269501667,-0.0076201667,-0.0185691667,-0.0659753333,-0.0175913333,0.0096128333,-0.0099485,-0.0163688333,-0.0110351667,-0.0622963333,-0.0029933333,-0.0921405,-0.0133046667,0.0048338333,1
