100_makeup_1,0,3.642,-0.00671725,-0.030245,0.027327,-0.06732175,-0.0082975,0.00345675,-0.028277,-0.02637575,0.150881,-0.04875825,-0.007142,-0.006998,0.0077385,-0.0823815,0.0166075,-0.0164395,-0.01534825,-0.0282845,-0.0571685,0.0138025,-0.0074865,-0.05378075,0.04066875,0.0654385,-0.037079,-0.04811075,0.02172375,0.10758175,-0.02115675,0.087707,0.0380025,-0.01296375,-0.03210875,-0.01215875,0.02776075,-0.03948425,-0.040521,-0.04225875,-0.056563,-0.030806,0.04096125,0.01948,-0.03765575,-0.01876375,-0.050505,-0.01851425,-0.002008,0.01728025,0.0581205,0.108491,-0.05320575,0.079846,0.01131425,0.1146485,-0.00722025,0.014694,-0.02615425,-0.08550275,0.01341025,0.0859325,-0.00596775,0.05022325,-0.0257095,-0.01180325,0.018174,0.054705,-0.1173585,0.048322,-0.04739925,-0.00048825,-0.091529,-0.0464265,0.07455475,0.0727635,-0.09491425,0.113029,-0.04016975,0.0148975,-0.04278525,-0.03917775,0.040136,0.02939925,0.04575775,-0.012445,-0.0037095,0.000355,0.0155815,0.03515575,0.07469,0.01605225,-0.019426,-0.01766,0.09649125,-0.007266,-0.07268275,-0.05715425,0.01069225,0.01144525,0.0112065,0.07476375,-0.06107925,-0.08231125,-0.02427325,0.085672,0.0497695,-0.02148,0.0155335,-0.08112125,0.036716,0.08950425,0.0700855,0.04725775,0.069756,0.03646475,-0.05465775,-0.027579,0.06888175,0.02132325,-0.01502275,-0.0874885,-0.0405775,0.04362725,-0.0737655,-0.0037465,-0.1053735,0.0685245,-0.00233325,-0.03109325,0.04314525,-0.01195175,0.06922025,0.00413875,-0.05956075,-0.07993475,-0.0435965,0.09380775,0.02403575,-0.082187,0.0051455,0.0342715,0.0241115,0.01164025,-0.01516575,-0.031098,0.0068365,-0.00632325,-0.006384,-0.04382875,0.04929675,-0.040326,0.03622875,0.01515375,-0.058119,-0.05353575,0.0120885,-0.02748675,0.073182,-0.00126125,-0.03522425,0.00898275,-0.027529,-0.032547,0.08623125,-0.03951925,-0.00108475,-0.017355,0.00217475,0.02913625,0.06974875,-0.02634275,0.1250505,-0.11562375,0.01977875,-0.01410325,0.023616,-0.0779265,-0.05303175,-0.00272175,-0.0075325,0.042745,0.07826075,0.09683625,0.0728745,-0.03057,-0.046759,-0.02685975,0.0276825,-0.08080525,0.0240505,-0.0063605,-0.0487765,-0.029629,0.04152425,-0.0420495,-0.01701,0.07220125,0.03366225,0.0754355,-0.02942325,-0.03465325,-0.1127675,-0.0043555,-0.054689,-0.01041375,0.01737175,-0.05330325,-0.003066,-0.00423025,0.00500475,0.05344475,-0.0533105,-0.00695475,-0.02980975,-0.017604,0.0174305,0.10570775,-0.00776875,0.09786675,-0.05954775,-0.0054715,-0.01515675,-0.00810975,0.0479555,0.03971625,-0.04923175,0.01131525,0.028782,-0.03131525,-0.08671725,-0.0400255,0.0316445,0.01704375,0.01055475,0.059361,-0.0403135,0.05999425,-0.00096275,-0.071765,-0.0721355,0.05902025,0.1511985,-0.02389775,-0.01300925,0.00339825,-0.11962275,-0.01027975,-0.050461,-0.053856,0.00653,0.08601125,0.03219375,0.03247825,-0.00976425,0.04832325,0.00598975,0.00468225,0.0336495,0.02847975,-0.074781,-0.04193525,0.08440525,0.0884085,0.0040485,-0.01868125,0.0063395,-0.06077725,-0.06682875,0.008068,-0.04230325,0.08211275,0.00508875,0.074699,-0.05439625,0.02477675,-0.01517675,0.019127,0.045345,-0.01670225,-0.03806075,-0.014295,-0.04238675,-0.01293875,-0.04220025,0.03948325,0.0291975,0.01844,0.0301125,0.03027625,-0.024096,-0.08112325,-0.0086655,0.06085375,-0.0288255,-0.027694,-0.01323175,-0.09201025,0.001348,-0.04547625,0.02004675,0.01673675,-1
100_makeup_2,3.642,9.552,0.0040444286,-0.0388055,0.0354794286,-0.0461996429,-0.0024378571,0.0215196429,-0.0061646429,-0.0102712857,0.0997335,-0.0138982857,0.0030110714,-0.0159192143,0.0039595,-0.0555304286,0.0085284286,-0.0109292143,-0.0166373571,0.0079654286,-0.028027,0.0472527143,0.0090990714,-0.0584192857,0.0224859286,0.0576515714,-0.036741,-0.0330807857,-0.0042802857,0.0799888571,-0.0241602857,0.0756560714,0.0210171429,-0.0335677857,-0.0284131429,0.0217261429,0.0273171429,-0.0335422857,-0.0458040714,-0.0227888571,-0.0309385,-0.0205487143,0.0156810714,-0.0062662857,-0.0431810714,-0.0216425714,-0.0315616429,-0.0377104286,0.0034362857,-0.0047897143,0.0449062857,0.0867395714,-0.0251066429,0.0809264286,0.0139824286,0.1122731429,0.0045735,0.0385777857,-0.0349436429,-0.0669692857,0.0040225,0.0370205714,0.0227627143,0.0371153571,-0.0205114286,-0.0328474286,0.0347487143,0.0563883571,-0.0733463571,0.0350577857,-0.0661642857,0.0056051429,-0.0550598571,-0.0295165714,0.0070582857,0.0337755,-0.0550892857,0.0786163571,-0.0062369286,0.0327817143,-0.0452106429,-0.017808,0.0313465714,0.0058665714,0.0075922143,0.0018038571,0.0121085714,-0.0318067857,-0.0016641429,0.0126927143,0.0567715714,0.0060992143,-0.0155318571,-0.0131049286,0.0733067143,0.0177151429,-0.0553277857,-0.0371858571,0.0147857143,-0.0083653571,0.0191715,0.0606651429,-0.0441949286,-0.0710345714,-0.0387512143,0.0636106429,0.0397792143,-0.0398146429,0.0113575,-0.0731378571,0.0158947857,0.0549226429,0.0534037143,0.0328540714,0.0524455714,0.0183010714,-0.039405,-0.0534009286,0.0495342143,0.0094636429,-0.0215312857,-0.0613720714,-0.0038908571,0.0128227143,-0.0539992857,-0.0437792143,-0.0574027857,0.0460142857,0.0071528571,-0.0096786429,0.0525187857,-0.0144474286,0.0179707143,-0.0117677857,-0.0393666429,-0.0351885714,-0.0242775,0.0736472143,0.0138950714,-0.0772776429,0.0008842857,-0.0038273571,-0.0067420714,0.0149995714,-0.0178005,-0.0004765714,0.0020402143,-0.0182339286,-0.0068657857,-0.0250885714,0.0888815714,-0.053885,0.0265732143,-0.0045202857,-0.0424520714,-0.0443405714,-0.0106483571,-0.0140019286,0.0612761429,-0.0064851429,-0.0472111429,0.0002300714,0.0081197857,-0.057289,0.0928444286,-0.0247690714,-0.0303572143,-0.042318,-0.0132897857,0.028855,0.0270469286,-0.0435893571,0.0750418571,-0.0734257143,-0.0057027143,0.0049509286,0.0429576429,-0.0671884286,-0.0253061429,-0.0031097143,-0.0143757143,0.0179506429,0.0453265,0.0776734286,0.0722201429,-0.0172755,-0.0316140714,0.0074405,0.0100969286,-0.0427235714,0.0014312857,0.0053835714,-0.0363038571,0.0156905714,0.0347571429,-0.0248830714,-0.032458,0.0380343571,0.0187879286,0.0502732857,-0.0103134286,-0.0035165714,-0.0934834286,-0.0139448571,-0.0318105,0.03027,-0.0157712857,-0.0614105714,-0.0106527857,0.0087086429,0.0233030714,0.0573494286,-0.028021,-0.0173466429,-0.0392682857,-0.0001987143,0.0084555,0.0525537857,-0.0150952143,0.073654,-0.0129462143,-0.023947,-0.0047285714,-0.0309636429,0.0546701429,0.0138342857,-0.0335909286,0.0144062857,0.0413507857,-0.0247996429,-0.076493,-0.0531620714,0.028334,0.0195263571,0.0093139286,0.0399316429,-0.0484583571,0.0465945,-0.0046727143,-0.0465867143,-0.0619765714,0.0481997857,0.1413528571,-0.0170412857,-0.0101932857,-0.0244073571,-0.1020115,-0.0020532143,-0.0438085,-0.0272743571,-0.0004368571,0.0415922857,0.0381907857,0.0420659286,0.0155664286,0.0241819286,-0.0300227857,0.0089364286,0.0256406429,0.0139474286,-0.0512194286,-0.041698,0.0690882143,0.0667377143,-0.0199356429,-0.0370425714,0.0165666429,-0.0155532143,-0.0311114286,0.0087327857,-0.0351142143,0.0964232857,-0.0028762857,0.0478540714,0.0108265714,0.0075125,-0.0299660714,0.0053425714,0.0332626429,0.0242861429,-0.0141948571,-0.0284331429,-0.0547392143,-0.0270012143,-0.0178520714,0.0422007143,0.0499513571,-0.0099311429,0.0237482143,0.0022525,-0.0164738571,-0.0756745714,-0.0150612143,0.0395591429,-0.0329521429,-0.0188985,-0.0126336429,-0.0550778571,-0.0168252143,-0.0733367143,-0.0044224286,0.0199917143,-1
100_makeup_3,9.552,14.197,-0.0231058889,-0.0249653333,0.0364421111,-0.0443577778,-0.0046015556,0.0088798889,-0.0098173333,-0.0204742222,0.1029892222,-0.0002916667,0.0345331111,0.006831,0.0178691111,-0.0567902222,0.0100101111,0.0085266667,-0.0361365556,0.0222821111,-0.0141574444,0.022605,0.0054222222,-0.0508174444,0.0147373333,0.0545925556,-0.0326327778,-0.0471283333,-0.006756,0.0735027778,-0.0403511111,0.0770204444,0.0359014444,-0.0517392222,-0.0200858889,0.00148,-0.0029827778,-0.0257848889,-0.0188121111,-0.0239798889,-0.0155615556,-0.006959,-0.00766,0.0075096667,-0.0262543333,-0.0065641111,-0.0363094444,-0.0458762222,0.0211355556,-0.0083088889,0.0258174444,0.0831606667,-0.0148988889,0.0904054444,-0.0093322222,0.0777603333,-0.0048593333,0.0371731111,-0.0244271111,-0.0598386667,0.0163542222,0.0443002222,0.0097675556,0.0444932222,-0.0325205556,-0.0158124444,0.0179412222,0.0490074444,-0.0812388889,0.037792,-0.0762054444,0.0095737778,-0.0542841111,-0.052627,0.0330614444,0.0209036667,-0.0618267778,0.1035426667,0.0131756667,0.0303122222,-0.0297073333,-0.0241032222,0.0006557778,0.0080924444,0.0145688889,0.0142146667,0.0019073333,-0.0461255556,-0.0107794444,0.0227072222,0.0497281111,0.0145678889,-0.0062608889,-0.0140837778,0.0638805556,0.0124343333,-0.0429783333,-0.0371282222,0.0390136667,-0.0278072222,0.0033308889,0.0814574444,-0.0523843333,-0.0625394444,-0.017591,0.0466098889,0.0199556667,-0.0221133333,0.0050794444,-0.0752533333,-0.0030801111,0.0527337778,0.0400913333,0.0503625556,0.0305243333,0.0062697778,-0.0413791111,-0.0510634444,0.0372734444,0.0128878889,-0.0179321111,-0.0509707778,-0.0101822222,0.0096941111,-0.0422318889,-0.0517862222,-0.0406104444,0.0286317778,0.0279765556,-0.0114413333,0.0446094444,-0.0199346667,0.0081181111,0.0062855556,-0.0484111111,-0.0487117778,-0.0380055556,0.0713055556,0.0181864444,-0.0559774444,-0.0184636667,0.0032532222,-0.0173385556,0.0068673333,-0.0191967778,0.0205534444,0.0137137778,-0.0381921111,0.0054557778,-0.0340632222,0.1078818889,-0.0538571111,0.0376532222,-0.0088734444,-0.0737313333,-0.0491345556,-0.0213767778,-0.0246495556,0.0478651111,0.0029877778,-0.0311004444,0.003152,0.0173765556,-0.0658318889,0.0766478889,-0.0296177778,-0.0182052222,-0.0524192222,0.0093373333,0.0482842222,0.0391224444,-0.0355,0.0722803333,-0.0651108889,0.0067404444,-0.0135477778,0.0550608889,-0.0683301111,-0.0351208889,0.0020945556,-0.0170085556,0.0111933333,0.0356573333,0.0796318889,0.0528688889,-0.0176282222,-0.0348911111,0.0205272222,0.0009438889,-0.0387265556,-0.0150402222,0.0022981111,-0.0543222222,-0.0015572222,0.0194061111,-0.0484525556,-0.0414881111,0.0597717778,0.0366468889,0.053028,-0.0227045556,-0.0266282222,-0.1045052222,-0.0285845556,-0.0370818889,0.0059003333,-0.0204984444,-0.0360552222,0.0005643333,0.0003233333,0.0076618889,0.0163068889,-0.0326804444,-0.0252472222,-0.0212434444,-0.0047541111,-0.0063231111,0.0418833333,-0.0245792222,0.0665094444,-0.0232592222,-0.017992,-0.0090114444,-0.0276164444,0.0579332222,0.0057484444,-0.0346691111,0.012876,0.0444876667,-0.0158081111,-0.0802878889,-0.0224188889,0.0210145556,0.0121862222,-0.0067064444,0.0398572222,-0.067288,0.0603875556,-0.011742,-0.0457623333,-0.069626,0.0465744444,0.1475894444,-0.0286377778,-0.0092893333,-6.75555555556E-05,-0.0835692222,-0.0062331111,-0.0562915556,-0.0120985556,0.0046948889,0.0441347778,0.051444,0.0395096667,0.0323566667,0.0107317778,-0.0100627778,-0.0001221111,0.0058572222,0.0375115556,-0.0352657778,-0.0368947778,0.0711691111,0.0553781111,-0.0116422222,-0.0486227778,0.0063962222,-0.0292362222,-0.0174668889,0.0071276667,-0.0247346667,0.0916483333,-0.0037907778,0.0689764444,0.0151031111,0.0246946667,-0.0344871111,0.0087318889,0.0188345556,0.0269905556,-0.0119166667,-0.0164032222,-0.0596753333,-0.0402698889,-0.0504432222,0.0499631111,0.0314118889,-0.0200406667,0.0180384444,0.0148615556,-0.0191215556,-0.054063,-0.0062764444,0.035805,-0.0273033333,-0.0146255556,-0.0119946667,-0.0548211111,0.006264,-0.0771072222,-0.0065316667,0.0243295556,-1
100_makeup_4,14.197,20.545,0.0078436818,-0.0399106364,0.0304193182,-0.0474720909,-0.0016145909,0.0250295909,0.0126591818,-0.0219278182,0.1264828182,-0.0374140909,-0.0203927273,-0.0067595455,0.0302596364,-0.0526685,0.0261797727,-0.0282011818,-0.0118495909,-0.0049951818,-0.0405093636,0.0428749545,0.0046878182,-0.0406762273,0.0234917727,0.0749719091,-0.0261766364,-0.0412794091,0.0076099545,0.0719570455,0.0065741364,0.0661085909,0.0362816818,-0.0551488636,-0.0381205455,0.0269776818,0.0339422273,-0.0215017727,-0.0387862273,-0.0101055909,-0.0360032727,-0.0070775455,0.0350265455,-0.0003629545,-0.0198444091,-0.0254159091,-0.0528411818,-0.0329974545,0.0063781818,-0.0185085909,0.0332635909,0.0813979091,-0.0281710455,0.0713394545,0.0158014545,0.1273422727,-0.0156350455,0.019616,-0.0218657273,-0.0669329091,0.0202489545,0.0259995455,0.0014896364,0.0533094091,-0.0277565909,-0.0329130455,0.0281256364,0.0391174091,-0.0838313182,0.0481872727,-0.0629234545,-0.0048258636,-0.0820019091,-0.0227569091,0.0427646818,0.0365367273,-0.0682290455,0.0811490909,-0.0264878636,0.0116925909,-0.0261927273,0.0022905909,0.0436374091,-0.0202606818,0.0141604091,-0.0051295,0.0091775,-0.0426678182,-0.0008999545,-0.0044735455,0.0415337727,0.0071017273,0.0070824091,-0.0191021818,0.0677745,-0.0070198636,-0.0644032273,-0.0503261364,0.0334545,-0.0113254091,0.0270972727,0.0751560909,-0.0306827273,-0.0691065455,-0.0227156364,0.0828630455,0.0395470455,-0.0394737727,0.0011153182,-0.0646983182,0.0043139091,0.0752427727,0.0398053636,0.0418661364,0.0481907273,0.0080142727,-0.029957,-0.0433176364,0.0626370909,0.0222277727,-0.0501648182,-0.070546,0.0163793636,0.0073631818,-0.0465764545,-0.0047264545,-0.0485059091,0.0489363182,-0.0011877727,-0.0217348182,0.0508194545,0.0021686364,0.0244086364,0.004471,-0.0492972273,-0.0442977727,-0.0362372273,0.0669543182,0.0094291818,-0.0747313636,0.0389694091,0.0052599545,0.0047440909,-0.0108243182,-0.0180464545,-0.0249565,-0.0159729091,0.0093689545,0.0106474545,-0.0254332727,0.0719643182,-0.0403750455,0.0235064545,-0.0021816818,-0.0509820909,-0.0464688636,-0.0238777273,-0.0294785909,0.0790441364,0.0055985909,-0.0405205,-0.0214971818,-0.0180642273,-0.0529648182,0.0799869545,-0.008947,0.0056215909,-0.0243715909,0.0025402727,0.0134175455,0.0489168636,-0.0458388182,0.1123556364,-0.0936233636,-0.0065363636,0.0081602273,0.0321153182,-0.1018881364,-0.0248403636,0.0048615,-0.0021715,0.0395750909,0.0647028182,0.0795014091,0.0734115455,-0.0166563636,-0.0307747273,0.0008773636,0.0193657273,-0.0676413182,-0.0081734545,-0.0126532727,-0.037246,0.0168770455,0.0306037273,-0.0414962727,-0.0132010909,0.0595393636,0.0237608182,0.0673513182,-0.0168395455,0.0051439091,-0.0953650909,0.007696,-0.0348629091,0.0018854091,-0.0221915,-0.0564184091,0.0324823636,0.0151602727,0.0426470909,0.0463677727,-0.0275136364,-0.0463907273,-0.0329318636,-0.0045474545,0.0329233636,0.0748836818,-0.0065154091,0.0701105455,-0.0173606818,0.0170045909,-0.0083525,-0.0214990909,0.0515196818,0.0195661364,-0.0608579091,0.0067545,0.0464699545,-0.0204268636,-0.0885676818,-0.0659081364,0.0113403182,0.0297972727,0.0040831364,0.0548189091,-0.0650828182,0.0588848636,-0.0116140909,-0.0326811818,-0.0394313636,0.0452070909,0.1444459091,-0.0179741818,0.0003603182,-0.0302090909,-0.0896816818,-0.0079055455,-0.0406324091,-0.0456735,0.0231460909,0.0633330455,0.0411638636,0.0250645909,0.0257163636,0.0104133182,-0.0196340909,-0.0247374545,0.0220767273,0.0279835,-0.0556995455,-0.0423969091,0.0595549545,0.0767506364,-0.0053552727,-0.0400997273,0.0021060909,-0.0209841364,-0.0188771364,0.019638,-0.034106,0.0594939545,0.0045359545,0.0517077273,0.0051141364,0.0277633636,-0.0267530909,-0.0018264091,0.0509107273,0.0080855,-0.0289748182,-0.0291780909,-0.050659,-0.0178984545,-0.0241860455,0.0268993182,0.0552095,0.0010748182,0.0073033636,0.0047019545,-0.0161086364,-0.0874050909,-0.0186152273,0.0520201364,-0.0369639545,-0.0217508182,-0.0133456818,-0.0871026364,0.0162104091,-0.0912856818,-0.0036094091,0.0179374545,-1
100_makeup_5,20.545,23.275,0.0033562,-0.0259618,0.0373086,-0.0299532,-0.0247852,0.0454604,0.0238344,-0.020489,0.1185164,-0.0424618,0.0008318,0.0248734,0.028407,-0.0239906,0.047603,-0.0275114,0.0147846,0.005756,-0.0354846,0.0316692,-0.0037654,-0.0316892,0.0228604,0.0924382,-0.0189516,-0.0489628,0.0125818,0.0767754,0.01718,0.101446,0.0080462,-0.0427542,0.0175108,-0.0054668,0.0357526,-0.0404058,-0.056236,0.0018936,0.007967,0.0050604,0.0059992,0.007061,-0.014623,-0.0094742,-0.065218,-0.0323404,-0.008791,-0.0544708,0.0269982,0.0633208,0.0071574,0.102446,-0.0151388,0.0857402,-0.024263,0.0195182,-0.0163576,-0.0543316,0.0298422,0.0430924,-0.0167538,0.0386064,-0.0666784,-0.0328842,0.013543,0.0425148,-0.0622792,0.0439018,-0.0937536,0.0261592,-0.0789394,-0.0256502,0.0686682,0.015499,-0.072351,0.0783964,-0.0621488,0.0244638,-0.023628,-0.0217574,0.0422768,-0.0081728,0.0256432,0.0054844,0.0344344,-0.0057948,-0.0030664,0.0174,0.0446788,-0.0016078,0.0058756,-0.0171654,0.0376596,-0.0062538,-0.0409708,-0.0166456,0.0418604,0.0036854,0.0047838,0.0888826,-0.0208524,-0.0668738,-0.0490904,0.0606134,0.0144784,-0.0641952,-0.0149788,-0.1158046,-0.0040866,0.0596206,-0.0106904,0.0555974,0.0333476,0.0328228,-0.0480064,-0.0579356,0.070652,-0.0066958,-0.0591148,-0.0494472,0.0027888,0.0295662,-0.0474712,-0.008501,-0.0774872,0.0485284,0.0236026,-0.0203884,0.0732712,0.0048674,0.02891,0.0086332,-0.0407834,-0.0322814,-0.0451984,0.0888302,-0.0169614,-0.0526148,0.0676264,0.012267,0.034448,-0.0202304,-0.0331388,-0.0364466,-0.0322988,-0.0129204,0.050706,-0.0125116,0.1037444,-0.0744402,0.0330244,0.0103304,-0.0646298,-0.0690646,-0.0071518,-0.0560702,0.0759388,0.0087616,-0.048416,-0.0219844,0.010653,-0.0368262,0.0762412,-0.0016918,-0.0224102,-0.0212044,-0.017095,0.004911,0.0456442,-0.0377338,0.1084148,-0.1096274,-0.0070792,0.0123384,0.016209,-0.115846,-0.0036176,-0.0159346,-0.0282928,0.0534442,0.0765926,0.0533824,0.0637414,-0.0168804,-0.0190152,0.010016,-0.0041326,-0.071345,-0.020419,-0.0262734,-0.0321592,-0.0184348,0.0336892,-0.0333718,0.002554,0.0593418,0.0202372,0.0688902,-0.0243618,0.0013268,-0.083777,-0.0268406,-0.0334306,-0.0031002,-0.0043416,-0.0246846,0.0234726,0.0530142,0.0405172,0.0242522,-0.0228682,-0.0631942,-0.02881,-0.0005398,0.0484636,0.0584718,-0.0014318,0.0642824,-0.0122848,0.026955,-0.0065654,-0.0260896,0.0452996,0.0049994,-0.0663454,0.0222872,0.027125,0.0073862,-0.0758254,-0.0525184,-0.0170062,0.0349974,-0.0320204,0.0622152,-0.0606688,0.0832124,-0.026263,-0.0185008,-0.0648384,0.0216028,0.1118464,-0.0236206,-0.0114994,0.0124096,-0.110978,0.0069084,-0.0345552,-0.031631,-0.019335,0.057652,0.017345,0.0534922,0.048334,0.0019198,-0.0090496,-0.0142016,0.010667,0.0261772,-0.0595734,-0.0399946,0.0068112,0.0978374,-0.0232074,-0.0252728,-0.00849,-0.0301492,0.004414,-0.001313,-0.0213374,0.0276362,0.0111868,0.0234984,0.0281086,0.0380976,-0.0085902,-0.0093046,0.017979,0.0139546,-0.0151716,-0.0172196,-0.0469524,-0.0225422,-0.0092618,0.030957,0.0660706,0.014748,0.0082124,0.0150052,0.0196802,-0.078741,-0.0153864,0.0581114,-0.0165402,-0.0173174,-0.0093174,-0.0695966,0.0314186,-0.0499672,-0.0028854,0.0045122,1
100_makeup_6,23.275,27.533,0.03632275,0.00355925,-0.007051,-0.015091,0.01374575,0.0117875,0.01223175,-0.01958425,0.09900325,-0.049282,-0.00611025,0.06506075,0.0264315,-0.045061,0.04434275,-0.01704975,0.03456075,-0.0399205,-0.0257615,0.02714675,0.07380325,-0.002479,0.019161,0.077087,-0.05257825,-0.07863625,-0.02084725,0.07967625,0.00751975,0.08475125,-0.02046225,-0.052881,0.02553175,0.00902475,0.07227275,-0.043002,-0.0651305,-0.01783175,-0.00632825,-0.0588705,0.035643,0.01310125,0.0159575,-0.03202225,-0.1063735,-0.021376,-0.01219125,-0.03649625,0.0841445,0.0312655,0.00460025,0.1136115,0.03640025,0.1313865,-0.0856225,-0.00611075,-0.021979,-0.0932865,0.04253925,0.05496175,-0.0149835,0.0338055,0.01813425,-0.0434115,0.013324,0.0517925,-0.05416525,0.04632075,-0.067579,-0.00229125,-0.1347475,-0.0196495,0.06795425,0.06367575,-0.097092,0.086894,-0.09454775,-0.03383575,0.0203665,0.0054475,0.0819195,-0.05899,-0.01330325,-0.006372,0.0244675,-0.00369225,0.038542,-0.041492,0.0640325,-0.08189975,0.0425395,-0.0492465,0.0711735,0.0082855,-0.0472605,-0.08473175,0.05820225,-0.04628,0.0001505,0.042004,-0.0462175,-0.0876945,-0.02320725,0.0649755,-0.038276,-0.065498,0.05751225,-0.0417765,-0.005329,0.12964125,0.00500925,0.08781025,0.055293,-0.03319625,-0.06346375,-0.04533975,0.06201,0.012328,-0.09142475,-0.04898775,0.02115675,0.01887225,-0.021687,0.03052475,-0.06769575,0.076182,0.00323375,-0.0778745,0.07417925,-0.02175225,0.02336125,-0.0088455,-0.04779375,-0.05544575,-0.037459,0.0767625,-0.02912425,-0.08534975,0.0612445,-0.00607525,0.00943525,-0.0307055,-0.02485325,-0.01939875,-0.02308925,0.02698875,0.01427725,-0.0142375,0.0503675,-0.01673575,0.03657175,0.0095,-0.02589875,-0.065693,0.0205285,-0.09066525,0.0992575,0.01746,-0.07524175,-0.046814,-0.058087,-0.01903175,0.03878525,0.0228105,-0.0251425,-0.05049,-0.01670225,0.00747475,0.04282725,-0.02671,0.121551,-0.13039225,0.024296,0.00687875,0.02162775,-0.0719715,-0.00497825,0.0076015,0.01808625,0.0055885,0.11565075,0.08750075,0.0937875,0.013027,-0.020669,0.024676,0.003771,-0.011317,0.01061925,0.017239,-0.013308,-0.022599,0.0307065,-0.08080825,-0.01181525,0.04844,0.035039,0.0613965,-0.02523325,0.04206175,-0.060036,0.0153095,-0.01975675,0.00010425,0.0062415,-0.027318,-0.0057555,0.021437,0.05483775,0.031708,-0.00931325,-0.0275505,-0.020967,-0.0987845,0.060495,0.07505775,0.004832,0.0468885,-0.03806125,0.00269575,-0.0008485,0.04322125,0.0542465,0.02584975,-0.06090275,-0.0396965,0.03233125,0.01339275,-0.07267125,-0.0927095,-0.022684,0.0134865,0.01828925,0.02688775,-0.04457,0.06288,-0.0933175,-0.03162,-0.051929,0.0225385,0.1098305,-0.020676,-0.00644525,0.02648575,-0.08246675,0.01624375,-0.063343,-0.07060175,0.04149025,0.0282685,0.0512985,0.054331,0.04149325,-0.05919425,0.0093335,-0.01508075,-0.0111635,0.00331325,-0.0292355,-0.04181175,0.004561,0.126047,-0.0274925,-0.035516,-0.02838225,0.006812,-0.0115455,-0.0182205,-0.0195095,0.01545575,-0.0207765,0.015395,-0.0402885,0.0333595,-0.0072735,0.000251,0.02115875,0.003682,-0.0251405,-0.0528495,-0.024635,0.01000675,-0.01074525,0.05590175,-0.0050855,-0.00640525,-0.0471015,-0.0353475,-0.0315325,-0.03640825,-0.030861,0.01831075,-0.0049385,0.00333175,-0.01327325,-0.081044,0.0385975,-0.05601425,-0.05597325,0.00561025,1
100_makeup_7,27.533,31.004,0.0026454286,-0.038694,0.0651988571,-0.0190022857,0.00979,0.012104,0.0058304286,-0.0240387143,0.0889502857,-0.015979,0.0013154286,-0.0167321429,0.004535,-0.0742372857,0.0406715714,0.0203805714,-0.0284945714,-0.0034732857,-0.013046,0.0364144286,-0.0276022857,-0.0372178571,-0.0026902857,0.0481157143,-0.0086735714,-0.0626954286,-0.0088104286,0.0757185714,-0.0415255714,0.1073584286,0.0337297143,-0.078588,-0.036753,-0.0028785714,-0.0042731429,-0.0093701429,-0.0609725714,-0.02098,-0.0201888571,0.0023481429,0.0121787143,0.0067151429,-0.0388864286,0.000122,-0.0348491429,0.0015,0.027472,-0.0292995714,0.0253212857,0.0810154286,-0.0118412857,0.0575554286,-0.035888,0.0746965714,-0.0244442857,0.0225852857,-0.0068938571,-0.048523,-0.0026407143,0.0669702857,-0.0346508571,0.0517341429,-0.0126954286,-0.0498437143,-0.0209281429,0.046179,-0.0904982857,0.0503367143,-0.0792784286,0.0260891429,-0.0307361429,-0.0955997143,0.0433651429,0.0413017143,-0.0854768571,0.1193194286,-0.0505174286,0.0214414286,-0.0375988571,-0.0081485714,0.0261931429,0.024897,0.0195237143,-0.02352,-0.0509517143,-0.0323522857,0.0115592857,0.0243084286,0.0718245714,0.0138772857,0.0031571429,0.0175052857,0.0663911429,0.0093835714,-0.0059077143,-0.0423951429,0.0102795714,-0.006878,0.0273687143,0.0988997143,-0.0556361429,-0.0756052857,-0.0630755714,0.0557462857,-0.0053798571,-0.0337541429,-0.0168401429,-0.076255,-0.0234774286,0.0622821429,0.0479397143,0.0529851429,0.0428267143,0.0359292857,-0.0296515714,-0.0506097143,0.0479908571,0.0013232857,0.0024441429,-0.074151,-0.0439344286,0.0572825714,-0.0768771429,-0.0470821429,-0.0445578571,0.0657292857,0.0333442857,-0.0331744286,0.0269355714,0.005117,0.0495911429,0.025124,-0.0144372857,-0.052697,-0.0369071429,0.0825954286,-0.0082928571,-0.0546068571,0.0139884286,0.0226037143,-0.0253095714,0.0300225714,-0.019192,-0.010872,-0.0044084286,-0.0293928571,0.0142342857,-0.0256345714,0.0776554286,-0.0200495714,0.0162801429,-0.0123367143,-0.060793,-0.060449,-0.0025094286,-0.008744,0.0596991429,0.0007617143,-0.0474654286,0.0189898571,-0.0269817143,-0.0459141429,0.0773805714,-0.0056578571,0.0048252857,0.0200178571,0.04219,0.0222812857,0.0350205714,-0.0123802857,0.0702667143,-0.1072681429,0.0003084286,-0.0425885714,0.0430174286,-0.0890432857,-0.0384182857,-0.006285,-0.00241,0.0344215714,0.0596538571,0.0674078571,0.0575407143,-0.0509387143,-0.0356955714,0.0067701429,-0.0054614286,-0.0627608571,-0.022707,0.0156944286,-0.0722038571,-0.0328355714,0.0194302857,-0.044241,-0.0618961429,0.0080961429,0.0393934286,0.038644,-0.008669,-0.0554777143,-0.1002541429,-0.0279258571,-0.0385058571,0.0497695714,-0.0151615714,0.0180435714,0.0145972857,0.0139292857,0.0038298571,0.0050401429,-0.0317697143,-0.0547191429,-0.0469565714,0.0226364286,0.0442292857,0.0459682857,-0.0198357143,0.0943031429,-0.0724762857,-0.0078485714,-0.0089794286,-0.0084794286,0.0260002857,-0.0401725714,-0.0624045714,-4.52857142857E-05,0.0514657143,-0.0108588571,-0.0925761429,-0.0184937143,0.0037334286,-0.0106777143,0.0005677143,0.04897,-0.0663398571,0.0691075714,-0.0399385714,-0.0314334286,-0.0871588571,0.0559474286,0.0960437143,-0.0271504286,-0.0380298571,-0.00097,-0.0939637143,-0.0026717143,-0.0426597143,-0.0259701429,-0.0203365714,0.0518834286,0.0607108571,-0.0163758571,0.0518017143,0.0006307143,-0.0254158571,-0.0047487143,0.0189724286,0.0105114286,-0.0571594286,-0.0344014286,0.089306,0.1019712857,-0.008329,-0.0178308571,-0.0309014286,-0.0789908571,0.004483,0.016738,-0.0575087143,0.0705448571,0.0293547143,0.0734371429,-0.0402337143,0.065649,-0.02811,0.0044954286,0.0157405714,0.0254675714,0.0082618571,-0.0049865714,-0.0349535714,-0.0309935714,-0.0310331429,0.0730194286,0.067191,-0.0186867143,0.0123717143,0.016766,-0.018163,-0.0735442857,-0.0219561429,0.0382034286,-0.038519,-0.0090335714,-0.0308104286,-0.0720874286,0.0222178571,-0.0334501429,0.0311055714,-0.0154891429,1
100_makeup_8,31.004,32.6,0.028531,-0.000178,0.159021,0.036683,-0.077789,0.008363,-0.006452,-0.032168,0.055485,-0.010114,0.006878,-0.077532,0.032045,-0.021148,0.009934,-0.014629,-0.037207,-0.06743,-0.023522,0.040992,-0.003283,-0.045367,0.022554,0.111815,0.018322,-0.118876,-0.048263,0.082415,-0.02895,0.154345,0.099165,0.007073,0.01436,-0.048245,0.045513,0.020642,-0.054728,-0.079179,-0.018911,-0.053267,-0.030833,0.057793,-0.122129,-0.030929,-0.07509,-0.053048,0.043386,-0.018466,0.066229,0.106133,-0.041503,0.069093,-0.073332,0.058639,0.050253,0.050904,-0.017588,-0.065253,-0.037708,0.120773,0.016187,-0.040223,-0.003965,0.034342,-0.057876,0.017691,0.046024,0.097905,-0.113945,0.094453,-0.073395,-0.107484,0.016875,0.080011,-0.037604,0.135376,-0.044984,0.044349,-0.050979,0.002969,-0.001623,0.026189,0.036346,0.02252,-0.047104,0.087782,0.00959,0.057877,0.055476,0.048381,0.007893,-0.048157,0.085476,0.051083,-0.070758,-0.052077,-0.0263,-0.014335,-0.04467,0.037494,-0.14365,-0.002356,-0.035179,0.087059,0.020846,0.038535,0.017226,-0.080459,0.075515,0.097327,0.012243,0.071653,0.067994,0.053733,-0.098239,-0.040718,0.059274,-0.032368,-0.034007,-0.01873,-0.055702,0.044228,-0.013709,0.027835,-0.09438,0.088788,-0.017192,-0.060623,0.008968,-0.106814,0.074799,0.006288,-0.017761,-0.112703,-0.083404,0.119137,0.030391,-0.068089,0.039701,0.030227,0.010503,0.036466,-0.046241,0.095587,0.024135,-0.030179,0.020266,-0.055152,0.073307,-0.04172,0.013474,0.00125,-0.032471,-0.041517,0.072598,-0.021548,0.101064,0.048687,-0.044336,0.043488,-0.001051,-0.028064,0.045815,0.016824,-0.083273,-0.077187,0.036084,0.036212,0.017029,-0.059356,0.077881,-0.108533,0.092686,-0.037275,0.095309,-0.082015,0.043129,0.013306,0.008548,0.000551,0.066448,0.097165,0.034293,-0.006083,-0.034996,-0.031725,-0.032711,-0.020979,-0.00039,-0.040991,-0.114184,-0.075088,0.013597,-0.07076,0.007041,0.006781,0.076503,0.091615,-0.009357,-0.032526,-0.098132,-0.100868,-0.05894,-0.064399,0.006059,-0.014116,-0.035868,0.000857,0.010884,0.048105,-0.00148,0.011757,0.0008,-0.032716,0.043055,0.010144,-0.047308,0.071158,-0.005231,0.002592,-0.032172,-0.004675,0.049101,-0.034953,-0.048207,-0.000622,0.058626,-0.063838,-0.076718,-0.002152,0.059751,-0.00315,-0.021341,0.001197,-0.081777,-0.016894,0.026814,-0.01284,-0.122861,-0.034913,0.131079,-0.031729,-0.015614,0.006513,-0.086803,0.093185,-0.097804,0.027067,-0.084617,0.001669,0.019932,0.072313,-0.012577,-0.039385,-0.055217,0.026488,0.033049,-0.001656,-0.068468,-0.038753,-0.022476,0.093151,-0.012643,-0.021007,-0.028106,-0.009254,-0.090066,0.017121,-0.015725,0.132326,0.037117,0.069348,-0.022027,0.052572,-0.042585,-0.007511,0.115835,-0.001346,0.015433,-0.063485,-0.073532,0.080718,-0.00543,0.038664,0.054681,0.06187,0.042854,0.025178,-0.073537,-0.00774,-0.047496,0.036993,0.006756,-0.015997,-0.091355,-0.113929,0.002359,-0.031533,0.010849,0.05484,1
100_makeup_9,32.6,34.133,0.004118,-0.039667,0.0935085,-0.0194745,-0.014791,0.0049445,-0.0322595,0.007557,0.1050375,-0.0409255,0.004061,-0.0632695,0.0298735,-0.0778025,0.057312,-0.0250225,-0.029615,-0.011788,0.0088595,0.051516,-0.039815,-0.055037,0.0267775,0.038314,0.006817,-0.0798415,-0.039722,0.073632,-0.0292125,0.0931405,0.031378,-0.0736145,-0.0494065,0.035417,0.019715,0.0003695,-0.0673025,-0.0346015,-0.0257935,0.0293875,0.0635875,-0.028775,-0.041981,-0.0243215,-0.017861,-0.020704,0.0184305,-0.003735,0.062954,0.0605175,-0.0283385,0.081556,0.041458,0.1046665,-0.0175435,0.0065465,-0.00396,-0.051119,0.0108285,0.043235,0.0022205,0.047031,0.017071,-0.0693165,0.005979,0.0288165,-0.0870755,0.0952645,-0.053919,0.0150735,-0.0563495,-0.0721375,0.0400835,0.0083635,-0.0860525,0.1117225,-0.0634645,0.026063,-0.0137945,-0.03285,-0.009723,-0.0349705,0.0171425,0.0107345,-0.023627,-0.0872395,-0.008668,0.000618,0.0606,0.0443345,0.0283945,-0.0367755,0.058193,0.0023645,-0.0591275,-0.0422875,-0.0044145,-0.006819,0.0392915,0.096654,-0.061132,-0.098175,-0.031432,0.0749155,0.009253,0.0036425,-0.032886,-0.0532245,0.008299,0.0585005,0.048607,0.0211175,0.026183,0.017269,0.0020415,-0.0286085,0.086804,-0.0343855,-0.016266,-0.1266455,-0.02062,0.0218735,-0.067881,-0.025195,-0.0481945,0.059605,-0.0208545,-0.0245745,0.029382,0.0441935,0.038652,0.0360725,-0.0336205,-0.0734555,-0.0615195,0.064495,0.031843,-0.1329085,0.042919,0.00739,-0.0274895,0.0395545,-0.0280315,-0.053382,0.005919,0.005541,-0.010035,-0.08944,0.054579,0.047996,0.037494,0.0254615,-0.0365585,-0.0362925,-0.0260175,-0.0377505,0.0894875,0.03384,-0.020281,-0.0047045,-0.046397,-0.058101,0.086749,0.0054345,0.044341,0.032281,0.0435325,0.046395,0.0385595,-0.0478105,0.062196,-0.090773,-0.012013,-0.0381025,-0.0066415,-0.080752,-0.0531365,0.002297,-0.045053,0.0255685,0.0335485,0.0528185,0.0951475,-0.0319455,-0.0200295,0.005111,0.007173,-0.0455875,-0.052917,0.0190725,-0.053823,0.02641,0.0430805,-0.035642,-0.0147575,0.0397405,0.0409075,0.0794175,0.030917,-0.012114,-0.0838145,0.0333845,-0.0317595,0.0316475,-0.0380395,-0.057114,0.0162565,0.0045235,0.0247045,0.022516,-0.058162,-0.039922,-0.0565885,0.0047715,0.033309,0.0508905,-0.0207425,0.118772,-0.055052,0.022604,0.0103565,-0.022803,0.0591195,-0.0517565,-0.030479,-0.017442,0.0568355,-0.0135915,-0.0818895,-0.0313265,0.011726,0.018959,-0.0133545,0.01572,-0.0543575,0.0272655,-0.011983,-0.015398,-0.0461115,0.0475055,0.1007735,-0.0127675,-0.050446,-0.0210745,-0.0715325,0.009183,-0.044588,-0.062829,0.045217,0.031156,0.0462915,0.0299715,0.0088675,-0.021709,-0.0206775,-0.0618615,0.0125555,0.027197,-0.065823,-0.033808,0.098442,0.074407,0.0009975,-0.018468,-0.002459,-0.029505,-0.060064,0.0077455,-0.0576185,0.062319,0.0275235,0.0688765,-0.025282,0.003724,-0.0362075,0.011781,0.0608205,0.0113005,-0.031417,-0.0126025,-0.0556645,-0.0320445,-0.05834,0.0639255,0.102562,0.0053265,-0.0176435,0.000308,-0.077985,-0.1074785,-0.023513,0.0616415,-0.0381745,0.0207585,-0.0321185,-0.0844655,-0.0010205,-0.0646165,0.01627,-0.00366,-1
101_movies_1,0,6.643,0.011245875,-0.0266189375,0.0433828125,-0.0380656875,-0.011703875,0.00992725,0.001386125,-0.00952075,0.112336125,-0.024913375,0.001689875,-0.03292625,0.0038050625,-0.05118725,0.0234670625,-0.0104780625,-0.011016625,-0.00656575,-0.02927525,0.029609625,-0.0028186875,-0.0488350625,0.0239906875,0.066349375,-0.02550325,-0.0511171875,-0.0045650625,0.0706551875,-0.0211305625,0.081466375,0.0554025,-0.0367593125,-0.025021,0.0154093125,0.0274335625,-0.037858375,-0.0279891875,-0.0282166875,-0.0340895,-0.0219055625,0.024125,-0.00316025,-0.03642325,-0.01845525,-0.032780375,-0.0371355,0.01037575,-0.0014031875,0.0333859375,0.09285775,-0.03242475,0.06995275,0.00596325,0.10330975,-0.008939625,0.034717125,-0.0351315,-0.0710211875,0.0011774375,0.0515050625,0.0092020625,0.037094125,-0.0218235,-0.0303054375,0.01233325,0.061261625,-0.0782221875,0.0377063125,-0.06807525,0.01891675,-0.0686036875,-0.0451965625,0.013195125,0.0548015625,-0.0684699375,0.0946530625,-0.0274525,0.0216539375,-0.0282068125,-0.01402775,0.0253684375,-0.0100013125,0.014568,0.004816375,0.0019590625,-0.02363025,-0.000991375,0.0272365625,0.061555125,0.011756875,0.00279975,-0.0247861875,0.0664253125,0.0087293125,-0.063244625,-0.0542251875,0.025502,-0.014062625,-0.00169425,0.0676303125,-0.0599450625,-0.064694125,-0.025569,0.06035,0.023792875,-0.0227038125,0.008536625,-0.06197325,0.00917175,0.070138,0.0299264375,0.05481325,0.05671175,0.0131665625,-0.0396301875,-0.03864725,0.0525321875,0.0006411875,-0.0265336875,-0.0636719375,-0.002508,0.013954,-0.048565125,-0.04224375,-0.06757575,0.0594610625,0.0017251875,-0.0156044375,0.04437775,-0.021013,0.0260748125,0.00647525,-0.0256790625,-0.059479375,-0.04002275,0.077517375,0.016358,-0.0654215,0.0110683125,0.023024,0.0001771875,0.01591025,-0.0196575,0.0126746875,-0.0120250625,0.005023375,0.0002601875,-0.026547625,0.083564375,-0.037906875,0.023901,-0.0162701875,-0.0570191875,-0.049950375,-0.0080705625,-0.0272875,0.065374125,0.0264879375,-0.046243125,-0.00085825,-0.0234740625,-0.0591336875,0.0909595,-0.0122640625,-0.0167430625,-0.0325761875,0.0099373125,0.022502,0.05265525,-0.038108875,0.0870043125,-0.091133125,0.0031151875,-0.00568225,0.046704,-0.082022625,-0.0265176875,0.0117863125,-0.00989575,0.0243276875,0.0530624375,0.0838039375,0.0706119375,-0.01964925,-0.0274023125,-0.00557575,0.006886125,-0.053237125,-0.00069325,0.0015253125,-0.0508734375,-0.007527875,0.0290843125,-0.0456300625,-0.024943125,0.0428335,0.03697675,0.0621574375,-0.01188575,-0.01714325,-0.1048585,-0.0165195625,-0.0368226875,0.0027456875,-0.0146663125,-0.0371303125,0.01119325,0.006930625,0.0090774375,0.0463391875,-0.0123655,-0.01841825,-0.0375671875,-0.01050625,0.010044875,0.048141,-0.022776125,0.071854875,-0.0338555625,0.0014388125,-0.0073091875,-0.030423375,0.0439879375,0.005549,-0.0340274375,0.0007335625,0.043441375,-0.017090125,-0.077008625,-0.0392510625,0.031359875,0.01070025,0.009636125,0.0462295625,-0.050586,0.0375103125,-0.0085304375,-0.034364875,-0.0641001875,0.0425758125,0.1342075625,-0.0235850625,-0.014313,-0.00240225,-0.0969859375,-0.00650975,-0.0493139375,-0.03296075,-0.0033060625,0.0403919375,0.04965875,0.0358265625,0.0066545,0.0022594375,-0.015215625,0.00227825,0.0225105625,0.0362038125,-0.044775875,-0.049538125,0.0518999375,0.0793036875,-0.022422875,-0.046831125,0.000410375,-0.02511175,-0.050891125,0.00880375,-0.0298510625,0.0824124375,0.009991625,0.0607766875,-0.0045860625,0.0228593125,-0.0511508125,0.0055585625,0.0519054375,0.01612825,-0.022343625,-0.029805125,-0.0417725625,-0.0281406875,-0.020485625,0.0333506875,0.0476000625,0.0001546875,0.01542525,0.003200125,-0.029507875,-0.0604314375,-0.0100385,0.0302450625,-0.040382,-0.0011575,-0.017802,-0.0737588125,0.00199325,-0.069366625,-0.0096364375,0.013509375,1
101_movies_2,6.643,17.29,0.0009384118,-0.0118947941,0.0382327647,-0.0399851471,-0.0038807647,0.0138936471,-0.0074244118,-0.0166331765,0.1010430294,-0.0230021176,0.0052396765,-0.0237868529,0.0081307353,-0.0467086471,0.0194554118,-0.0152689706,-0.0162483824,-0.0005553529,-0.0324120294,0.0374288529,-0.0074550588,-0.0539333235,0.0225903235,0.0567115294,-0.0184307647,-0.0445704412,-0.0021699706,0.0761373824,-0.0305531471,0.0763851471,0.0411838235,-0.0369626471,-0.0211007647,0.0080428529,0.0199627353,-0.0280600882,-0.0328867941,-0.0240739706,-0.0332906471,-0.0152245882,0.0202247647,0.0083324706,-0.0360280294,-0.0217018824,-0.0335172941,-0.0309513824,0.0148462059,-0.0065417941,0.0370340588,0.0844191765,-0.0341173824,0.0736715882,-0.0018131765,0.1039235,-0.0127320882,0.0291055,-0.0311337059,-0.0636765588,0.0035202059,0.0362897059,0.0131155882,0.0321827059,-0.0157179118,-0.0218756471,0.0146145882,0.0490732647,-0.0767001471,0.0403202353,-0.0739743529,0.0233211471,-0.0669221765,-0.0517482941,0.0344587941,0.0437846176,-0.0536113529,0.1001933529,-0.0164044118,0.0297581176,-0.0383307941,-0.0224877941,0.0269478529,-0.0011448529,0.0170788235,0.0100681765,0.0043356765,-0.0209276176,0.0028317647,0.0111801176,0.0493383824,0.0188434412,-0.0096435882,-0.0166471765,0.0658821176,-0.0020805294,-0.067083,-0.0348739706,0.0267765,-0.0118676765,0.0088609118,0.0702791176,-0.0492192647,-0.0697352059,-0.0342705588,0.0539884118,0.0279516176,-0.0260880588,0.0126987941,-0.0749362353,0.0022172647,0.0709857059,0.0427809706,0.0433236765,0.0566780882,0.0187926471,-0.0376064706,-0.0364235588,0.0490647059,-0.0023454412,-0.0242790588,-0.0529559118,-0.0015827059,0.0173047647,-0.0521221471,-0.0381705294,-0.0565229706,0.0504605882,0.006903,-0.0169144118,0.0463454706,-0.0295327059,0.0217205,-0.0061837059,-0.0369501471,-0.0538827941,-0.0440757941,0.0779065882,0.0146981176,-0.0614892941,0.0052112941,0.0138738529,0.0004554412,0.0091836176,-0.0234241176,0.0039392353,-0.0108253824,-0.0131672647,0.0147714706,-0.0366731176,0.0795495882,-0.0413101765,0.0336431765,-0.0053881471,-0.0499162059,-0.0525292353,-0.0080999412,-0.0176303824,0.0614553529,0.0043819412,-0.0446952059,-0.0027948529,-0.0122543529,-0.0532426471,0.0863042941,-0.0242926765,-0.0280340882,-0.0419879118,-0.0078419412,0.0293380882,0.0353581176,-0.0429921176,0.0700695588,-0.0738228824,0.0036845294,-0.0065272353,0.0479171471,-0.07637,-0.0315091176,-0.0118723529,-0.0118723235,0.0255414706,0.0486125,0.0808122353,0.0650571471,-0.0194431765,-0.0291205882,-0.0038052059,0.0074808235,-0.0517665,-0.0101820588,-0.0037156176,-0.0551326471,-0.0087862059,0.0409385294,-0.0245222059,-0.0227829412,0.0446592353,0.0272637941,0.0558078824,-0.01534,-0.0160165588,-0.1050079118,-0.0177158824,-0.0299534706,0.0008440588,-0.0092458529,-0.0346897941,-0.0023883529,0.0114934706,0.0240251471,0.0453121765,-0.0274075,-0.0228678824,-0.0321214118,-0.0021232941,0.0178292059,0.0530700294,-0.0132240882,0.0736982647,-0.0189424118,-0.0041242059,3.66470588235E-05,-0.0250348824,0.041265,0.0057040588,-0.0455888529,0.0090552647,0.0446311176,-0.0185658824,-0.0794766765,-0.0390909706,0.0257884412,0.0194927353,0.0043182059,0.0338009118,-0.0547165882,0.0435058824,-0.0096093824,-0.0401275294,-0.0717730882,0.0378691765,0.1291805294,-0.0230175882,-0.0111927941,-0.0182695588,-0.0903376765,-0.0082784706,-0.0524230882,-0.0249480588,0.0011709118,0.0354810882,0.0459295882,0.0326684706,0.0146738824,0.0080372941,-0.0285092059,0.0055369118,0.0162668824,0.0279554706,-0.0566254706,-0.0351714118,0.0595165882,0.081327,-0.0225006765,-0.0343462353,0.0030017647,-0.0203495588,-0.0363538235,0.0035711471,-0.0326007059,0.0832147353,0.0074624118,0.0484323235,0.0081437353,0.0174298529,-0.0280722353,0.0104247353,0.0426801176,0.0298421471,-0.0104545,-0.0324782353,-0.0474876765,-0.0319091765,-0.0327155588,0.0383794412,0.0388243235,0.0031397647,0.0280964118,0.0004325294,-0.0295682059,-0.0528214412,-0.0115445,0.0339837941,-0.0190541471,-0.0035965294,-0.0173809706,-0.0704046765,-0.0005336471,-0.0595230294,-0.0053742941,0.0228615588,1
101_movies_3,17.29,23.475,-0.010161125,-0.02028325,0.02552175,-0.042761875,-0.001890875,0.045503,-0.029094375,-0.0302305,0.1207735,-0.012981625,0.019672875,-0.025479125,0.007086125,-0.060894375,0.008664375,-0.01232925,-0.039061875,-0.002686375,-0.005063125,0.020984375,-0.012975,-0.054420125,0.0082935,0.05519675,-0.021114,-0.063361875,-0.01898425,0.081211875,-0.048147875,0.094214,0.050435625,-0.043841375,-0.028526625,0.01541675,-0.004530875,-0.034681125,-0.038293625,-0.0186735,-0.006305,-0.011270625,0.01559725,0.030539125,-0.029960625,-0.017471625,-0.019312625,-0.020233125,0.0224715,-0.005262625,0.037494,0.069647375,-0.02232475,0.0830895,0.0045165,0.108132625,-0.001926,0.0132335,-0.034551,-0.0690405,0.009831625,0.0397045,0.000583875,0.045360625,-0.037711,-0.00885175,0.023834125,0.0442065,-0.093472625,0.03933025,-0.08518875,0.005177,-0.03462375,-0.08685275,0.038623375,0.03116975,-0.059271125,0.126749625,0.0235955,0.00493425,-0.03248775,-0.01872275,-0.00262625,0.001626,0.031770625,0.027905625,-0.016844875,-0.044600125,-0.00533375,0.043897125,0.04816675,0.02645425,-0.022332625,-0.006106625,0.079199625,0.0065785,-0.03033275,-0.017617375,0.038289875,-0.017380875,0.00658825,0.08426975,-0.04497375,-0.077564375,-0.02300275,0.06844175,0.0296385,-0.017565125,0.003355125,-0.093393875,-0.0092295,0.083699625,0.038614375,0.063454125,0.0484045,0.0298545,-0.035462875,-0.0462745,0.0601195,0.001499125,0.007505125,-0.062803,-0.03881425,0.03525125,-0.056911875,-0.0668475,-0.0376205,0.06895925,0.02915525,-0.013632125,0.028336625,-0.012790375,0.02279,-0.017014125,-0.006024625,-0.047927875,-0.03380625,0.094327375,0.012528625,-0.080203625,-0.006562875,0.012308,-0.01650725,0.011526375,-0.0259655,0.004384875,0.01382,-0.016614,0.01142625,-0.04615575,0.1042185,-0.00885275,0.05692925,-0.032492375,-0.04421025,-0.052321125,-0.007312875,-0.009834625,0.0563165,-0.008434125,-0.007461875,0.01755475,0.00797475,-0.0696145,0.111499625,-0.01793925,-0.000307375,-0.0191315,-0.012949875,0.045507375,0.043744375,-0.052946375,0.07056575,-0.118536375,0.016233875,-0.021800625,0.046167,-0.09010875,-0.041814625,-0.009293125,-0.0303335,0.022779625,0.06876575,0.0654465,0.045132,-0.05163225,-0.014323875,0.00612275,-0.007685125,-0.052506625,0.000765125,-0.00927925,-0.0233175,-0.034629625,0.00542375,-0.0324035,-0.036309125,0.056113875,0.034313375,0.06914375,-0.006188125,-0.057483875,-0.1050845,-0.012303875,-0.035570875,-0.003685,-0.00122075,-0.030837,0.013027625,0.0225285,0.015846625,0.04798175,-0.053048,-0.042898625,-0.040366125,-0.02277725,-0.013787875,0.011625625,-0.0055335,0.087218125,-0.042578125,-0.01562275,-0.001144625,-0.009186875,0.045025625,-0.005920875,-0.033236875,0.01700575,0.060636375,-0.006065625,-0.080531125,-0.024991,0.030723,-0.007881,-0.007426125,0.017582875,-0.05999675,0.034076375,-0.0179535,-0.051659875,-0.07498425,0.03945175,0.11478425,-0.017900625,-0.018730125,-0.0027025,-0.08447425,-0.024389625,-0.029284,-0.0255295,0.00398575,0.054676875,0.046595,0.03206425,0.0444445,0.0253695,-0.036423375,-0.0025635,0.0128045,0.030448,-0.0472045,-0.024995375,0.073235625,0.083886625,-0.0265185,-0.032132875,0.022894875,-0.052804,-0.0250245,-0.000682625,-0.040665,0.06976,-0.00390625,0.088225125,-0.00768525,0.027675,-0.016318375,0.024200625,0.0474075,0.024852875,-0.004677375,-0.018552375,-0.066673625,-0.062320875,-0.039196125,0.054304875,0.047958125,-0.012637125,0.030850875,0.023676375,-0.011888625,-0.06625475,-0.013623375,0.02373975,-0.014906625,-0.009354,-0.029559,-0.065133125,0.014149,-0.057597125,0.029202,0.00607375,1
101_movies_4,23.475,26.714,0.0029652222,-4.88888888889E-05,0.0108316667,-0.0391618889,-0.00421,0.0173231111,0.0029112222,0.0023534444,0.1060802222,-0.0062312222,0.0029242222,-0.0235244444,0.0120445556,-0.0435095556,-9.17777777778E-05,-0.0018251111,-0.0478424444,-0.0052297778,-0.0162008889,0.0274621111,-0.0041365556,-0.0465772222,0.0262282222,0.0617006667,-0.0124881111,-0.0486896667,-0.0011768889,0.0626683333,-0.0464976667,0.0621377778,0.0405774444,-0.0358483333,-0.0194048889,0.0107703333,0.0062392222,-0.0336416667,-0.0350772222,-0.017379,-0.0213333333,-0.0087825556,0.0188227778,0.0307733333,-0.0205558889,-0.0119347778,-0.0129713333,-0.026096,0.0237683333,0.0125726667,0.023393,0.0759374444,-0.0225576667,0.0708863333,-0.0066716667,0.1060501111,-0.0085838889,0.0280918889,-0.0487213333,-0.0697227778,0.0034721111,0.0177302222,0.006642,0.0315761111,-0.015729,-0.0135914444,0.015248,0.0322788889,-0.0786382222,0.0464405556,-0.0687073333,0.0143324444,-0.0510855556,-0.0363656667,0.0158371111,0.044288,-0.0495826667,0.1089094444,0.0111452222,0.0207036667,-0.01996,-0.0197423333,0.0153066667,-0.0128823333,0.0236798889,0.0151471111,-0.0026316667,-0.024413,-0.0057993333,0.0252097778,0.0571935556,0.0343292222,-0.009866,-0.0231364444,0.0766763333,-0.0012563333,-0.0475147778,-0.0139901111,0.0442202222,-0.0337295556,0.0074948889,0.0643072222,-0.0527318889,-0.0816007778,-0.0149096667,0.0342008889,0.0305507778,-0.0253126667,0.0059784444,-0.060099,-0.0190955556,0.0696812222,0.0454926667,0.0514044444,0.0573493333,0.0209314444,-0.0288423333,-0.0396901111,0.0347148889,-0.0006494444,-0.0150071111,-0.0480733333,-0.0326814444,0.0117424444,-0.0311057778,-0.0427825556,-0.0473167778,0.035539,0.0103517778,-0.0310928889,0.0515744444,-0.0314632222,-0.0008352222,-0.0149915556,-0.0188148889,-0.054125,-0.0370728889,0.071081,0.0110796667,-0.0548493333,0.0031618889,-0.0088751111,0.0025874444,0.0129071111,-0.0145557778,0.0053278889,-0.0124003333,-0.0214872222,0.0209677778,-0.0271974444,0.0821061111,-0.0260654444,0.0285882222,-0.0352496667,-0.0314894444,-0.063852,0.0030918889,-0.0195828889,0.0433798889,-0.005456,-0.0348965556,-0.0136702222,0.0075614444,-0.058044,0.0831424444,-0.0223036667,-0.0266471111,-0.0271772222,-0.0210161111,0.0211623333,0.0627126667,-0.0468112222,0.0619886667,-0.0565948889,0.0066156667,-0.02124,0.027906,-0.074221,-0.0271232222,-0.0156011111,-0.0270698889,0.0246743333,0.036546,0.064635,0.0348622222,-0.0235832222,-0.0294077778,0.0095495556,-0.0196463333,-0.0491346667,-0.0203385556,0.0118236667,-0.0359595556,-0.0048577778,0.0324446667,-0.0247146667,-0.0250104444,0.0567064444,0.0116538889,0.0615643333,-0.0082563333,-0.0248577778,-0.0932161111,-0.0105006667,-0.0109701111,-0.0070307778,0.0059757778,-0.0116481111,-0.0002568889,0.0164282222,0.0242852222,0.051476,-0.0293856667,-0.0325985556,-0.0340067778,-0.0130613333,-0.0003245556,0.0433757778,-0.0065128889,0.0741066667,-0.0213343333,-0.0204287778,0.0015682222,-0.0326528889,0.0105378889,-0.027378,-0.0590428889,0.0058626667,0.0578998889,-0.0214452222,-0.0812166667,-0.0338657778,0.0324918889,-0.0085121111,0.0171756667,0.0250733333,-0.0483514444,0.0541705556,-0.0233091111,-0.0464825556,-0.0750792222,0.0299544444,0.1080408889,-0.0050043333,0.0097092222,-0.0395826667,-0.078672,-0.004561,-0.0441326667,-0.0183278889,-0.002655,0.0400621111,0.0552438889,0.0268647778,0.0256673333,-0.0056473333,-0.0383171111,0.0080145556,0.0141536667,0.0408508889,-0.0450555556,-0.008626,0.0542346667,0.092971,-0.0436597778,-0.0438721111,-0.0009773333,0.0058452222,-0.0383728889,-0.0185032222,-0.0298128889,0.0928906667,0.0128551111,0.04341,0.033326,-0.0082826667,-0.035074,0.019159,0.0433063333,0.0512345556,-0.0191431111,-0.0293177778,-0.0585154444,-0.0444563333,-0.0056368889,0.0405084444,0.0293245556,-0.015628,0.0270513333,0.0186551111,-0.0251321111,-0.0645405556,-0.0268876667,0.0121274444,-0.019849,0.0025353333,-0.0244745556,-0.0686418889,0.0029248889,-0.0542793333,-0.0002882222,0.023291,1
101_movies_5,26.714,33.367,0.0123708462,-0.0299363846,0.0274550769,-0.0405145385,0.0035456154,0.0241671538,-0.0052826923,0.0001684615,0.1125143077,-0.0548154615,-0.0070452308,0.0039685385,0.0250586154,-0.0442707692,0.0136446923,-0.021368,-0.0080753077,-0.0031417692,-0.028926,0.0248905385,0.0233650769,-0.0463718462,0.0099093077,0.0762545385,-0.0337069231,-0.0445613846,0.0025446154,0.0725940769,0.0083646154,0.0804496923,0.0333358462,-0.0383968462,-0.0070038462,-0.0105083077,0.0271261538,-0.027201,-0.0199097692,-0.0040893846,-0.0367160769,0.005951,0.0363912308,0.0201354615,-0.0031143846,-0.0200536923,-0.0496671538,-0.0206958462,0.0068685385,-0.0189511538,0.0177223846,0.0776883846,-0.0164642308,0.0523894615,-0.0227439231,0.1087495385,-0.0107276154,0.0251636154,-0.0213234615,-0.0789713846,0.0486522308,0.0358080769,-0.0017073077,0.0430858462,-0.0339972308,-0.0109339231,0.0330222308,0.0393411538,-0.0573524615,0.0381896923,-0.0702394615,0.01506,-0.0684336154,-0.0322231538,0.0342683846,0.0270925385,-0.0734293077,0.0730118462,-0.009512,0.0144703846,-0.0390539231,-0.0049881538,0.0207004615,0.0038956923,0.0271677692,0.0009159231,0.0065640769,-0.0320609231,0.0109998462,0.0110523846,0.0613324615,0.0149178462,0.0107668462,-0.0263080769,0.081568,0.007419,-0.0534471538,-0.0305649231,0.0378716923,0.0105842308,0.008703,0.0843380769,-0.042948,-0.0513481538,-0.0116956923,0.0737004615,0.0458283846,-0.0361972308,-0.0048293846,-0.0691714615,0.0113467692,0.0821297692,0.0395253077,0.0691805385,0.0472200769,0.026213,-0.019925,-0.0460612308,0.0743306923,0.0172925385,-0.0208838462,-0.0483642308,-0.0044804615,0.0215009231,-0.0431116923,-0.022056,-0.0593942308,0.056402,-0.0054535385,-0.0230902308,0.0399678462,-0.001492,0.0329640769,0.0079686923,-0.0276879231,-0.0491353846,-0.0322796923,0.0691616923,0.0199703846,-0.0793023846,0.0428021538,0.0108954615,0.019764,-0.0229570769,-0.0098229231,-0.0045936923,-0.0150014615,-0.0035682308,0.0004426154,-0.0300338462,0.0738396154,-0.0332168462,0.0284779231,-0.0185693846,-0.0593783846,-0.0630109231,-0.0057442308,-0.0369361538,0.0661850769,-0.0083046923,-0.0332879231,-0.0259604615,-0.0062218462,-0.059848,0.0618038462,-0.0126946154,0.0041756923,-0.0350651538,0.002688,0.035826,0.0423254615,-0.0441316154,0.1084879231,-0.1180669231,0.0095090769,0.0065431538,0.0557095385,-0.0857120769,-0.0245421538,-0.0138169231,-0.0060583077,0.0382033077,0.0785658462,0.0744053077,0.0392640769,-0.0423766923,-0.0367404615,-0.0165985385,-0.0083873846,-0.0739528462,0.0048356154,-0.0096487692,-0.0547426923,-0.0030344615,0.0237038462,-0.0512108462,-0.0165861538,0.0540291538,0.0229196923,0.0666416154,-0.0173596154,-0.0339130769,-0.0901079231,-0.0183596154,-0.0285675385,-0.0164936923,0.0012304615,-0.034369,0.0282162308,0.0080846923,0.0436625385,0.0315101538,-0.0484831538,-0.0423978462,-0.028137,-0.0025641538,0.01752,0.0650093077,-0.0082526923,0.052359,-0.0244484615,0.0145816154,-0.0208263846,-0.0069812308,0.0665220769,0.0177279231,-0.0506256154,0.0178669231,0.0440388462,-0.0102892308,-0.0856363846,-0.0548070769,0.0259705385,0.010093,0.0098813077,0.0324125385,-0.067334,0.0542079231,-0.0065252308,-0.0385567692,-0.0632251538,0.0166706154,0.1246234615,-0.0167710769,-0.0346428462,-0.0327957692,-0.0856486154,-0.0088054615,-0.0638670769,-0.0560776923,0.0016963077,0.0575828462,0.0624536923,0.0117714615,0.0306600769,0.0235882308,-0.0263689231,0.0098337692,0.0245816154,0.0308013077,-0.0622293846,-0.0626956923,0.0418745385,0.1133500769,0.0205962308,-0.0429456154,-0.0035220769,-0.0316044615,-0.0265187692,0.0110345385,-0.0270471538,0.0671797692,-0.0019701538,0.0622535385,0.0083165385,0.0177820769,-0.0116608462,-0.0006753077,0.0678240769,0.0075516154,-0.0006676154,-0.0248177692,-0.0567172308,-0.0213717692,-0.0302928462,0.0249688462,0.0665564615,0.0116173846,0.0036147692,0.0186714615,-0.0217730769,-0.0513323077,-0.0295826923,0.0290636923,-0.0252014615,-0.0188983077,-0.0265447692,-0.0809492308,0.0251779231,-0.0841643846,0.0087296154,0.0095497692,1
102_books_1,0,4.956,-0.0222182,-0.0348654,0.0597402,-0.0337364,0.0549414,0.0062818,-0.0100598,-0.0373296,0.1129276,0.0008618,-0.0108668,-0.004278,0.0256102,-0.0739288,0.0453362,-0.0053086,-0.0168138,0.0017436,0.0004798,0.0459134,0.0039594,-0.0620888,-0.006536,0.0020386,-0.0327116,-0.0341058,0.0107784,0.066208,-0.0374202,0.0821954,0.0274982,-0.0814906,-0.0358458,0.0333446,-0.015695,0.0080458,-0.0537294,-0.0084152,-0.0465784,-0.0142546,0.0136838,-0.0101146,-0.0575426,-0.0174728,-0.029865,0.011266,0.0056308,-0.0071548,0.063924,0.0946484,-0.0376296,0.064817,-0.0253504,0.1057592,-0.0025478,0.025629,-0.0376174,-0.0386542,-0.0063582,0.0424922,-0.0149668,0.0647938,0.0023344,-0.0436676,-0.017078,0.041195,-0.066551,0.0490744,-0.0737574,-0.0128592,-0.0502992,-0.0597446,0.0223458,0.0408818,-0.1024372,0.084794,0.0008542,0.0034724,-0.0467434,-0.0326236,-0.0091432,0.0171542,0.0146164,0.0069442,-0.0177838,-0.0454708,0.0053996,0.0001154,0.0229248,0.0169908,-0.0227564,0.015295,0.079785,-0.0161082,-0.0163824,-0.0533038,0.0289848,-0.0229244,0.0124752,0.0833072,-0.0399058,-0.0612982,-0.0542788,0.0247838,0.0116362,-0.041642,-0.0009348,-0.0335336,-0.0229388,0.06892,0.0766396,0.0517966,-0.0089314,0.0307744,-0.0259534,-0.061567,0.0594668,0.0024588,-0.0149728,-0.0860074,-0.0135728,0.0111162,-0.0799094,-0.0727864,-0.0430584,0.0593986,0.0209958,-0.0439958,0.0405966,-0.0255578,0.0414792,0.0198076,-0.0449822,-0.058106,-0.0390612,0.0688024,0.0233068,-0.0462002,-0.010183,0.0060238,-0.0504444,0.0184426,-0.0259018,-0.026182,0.0104924,-0.0261764,0.0284582,-0.054067,0.0573946,-0.0417486,0.0533802,0.0247714,-0.042562,-0.0365284,0.0003052,0.0129306,0.0894936,0.0236962,-0.0366744,0.0061578,-0.0395126,-0.036482,0.0509062,-0.0182176,0.0129918,0.0113306,0.054741,0.0524794,0.0577536,-0.0160282,0.083498,-0.0881462,0.0077118,-0.0462342,0.019629,-0.0769826,-0.049853,-0.0215938,-0.0058976,0.032042,0.0362628,0.066201,0.080779,-0.0115966,-0.012886,0.0108484,-0.0022332,-0.0566162,-0.0206574,-0.018972,-0.0572382,-0.0003528,0.036196,-0.0561892,-0.0518626,0.0213446,0.0305496,0.013333,0.015413,-0.0548954,-0.1045942,0.0071492,-0.03456,0.0137384,-0.0545758,-0.0178698,-0.0408256,-0.006248,-0.001485,0.0494176,0.0030766,-0.0510032,-0.0454854,0.0256254,-0.0285586,0.0592266,-0.031863,0.0971294,-0.0526172,0.020399,0.0286834,-0.0068368,0.0110592,0.0076368,-0.067443,0.003566,0.0330746,-0.0455306,-0.0806398,-0.0311102,0.030664,-0.0011842,0.0099042,0.0445254,-0.0647054,0.0648086,-0.01462,-0.0410688,-0.08308,0.0847324,0.1179404,-0.0552724,-0.0137212,0.0091184,-0.1009438,-0.0329442,-0.054717,-0.0395554,-0.012996,0.0598746,0.060938,0.0266516,0.0210672,0.0294264,-0.0123412,0.0107904,0.0199808,-0.015071,-0.092494,-0.0130138,0.089004,0.0376392,0.0140036,-0.0035354,-0.0362866,-0.0664914,0.0079468,0.00278,-0.0365196,0.0669588,0.0276148,0.0341872,-0.0470226,0.0505772,-0.063061,0.00676,0.0139298,0.0241198,-0.0010436,-0.0292026,-0.0239622,-0.007742,-0.0348994,0.0577198,0.043344,-0.023289,0.0157972,0.011611,-0.0019676,-0.0617742,-0.0092924,0.0499962,-0.0430346,0.0015944,-0.0110732,-0.0642752,-0.0222344,-0.0649692,-0.0050706,0.0288648,1
102_books_2,4.956,7.954,0.009236,-0.004513625,0.027098,-0.04342825,0.000775375,0.024862375,-0.006930625,-0.008996125,0.098215,-0.045520875,0.00913225,0.01215625,0.026862875,-0.0394715,0.025368125,-0.019629875,-0.01273125,0.024159125,-0.0472515,0.023180875,-0.011262375,-0.049465,0.015491,0.0889135,-0.031532,-0.0300235,0.00386725,0.06548225,-0.00830575,0.048604,0.0264495,-0.029276125,-0.009327,-0.0191305,0.021096,-0.0465745,-0.0003,-0.022266375,-0.041691125,-0.011297875,0.01347575,0.00856375,0.005275125,-0.031771875,-0.007228375,-0.044324375,0.00726975,-0.01973575,0.0119395,0.059680875,-0.02514075,0.0643305,0.018956375,0.09181225,-0.0100595,0.029382,-0.061632125,-0.070748875,0.027964625,0.032498375,-0.015493875,0.0260035,-0.0475125,0.00678925,0.00615925,0.026195625,-0.08210825,0.045482625,-0.0590545,0.018955125,-0.08716125,-0.025465,0.035437375,0.035900875,-0.0724605,0.0850905,-0.015850375,0.038329,-0.023975625,-0.028988,-0.01945875,0.0126985,0.035723125,0.010439375,0.02995925,-0.026134375,0.00214125,0.02027625,0.06153475,0.029376125,-0.017111,-0.0271695,0.056933875,-0.012291625,-0.07131525,0.02148925,0.02275675,-0.001760625,0.014529125,0.064407,-0.03707125,-0.068369625,-0.019641875,0.0314935,0.023237875,-0.035516,0.001783125,-0.084058625,0.00357125,0.051158375,0.038529625,0.045060625,0.042794375,0.026787,-0.032345125,-0.04973,0.047674375,0.021324875,-0.012149,-0.033085125,0.012067125,-0.001880125,-0.04428825,-0.046117375,-0.06212,0.04505175,0.028160875,0.01290425,0.06357225,-0.021682375,0.014218875,0.004409625,-0.0433275,-0.01692125,-0.041270375,0.061606125,0.0015635,-0.07825075,0.023800875,0.030894,-0.018205625,-0.029661125,-0.005567375,0.017898375,-0.0517575,0.008281125,0.02496825,-0.022141125,0.086386875,-0.0666665,-0.001830375,-0.00343975,-0.077849,-0.039329125,-0.003866625,-0.0241925,0.0520435,0.004546125,-0.0491995,-0.022487375,0.025060125,-0.05273125,0.091451625,-0.037990875,-0.013964625,-0.02101875,-0.00198125,0.029982625,0.041266875,-0.0494335,0.09384675,-0.03441825,-0.00094225,0.01964475,0.043870875,-0.083933875,-0.02187275,-0.0155695,-0.009377375,0.023157125,0.048122125,0.080750125,0.059787875,0.0039955,-0.036031875,0.018853625,0.00056375,-0.071548625,0.0070175,-0.028527,-0.03343225,-0.00051025,0.03408025,-0.016809125,-0.012547875,0.062862125,0.0192295,0.041601,-0.029200125,-0.00131975,-0.106732375,-0.02327675,-0.006201,-0.014222625,-0.016266125,-0.03744175,0.027176625,0.0298555,0.03119575,0.041175625,-0.027744375,-0.0174525,-0.03955825,-0.006199625,0.000564125,0.052502625,-0.023031625,0.05832275,-0.000582875,-0.00136375,-0.00928325,-0.0163785,0.060113625,0.020146125,-0.0650945,0.017550125,0.042171625,-0.027348875,-0.04951025,-0.026211375,0.015691625,0.0165435,-0.006541625,0.0508655,-0.049487875,0.04744925,-0.01537,-0.01661175,-0.057605,0.024158,0.118298875,-0.04144875,-0.01281525,-0.009964375,-0.102723,-0.004870375,-0.05354525,-0.0441715,-0.03903575,0.03986325,0.049905375,0.022545875,0.0287685,0.020464625,-0.01888675,-0.021564625,0.017819125,0.05228025,-0.056125125,-0.059022375,0.05791875,0.08652375,-0.01155625,-0.045795,-0.032414375,-0.001528375,-0.043962125,0.00450475,-0.02821025,0.067142,-0.016656125,0.0345605,0.032689,0.011296875,0.004161125,0.012732875,0.018902,0.010521875,-0.007051,-0.0102395,-0.03868775,-0.018054,-0.03528825,0.007206,0.050320625,0.01373575,0.023304625,0.008716625,-0.04073625,-0.05081475,-0.01885175,0.0448645,-0.030700875,0.012274625,-0.005128,-0.05620775,-0.004929,-0.06667825,-0.020163125,0.0161445,1
102_books_3,7.954,13.305,-0.0538308,-0.0450547,0.0029411,-0.0262601,-0.0072935,-0.0032683,-0.0235703,-0.0335787,0.1222624,-0.021822,0.0193545,0.0111668,-0.0084392,-0.057579,0.0124914,0.0198036,-0.0063274,0.0207338,-0.0168833,0.0347027,0.0319655,-0.0642127,0.0320019,0.0277226,-0.0552799,-0.0417268,0.0006219,0.0629612,-0.0357113,0.0713082,0.0215918,-0.0174853,-0.0059,0.0160804,-0.0059699,-0.0157455,-0.0359186,-0.0151482,-0.0096201,-0.0308164,0.0191403,-0.0216858,-0.0568949,0.0044737,-0.0470281,-0.0324118,0.0064187,-0.0433079,0.0046091,0.076908,-0.0111586,0.0945499,-0.0021157,0.1055132,0.014014,0.0322966,-0.0038667,-0.0767839,0.0211606,0.0344763,-0.0117436,0.0450859,-0.006993,-0.0153636,0.0213169,0.042997,-0.054204,0.0634197,-0.0704452,-0.0219835,-0.0619807,-0.0361389,0.0225643,0.0231447,-0.0540484,0.0791726,0.0259985,0.0053399,-0.021973,-0.0210632,-0.0190079,-0.0104664,0.0194477,0.0512013,0.0255805,-0.0654421,0.0095118,0.0326587,0.0437308,0.0112969,0.0132839,0.0196373,0.0936662,-0.0221822,-0.0237145,-0.0348781,0.0441304,-0.0321464,0.0047267,0.0758502,-0.0492081,-0.0727581,-0.0059656,0.0351026,0.0269963,-0.0251116,0.0173667,-0.0521239,-0.0219583,0.0487268,0.0276139,0.062196,-0.0088148,0.0100229,-0.0406048,-0.0340998,0.0601097,0.0081971,-0.0235078,-0.0597643,-0.0301633,0.0338715,-0.0295779,-0.0709274,-0.0360524,0.0431,0.0242752,-0.026132,0.0460213,-0.0281748,-0.0086618,0.0116519,-0.051699,-0.0465533,-0.0381826,0.0594229,0.0414697,-0.0808867,0.0113957,-0.0043859,-0.0284364,-0.0241588,-0.0343658,0.0158165,0.0021823,-0.0031466,-0.0201833,-0.0313308,0.0790893,-0.0386614,0.0418971,-0.0186095,-0.0577622,-0.0473475,-0.0150671,-0.0052392,0.0441668,0.0080327,-0.020141,0.0125899,0.0222372,-0.0645018,0.0926641,-0.0500963,-0.0051134,-0.0420192,0.0199589,0.0413196,0.0386962,-0.0472157,0.0989595,-0.0579112,0.002686,-0.0148068,0.0367495,-0.0601064,-0.021087,-0.0225641,-0.0308344,0.0155495,0.0580544,0.0564108,0.0550819,-0.0264645,-0.0322032,-0.0101965,-0.0054762,-0.058808,0.0021443,-0.0036848,-0.0285787,-0.0076773,0.0196943,-0.0484434,-0.0357527,0.0648576,0.0355972,0.0357107,0.0030075,-0.0465411,-0.0804017,-0.0038207,-0.0138254,-0.0160296,-0.0370957,-0.0417024,-0.0012087,0.0245264,-0.0036483,0.0109145,-0.0140854,-0.0740751,-0.0352985,-0.0075187,-0.0036252,0.0476464,-0.0265784,0.0489065,-0.0273286,-0.0121545,-0.0050104,0.0079214,0.0466942,0.0085539,-0.0525287,-0.0000228,0.012585,-0.0201724,-0.0727011,-0.0479911,0.0049037,-0.0100037,0.0238489,0.0107176,-0.0687189,0.0571677,-0.0237789,-0.0481623,-0.0767199,0.0402667,0.115016,-0.0306175,-0.0033259,0.0037492,-0.0841237,0.0020884,-0.0445522,-0.0201645,-0.0212367,0.0380669,0.0572264,0.0199724,0.0325705,0.0243729,-0.0317677,0.0081606,0.0149692,0.0278516,-0.01554,-0.0300814,0.0497874,0.0571223,-0.0005002,-0.0301617,-0.0193544,0.0066733,-0.0191968,0.0090768,-0.0362713,0.0711376,0.0195256,0.0524191,0.008387,0.0260814,-0.0406123,0.0113083,0.0432679,0.0225485,-0.0101384,-0.0468524,-0.0227069,-0.0530296,-0.0338149,0.0259052,0.0353013,-0.0246678,0.020084,0.0155716,-0.0054876,-0.0756922,-0.0216926,-0.0061613,-0.0374356,0.001239,0.0039301,-0.0697012,0.0041566,-0.0769177,-0.0224595,0.0070395,1
102_books_4,13.305,19.397,0.03300825,-0.014513125,0.040572375,-0.040125125,-0.0148725,0.023082625,0.012228625,-0.011391875,0.073103375,-0.0004045,0.0346935,-0.019469625,-0.03243225,-0.05012275,0.01087625,0.007007875,-0.02264975,-0.00687975,-0.017155375,0.04153825,0.0077865,-0.044338125,0.026248125,0.072563875,-0.02207675,-0.07022925,-0.002225375,0.075318625,-0.030049875,0.089502,0.028421875,-0.065134125,-0.01923075,-0.004079,0.019336375,-0.03700975,-0.0409845,-0.02483325,-0.001491875,-0.00152025,0.036708,0.001326625,-0.02781875,-0.046577875,-0.016761375,-0.0508545,-0.0174705,0.005010375,0.033646875,0.060612,-0.000163625,0.02364275,0.013573125,0.100185875,-0.017938,0.013504625,-0.022365625,-0.06763975,0.0296575,0.001272875,-0.001919125,0.04778675,-0.017909125,-0.030207625,0.020795125,0.0703345,-0.10133175,0.020809625,-0.076784125,0.00572925,-0.05927575,-0.014722625,0.0256385,0.05820075,-0.04831875,0.087899625,-0.047089,0.0370155,-0.03900625,-0.008824625,0.01577775,-0.000625875,0.018826625,0.002392,-0.007578,-0.0487945,0.010145875,-0.02353025,0.0548755,-0.00296775,-0.00906525,-0.00692125,0.106315125,-0.0081395,-0.033102625,-0.023990875,0.04948575,0.008208875,0.0077285,0.06545925,-0.044069125,-0.076053875,-0.0331745,0.03702225,0.009659,0.015547375,0.026422375,-0.033473375,0.0006765,0.061486125,0.03437825,0.050121375,0.054429,0.015925,-0.023327125,-0.014874125,0.064370625,0.009172625,-0.01312875,-0.038887625,0.001531875,0.023594125,-0.0430895,-0.054824,-0.028284,0.04114825,0.031564,-0.033992375,0.04429475,-0.003464375,-0.004584375,-0.0003015,-0.015173375,-0.061492625,-0.025197375,0.06767125,0.02134525,-0.0738975,-0.00529325,0.02974025,-0.0357695,0.000394375,-0.003500125,0.027395125,-0.028981125,-0.020413,0.006953,-0.01615275,0.0700335,-0.015294,0.038089,-0.022296875,-0.04330525,-0.0385225,-0.003661625,0.00180225,0.0456325,-0.016221375,-0.041735375,-0.001645375,-0.01176275,-0.048655625,0.099817,-0.016592375,-0.0196805,-0.034040875,-0.00744075,0.037606,0.0299695,-0.071716625,0.050289375,-0.073215625,0.004013125,0.00155575,0.051883375,-0.0521925,-0.027185625,-0.001583,-0.012059,0.015951625,0.057579875,0.08461525,0.042633875,-0.016202875,-0.010072875,-0.004410625,-0.013529875,-0.068175,-0.00533075,-0.000135,-0.021136375,0.001103375,0.0147475,-0.033468625,-0.03856175,0.02181575,0.028674125,0.035998375,-0.0011415,-0.027306125,-0.099983125,-0.01072375,-0.01655975,0.016664625,0.007596,-0.005354625,-0.002420875,0.004010625,0.033766625,0.02819925,-0.036054,-0.032713625,-0.042984125,-0.017680875,0.0169515,0.028282375,-0.014207375,0.055481875,-0.0238565,-0.027690625,-0.01569475,-0.02617,0.038530125,0.006729375,-0.018455375,-0.036075,0.048046125,-0.0025715,-0.05978725,-0.047664375,0.00742125,-0.0088715,0.009245375,0.022162875,-0.03807475,0.04447625,-0.020033875,-0.0547675,-0.0969725,0.0361675,0.11529925,-0.037902,-0.030302375,-0.03306425,-0.0918315,-0.01388525,-0.007574,-0.03444,-0.039928625,0.030921125,0.05878075,0.003230375,0.024061625,-0.0264855,-0.0174115,0.010175,0.008463875,0.023876,-0.051559,-0.0319885,0.061477375,0.10595725,-0.0723815,-0.025372,-0.018437875,-0.021553,-0.0236865,0.001490875,-0.0372725,0.068312625,0.011576,0.054097375,0.00993525,0.026427125,-0.0278135,-0.003204125,0.02401975,0.030806,0.0054845,-0.01206975,-0.028902625,-0.01541175,-0.01946625,0.05815675,0.031079875,-0.009183125,0.021661125,0.003597625,-0.0286925,-0.05516,-0.020806875,0.01361575,-0.046549625,0.00320275,-0.012868625,-0.038860375,0.029853,-0.05763375,-0.013109375,0.003085125,1
102_books_5,19.397,34.133,0.0009595208,-0.0372796458,0.0351872083,-0.0383196875,0.009431375,0.0123483958,-0.0145562917,-0.0114973125,0.103653375,-0.013557125,0.0146033958,-0.0223778958,-0.0054061458,-0.0596090417,0.0291373333,0.0025456458,-0.0239428125,0.0131932708,-0.0047950417,0.0464107708,0.0278551667,-0.0501296042,0.0176419792,0.0423900833,-0.025052875,-0.0533435,-0.0014042708,0.0676794792,-0.0573212917,0.070232,0.029922375,-0.043776125,-0.0263798125,0.0187253333,0.01128675,-0.0212223333,-0.0328906458,-0.0212017083,-0.0333215417,-0.0215629167,0.0188392292,-0.0063928958,-0.0261543333,-0.0192559375,-0.0207636667,-0.030501,0.0112641042,-0.0085030208,0.032819375,0.081312125,-0.0226243125,0.0623724167,0.0007607292,0.1057543542,-0.0042304167,0.0296824167,-0.0227885833,-0.0542004375,0.0085077292,0.0270607292,0.000019,0.0466751667,0.0019442708,-0.0249709792,0.008847875,0.0514839583,-0.0900569375,0.0367365625,-0.0749009583,-0.0082625833,-0.0427571458,-0.0466681667,0.0104701042,0.0382728333,-0.0691904375,0.1158495417,-0.0149693958,0.0224391458,-0.0322078958,-0.0077607083,0.0158421875,0.010452875,0.0131517292,0.0012455,-0.0055393333,-0.0538479375,0.01101825,0.0169058542,0.0525984375,0.0120407083,0.0004949583,-0.0014581458,0.0854573542,-0.0048152292,-0.03174025,-0.0408930417,0.0257410417,-0.0125852083,0.0112599583,0.0682457917,-0.053264,-0.0784285208,-0.0321365,0.0277580625,0.0221761667,-0.0314631042,0.0145853333,-0.0484925208,-0.0071337708,0.0517974583,0.0384029375,0.0452034167,0.0295678958,0.0093074583,-0.0285899375,-0.0377543333,0.0550162917,0.0009126875,-0.0029874375,-0.0587889375,-0.0195390417,0.0309648125,-0.0514815417,-0.0660395833,-0.06141975,0.0537993542,0.01793825,-0.0219981042,0.0576491667,-0.0145813542,0.0058907292,-0.0119616875,-0.0354924167,-0.0435860208,-0.0382922083,0.0722307292,0.0242929167,-0.0765714792,0.0016236875,0.0159309792,-0.0352144583,0.0103142917,-0.018683375,0.0111819583,0.0019548542,-0.0172497292,-0.0002836042,-0.0326663125,0.0845565625,-0.0316547083,0.0261810625,-0.0120787917,-0.04694725,-0.04619225,-0.010981375,-0.0082094583,0.05804375,0.00231475,-0.0445743542,-0.0045611875,-0.0113308958,-0.0678985,0.0970804375,-0.0343404375,-0.0151004792,-0.0158820833,0.0174419375,0.0401420417,0.0539212708,-0.0267561458,0.0730780208,-0.0662927083,-0.015308125,-0.0108188542,0.0510503125,-0.0577811667,-0.0413718333,-0.0002821042,-0.0208722292,0.0238521667,0.0437619375,0.081899625,0.0727190625,-0.0308189792,-0.0251924167,0.00168175,0.0031232292,-0.0465516042,-0.0046580625,0.007104125,-0.0505585625,-0.006731375,0.0155254375,-0.0429971875,-0.0438849792,0.0256709167,0.0257091875,0.0390482917,-0.008006625,-0.0517051875,-0.1041770833,-0.0049102708,-0.0289080417,0.0066175833,-0.0288520417,-0.03762925,-0.000902,0.0103932917,0.0035419167,0.0463394583,-0.0262254792,-0.0395957917,-0.0420475833,-0.0051038333,-0.0116902083,0.0341941875,-0.0384527708,0.0783068125,-0.0349502708,-0.0218855,-0.0036476875,-0.0176313125,0.0308695417,0.0164144792,-0.0412139792,-0.0007713125,0.0387166875,-0.0237633333,-0.0790746667,-0.0358828958,0.017726625,-0.0062333958,0.01359675,0.01216775,-0.0431237083,0.0489143333,-0.031132125,-0.047302375,-0.0734672292,0.0464495417,0.1248615208,-0.0343416458,-0.0232172708,-0.013531875,-0.0887755,-0.0104768542,-0.0437217292,-0.0315571042,-0.0241050625,0.0305033542,0.0484448958,0.0073810417,0.0281691875,0.0134100417,-0.0148998125,0.0105847917,0.0293132292,0.0274200625,-0.0527385625,-0.0279617292,0.0749816875,0.0740189583,-0.0230227917,-0.0260941042,-0.0138148125,-0.025683875,-0.03392875,0.0047147083,-0.047978125,0.0786594375,0.0081758125,0.0555611875,-0.0150221458,0.0200882292,-0.042945875,-0.0048336042,0.0306820417,0.0293081042,-0.0093719167,-0.0204372083,-0.0306582917,-0.0318925625,-0.028268375,0.056912875,0.0435625625,-0.0170307708,0.0067051458,0.0147234375,-0.0248628542,-0.0695999375,-0.0212909583,0.0250182083,-0.0452732292,0.004386625,-0.0139536667,-0.0494477083,-0.0115568542,-0.0629299167,-0.0103563542,0.0090557708,1
103_books_1,0,1.478,0.0112833333,-0.0419413333,0.0398733333,-0.051696,-0.0201513333,-0.0019456667,-0.0310503333,-0.0095863333,0.085263,0.009284,0.0001066667,-0.037771,-0.0068803333,-0.005944,0.005381,-0.011074,-0.0074156667,-0.00454,-0.0119893333,0.051304,-0.0007973333,-0.0530956667,0.042805,0.048441,-0.0297926667,-0.0564323333,-0.0023253333,0.1000996667,-0.0402196667,0.076095,0.0560876667,-0.0471113333,-0.058359,0.04567,0.0291466667,-0.0332343333,-0.0415916667,-0.0036663333,-0.034702,-0.0231076667,0.0342123333,0.0092493333,-0.0147023333,-0.0400833333,-0.0256003333,-0.022479,-0.0083796667,-0.0076666667,0.0219766667,0.1011843333,-0.024573,0.0852436667,0.018397,0.1132716667,-0.0165053333,0.0581143333,-0.0358746667,-0.074421,-0.0119003333,0.044304,0.046564,0.0637916667,-0.0282886667,-0.0386123333,0.019381,0.0834963333,-0.1147616667,0.0523833333,-0.0571623333,-0.01194,-0.0428693333,-0.0256686667,-0.0225736667,0.0628726667,-0.063498,0.076563,-0.0273276667,0.014835,-0.06003,0.004599,-0.009438,-0.0110046667,0.0145403333,0.011725,0.0103003333,-0.0254806667,0.0187693333,0.025792,0.058507,0.005372,-0.0158403333,0.0026333333,0.076223,0.0118206667,-0.0545933333,-0.0649776667,0.015819,-0.0034513333,0.0057676667,0.07996,-0.05478,-0.0848993333,-0.0456153333,0.0576146667,0.01963,-0.0124633333,0.023078,-0.0764653333,-0.0140663333,0.0573613333,0.025034,0.0036963333,0.0529023333,-0.010028,-0.0292776667,-0.034572,0.07043,0.0033463333,-0.0063383333,-0.0770836667,0.0062456667,0.027661,-0.055738,-0.0696136667,-0.0477946667,0.0493733333,0.036719,-0.0086833333,0.0487986667,-0.0276803333,0.021142,0.0029623333,-0.0367553333,-0.0526986667,-0.0173436667,0.0796946667,0.0078076667,-0.0642173333,0.0094506667,0.0243053333,-0.012621,0.012627,0.011527,0.027402,-0.0491876667,-0.003479,-0.0060823333,-0.0385466667,0.0731656667,-0.0464573333,-0.005688,-0.0187596667,-0.0603933333,-0.0497226667,-0.0092523333,-0.0019773333,0.0458753333,-0.0066746667,-0.039152,0.0018783333,-0.009263,-0.0665476667,0.114659,-0.0050816667,-0.001174,-0.025794,-0.016837,0.0299046667,0.0285866667,-0.026344,0.0522546667,-0.0836046667,0.01476,-0.017513,0.0506996667,-0.0454653333,-0.027723,-0.0104983333,-0.0281993333,0.0244296667,0.024708,0.108075,0.0565663333,-0.0204733333,-0.0184646667,-0.0202763333,0.009958,-0.063057,-0.005205,0.0099706667,-0.0437926667,-0.0109383333,0.0263006667,-0.0175086667,-0.0666756667,0.036289,0.040437,0.0020313333,0.0101586667,-0.0380103333,-0.0951933333,-0.0157366667,-0.049611,0.0239736667,-0.0108633333,-0.0595516667,0.0252766667,-0.004556,0.0052213333,0.0647366667,-0.0319456667,-0.0283576667,-0.0480823333,-0.0076856667,-0.001622,0.0343433333,-0.0337023333,0.078183,0.00141,-0.0228266667,0.01497,-0.0301293333,0.0414436667,0.0263453333,-0.045175,0.0024393333,0.030255,-0.0161003333,-0.0402143333,-0.0383243333,0.0278326667,0.0245423333,0.0387786667,0.065552,-0.068247,0.045537,-0.0347896667,-0.0487316667,-0.0781056667,0.0717526667,0.1170253333,-0.0197583333,-0.0163363333,-0.0103916667,-0.11882,-0.020452,-0.0363576667,-0.0390043333,0.0101113333,0.0232803333,0.0505953333,0.0270606667,0.0264383333,-0.0106376667,-0.0033326667,-0.0156346667,0.038624,0.0173096667,-0.0526923333,-0.039711,0.0808576667,0.092301,-0.035269,-0.0428363333,0.0265973333,-0.051403,-0.0613653333,0.0347706667,-0.04752,0.0753823333,0.0069006667,0.053503,-9.53333333333E-05,0.009663,-0.0525483333,0.001513,0.0543586667,0.0242006667,-0.016837,0.00395,-0.0251153333,-0.058066,-0.0383393333,0.0433813333,0.0626076667,0.0063083333,0.009052,-0.010726,-0.0206253333,-0.0661276667,-0.0371363333,0.027712,-0.063862,-0.0243023333,-0.0198916667,-0.0244583333,0.0107556667,-0.0835663333,-0.003009,0.0281973333,1
103_books_2,1.478,5.234,-0.01358025,-0.044385125,0.046968,-0.039491,0.027482125,0.036489,0.004225125,-0.012512375,0.116093,-0.0275355,-0.016237125,-0.0359045,0.023707125,-0.03626325,0.03196225,-0.030337125,-0.01137875,0.022275375,-0.007330125,0.07110925,-0.024815,-0.084807,-0.021768,0.04373975,-0.014007,-0.015727,-0.00261575,0.05497575,-0.016470625,0.061136375,0.04479275,-0.0617335,-0.070800125,0.04868475,0.021688375,-0.0287995,-0.05136725,-0.006964375,-0.0432055,0.01668425,0.037953875,0.00039275,-0.03870375,-0.0218055,-0.03667325,-0.0252665,0.006076375,-0.0261575,0.035437125,0.0771585,-0.035073375,0.087536875,0.01879875,0.094215875,-0.008618875,0.029978375,-0.027623125,-0.038233125,-0.021818625,0.020689375,0.0314355,0.027010375,-0.033800625,-0.03585225,0.007438125,0.0373355,-0.046896,0.02178675,-0.06427225,0.038851125,-0.038798625,-0.063354375,0.015466875,0.018197375,-0.048755125,0.082626125,0.019373375,0.0402815,-0.025947375,-0.01030625,0.009483625,-0.007748125,-0.004159375,0.03578475,0.0029015,-0.029199125,-0.02340925,-0.025531125,0.02558125,0.024785125,-0.01648175,0.00396425,0.023872625,-0.004292,-0.047317375,-0.002898375,0.04775275,-0.000145625,0.04115425,0.082322375,-0.044054375,-0.041702375,-0.033118875,0.089533,0.0253065,-0.03646525,0.011282,-0.09271125,-0.015520875,0.080070125,0.042890375,0.021025625,0.044347375,0.0124145,-0.001029625,-0.0599695,0.032955875,0.009814875,-0.025664625,-0.053214375,0.056098125,0.003740375,-0.05556825,-0.03755575,-0.008402125,0.05225925,-0.0199965,-0.025860375,0.06199775,-0.01757175,0.00719075,-0.006789375,-0.036720125,-0.02637025,-0.03299975,0.05942575,0.0045415,-0.0464395,-0.000473625,0.006524125,-0.0288385,0.033470375,-0.029148,0.00017675,-0.01472525,-0.014686,0.03078275,-0.0491695,0.08826575,-0.05249975,0.04326175,0.001373625,-0.03776875,-0.052284875,-0.05001075,-0.00178225,0.106341375,0.019332625,-0.051652375,-0.02834225,-0.01493875,-0.09267525,0.074654625,0.01845675,-0.029651375,-0.014546125,0.000382625,0.03736075,0.018384,-0.066117375,0.065271875,-0.08737275,0.003484625,0.0091265,0.03823225,-0.14389025,-0.032025375,-0.011581375,-0.0200425,0.00581325,0.02486125,0.071795,0.073904125,-0.007286625,-0.018015,0.03707675,0.018626375,-0.043945375,-0.027214,-0.00884625,-0.067012625,0.0399555,0.016295875,-0.012105875,-0.023918375,0.02158425,0.018203625,0.049945125,0.001165625,-0.00179475,-0.11594425,-0.016111125,-0.035921,0.02957275,-0.059574,-0.046377,0.0180295,0.025414375,0.01638675,0.05248875,-0.023616875,-0.0341595,-0.03813475,0.023327625,0.031302,0.04823125,-0.0067105,0.065964375,-0.020323625,0.029932,-0.026386,-0.0458805,0.055247625,-0.0184755,-0.05063825,0.01152625,0.044783,-0.019598625,-0.063199375,-0.037239125,0.037876125,0.051021,-0.01093075,0.047119375,-0.08688925,0.04673725,-0.012632,-0.0186155,-0.0253335,0.0603595,0.14068425,-0.02196725,-0.01637325,-0.048354625,-0.079074125,-0.019868625,-0.055918375,-0.004666,0.011275,0.040137,0.021472875,0.043115875,0.010394125,0.00796125,-0.080601375,0.016950375,0.003114375,0.03802275,-0.04480375,-0.031850125,0.056186,0.040504875,-0.001854125,-0.036283875,0.00405025,-0.0087555,0.00700275,0.015233125,-0.012801875,0.090197,0.0156255,0.04288,0.0801555,0.01948875,-0.062086125,-0.005254625,0.00522,0.024535,-0.00440075,-0.03004875,-0.060991125,-0.0480725,-0.03571725,0.032992375,0.061198625,-0.002475625,0.032626875,-0.0093205,-0.001171,-0.08504675,0.010555,0.061836125,-0.030798875,-0.008523875,-0.011553875,-0.080519375,-0.02164325,-0.102764125,0.020275375,-0.00424475,1
103_books_3,5.234,7.567,0.024272,-0.0240243333,0.019238,-0.0268523333,0.0230303333,0.029369,-0.006237,-0.0155843333,0.0623683333,-0.0520256667,0.0092303333,0.0083276667,-0.0103103333,-0.010032,0.0380403333,0.0074116667,-0.012926,0.0722296667,-0.0151576667,0.0575446667,-0.0098616667,-0.029007,0.0324153333,0.092465,0.0232373333,-0.040908,0.0375876667,0.0529966667,-0.0389993333,0.037812,0.0263066667,-0.038679,-0.0140193333,-0.028404,0.0341023333,-0.06013,-0.0089196667,0.0187936667,-0.0424186667,-0.01316,0.0056666667,0.0386153333,0.0263386667,-0.032985,-0.0083266667,-0.060656,0.0316433333,-0.0018993333,-0.013026,0.0577003333,0.015543,0.071572,0.0231963333,0.0737506667,-0.0137176667,0.054115,-0.058068,-0.015117,-0.0097916667,-0.0184133333,0.02529,0.0048093333,-0.040894,0.009035,-0.0201153333,0.01697,-0.0871533333,-0.0044983333,-0.0655683333,0.0105383333,-0.0446143333,-0.007369,0.0012983333,0.044278,-0.0552686667,0.1161363333,-0.0441993333,0.0686663333,-0.006327,-0.051763,-0.016738,-0.0202763333,0.0264066667,0.0119133333,0.026938,-0.038396,0.010785,0.0486503333,0.047585,0.0473513333,-0.0017883333,-0.035661,-0.0090033333,-0.0181696667,-0.0423943333,0.0520913333,0.022996,-0.003895,-0.0225506667,0.0474613333,-0.0296043333,-0.0606626667,-0.027948,-0.030164,0.0136016667,-0.052092,0.009856,-0.0853063333,0.009312,0.0222263333,-0.0034066667,0.0290796667,0.0107346667,-0.028895,-0.0252173333,-0.0481653333,0.0657913333,0.0160423333,0.0123993333,-0.0073473333,0.036127,-0.0354653333,-0.0368993333,-0.089801,-0.047941,0.0010433333,0.0363773333,0.0456903333,0.0796923333,-0.0226323333,-0.0262546667,-0.0252546667,-0.05788,0.0091353333,-0.0393586667,0.0517626667,0.0148603333,-0.058756,0.037205,0.0150193333,0.0029286667,-0.003936,-0.0162323333,0.0361873333,-0.0440553333,0.008245,0.0214266667,-0.0052056667,0.091872,-0.0805216667,-0.0012683333,0.0076183333,-0.1093833333,-0.0317456667,0.002312,0.0125836667,0.0704163333,0.042089,-0.0815333333,-0.026516,0.0131793333,-0.0802716667,0.111205,-0.0349153333,0.0157706667,-0.0473106667,0.015557,0.0047813333,-0.0037323333,-0.057062,0.0393863333,-0.009709,-0.033454,0.0102933333,0.0331423333,-0.058339,0.0058796667,-0.0164263333,-0.0215963333,0.0217423333,0.039646,0.076217,0.0476173333,-0.0122146667,-0.038132,0.0100546667,0.023996,-0.0171276667,0.009042,-0.0215673333,-0.0395576667,0.000237,0.0352186667,0.0114603333,-0.02879,0.037881,0.001748,0.002818,-0.034685,-0.020186,-0.1169943333,-0.0057446667,-0.0196113333,-0.0157303333,-0.0265073333,-0.0343346667,0.0045876667,0.0452963333,0.0488146667,0.0389083333,-0.0328193333,-0.0309756667,-0.0486923333,0.001959,0.0028483333,0.0422276667,-0.0665876667,0.077795,0.0160073333,-0.0168706667,0.0183716667,-0.0081263333,0.0440143333,0.0399703333,-0.050274,0.0244553333,-0.0017656667,-0.027773,0.0195353333,-0.0012306667,-0.0114583333,0.0134373333,0.024729,0.033387,-0.0737926667,0.059221,-0.0301463333,-0.0111526667,-0.0783426667,-0.0120026667,0.112786,-0.027518,-0.022516,-0.0342823333,-0.0803433333,0.001545,-0.036186,-0.0171786667,-0.0431886667,0.0015573333,0.0165656667,0.0313643333,0.0641756667,0.0080113333,0.050662,-0.003506,-0.0071243333,0.0592906667,-0.0477183333,-0.0468166667,0.0652976667,0.071921,-0.0188826667,-0.0290356667,-0.037788,-0.001326,-0.019399,-0.0028246667,-0.02323,0.056365,-0.0228843333,-0.0038943333,0.0415163333,0.001944,0.0081776667,-0.0063953333,0.0059926667,0.044273,0.0227833333,-0.0300666667,-0.0219293333,-0.0005826667,-0.0560923333,0.029034,0.077718,0.020741,0.0467036667,-0.016103,-0.02437,-0.0383123333,-0.036829,0.0153863333,-0.0258736667,0.0491446667,0.01646,-0.0453316667,-0.0256836667,-0.0830676667,-0.0625366667,0.016791,-1
103_books_4,7.567,11.761,-0.0114722222,-0.0263896667,0.0285528889,-0.0412133333,0.0150012222,0.0158015556,-0.0258786667,-0.0250421111,0.1114303333,-0.0162726667,0.0224482222,-0.0224895556,0.0094698889,-0.0561248889,0.0152441111,0.0004905556,-0.0129743333,0.0149721111,-0.0139071111,0.0291031111,0.0187876667,-0.0548944444,0.0280003333,0.0545481111,-0.0233836667,-0.0623754444,0.0138412222,0.0790193333,-0.0448602222,0.0614951111,0.0373612222,-0.0437723333,-0.0139382222,-0.0118476667,0.0048271111,-0.026793,-0.0203122222,-0.0124744444,-0.0157227778,-0.0129875556,0.0106683333,0.0212186667,-0.0307351111,-0.0125307778,-0.0154914444,-0.0457314444,0.0294124444,-0.0243567778,0.0212101111,0.0839802222,-0.0272688889,0.0696337778,0.0009711111,0.1003441111,-0.0177336667,0.0233182222,-0.0349616667,-0.075766,0.0182981111,0.0223564444,-0.003626,0.0596846667,-0.0203671111,-0.0202935556,0.0193646667,0.0476331111,-0.0923451111,0.0416186667,-0.0800122222,-0.0003595556,-0.0539212222,-0.0544668889,0.0306622222,0.0321584444,-0.039205,0.1141242222,-0.0095263333,0.018592,-0.043018,-0.0151847778,0.0192963333,0.0213756667,0.0351001111,0.011133,-0.0079993333,-0.0508833333,0.0108784444,0.0364881111,0.0519592222,0.0217545556,-0.0020531111,-0.0065321111,0.0760895556,-0.016438,-0.043494,-0.0414936667,0.0217323333,-0.0131568889,0.0083423333,0.0831824444,-0.0416553333,-0.0736327778,-0.0175217778,0.0287914444,0.0473505556,-0.0306498889,0.0296963333,-0.0486868889,0.0012986667,0.0503265556,0.0398833333,0.0540272222,0.0276454444,0.0096515556,-0.0486185556,-0.0365007778,0.0592525556,-0.0036771111,-0.0138436667,-0.0534948889,-0.0262905556,0.0280764444,-0.0532457778,-0.0583021111,-0.050489,0.036149,0.026411,0.0020451111,0.058492,-0.0286981111,0.0140182222,-0.0156985556,-0.0581194444,-0.052079,-0.0411632222,0.0741692222,0.0141076667,-0.0659375556,0.0110128889,0.0100865556,-0.0296066667,0.0001928889,-0.0275872222,-0.0010393333,0.0099763333,-0.0220277778,0.0039356667,-0.0188587778,0.10171,-0.0366291111,0.0408244444,-0.0223078889,-0.0666338889,-0.0448897778,-0.0165898889,-0.0153982222,0.0505066667,0.0060707778,-0.0449517778,-0.0094037778,-0.0129497778,-0.0677572222,0.1132572222,-0.0478154444,-0.0036386667,-0.0184901111,-0.0003108889,0.0421533333,0.0588047778,-0.0461348889,0.0902714444,-0.0643548889,-0.023845,-0.0018771111,0.0609634444,-0.0645877778,-0.0463086667,-0.0043861111,-0.0260943333,0.0221547778,0.0339531111,0.0816162222,0.0758825556,-0.0564571111,-0.0268531111,-0.0281251111,0.0087147778,-0.0419073333,0.0013741111,-0.0008784444,-0.0431,-0.00754,0.0277203333,-0.0461824444,-0.0350388889,0.0663867778,0.0453745556,0.0567563333,-0.0162381111,-0.0685406667,-0.1031411111,-0.0017848889,-0.0250453333,-0.0139915556,-0.0154075556,-0.0590916667,0.009388,0.011561,0.0005372222,0.0361717778,-0.0293156667,-0.0388062222,-0.04247,-0.0201606667,-0.0082088889,0.0390155556,-0.0300188889,0.0763858889,-0.0227823333,-0.0109755556,-0.0028996667,-0.0116051111,0.0359564444,0.0295838889,-0.0493612222,0.0258024444,0.0388698889,-0.0276571111,-0.0874732222,-0.0391546667,0.0200648889,0.006271,-0.0042143333,0.0321346667,-0.0429817778,0.0481581111,-0.0179866667,-0.055475,-0.0859393333,0.04018,0.1270971111,-0.0377696667,-0.0332664444,-0.0084772222,-0.0875854444,-0.0056982222,-0.0543127778,-0.0243971111,-0.015187,0.0403068889,0.0507264444,0.0126291111,0.0254287778,0.0323284444,-0.0111325556,-0.0038777778,0.0268618889,0.0278821111,-0.0525738889,-0.0153264444,0.0762538889,0.0649767778,-0.0302986667,-0.0313128889,0.0065297778,-0.0185406667,-0.0346132222,0.0039213333,-0.0443124444,0.0751735556,-0.011426,0.0461725556,-0.0032385556,0.0185334444,-0.0334377778,0.0097912222,0.0375165556,0.0214976667,-0.0038087778,-0.014557,-0.0441154444,-0.0616588889,-0.0487705556,0.0528284444,0.0227452222,-0.0021308889,0.0028972222,0.0231032222,-0.0251334444,-0.0616142222,-0.0129335556,0.0163538889,-0.0344837778,2.22222222222E-06,-0.0148077778,-0.0539807778,-0.0201025556,-0.0611767778,-0.0026344444,0.0305367778,1
103_books_5,11.761,15.415,-0.000664875,-0.02761175,0.05505875,-0.030744125,0.006319125,-0.014603,-0.003359125,-0.01384275,0.09711875,0.019974625,0.015344375,-0.025412625,0.007476,-0.056447375,0.022972125,0.0107445,-0.01849575,0.011757875,-0.01404125,0.03730775,-0.004191125,-0.055090125,0.00800325,0.028188,-0.037816375,-0.068758375,-0.009252125,0.0841765,-0.059149875,0.0866915,0.043234625,-0.0710795,-0.04816,0.00898725,-0.0150095,-0.015691875,-0.0239425,-0.019357625,-0.04113925,-0.0054965,0.008071,-0.001023875,-0.040700125,-0.0143385,-0.0168665,-0.010693,0.008029375,-0.014239375,0.0420425,0.098476875,-0.03901675,0.070130125,-0.004535375,0.100173,-0.00147375,0.03996825,-0.0426735,-0.044238625,-0.0164245,0.054106875,0.009054125,0.051043625,-0.00474675,-0.039991125,-0.007448875,0.069797125,-0.084410875,0.048160125,-0.084058625,0.01227025,-0.031997625,-0.066432125,-0.000886875,0.045163375,-0.08106,0.113158375,-0.008946875,0.022829,-0.048743375,-0.037122875,-0.01167375,0.0066115,0.01984575,0.002652,-0.014929875,-0.032496625,0.005760625,0.020435375,0.068768875,0.0209675,-0.033346125,-0.008545,0.070601125,0.008035125,-0.03073,-0.0558635,0.02774325,-0.030043625,-0.005442875,0.086433,-0.064369875,-0.08209925,-0.046264125,0.034916125,-0.003455,-0.033422625,0.026572875,-0.06563475,-0.009875875,0.050657375,0.048578625,0.030387125,0.022628375,-0.003385125,-0.028006125,-0.030532375,0.035343625,-0.016254375,0.003543875,-0.077162875,-0.010390125,0.03179425,-0.063865,-0.088828125,-0.049841375,0.05646225,0.039550625,-0.018573875,0.0370775,-0.015146375,0.00783275,0.0055725,-0.02024775,-0.047788125,-0.03930425,0.081433125,0.022667,-0.062897625,-0.033024375,0.03343,-0.050876125,0.025015,-0.00212975,0.02270975,0.00269075,-0.032097125,0.009402875,-0.044783625,0.073879625,-0.051544375,0.026759375,-0.01264075,-0.05597875,-0.053297625,-0.013818875,0.002724,0.065652375,0.015584875,-0.03970475,0.015951625,-0.010596125,-0.059947875,0.084437375,-0.02422975,-0.018207,-0.0089005,0.010751375,0.055373375,0.045825,-0.0203055,0.038022625,-0.073763625,0.023460625,-0.032612375,0.0355445,-0.045321625,-0.052801625,-0.00548575,-0.023707625,0.01712725,0.030394625,0.10423975,0.078995125,-0.022886,-0.02316625,0.010324875,-0.009215375,-0.051001,-0.014511875,0.015000875,-0.06135125,-0.02545075,0.0207325,-0.0460315,-0.062708125,0.01948775,0.050570375,0.012169125,0.0076125,-0.05362925,-0.105963125,0.0002035,-0.04585275,0.02799675,-0.035907,-0.018227125,-0.01337675,-0.008773375,-0.009996625,0.044448375,-0.012434625,-0.0306835,-0.038434375,0.00820825,-0.006919875,0.029974875,-0.027520625,0.087177375,-0.022815875,0.002350375,0.016117625,-0.013509125,0.030245625,0.0195575,-0.0260395,-0.016208625,0.0394355,-0.0234215,-0.0687445,-0.0151685,0.025498875,-0.0014975,0.02211175,0.044559125,-0.05599375,0.0472835,-0.0352475,-0.05202225,-0.100632875,0.062687375,0.125951625,-0.039776375,-0.01725625,0.015839375,-0.099601375,-0.01291225,-0.04225075,-0.030593625,-0.01333875,0.040244,0.060005125,0.016795,0.01183375,0.011318375,-0.011964375,-0.000485625,0.004924625,0.02549675,-0.078917625,-0.0359845,0.100977125,0.059339875,-0.023698375,-0.010772625,0.005140125,-0.045437375,-0.04052225,0.010562375,-0.0299395,0.09906925,0.01050625,0.0529985,-0.02852225,0.0354755,-0.052020625,0.00141625,0.0258545,0.025000125,-0.00405775,-0.017562875,-0.040112125,-0.0443865,-0.04611225,0.059265625,0.0310485,-0.008944875,0.012152875,0.006109375,-0.029977875,-0.042255,0.000911625,0.02642125,-0.051529125,0.004288875,-0.016637375,-0.032259375,-0.005799125,-0.056281125,-0.004010875,0.014196875,-1
103_books_6,15.415,21.18,0.0272264,-0.0256751,0.0447923,-0.0490115,-0.0034299,0.0289788,0.0049922,-0.0105701,0.1222982,-0.0155212,-0.0081295,-0.0481661,0.0260919,-0.0593336,0.0215424,-0.0169125,-0.0157104,0.00463,-0.0166926,0.0511001,-0.0197846,-0.0584307,0.0196336,0.0645347,-0.0247586,-0.0438783,-0.0028669,0.0509715,-0.0136691,0.0671399,0.0553206,-0.0509549,-0.0529615,0.0301992,0.0351985,-0.0144866,-0.0475859,-0.0144153,-0.0450758,-0.0062302,0.0446231,0.0001125,-0.0446704,-0.0229998,-0.0321853,-0.0345917,0.0083143,-0.0023585,0.0429669,0.0813512,-0.0339978,0.0709488,0.0199466,0.1129937,-0.0054845,0.0240345,-0.0410098,-0.064198,0.0002309,0.0270726,0.0121775,0.0477589,-0.0165562,-0.0338559,0.0154547,0.0349391,-0.0743795,0.0540446,-0.0605019,0.0083854,-0.0541615,-0.0365028,0.0214336,0.0247269,-0.0737419,0.0923301,-0.0318441,0.026782,-0.0413232,-0.001166,0.024964,-0.0122413,0.0108168,0.0127725,0.0041874,-0.0727032,-0.01607,0.0183572,0.0507307,0.0255361,0.0089435,-0.017081,0.0514502,0.0014727,-0.0656725,-0.0417238,0.0133386,-0.0031301,0.0434569,0.0753701,-0.0512018,-0.0691682,-0.0283989,0.0759846,0.0465817,-0.0310294,-0.0011998,-0.0633886,0.0033916,0.0605022,0.0430829,0.0247737,0.0352865,0.0031414,-0.0246744,-0.0382169,0.0609292,-0.0127491,-0.0259489,-0.0941679,0.0114665,-0.0076221,-0.0618112,-0.0192297,-0.0561054,0.0590102,-0.0020753,-0.0105341,0.0491151,-0.0066155,0.0331119,0.0030431,-0.0347666,-0.0380075,-0.0409089,0.0541122,0.0173147,-0.0839897,0.0204067,0.0136438,-0.020783,0.0239467,-0.0182519,-0.0250329,-0.0080985,-0.0016393,0.0150583,-0.0333909,0.0843383,-0.0328674,0.0252997,-0.0105006,-0.0429687,-0.0319257,-0.0235483,-0.0145486,0.0754166,0.0110641,-0.0404441,-0.0135409,-0.0221321,-0.0634855,0.1015176,-0.0072196,0.0038297,-0.0194529,0.0151426,0.0216243,0.0484759,-0.0427219,0.0948778,-0.0757742,-0.0108273,-0.0023692,0.0278254,-0.0925085,-0.0437866,0.0101379,-0.0241481,0.0194692,0.0333568,0.077134,0.0825047,-0.017385,-0.0246867,0.005093,0.0203101,-0.0628738,-0.021332,-0.0049245,-0.0521076,0.0295419,0.0281781,-0.0379269,-0.021682,0.0683384,0.0257406,0.0724449,0.000311,-0.0144919,-0.0999063,0.0111895,-0.019789,0.0021038,-0.036844,-0.0598562,0.0167203,0.0199577,0.0137541,0.0512791,-0.0228784,-0.035019,-0.0551936,-0.0004557,0.0250477,0.048083,-0.0105448,0.0883856,-0.0220749,0.0303563,-0.0067623,-0.0350503,0.0452227,0.0038881,-0.0443786,0.016544,0.0571979,-0.0295246,-0.0855425,-0.0517268,0.0252831,0.0312696,0.0059541,0.0458946,-0.0547451,0.0433028,-0.0064043,-0.0264601,-0.0493152,0.0399779,0.1446769,-0.0249742,-0.0029348,-0.0184669,-0.0805512,-0.0279026,-0.0491588,-0.0388158,0.00289,0.0385711,0.0337251,0.0248789,0.0191328,0.0209608,-0.0328283,-0.0396113,0.0333109,0.0214969,-0.0668362,-0.0474035,0.0606233,0.0510223,0.0056326,-0.0258441,0.0166644,-0.0257471,-0.0372777,0.0273119,-0.0368859,0.0793822,0.0151532,0.0598832,0.0112302,0.0296883,-0.0324368,-0.0001006,0.0417905,0.0212127,-0.0137147,-0.0252704,-0.0544318,-0.0285399,-0.027735,0.0329063,0.0631446,-0.0009358,0.026689,-0.0081945,-0.0235998,-0.0921748,-0.0143511,0.0379841,-0.0406216,-0.0116853,-0.0094655,-0.0751478,-0.0085974,-0.074654,-0.0005534,0.0148552,1
103_books_7,21.18,26.772,0.0280698333,-0.0281071667,0.0350598333,-0.0233626667,-0.00361,0.00562,0.029243,-0.0217326667,0.1193185,-0.0334973333,-0.008523,0.0103571667,0.0269303333,-0.0513648333,0.036862,-0.0307645,0.00549,-0.0271385,-0.0362295,0.0545108333,-0.0042825,-0.034652,0.0286101667,0.0827148333,-0.0376203333,-0.0624021667,0.0097435,0.0800756667,0.0123525,0.0955741667,0.015918,-0.0537273333,-0.0217113333,-0.0219288333,0.0423678333,-0.0275363333,-0.032202,0.0140908333,-0.0146436667,0.005307,0.02556,0.0011986667,-0.013752,-0.0213796667,-0.0581771667,-0.0159195,0.0098911667,-0.0309506667,0.0356346667,0.0667051667,-0.0235686667,0.0708781667,0.008982,0.1052881667,-0.021303,0.0346726667,-0.0351426667,-0.0467551667,0.0228361667,0.0456711667,-0.0164533333,0.048998,-0.0294963333,-0.0254641667,0.0325675,0.0318906667,-0.0650105,0.055198,-0.0812158333,0.020327,-0.0853261667,-0.039589,0.025686,0.0255091667,-0.0834725,0.0711125,-0.0405366667,0.0456081667,-0.0121173333,-0.0256621667,0.0266973333,-0.0159763333,0.0061985,0.0061291667,0.0232011667,-0.029601,0.0020113333,-0.0019763333,0.0514383333,0.0172003333,-0.0157973333,-0.0327888333,0.0429715,-0.0070086667,-0.0605555,-0.0224628333,0.030426,0.0060185,0.0109381667,0.0780381667,-0.0269056667,-0.036858,-0.0098166667,0.0718316667,0.0180095,-0.0547185,-0.0073035,-0.0739428333,0.01222,0.0787996667,0.0114423333,0.0519085,0.0548463333,0.0226256667,-0.0105588333,-0.045095,0.0755643333,0.0113125,-0.0271301667,-0.0719365,0.0148965,0.0117643333,-0.065028,-0.0059183333,-0.0697795,0.0340975,0.0203848333,-0.0458356667,0.0508065,0.020336,0.0287051667,0.0146095,-0.0144608333,-0.03341,-0.0343033333,0.078321,0.0208003333,-0.0697973333,0.0483201667,0.0163146667,0.0183358333,-0.0051063333,-0.0254456667,-0.0232668333,-0.0230491667,-0.0072533333,0.0106005,-0.016387,0.0779823333,-0.0600368333,0.0262108333,0.017613,-0.052573,-0.047689,-0.0189343333,-0.0383535,0.0754285,0.005135,-0.0530768333,-0.007828,-0.0101525,-0.0429091667,0.0543526667,-0.0005151667,-0.0121688333,-0.0542898333,0.0189173333,0.0263473333,0.0295536667,-0.0470383333,0.1070503333,-0.1027235,-0.0046616667,0.0033445,0.0278801667,-0.0992883333,-0.0075191667,-0.017546,-0.0247325,0.023512,0.0789615,0.0758956667,0.0681113333,0.0073818333,-0.0462768333,0.0093018333,-0.0049286667,-0.06332,-0.0097156667,-0.0108323333,-0.0548705,-0.006548,0.036795,-0.0514605,-0.003145,0.075378,0.0540866667,0.0533366667,-0.0251773333,-0.0033456667,-0.0990713333,-0.0022633333,-0.0383656667,0.0079305,-0.0137421667,-0.0367646667,0.0194158333,0.0138331667,0.0443816667,-0.0007675,-0.0296443333,-0.0372461667,-0.0512951667,0.0072753333,0.050728,0.0547176667,-0.0113543333,0.0599931667,-0.0256243333,0.0319146667,-0.006592,-0.0279763333,0.0787931667,-0.0247776667,-0.0426933333,0.012993,0.0321275,-0.0233035,-0.0709671667,-0.0413561667,0.0040073333,0.02328,-0.0067331667,0.0577418333,-0.0602173333,0.0474575,-0.0058271667,-0.0229638333,-0.0602781667,0.0060495,0.1443021667,-0.037463,-0.0015093333,0.007543,-0.0895201667,-0.0193266667,-0.0485378333,-0.0523366667,0.0009486667,0.0811865,0.0310556667,0.0632043333,0.0430961667,0.0183601667,-0.0188196667,-0.0332831667,0.0047453333,0.0494725,-0.0611371667,-0.0410251667,0.0301786667,0.0812566667,0.0093255,-0.020453,-0.019197,-0.023263,-0.0471851667,-0.0012573333,-0.0042746667,0.0583775,0.0174901667,0.0331175,0.0111816667,0.0449223333,-0.022374,-0.0176243333,0.0528378333,0.0214848333,-0.0185003333,-0.0320605,-0.0615613333,-0.0076461667,-0.0209876667,0.028336,0.0586278333,0.012395,0.0102571667,-0.0008863333,-0.0132868333,-0.0583501667,-0.003124,0.0543358333,-0.0312945,0.0033966667,-0.01416,-0.0914543333,0.03494,-0.0661585,-0.0245431667,0.0082863333,1
103_books_8,26.772,30.325,-0.0142125,-0.0001195,0.03008475,-0.05513375,0.013482,0.0307505,0.03296425,-0.002708,0.09895425,-0.06451925,0.0182915,-0.03202175,0.01421325,-0.0467575,-0.02107825,-0.00653675,-0.01430025,0.0073825,-0.02115775,0.02289975,-0.05760475,-0.06274725,0.01204925,0.10483025,-0.016697,-0.0018645,0.00816525,0.082079,-0.032484,0.0575565,0.070246,-0.05484375,-0.05493975,0.01609575,0.018123,-0.0466485,-0.03675275,-0.0288985,-0.02751525,0.0198855,0.05598975,0.0184755,-0.02937475,-0.03978425,-0.02497625,-0.0444065,0.0000425,-0.036038,-0.003981,0.097074,-0.01856925,0.0862095,0.023166,0.10629325,0.00728,0.0505105,-0.02766425,-0.0878825,0.0140305,0.02947725,0.0493045,0.040368,-0.05580975,-0.02606325,0.00057925,0.0530205,-0.08389225,0.0535605,-0.06246775,0.0388675,-0.05803975,-0.01223375,0.03242175,0.0056755,-0.03565775,0.09775525,0.00377425,0.0182195,-0.04679225,0.0172885,0.046479,-0.04124725,0.04593375,0.04469225,0.02993325,-0.03698425,-0.014615,0.016799,0.06477775,0.03201125,-0.029829,0.003684,0.0200855,-0.013817,-0.04208475,0.0121725,0.01880775,-0.00233575,0.0364065,0.099895,-0.03796775,-0.0760125,-0.018294,0.06045825,0.04861275,-0.0573065,-0.016869,-0.11418475,-0.02151525,0.0204425,0.054259,0.0145615,0.02628225,0.0131395,-0.02561325,-0.07990725,0.029697,-0.008259,-0.04532075,-0.04065175,0.0166705,-0.01169325,-0.0624955,-0.0378705,-0.0323965,0.0355135,0.01791275,0.04229775,0.0488305,-0.01352375,0.02318175,-0.00596425,-0.05929725,-0.029917,-0.021859,0.04764425,-0.0231995,-0.05120125,0.009384,-0.00052675,-0.0116435,-0.018817,-0.0303565,-0.00439625,-0.01890325,0.02015175,0.030243,-0.03694575,0.09044625,-0.06606325,0.0565185,-0.0175325,-0.04962775,-0.0595455,-0.04245175,-0.02250625,0.06742575,0.01969825,-0.05556825,-0.00769775,-0.00616375,-0.074418,0.1131915,0.018698,-0.002799,-0.0114,-0.0008455,0.03413575,0.02305325,-0.0668635,0.07350475,-0.095818,0.000102,0.0062925,0.02365925,-0.13956425,-0.00476575,-0.006249,-0.0244425,0.0295705,0.00404225,0.0527245,0.05600275,-0.02073275,-0.04466525,0.017456,0.0091465,-0.06142225,-0.01966875,-0.0264185,-0.04495825,0.00970275,0.03075125,-0.001024,-0.0238075,0.066719,-0.012478,0.05575475,-0.022586,0.00478875,-0.126349,0.00009425,0.011593,0.009146,-0.04873925,-0.05043475,0.04053175,0.01534525,0.0329585,0.064218,-0.0171145,-0.03569025,-0.0541,0.01647225,0.022392,0.07099175,-0.01497575,0.04833175,0.00862175,0.01773575,-0.007035,-0.06077825,0.05048575,0.00878575,-0.05435875,0.03674925,0.03064175,-0.01622125,-0.05840425,-0.04540825,0.002285,0.06556025,0.022046,0.09931825,-0.0840085,0.07249,-0.01952725,-0.008686,-0.0388165,0.04440375,0.11305,0.00683075,-0.0161685,-0.03271675,-0.08397275,0.00175375,-0.07984675,0.00060375,-0.01866925,0.0735445,0.02355775,0.02427625,0.00994725,0.0121595,-0.031024,-0.04597175,0.017438,0.04551725,-0.0492235,-0.05262175,0.03254175,0.05211925,-0.020214,-0.02346825,0.017664,-0.00767725,0.0073065,0.02084075,-0.00794825,0.051584,-0.01433875,0.018188,0.09063625,0.015935,-0.0161825,0.00519775,0.02062425,0.027423,-0.038305,-0.06031375,-0.0752355,-0.05517975,-0.0331645,0.018695,0.0731535,0.014355,0.020904,-0.033214,-0.01056825,-0.07400825,-0.0075385,0.022496,-0.00630325,-0.0017535,-0.00515625,-0.07022775,-0.01974275,-0.09399025,-0.01364825,0.03050375,1
103_books_9,30.325,35.131,-0.008539,-0.0384456,0.0471168,-0.0225932,-0.0210412,0.045917,0.0157464,0.0080836,0.1179368,-0.0263974,0.02852,-0.0177768,-0.0133198,-0.0239794,0.03197,-0.0025446,-0.002335,0.0143378,-0.0089412,0.0203474,-0.03615,-0.040259,0.0183272,0.0658438,-0.0115586,-0.0380096,-0.0081374,0.083731,0.0030448,0.1012416,0.0319346,-0.0604232,-0.0066966,0.0114458,0.0017734,-0.0557018,-0.0309116,-0.013357,-0.0138318,0.0055334,0.0218624,0.0113162,-0.0479832,-0.0067366,-0.0349552,-0.036186,0.0039686,-0.0400372,0.015863,0.0526428,0.007694,0.0297158,-0.0176338,0.100708,-0.0226576,0.0161476,-0.0047744,-0.0522102,0.0374908,0.0445896,-0.0234988,0.0396824,-0.0392808,-0.0746404,-0.0010962,0.0644508,-0.0915662,0.0338378,-0.0952028,0.0175714,-0.0415958,-0.0243378,0.0444762,0.029004,-0.0502926,0.0732806,-0.0461782,0.0173606,-0.0367082,-0.004565,0.0235902,0.0133522,0.026349,0.0082118,0.0037618,-0.0181726,-0.0038014,0.0158684,0.0584724,0.0023874,-0.0037112,0.0012266,0.069983,0.0047012,-0.0166636,-0.0177678,0.0420914,0.0063924,0.0156294,0.0847518,-0.0371184,-0.0646122,-0.0596244,0.0425284,0.023082,-0.0390928,-0.0034766,-0.0758198,-0.0018812,0.0536782,0.030732,0.0434814,0.0357788,0.0365792,-0.0054218,-0.0446962,0.0552696,0.0038116,-0.057306,-0.028759,-0.0121888,0.0434232,-0.0550892,-0.0676788,-0.0606654,0.04033,0.0289338,0.0004784,0.0489996,0.0066786,-0.005728,0.035366,-0.0034488,-0.033364,-0.012277,0.073646,0.0012542,-0.0794782,0.0241008,0.0421852,-0.0157054,-0.023767,-0.0243404,-0.0095364,-0.013072,-0.0084606,0.0104824,0.0099748,0.1111416,-0.0409824,0.0400864,-0.0335648,-0.0618088,-0.0452888,-0.0031798,-0.0218068,0.0440534,-0.003649,-0.0401922,-0.000965,0.0069918,-0.0507016,0.0888298,-0.0110498,-0.0018948,-0.0012044,-0.0254162,0.0148954,0.0509892,-0.058005,0.062557,-0.093173,-0.0138334,0.0040206,0.0348626,-0.09236,-0.0210002,0.0004912,-0.0220502,0.0329204,0.0457868,0.062384,0.04992,-0.0469968,-0.0027884,0.001103,-0.0096928,-0.0756108,-0.013652,-0.0018478,-0.0497782,-0.0041704,-0.0054564,-0.037415,-0.0235072,0.0387804,0.014855,0.052863,0.0068948,-0.0474872,-0.1231946,-0.0211902,-0.0066998,0.0084468,0.0026206,-0.0057238,0.0125134,0.0186116,0.0415338,0.0413238,-0.0163216,-0.070308,-0.0492592,-0.0072102,0.0391514,0.0216368,-0.0141052,0.0612176,-0.0357322,0.0037338,-0.0118694,-0.0335784,0.0401382,0.0197872,-0.044118,-0.0083342,0.0395338,0.009839,-0.0765544,-0.0458012,0.0036744,0.0049914,-0.0271506,0.049289,-0.0602864,0.0628454,-0.02806,-0.028721,-0.100006,0.0382906,0.1116586,-0.0158418,-0.0255334,0.0036418,-0.1020048,0.0059402,-0.0236146,-0.0215576,-0.031026,0.03783,0.058388,0.0140054,0.0330576,-0.0076488,-0.0238988,0.0270428,-0.0042664,0.0066516,-0.059409,-0.0428876,0.0349144,0.0966458,-0.0605006,-0.0062622,-0.0234188,-0.0509456,-0.0110412,-0.0143336,-0.0229242,0.0704926,0.005908,0.0488592,0.025172,0.0333164,-0.0379944,0.003233,0.0113734,0.0118192,-0.0051846,-0.0003724,-0.0407912,-0.0367896,-0.0102808,0.0337742,0.0659956,-0.0082424,0.0228972,0.006162,-0.0034858,-0.0928694,-0.0060436,0.0451624,-0.0336186,-0.0484822,-0.019862,-0.0516814,0.0225512,-0.0368608,0.0112318,0.000313,1
