que -0.002689 -0.063456 0.009619 -0.075912 0.002579 0.025287 -0.051774 -0.015810 0.161642 -0.062808 -0.013864 -0.009856 0.045704 -0.074680 0.051135 -0.017151 -0.003561 -0.001276 -0.077127 0.016603 0.011733 -0.048739 0.039748 0.054235 -0.036468 -0.052945 -0.006031 0.099651 -0.028718 0.075966 0.054379 -0.039412 -0.027434 -0.010707 0.029061 -0.011958 -0.027064 -0.033164 -0.091794 -0.039789 0.047586 0.037241 -0.009755 -0.005757 -0.060044 -0.005748 0.017914 0.022921 0.056237 0.094185 -0.056646 0.050965 -0.003328 0.137955 -0.024645 0.003999 -0.013210 -0.094191 0.029361 0.065217 -0.015854 0.050067 -0.016534 -0.014519 0.032965 0.030408 -0.115367 0.026486 -0.080514 -0.019257 -0.096709 -0.077588 0.060865 0.094164 -0.099619 0.132228 -0.083935 -0.011013 -0.068265 -0.014002 0.050748 0.036933 0.041567 -0.024340 -0.015914 -0.017347 0.029209 0.047102 0.070173 0.015551 -0.009812 -0.013571 0.127878 -0.032161 -0.074046 -0.092937 0.006629 0.002188 0.013948 0.083105 -0.054561 -0.098746 -0.050451 0.074982 0.071701 -0.027987 0.034169 -0.070208 0.024198 0.099134 0.083352 0.052365 0.074382 0.032819 -0.045973 -0.024529 0.080065 0.010117 -0.016776 -0.100084 -0.035398 0.066112 -0.072628 -0.007483 -0.120063 0.094598 -0.018094 -0.057935 0.061705 0.004589 0.074878 0.000203 -0.064027 -0.092381 -0.052254 0.102206 0.026677 -0.099442 0.030952 0.029867 0.026049 0.008899 -0.025673 -0.044990 0.005295 -0.016670 -0.010131 -0.047413 0.022243 -0.035623 -0.002019 0.009365 -0.062364 -0.056982 -0.020327 -0.031840 0.103263 0.026027 -0.033970 -0.000850 -0.055312 -0.024188 0.089656 -0.068503 0.014380 -0.008165 0.016037 0.025563 0.081804 -0.003454 0.157332 -0.132477 -0.000092 -0.019525 0.041020 -0.087384 -0.077959 -0.016578 0.014818 0.071696 0.093232 0.106681 0.075612 -0.053004 -0.030074 -0.039739 0.021461 -0.106232 0.007007 -0.021070 -0.057630 -0.024995 0.041227 -0.047074 -0.021664 0.055596 0.021923 0.076737 -0.019297 -0.090034 -0.123045 -0.000816 -0.086728 -0.014518 -0.005784 -0.063479 0.027065 0.002798 -0.011823 0.076236 -0.060856 -0.009606 -0.043855 -0.018248 0.008788 0.109807 -0.000731 0.119774 -0.064890 0.011259 -0.025940 0.010084 0.047275 0.039871 -0.079974 0.006294 0.047295 -0.022516 -0.123771 -0.043215 0.020200 -0.005444 0.022062 0.041229 -0.054759 0.028675 -0.016499 -0.066043 -0.067645 0.046606 0.174002 -0.046577 -0.034094 -0.016998 -0.127203 -0.015287 -0.048483 -0.063370 0.018057 0.067036 0.038760 -0.014682 0.003502 0.074684 -0.004579 0.012645 0.060375 0.011071 -0.104448 -0.023500 0.129327 0.108149 0.017028 -0.023761 0.013200 -0.106190 -0.081396 -0.000015 -0.073123 0.051081 0.000019 0.112538 -0.109238 0.037213 -0.006113 0.016891 0.071667 -0.012543 -0.043288 -0.030091 -0.005994 -0.042346 -0.055406 0.056610 0.022521 0.033848 0.024308 0.042734 -0.018096 -0.089446 -0.015459 0.061343 -0.036983 -0.013618 -0.024007 -0.111448 0.003092 -0.039190 0.026918 0.007546
de -0.029648 0.011336 0.019949 -0.088832 -0.025225 0.056844 0.025473 0.014068 0.163694 -0.067154 0.014738 0.027134 0.066443 -0.044846 -0.044987 -0.040898 0.030311 0.034196 -0.049240 0.008537 -0.068091 -0.087938 0.035300 0.149385 -0.012350 0.012613 0.029350 0.069596 0.039111 0.057652 0.069954 -0.066217 -0.041784 0.028623 0.026772 -0.066392 0.002953 -0.012188 -0.030363 0.040222 0.034858 0.027469 -0.029034 -0.048748 -0.038582 -0.051553 -0.033501 -0.019008 0.003043 0.110712 -0.025096 0.111082 0.035244 0.114207 0.010195 0.051511 -0.040649 -0.113944 0.044873 0.052011 0.067360 0.049054 -0.127085 -0.031846 0.032848 0.040825 -0.084873 0.059801 -0.067424 0.016531 -0.084565 0.057024 0.083288 -0.010136 -0.048508 0.051757 0.046664 0.018102 -0.052320 -0.000765 0.053662 -0.009967 0.082858 0.009068 0.054575 -0.003466 -0.023376 0.023069 0.088513 0.018504 -0.039503 -0.032980 -0.002139 0.000010 -0.107627 0.007699 0.046351 -0.003062 0.030500 0.113650 0.032536 -0.097301 -0.013734 0.098345 0.080898 -0.064173 -0.008874 -0.144751 0.037585 0.013290 0.059674 0.006163 0.007318 0.000053 -0.060292 -0.059135 0.049497 -0.011438 -0.095108 -0.043465 0.048567 -0.043990 -0.030774 0.005092 -0.032265 0.009392 0.018503 0.084857 0.109709 -0.020662 0.017696 0.026699 -0.076638 -0.014106 -0.035155 0.046999 -0.003727 -0.047805 0.044270 0.011314 0.036524 -0.069505 -0.014850 -0.003538 -0.047049 0.029349 0.034521 -0.032199 0.116497 -0.077610 0.068234 -0.016126 -0.066454 -0.079914 -0.020723 -0.064905 0.069560 0.021368 -0.049497 -0.046599 0.067663 -0.069035 0.118015 0.027463 -0.006176 -0.034514 -0.026515 0.040308 0.091113 -0.080539 0.132408 -0.070958 0.019730 0.033399 0.003489 -0.159659 -0.004230 0.004888 -0.056615 0.061021 0.025117 0.099613 0.063876 -0.006202 -0.049316 -0.020530 0.008522 -0.094168 -0.009451 -0.034682 -0.026801 0.065383 0.042528 -0.013688 0.035068 0.119803 -0.020278 0.111882 -0.068336 0.050245 -0.123240 0.002248 0.010229 -0.062540 -0.017837 -0.115210 0.051036 0.026920 0.083457 0.062902 0.003083 -0.037112 -0.015425 0.001716 0.018002 0.101100 0.019446 0.074839 0.059951 0.072243 -0.025459 -0.039853 0.077950 0.060199 -0.070603 0.060652 0.023855 -0.035858 -0.058043 -0.075130 0.000670 0.082828 -0.013141 0.144692 -0.105775 0.087624 0.047030 -0.015700 -0.042360 0.026337 0.144966 0.021922 0.012097 -0.011443 -0.110208 0.009333 -0.081423 -0.027137 0.000827 0.085389 0.034464 0.032338 -0.015040 0.009954 -0.011759 -0.042395 -0.000467 0.055047 -0.049710 -0.104978 0.031742 0.037020 -0.007016 -0.049712 0.041684 0.018348 -0.001201 0.019282 0.005763 0.074952 -0.018588 0.016055 0.119526 -0.014613 0.020598 0.027312 0.024252 -0.024044 -0.026332 -0.063152 -0.095363 -0.034335 -0.062552 -0.035730 0.091165 0.009686 0.020341 -0.012004 0.011826 -0.084301 0.011144 0.074969 -0.004862 -0.014076 0.025692 -0.077322 -0.022998 -0.128057 -0.004917 0.062628
no -0.012779 -0.023013 0.089933 -0.029689 0.092484 0.014034 0.025140 -0.013586 0.116851 0.054889 -0.021750 0.009097 0.074446 -0.097881 0.063480 0.027803 -0.000587 0.034147 -0.018262 0.050407 -0.035885 -0.089668 -0.039648 -0.046574 -0.016708 -0.072326 -0.032171 0.092131 -0.054072 0.101244 0.032917 -0.128288 -0.091207 0.021415 -0.042267 0.042510 -0.019168 -0.000887 -0.072968 0.022760 -0.025369 -0.009770 -0.070464 0.014591 -0.012534 0.069960 0.020569 0.003918 0.087680 0.102037 -0.062889 0.093026 -0.067353 0.094146 0.005316 0.035405 -0.050452 -0.004338 -0.052299 0.097249 -0.008935 0.047509 0.005068 -0.058268 -0.040677 0.029772 -0.060453 0.026175 -0.084700 0.024975 -0.012564 -0.137152 0.015795 0.071778 -0.141820 0.106174 0.033398 -0.000991 -0.092744 -0.070915 -0.058850 0.038020 0.021624 -0.028830 -0.068440 -0.006130 0.009475 0.020117 0.035797 0.022466 -0.057884 -0.032811 0.103892 -0.003301 0.021547 -0.077108 0.059242 -0.049065 0.025420 0.125169 -0.049756 -0.066057 -0.107153 0.026314 -0.034853 -0.056333 0.005901 -0.054723 -0.037811 0.075685 0.112206 0.044846 -0.016444 -0.005432 -0.002905 -0.040569 0.021465 -0.003889 -0.006770 -0.100298 -0.011964 0.018844 -0.073834 -0.119362 -0.042320 0.098012 0.025870 -0.060178 0.046107 0.016881 0.023553 0.032129 0.026397 -0.041740 -0.047264 0.070127 0.021925 -0.036094 -0.070248 0.068640 -0.089428 0.057460 0.009360 0.010978 0.021918 -0.060446 0.064719 -0.066610 0.022927 -0.067808 0.033834 0.021695 -0.047752 -0.065647 -0.005192 0.025489 0.101768 0.070387 -0.048259 0.012098 -0.039901 -0.029879 -0.002108 -0.027960 0.005097 0.018176 0.037821 0.061887 0.057710 0.003341 0.019883 -0.109767 0.040490 -0.079171 -0.008098 -0.068367 -0.090966 -0.019776 0.018039 0.022662 0.028250 0.086544 0.080285 -0.005678 -0.023377 0.027938 -0.019822 -0.097963 -0.088720 -0.001579 -0.098104 -0.033480 0.013971 -0.083860 -0.110641 -0.030959 0.057653 0.005425 0.028755 -0.064224 -0.118307 -0.009113 -0.081426 0.069149 -0.104099 0.043644 -0.040039 -0.024963 -0.014891 0.043588 0.038748 -0.060098 -0.040571 0.045264 0.008860 0.042664 0.010359 0.118372 -0.072044 0.059209 0.023616 0.009273 -0.002805 -0.001506 -0.055462 -0.055547 0.058366 -0.042909 -0.111296 0.017544 0.037471 -0.028545 0.023487 0.060564 -0.101110 0.041798 -0.051270 -0.050582 -0.104814 0.109272 0.139963 -0.083971 -0.011967 0.011747 -0.104583 -0.052012 -0.047800 -0.017109 -0.022376 0.068844 0.067114 -0.050377 0.012744 0.005221 -0.031036 0.047405 -0.038939 -0.017396 -0.148677 -0.039451 0.156615 0.055035 0.042595 0.018886 -0.033643 -0.109005 0.000439 0.013636 -0.011217 0.107485 0.018750 0.067613 -0.095173 0.076633 -0.066400 0.047584 -0.013747 0.003250 0.032259 -0.026965 -0.012569 -0.048368 -0.051517 0.078662 0.027058 -0.028379 0.003834 0.023189 0.007702 -0.042857 0.042440 0.040478 -0.056784 0.008726 0.001225 -0.072060 -0.015671 -0.042308 0.022013 -0.009613
es -0.012965 -0.068010 0.054148 -0.049343 0.035764 0.021917 0.037381 -0.035245 0.137306 -0.046132 -0.055529 -0.081414 0.013136 -0.046620 0.027569 -0.084708 0.050097 0.060764 -0.024559 0.110858 -0.076050 -0.109086 -0.018055 0.086568 -0.030490 0.031561 -0.007967 0.045996 0.005655 0.046777 0.019708 0.000080 -0.082198 0.090899 0.119008 -0.050165 -0.062338 -0.032853 -0.101156 0.021930 0.021971 -0.015762 -0.049118 -0.020903 -0.042890 -0.028029 -0.026470 -0.007409 0.008933 0.083679 -0.062474 0.098889 0.041136 0.140357 -0.048500 0.017793 -0.048932 0.001313 -0.048270 -0.029510 0.052497 0.017858 -0.053794 -0.061716 0.048719 0.022873 0.024085 0.022864 -0.033296 0.088586 -0.049759 -0.027379 0.032653 -0.016734 -0.023852 0.035797 -0.012106 0.095611 0.013298 -0.010322 0.057005 -0.072755 -0.054747 0.059201 0.076462 -0.076115 -0.079554 -0.088430 0.012581 0.016345 -0.000310 -0.048081 -0.034391 -0.034331 -0.067525 0.003865 0.073107 -0.013804 0.056384 0.052513 -0.043396 -0.000963 -0.012667 0.143322 0.061964 -0.060855 0.017418 -0.102400 -0.007799 0.080552 0.020928 0.039541 0.060412 -0.013654 0.027641 -0.064742 -0.002558 0.025706 -0.048964 -0.067473 0.173732 -0.028057 -0.027313 0.010768 0.015075 0.047992 -0.071333 -0.001820 0.048820 -0.006057 -0.017340 -0.043368 -0.073247 -0.032777 -0.029122 0.047115 0.032768 -0.033663 -0.028688 -0.004936 -0.019549 0.056826 -0.044209 -0.012647 0.003550 -0.003202 0.021448 -0.017648 0.087722 -0.119650 0.036497 0.031666 -0.035069 -0.026083 -0.101382 -0.005890 0.123571 0.055985 -0.057027 -0.034325 -0.038079 -0.106743 0.083157 0.032370 -0.042731 -0.067847 -0.007168 0.028607 -0.018391 -0.090719 0.099474 -0.092226 -0.009978 0.066649 0.053826 -0.176282 -0.012250 -0.020651 -0.025062 -0.023201 0.021338 0.091898 0.134305 0.052824 -0.030286 0.067542 0.050928 -0.022719 -0.038617 -0.009503 -0.055383 0.087190 0.065164 0.017657 0.003812 0.034011 0.020816 0.064982 -0.033678 0.052376 -0.124663 -0.002630 -0.035312 0.021885 -0.106844 -0.092027 0.013000 0.076389 -0.001080 0.076363 -0.006702 -0.025256 -0.036970 0.040394 0.065342 0.082047 -0.020654 0.025042 0.022706 0.058128 -0.074284 -0.090972 0.115236 0.007162 -0.068060 0.024487 0.052667 -0.006889 -0.046638 -0.052173 0.063583 0.115886 -0.020881 0.027573 -0.049627 0.041317 0.020044 -0.019817 0.010875 0.057291 0.147562 0.000352 0.039982 -0.090078 -0.058531 -0.022937 -0.068261 -0.012567 0.103497 0.049290 0.000830 0.102557 -0.035236 0.034828 -0.089864 -0.002121 0.008322 0.060222 -0.031018 -0.062118 0.023247 -0.003486 0.013800 -0.054586 0.037966 0.036181 -0.036314 0.037410 0.021614 0.121584 0.058243 0.026506 0.131359 0.017059 -0.104868 -0.002625 0.001350 0.046061 -0.017281 -0.026084 -0.057223 -0.045414 0.009201 -0.043120 0.072415 0.019372 0.066415 -0.034302 0.004525 -0.077847 0.049900 0.086701 -0.016343 -0.023962 0.032721 -0.076527 -0.021033 -0.129499 -0.025366 -0.003938
la -0.022313 0.022251 0.036704 -0.096540 -0.052861 0.024058 0.011043 0.002622 0.156215 -0.042965 0.039763 -0.003066 0.038801 -0.053368 -0.041667 -0.030635 -0.007328 0.003714 -0.114164 -0.025042 -0.051972 -0.055420 0.042268 0.105376 -0.060363 -0.019926 -0.001696 0.102281 0.040454 0.088647 0.088293 -0.019142 0.003859 -0.027580 0.018365 -0.088503 -0.011589 -0.052447 -0.008289 -0.020715 0.009673 0.012709 -0.082492 -0.040010 -0.057307 -0.087804 -0.020654 0.018062 0.034962 0.131913 -0.033211 0.130602 0.014101 0.057181 0.005193 0.058847 -0.062297 -0.131932 0.017364 0.088293 0.053714 0.019530 -0.121452 0.018164 0.060706 0.088240 -0.059637 0.037769 -0.052032 0.079613 -0.133862 -0.006583 0.068153 0.041149 -0.059254 0.057758 0.010501 0.058813 -0.026589 -0.078938 0.032387 -0.010713 0.054048 0.016489 0.052541 0.019058 -0.035579 0.035734 0.079074 0.027151 -0.034716 -0.041740 0.027742 0.038502 -0.131790 0.000054 0.023742 -0.015529 -0.016263 0.074132 -0.034666 -0.074852 0.005035 0.113395 0.032837 0.004166 0.004269 -0.135889 0.062360 0.051681 0.044063 0.054768 0.067986 0.032836 -0.095447 -0.072281 0.028622 0.029793 -0.057763 -0.034192 0.001806 -0.043905 -0.044698 0.007713 -0.047600 0.014539 -0.004542 0.047801 0.049999 -0.044603 0.038886 0.022660 -0.053500 -0.062190 -0.085413 0.072058 0.029248 -0.031418 -0.055516 0.025744 0.060207 -0.014266 -0.022034 0.018754 -0.015960 -0.001577 0.020190 -0.069271 0.138597 -0.101960 0.043598 0.005266 -0.075013 -0.063113 0.049575 -0.053393 0.043651 0.012303 -0.034139 0.024200 0.055642 -0.030245 0.100529 -0.017504 -0.060918 -0.100398 -0.043245 0.047509 0.040789 -0.048056 0.107280 -0.079895 0.049304 0.028526 0.040193 -0.097320 -0.000557 0.004501 -0.000329 0.006951 0.037162 0.053592 0.071350 0.025196 -0.031765 -0.000354 -0.013615 -0.080432 0.026182 -0.030302 -0.028832 -0.002504 0.071907 -0.027518 0.008791 0.142758 0.008447 0.099430 -0.051668 0.107455 -0.098141 -0.060972 -0.013618 -0.041751 0.039856 -0.068698 0.027978 -0.026681 0.034578 0.036537 -0.019795 0.007946 0.014677 -0.028922 0.026407 0.100824 0.024597 0.057108 0.026002 0.004507 0.008445 -0.070869 0.119097 0.036694 0.017460 0.024830 0.049018 -0.042634 -0.075510 -0.044751 0.038456 0.074046 -0.046579 0.143879 -0.062126 0.027630 0.072420 -0.044438 -0.066515 0.036794 0.196606 0.001752 0.048581 0.016231 -0.133789 0.010679 -0.072775 -0.007094 -0.010939 0.084204 0.018636 0.107546 -0.044642 0.017310 -0.013498 0.008038 0.006861 0.067795 -0.064582 -0.110481 0.034113 0.054558 -0.020856 -0.100647 0.049993 0.001914 -0.059515 0.010465 0.000765 0.135641 -0.019326 0.037263 0.065312 0.008730 0.007405 0.044418 0.038109 -0.022185 -0.045651 -0.064789 -0.119470 0.002855 -0.037815 -0.011621 0.034758 0.026737 0.077853 -0.000177 -0.009866 -0.037531 0.018481 0.067658 0.005637 -0.034123 0.003338 -0.062329 -0.016266 -0.087151 -0.020682 0.033452
me 0.020002 -0.060906 0.037099 -0.001045 0.023160 -0.086524 0.011090 -0.046212 0.050349 0.031598 0.074586 -0.010451 -0.071667 -0.098610 0.059537 0.068300 -0.026649 0.061986 0.069326 0.041966 0.118463 -0.014844 0.040594 0.006967 -0.062864 -0.057825 -0.027464 0.024006 -0.146074 0.057822 -0.019460 -0.003857 0.022742 0.009973 0.013668 0.002233 0.009783 -0.079747 -0.035544 -0.031513 -0.025393 -0.076867 0.003731 0.013572 0.013221 -0.068144 0.035167 0.001143 0.031813 0.063976 -0.010633 0.049820 0.017824 0.109880 -0.016340 0.028053 -0.050987 -0.039163 -0.030379 0.034350 -0.023014 0.069397 0.089859 -0.027868 -0.003275 0.101413 -0.060996 -0.010614 -0.104974 -0.057784 -0.011356 -0.059652 -0.067468 0.033559 -0.037312 0.192833 -0.030247 0.060002 0.020544 -0.014587 0.006055 -0.008669 -0.036796 0.020221 0.002701 -0.133488 -0.013715 0.005250 0.088262 0.015462 0.054231 0.025456 0.064549 -0.019987 0.034832 -0.070355 0.014204 -0.083831 -0.086205 0.043477 -0.098248 -0.112801 0.018529 -0.076870 -0.036388 -0.052361 0.042649 0.036213 -0.010003 -0.041749 -0.039918 0.097876 -0.011287 -0.065557 -0.052061 -0.028276 0.044670 -0.023726 0.040176 -0.044460 -0.025031 0.080824 -0.018961 -0.168636 -0.094983 0.023520 0.077462 -0.003685 0.104727 -0.045562 -0.100680 -0.046847 -0.080359 -0.078774 -0.054390 0.074638 0.049456 -0.083744 -0.032917 -0.003884 -0.141331 0.045793 -0.029132 0.070495 0.029784 -0.039128 -0.023981 -0.002782 0.116512 -0.073763 0.000049 -0.033636 -0.080677 0.004549 -0.055584 0.009434 0.031625 0.042276 -0.067420 0.026699 -0.018886 -0.140478 0.134981 -0.102927 -0.046896 -0.013695 0.102585 0.096069 0.071103 0.009944 0.007055 0.011164 -0.070938 -0.021760 0.105237 0.043385 -0.048591 0.033044 -0.050498 -0.015377 -0.011776 0.110401 0.108233 -0.045135 -0.013008 0.018260 0.026565 0.049806 0.007120 0.064290 -0.034282 -0.016338 -0.026337 -0.096862 -0.071333 -0.009348 0.060524 -0.027365 0.004762 -0.125150 -0.080915 0.027431 -0.000377 -0.019303 -0.107960 -0.036100 -0.071058 0.013805 -0.068073 0.020240 0.034637 -0.024720 -0.058732 -0.039222 -0.102518 0.019997 -0.149576 0.057710 -0.051202 -0.089063 0.050555 0.008379 -0.012046 0.048123 -0.015427 -0.035214 0.001852 0.008115 -0.056784 0.001405 0.001294 -0.044293 0.031246 -0.040250 0.008785 0.049702 -0.052124 -0.050565 -0.087061 0.061884 0.091307 -0.061853 -0.051131 0.056707 -0.077982 0.018249 -0.055491 0.002506 -0.073260 -0.023406 0.068936 0.008629 0.045815 0.052025 0.020339 0.057848 0.025959 0.038031 -0.003529 0.001278 0.071422 0.001252 -0.096170 -0.019557 -0.025644 0.033920 -0.058930 -0.003487 -0.029888 0.056606 -0.021942 0.021278 -0.044749 0.021047 -0.124084 -0.040995 -0.030533 0.074280 -0.010825 -0.033855 0.021966 -0.058640 -0.034487 0.102902 -0.028010 -0.040810 -0.029130 -0.011218 -0.051208 -0.046613 0.000724 -0.052825 -0.070737 0.078720 -0.033299 0.044168 -0.084790 -0.037668 -0.067973 0.026856
a -0.085708 -0.014221 -0.028402 -0.041660 0.000841 0.026713 -0.070521 -0.020635 0.151278 -0.043035 0.022053 0.060899 0.027153 -0.020045 0.016947 -0.006727 -0.048576 0.028197 -0.077388 -0.012958 -0.032999 -0.085236 0.033298 0.048615 -0.062863 -0.086112 0.078298 0.099283 -0.029768 0.097277 0.035398 0.010830 0.036246 0.024329 0.000256 -0.053414 -0.051688 0.017490 0.033324 0.003499 0.060596 0.025377 -0.038630 0.003894 -0.061409 -0.050302 0.031621 -0.057430 0.021222 0.094447 -0.038353 0.095174 -0.028562 0.129691 0.016649 0.065995 0.017320 -0.112592 0.052304 0.015935 -0.013187 0.027251 -0.043155 0.004700 0.046635 0.035095 -0.106708 0.109668 -0.034918 -0.022885 -0.078081 -0.008696 0.087973 -0.021335 -0.038379 0.085882 0.074952 -0.031077 -0.032370 -0.024936 -0.064589 0.023546 0.056268 0.089660 0.048147 -0.001469 0.045662 0.114295 0.041474 0.009460 0.030381 -0.042455 0.094784 0.004791 -0.054252 -0.005596 0.077166 0.004340 0.032954 0.095851 -0.055361 -0.053738 0.025474 0.088548 0.048974 -0.012645 0.021798 -0.160509 -0.071003 0.078340 0.024732 0.044401 0.023484 0.014640 -0.105357 -0.072310 0.051115 -0.013979 -0.104898 -0.049686 -0.074997 -0.024003 0.002897 -0.016695 -0.005288 0.070059 0.042156 -0.026912 0.055670 -0.012965 0.023968 -0.028007 -0.098136 -0.066733 -0.033063 0.090629 0.050029 -0.036112 0.008000 -0.019124 0.001585 -0.050867 -0.057871 0.012271 0.054926 -0.073830 0.016126 -0.017341 0.162786 -0.051869 0.048271 -0.007905 -0.044899 -0.060555 -0.032798 -0.042563 0.007000 -0.041733 0.077264 -0.028744 0.041560 -0.043970 0.102608 -0.063534 -0.030251 -0.085311 -0.070170 0.032403 0.050852 -0.029692 0.204252 -0.081406 -0.014004 -0.027134 0.046173 -0.096796 -0.011267 -0.030390 -0.039823 0.016193 0.072762 0.002904 0.053425 -0.007085 -0.057839 -0.028737 0.005004 -0.108273 -0.028901 -0.014450 -0.011476 -0.047680 0.042957 -0.028786 -0.051833 0.174963 0.056555 0.066884 -0.012178 -0.079719 -0.134066 -0.003384 -0.059435 -0.041294 -0.016674 -0.065865 0.046402 0.054264 0.041868 0.019971 -0.049754 -0.066999 -0.010109 -0.018221 -0.007654 0.079747 0.059242 0.047878 -0.004967 0.016677 -0.033916 0.003234 0.063001 0.059698 -0.088501 0.090181 0.006319 -0.019144 -0.121754 -0.078249 0.030398 -0.024264 0.043136 -0.000854 -0.077675 0.086028 -0.010723 -0.096656 -0.013100 0.037266 0.169945 -0.026870 -0.013890 -0.032570 -0.088369 -0.025112 -0.031090 -0.023369 0.078204 0.026516 0.064645 0.065211 0.072346 0.016042 0.046019 -0.025140 -0.018420 0.004399 0.053585 -0.003360 0.045258 0.080729 0.021974 -0.083316 0.053740 0.004446 0.078119 -0.003585 -0.048441 0.038877 0.014348 0.064513 0.014956 -0.020856 0.001713 0.031545 0.040790 0.014643 -0.057416 0.017689 -0.084654 -0.092191 -0.033100 0.035180 -0.004986 -0.014108 -0.029003 0.028466 0.001388 -0.122391 -0.035286 -0.007954 0.007977 -0.062431 -0.016400 -0.084379 0.042604 -0.115474 -0.021421 0.056566
y -0.042121 -0.037836 0.036679 -0.084050 0.006515 0.099305 0.045928 0.016368 0.134327 -0.011844 0.010659 0.034676 0.077137 -0.029783 -0.037907 -0.013795 -0.006836 0.011500 -0.076058 0.024434 -0.001108 -0.066514 0.038872 0.112885 -0.029406 0.007112 0.051488 0.107979 0.017522 0.092438 0.023222 -0.085683 -0.027921 0.007972 -0.025705 -0.028533 -0.024607 0.021877 -0.012343 0.042430 -0.007043 -0.024389 -0.024505 -0.033911 -0.057083 -0.084533 0.016485 -0.036139 -0.016978 0.102030 0.009303 0.075448 0.002156 0.139538 0.030210 0.044145 0.018690 -0.052760 0.077810 -0.005391 0.002815 0.053274 -0.115534 -0.051825 0.087068 0.077077 -0.135340 0.059492 -0.101219 -0.022589 -0.096890 0.007034 0.100118 -0.027093 -0.035940 0.036322 0.068001 0.009856 -0.060712 0.009975 0.052419 0.007922 0.040131 -0.043593 0.044140 -0.070362 -0.023544 0.007764 0.046340 -0.002144 -0.032538 -0.036125 0.072541 0.031860 -0.079002 -0.008596 0.030342 0.031109 0.049772 0.098390 0.028766 -0.087979 -0.026243 0.101731 0.096011 -0.098713 -0.028484 -0.124418 0.012567 0.059454 0.058859 0.045594 0.042404 0.058988 -0.027370 -0.039773 0.079016 0.075955 -0.081528 -0.040563 0.003863 -0.025793 -0.064998 -0.012341 -0.044403 0.032571 0.032722 0.063099 0.043915 0.008649 0.011968 -0.003642 -0.048209 -0.004967 -0.009467 0.047431 -0.039778 -0.087145 0.067849 0.015591 0.042563 -0.063274 -0.016025 -0.012975 -0.007136 0.003320 0.031884 -0.025658 0.170790 -0.064511 0.087716 -0.012953 -0.089275 -0.078927 -0.040504 -0.049050 0.046049 -0.073238 -0.034384 -0.029562 0.058786 -0.048790 0.104966 0.006574 0.024187 -0.034967 -0.042244 0.044918 0.033789 -0.087381 0.144220 -0.079357 -0.044999 0.041973 0.063769 -0.131122 -0.035932 0.019795 -0.015165 0.060755 0.067912 0.072251 0.045235 -0.050696 -0.032275 -0.042132 0.039258 -0.105867 0.026290 -0.035994 -0.017492 0.051305 0.026117 -0.010991 0.022200 0.092220 0.005362 0.100001 -0.069541 0.028063 -0.072846 -0.025222 -0.052707 -0.013893 0.016668 -0.090094 0.079421 0.010554 0.104492 0.043973 -0.047725 -0.053228 -0.038448 0.047978 0.009977 0.071996 0.051516 0.056524 0.044401 -0.007176 -0.012876 -0.036896 0.107779 0.057859 -0.027401 0.059532 0.055896 -0.036159 -0.130574 -0.082946 -0.010875 0.065847 -0.037720 0.049972 -0.087733 0.099261 0.010922 -0.069056 -0.063673 0.045537 0.156079 -0.001204 -0.002200 -0.049615 -0.124501 -0.003060 -0.039126 -0.057013 0.002022 0.077750 0.057647 -0.002259 0.032134 0.039760 -0.044032 -0.016928 0.031718 0.030675 -0.045675 -0.062055 0.074004 0.091850 -0.008636 -0.047515 0.042973 -0.022288 0.069358 0.024483 -0.063722 0.062641 -0.050236 0.056393 0.043446 0.026321 -0.001066 -0.005073 0.049178 -0.005089 -0.002601 -0.024335 -0.103959 -0.028944 -0.074412 0.000756 0.073722 -0.009733 -0.024274 0.032052 -0.010659 -0.116662 -0.022428 0.087131 -0.009682 -0.027912 -0.000686 -0.100404 0.039308 -0.109681 0.018647 0.034145
//
lo 0.033256 -0.091229 0.075591 -0.050986 -0.016415 0.028597 -0.057644 -0.021740 0.088887 0.030379 -0.037172 -0.061325 -0.010538 -0.047890 0.045780 -0.023777 -0.050286 -0.059082 -0.002889 0.050527 0.068006 -0.023315 0.059963 0.021436 -0.039065 -0.128883 -0.036796 0.092437 -0.043825 0.072422 0.079125 -0.025873 -0.083526 0.099702 0.063070 0.004761 -0.066962 -0.018498 -0.004380 -0.074079 0.028746 -0.041118 -0.052487 -0.028774 -0.019015 -0.024165 0.010838 0.012695 0.015762 0.098768 -0.056973 0.090767 0.010639 0.088713 -0.013342 0.106633 -0.025083 -0.088529 -0.029626 0.070047 0.007000 0.071968 -0.013799 -0.018621 0.027265 0.117130 -0.141113 0.052098 -0.014372 -0.073386 -0.061755 -0.071261 -0.049655 0.093972 -0.124395 0.116538 -0.077716 -0.029163 -0.065692 0.019001 -0.012975 -0.000142 -0.032054 -0.027848 -0.022470 -0.055136 0.041519 0.086469 0.005751 -0.033094 0.040908 0.005255 0.165559 0.037524 -0.004933 -0.119584 -0.027061 -0.017028 0.016858 0.075493 -0.095789 -0.091512 -0.024902 0.059911 -0.026463 0.060173 -0.034515 -0.048464 -0.036165 0.089561 0.004652 0.041763 0.074477 0.008279 -0.038036 -0.060337 0.090155 0.026001 -0.003914 -0.145336 -0.024903 0.018758 -0.059473 -0.070515 -0.072060 0.076124 0.019522 -0.099024 0.027545 -0.002508 0.031544 -0.015014 -0.023063 -0.055445 -0.021778 0.084287 0.003500 -0.072573 0.021521 0.021279 -0.034359 0.067146 0.030542 0.012243 -0.022101 0.011237 -0.060703 -0.014631 0.051126 -0.037576 -0.058713 0.004742 -0.062374 -0.030240 -0.011228 -0.019337 0.053548 0.020597 -0.033096 0.022565 -0.060445 -0.065236 0.135574 0.005958 0.023000 -0.050686 0.039322 -0.040511 0.025023 0.022305 0.103803 -0.123062 -0.026171 -0.043317 0.041215 -0.066121 -0.046831 0.048228 0.031459 0.027947 0.077427 0.054187 0.059886 -0.040011 -0.019128 -0.029673 0.029435 -0.071371 0.004745 0.032861 -0.045532 -0.018701 -0.013719 -0.095442 -0.084300 -0.012051 0.087418 0.001246 0.015166 -0.014337 -0.062766 -0.011645 -0.084248 0.036244 -0.006766 -0.042995 0.060665 -0.015931 -0.046622 0.026920 -0.027317 -0.054517 -0.044462 -0.034047 -0.019351 0.012193 -0.061815 0.089238 -0.074579 -0.058612 -0.006540 -0.041873 0.027670 -0.042305 -0.018740 -0.026652 0.030583 -0.039236 -0.064496 -0.054459 0.047097 -0.022875 0.059226 0.054268 -0.055324 0.033826 -0.026773 -0.037192 -0.040764 0.124643 0.161337 -0.060266 -0.044093 0.000062 -0.128770 -0.041236 -0.017082 -0.022052 0.018424 0.025146 0.041111 0.019069 0.046233 -0.028153 0.009191 0.015539 0.081102 0.010645 -0.024681 -0.036261 0.108726 0.081873 -0.008188 -0.059834 0.010841 -0.044762 -0.100124 0.094993 -0.081661 0.084791 0.031027 0.088172 -0.053744 0.042906 -0.101320 0.005736 0.121880 0.005874 -0.052376 0.024994 0.007142 -0.076247 -0.012003 0.090832 0.072452 -0.013664 -0.035515 -0.008389 -0.020988 -0.123297 -0.088406 -0.004435 -0.121016 -0.056436 -0.043298 -0.058763 0.043951 -0.104600 -0.027883 0.003832
el -0.019094 -0.054838 0.061867 -0.032082 -0.005957 0.057351 0.028500 -0.043159 0.151103 -0.047987 -0.065501 0.019325 0.045845 -0.052837 0.039334 -0.029077 -0.035610 0.005154 0.007917 0.039476 -0.063586 -0.041226 0.022597 0.088539 -0.047592 0.006095 0.068421 0.040141 0.071777 0.052399 0.018608 -0.104608 -0.065750 0.057864 0.026319 -0.014900 -0.030556 -0.020601 -0.048309 0.018427 0.027275 -0.011767 -0.054502 -0.074528 -0.051803 -0.087762 -0.006023 -0.003563 0.068748 0.039145 -0.043258 0.041879 0.057915 0.095341 0.018489 -0.001705 -0.028376 -0.071598 0.083582 0.060199 0.007671 0.059488 -0.004180 -0.009021 0.029272 0.041644 -0.096565 0.086306 -0.086528 -0.047175 -0.090746 0.050310 0.041464 0.022899 -0.048404 0.051755 0.018348 0.000737 -0.072073 0.000742 0.045431 0.031756 0.056730 -0.002922 -0.029613 -0.064712 0.031082 -0.054350 0.015172 0.038507 0.005052 0.041152 0.017918 0.000021 -0.140041 -0.032220 0.045753 -0.001662 0.107630 0.056159 0.031969 -0.061976 -0.125508 0.099241 0.072667 -0.111275 -0.037890 -0.098337 0.009009 0.032999 0.108232 0.001456 -0.019507 0.021065 -0.070871 -0.067959 0.087397 -0.017634 -0.071713 -0.068235 0.021910 -0.036611 -0.056015 0.002406 -0.000682 0.002840 -0.004956 0.051061 0.039282 -0.004243 0.068350 0.078494 -0.111187 0.001789 -0.050798 0.043564 0.022463 -0.079984 0.083845 -0.039942 -0.002670 -0.105963 -0.045711 -0.070839 -0.071386 0.018530 0.030352 -0.022617 0.052608 -0.076264 0.054236 0.038974 -0.065505 -0.016966 -0.054466 -0.047889 0.059159 -0.038347 -0.046825 -0.067137 0.054917 -0.048225 0.112417 -0.059300 0.042382 0.061968 -0.016934 -0.006549 0.058622 -0.070197 0.136546 -0.029121 -0.021011 0.032252 0.013837 -0.144404 -0.032138 0.016345 0.003643 0.095301 0.035812 0.078058 0.078509 0.010083 -0.038933 0.017821 0.012711 -0.035441 -0.045516 -0.031174 -0.020619 0.071923 0.066945 -0.024285 0.008731 0.103420 -0.026585 0.086919 0.023265 0.087532 -0.169808 0.010314 -0.009849 -0.010514 -0.061712 -0.096139 0.056519 0.031146 0.120540 0.121889 -0.001435 -0.050902 -0.057896 0.043951 0.011844 0.071470 -0.034592 0.100551 0.028934 0.082797 -0.004083 -0.063326 0.057935 0.049082 -0.086728 0.055341 0.046598 -0.037046 -0.078920 -0.088477 -0.012546 0.063808 0.001957 0.098891 -0.114209 0.085782 0.031362 0.005591 -0.011783 0.052346 0.146943 -0.034617 -0.000501 -0.072018 -0.076500 -0.018684 -0.048509 -0.055089 0.008249 0.056943 0.080161 0.038735 0.055476 -0.023171 0.018044 -0.076114 0.039769 0.004626 -0.057135 -0.057441 0.029075 0.029289 0.001732 -0.040982 -0.019653 -0.000673 0.052067 0.025087 -0.015553 0.031290 -0.015537 0.026309 0.040171 0.015795 -0.004143 0.009772 0.017129 0.007851 -0.024184 -0.079634 -0.091227 0.027483 -0.015121 -0.004996 0.076148 -0.001744 0.029846 -0.000951 -0.032178 -0.145940 -0.009878 0.118325 0.003628 -0.082544 -0.026749 -0.075919 -0.043725 -0.132087 -0.024071 0.061029
/
se 0.044344 -0.025090 0.021408 -0.023319 0.006440 0.035944 0.033291 -0.053198 0.118031 -0.090101 0.007815 0.076439 0.009261 -0.037713 0.055046 -0.027586 0.048610 -0.049588 -0.042102 0.031554 0.113658 -0.016408 0.006152 0.099010 -0.057894 -0.100441 -0.012198 0.099736 0.015314 0.099538 -0.032353 -0.060339 0.017600 -0.010804 0.080405 -0.039542 -0.077319 -0.021478 0.013040 -0.057590 0.030673 -0.015731 0.022702 -0.042895 -0.149411 -0.028175 -0.018584 -0.065148 0.103142 0.048269 0.010034 0.147755 0.032769 0.147938 -0.080923 -0.004414 -0.027768 -0.104675 0.064310 0.056154 -0.009932 0.038365 -0.010873 -0.032853 0.013838 0.062167 -0.053717 0.045894 -0.072772 -0.000746 -0.153264 -0.015562 0.066409 0.088840 -0.110529 0.075729 -0.124390 -0.037367 0.043645 -0.001430 0.085239 -0.075619 0.006528 -0.030281 0.033834 -0.002402 0.048157 -0.055684 0.049300 -0.075353 0.046908 -0.059861 0.101753 -0.008216 -0.026991 -0.118563 0.063292 -0.050711 -0.009980 0.042625 -0.063898 -0.084810 -0.023141 0.084180 -0.032176 -0.071823 0.050556 -0.025936 0.011549 0.143170 -0.011964 0.106033 0.051362 -0.045924 -0.109627 -0.028632 0.082162 0.009692 -0.114475 -0.047771 0.053565 0.032986 -0.006519 0.062042 -0.077758 0.070832 0.006034 -0.092015 0.057089 0.014550 0.047945 0.016708 -0.081630 -0.080458 -0.019412 0.089363 -0.033831 -0.054720 0.076596 -0.020169 0.012941 -0.024971 -0.049044 -0.037512 -0.017648 0.015171 0.026962 -0.020684 0.049611 -0.022633 0.030151 -0.002867 -0.049440 -0.068539 0.029340 -0.106816 0.136943 0.046198 -0.086419 -0.050095 -0.062326 0.006086 0.046463 0.030980 -0.031611 -0.032915 -0.013738 -0.003024 0.052011 -0.035647 0.170049 -0.145313 0.029036 0.034396 0.000195 -0.063283 0.008029 0.027282 0.013218 0.019213 0.143327 0.075582 0.090479 0.026669 -0.006709 0.011142 -0.033620 -0.021344 0.023613 -0.007824 0.001617 -0.018151 0.018861 -0.125406 -0.010289 0.047427 0.070887 0.065518 -0.004798 0.048589 -0.069834 0.003651 -0.033621 0.027593 -0.007173 -0.054936 0.015881 0.009954 0.051755 0.041219 -0.004085 -0.014896 0.003424 -0.101952 0.081456 0.087335 0.026870 0.036014 -0.056762 0.024132 0.018666 0.038457 0.045643 0.049883 -0.062986 -0.031896 0.020989 0.028406 -0.064546 -0.110124 -0.044030 0.027334 0.010651 0.077631 -0.013484 0.080455 -0.073111 -0.040561 -0.051940 0.046271 0.119657 -0.025219 -0.015571 0.040528 -0.104066 0.021779 -0.050767 -0.095464 0.044525 0.030559 0.047827 0.080029 0.056475 -0.062901 0.039170 -0.024696 -0.024570 -0.004215 -0.032578 -0.018248 -0.020596 0.132228 -0.001626 -0.045832 -0.021871 -0.015695 -0.006475 -0.028245 -0.025085 0.021247 -0.027252 0.034876 -0.071714 0.042959 -0.011387 -0.009192 0.009191 -0.004864 -0.041353 -0.060245 -0.026996 0.023496 0.016826 0.054622 0.002266 0.017159 -0.077923 0.003344 -0.000544 -0.067182 -0.011087 0.027356 -0.024540 0.010450 -0.005312 -0.088409 0.020719 -0.056887 -0.046388 -0.029662
en 0.026581 -0.015241 0.076188 -0.033951 -0.005532 0.040253 0.014638 -0.026969 0.174926 -0.088551 0.030411 0.033171 0.035247 -0.053153 0.034791 -0.043782 0.021706 -0.001933 -0.030657 0.056735 -0.096816 -0.006083 0.023477 0.129903 -0.089923 -0.012156 0.023389 0.076864 0.075134 0.061423 -0.033565 -0.045924 -0.083673 -0.004397 0.049242 -0.100869 0.010767 0.014354 -0.034536 0.006054 0.009703 0.028443 0.024843 -0.085018 -0.013708 -0.019241 -0.018230 -0.026206 0.021970 0.041291 -0.083791 0.088205 0.029461 0.129968 -0.035930 0.045489 0.000100 -0.036779 0.058822 0.096341 -0.068487 0.093272 -0.054641 -0.054127 0.049860 0.047078 -0.081942 0.131879 -0.056536 0.035574 -0.161969 -0.015891 0.072931 0.002060 -0.062984 0.037286 -0.021168 0.058015 0.000511 -0.088004 0.025141 -0.032483 0.043571 -0.014221 0.059971 0.017288 0.009931 -0.003049 0.045414 0.030266 -0.041036 -0.038548 0.055262 -0.010400 -0.109452 0.040224 0.049651 -0.005717 0.069147 0.079641 0.037132 -0.083692 -0.032963 0.086437 0.042587 -0.088681 0.004317 -0.112368 0.047439 0.046220 0.047233 0.052244 0.040376 0.043803 0.003122 -0.049596 0.105030 0.051798 -0.089496 -0.061939 0.064500 -0.006850 -0.033281 -0.007044 -0.059802 0.001478 0.061763 -0.005635 0.072320 0.026220 0.038630 0.061924 -0.040747 0.001671 -0.076976 0.062713 -0.003883 -0.075068 0.037281 -0.001749 -0.015784 -0.073255 -0.041658 -0.015254 -0.083932 0.019675 0.023857 0.011877 0.110891 -0.126212 0.008916 0.022912 -0.086664 -0.052335 -0.025554 -0.082052 0.059955 0.010351 -0.052768 -0.022825 0.066495 -0.018831 0.036371 -0.010668 -0.001757 -0.043319 -0.002546 0.014011 0.065008 -0.063852 0.143000 -0.017950 -0.012133 0.034645 0.019249 -0.120813 -0.028476 -0.027132 -0.052217 0.034275 0.056875 0.091684 0.104272 0.047259 -0.076129 0.012061 0.001202 -0.066170 -0.023275 -0.037404 -0.039282 0.047298 0.018953 -0.063144 0.013522 0.151888 0.036871 0.059711 -0.048100 0.068195 -0.123619 -0.022605 -0.037766 0.001217 -0.011442 -0.072790 0.090778 -0.003909 0.109163 0.001483 -0.010494 -0.035323 -0.089491 0.032565 0.064478 0.099495 -0.004145 0.062221 -0.002344 0.075857 0.025798 -0.058230 0.106080 -0.037642 -0.098980 0.040896 0.050060 -0.025803 -0.076346 -0.031277 -0.016458 0.074173 -0.017541 0.117265 -0.054809 0.071285 0.034627 0.018742 0.003090 -0.022064 0.079526 -0.036521 0.059427 0.023826 -0.088483 -0.053345 -0.031825 -0.091163 -0.000318 0.097550 0.039705 0.068879 0.009346 -0.005831 -0.020445 -0.037551 -0.030627 0.042611 -0.060933 -0.061835 -0.025218 0.054502 0.007813 0.007886 -0.096371 0.032693 -0.074697 -0.022726 0.027068 0.093267 0.027991 0.016513 0.021966 -0.001403 0.004168 0.007359 0.020973 -0.011663 -0.058841 -0.039689 -0.021151 0.001391 0.017551 -0.019631 0.078555 0.038571 0.063819 -0.028779 -0.015407 -0.119639 0.054226 0.097685 -0.000983 0.013433 0.002072 -0.135137 0.039641 -0.113613 -0.082998 0.001794
un 0.008368 -0.030686 0.034075 -0.041677 -0.012431 0.005613 -0.003004 0.049246 0.170410 -0.019175 -0.004084 -0.028287 0.047931 -0.033416 0.045380 -0.071860 0.008310 0.011036 0.008668 0.051755 -0.072510 -0.054374 0.055220 0.051944 -0.000572 -0.044970 -0.039989 0.071171 0.029939 0.041502 0.016021 -0.066085 -0.096522 0.053377 0.062386 -0.026843 -0.054146 -0.007952 -0.021857 0.022940 0.088205 0.008366 -0.032642 -0.046265 -0.049060 -0.025164 0.033129 0.008389 0.091187 0.032443 -0.037020 0.093360 0.065051 0.142043 -0.021143 -0.011427 0.009332 -0.052433 0.021456 0.010282 -0.043361 0.019840 0.016655 -0.076089 0.047805 0.026689 -0.066737 0.142291 -0.040643 0.027581 -0.063321 -0.004321 0.083588 -0.019486 -0.089072 0.064630 -0.100472 0.040129 0.007095 -0.038384 0.017839 -0.093048 0.029796 0.060719 0.088569 -0.109927 -0.033513 -0.022966 0.027142 0.070962 0.081163 -0.055481 0.003369 0.002659 -0.123862 -0.013327 0.009095 -0.004430 0.082106 0.081995 -0.042315 -0.100791 0.009954 0.077687 0.090939 -0.011158 -0.040297 -0.070276 0.032571 0.035381 0.072492 -0.026404 0.030253 -0.008393 -0.005553 -0.068817 0.092885 -0.002342 -0.070356 -0.117659 0.051259 -0.023166 -0.058286 -0.010685 -0.093509 0.040006 -0.076467 0.040531 0.065625 0.048858 0.047372 0.065984 -0.096207 -0.063231 -0.080308 0.039433 0.028538 -0.160848 0.060163 -0.021085 -0.003759 0.011545 -0.065456 -0.092974 -0.018935 0.037427 0.001372 -0.091535 0.068561 0.011345 0.001770 0.094469 -0.006235 -0.020901 -0.040067 -0.043341 0.106581 0.034332 -0.029043 -0.035240 -0.040962 -0.115230 0.043218 -0.072677 0.110575 0.029108 0.014470 0.043013 0.049719 -0.048477 0.104282 -0.020570 -0.064025 -0.005347 -0.039406 -0.116022 -0.057263 -0.017425 -0.031344 0.058395 0.005029 0.032221 0.121816 -0.010771 -0.022258 0.056950 0.042921 -0.058694 -0.106111 0.028252 -0.044343 0.082788 0.081648 -0.052678 -0.014587 0.084486 -0.008071 0.108167 0.047694 0.050756 -0.086288 0.040989 -0.027458 0.003893 -0.073204 -0.098699 0.055130 0.026176 0.052841 0.041768 -0.064966 -0.108184 -0.080133 0.014010 0.054678 0.077768 -0.017129 0.116911 0.028773 0.058345 0.022175 -0.073603 0.060805 -0.037509 -0.067111 0.006588 0.029095 -0.026306 -0.115186 -0.052356 -0.011916 0.059722 -0.028015 0.056132 -0.094442 0.051527 -0.030573 0.018748 0.032479 0.018058 0.120574 0.019943 0.012634 -0.039456 -0.033145 0.005190 -0.051320 -0.086090 0.064987 0.061164 -0.002790 0.047375 0.038027 -0.012880 -0.026904 -0.105483 0.044074 -0.009574 -0.076933 -0.068337 0.059930 0.035140 0.023641 0.014526 0.006933 0.012079 -0.078807 0.012793 -0.026329 0.009043 -0.012309 0.002456 0.009513 -0.011917 -0.025766 0.007613 0.065056 0.010631 -0.101113 0.015186 -0.073329 -0.011440 -0.033486 0.047115 0.119982 0.033067 0.026264 -0.023110 -0.094675 -0.098014 -0.005728 0.090142 -0.022386 -0.027412 0.013621 -0.100055 -0.014630 -0.074483 -0.028247 0.008684
como -0.019689 -0.094875 -0.027591 -0.046345 -0.008168 -0.061982 0.024682 0.020597 0.112588 -0.085943 -0.046526 0.046959 0.013843 -0.089182 0.010996 0.003307 0.024318 -0.008316 -0.051705 0.078580 0.052673 -0.018108 0.049998 0.057743 -0.003527 -0.047529 -0.001561 0.073367 0.063372 0.077223 0.024137 -0.075548 -0.073722 -0.034661 0.048771 0.004563 -0.024264 0.045114 -0.029231 0.052970 0.020451 0.003375 0.010348 0.002119 -0.067527 0.028976 0.055920 -0.041418 -0.030258 0.072981 -0.009604 0.023669 -0.064630 0.092139 -0.053176 0.062632 0.035247 -0.069019 0.032813 0.061885 -0.001313 0.058951 -0.033049 -0.027783 0.102214 0.008881 -0.053643 0.014998 -0.091916 -0.009906 -0.038534 -0.044122 0.030064 -0.018488 -0.046999 0.045295 -0.017704 0.068890 0.020263 0.024578 0.045876 0.045379 -0.004563 -0.002646 -0.010604 -0.077008 -0.024712 -0.046649 0.060195 0.007231 0.017321 0.025826 0.067147 -0.013272 -0.069296 -0.021818 0.061147 -0.009631 0.007036 0.106551 0.021403 -0.007876 0.070823 0.091798 0.008691 -0.069006 -0.037653 -0.003086 0.024580 0.111870 0.032074 0.050281 0.097529 0.040791 0.069781 -0.042099 0.117673 0.102158 0.024103 -0.031271 0.023041 0.123935 -0.049837 -0.041134 -0.034976 -0.013358 -0.042973 -0.047135 0.039170 0.066105 -0.010012 0.070295 0.034390 -0.009228 -0.007876 0.065573 0.108912 -0.061249 0.037045 -0.007409 0.121862 -0.059928 0.015339 -0.047792 -0.049986 0.021053 -0.036980 -0.009072 0.017296 -0.059619 0.035147 -0.001031 -0.083071 -0.050453 -0.033414 0.018034 -0.005711 -0.005105 -0.046610 0.005699 -0.011432 -0.122629 -0.003235 -0.031541 0.070493 -0.122957 0.064838 0.054749 -0.009211 -0.016763 0.079953 -0.173155 -0.009349 0.033499 0.069683 -0.108508 0.016743 -0.059622 0.025639 0.023810 0.104648 0.084297 -0.012439 0.003381 -0.071378 -0.032235 0.005875 -0.111466 0.020708 0.012209 -0.113700 -0.034232 0.019556 0.005195 -0.062793 0.034462 0.051925 0.075691 -0.042291 0.020181 -0.105427 -0.019991 -0.001960 -0.035943 0.000483 -0.015169 0.039196 -0.021090 0.110277 -0.077450 -0.085563 -0.107021 -0.025604 -0.033146 0.093062 0.091398 -0.063411 -0.007388 -0.046587 0.009006 -0.036208 -0.016088 0.133815 -0.019427 -0.048530 -0.014139 0.048794 -0.030366 -0.111283 -0.021069 0.009608 0.033874 -0.035939 0.063105 -0.136447 0.073596 0.061913 -0.012087 -0.032443 0.005772 0.174676 -0.007556 0.000193 -0.058902 -0.069492 0.003431 -0.028095 -0.034783 0.049442 0.150073 0.101686 -0.041935 0.050851 0.066384 -0.063557 0.044799 -0.004944 0.083345 -0.088603 -0.083919 0.053147 0.119649 0.011566 -0.083878 -0.082745 -0.026170 -0.086156 0.052986 0.009382 0.055287 0.006687 0.053491 0.029226 0.082392 -0.055149 -0.002258 0.119848 -0.020923 0.005900 -0.028682 -0.120900 0.000699 -0.022193 -0.008847 0.092074 -0.022980 0.037338 0.007870 -0.025020 -0.080967 0.041436 0.066344 -0.056613 -0.023778 -0.012057 -0.061381 0.075988 -0.116798 0.007577 0.016423
Y 0.003135 -0.118359 0.020220 0.007080 0.004624 -0.026719 0.055704 -0.071417 0.051350 -0.010017 -0.040911 -0.072878 0.035019 0.026460 0.003759 -0.025840 -0.021976 -0.039672 -0.014593 0.033821 0.059090 -0.088871 0.017577 0.036894 -0.050783 -0.027739 -0.084250 0.143148 -0.067015 0.129477 -0.025265 -0.128963 -0.014584 -0.076974 -0.027578 -0.050257 -0.079882 -0.062475 -0.033080 0.042524 -0.009283 -0.002179 0.004534 -0.053363 -0.036128 -0.051867 0.049116 -0.053386 -0.056306 0.141258 -0.118542 0.058178 -0.042323 0.036426 0.027279 0.067489 0.003851 -0.056469 -0.036682 -0.017980 0.046705 0.041037 0.090706 -0.016586 -0.094351 0.009310 -0.104108 0.009874 -0.072503 -0.039826 -0.008077 -0.067719 -0.033475 0.080136 -0.015179 0.210409 -0.025544 -0.051760 -0.007344 0.014178 0.037859 0.077029 0.012179 -0.005844 -0.044857 -0.082754 0.115113 -0.018667 0.036768 -0.029709 -0.053619 0.034754 -0.025724 0.014948 -0.035949 -0.030085 -0.109627 -0.067843 -0.033085 -0.045700 -0.124294 -0.142131 -0.089130 0.058293 -0.002346 0.010983 0.044250 -0.084063 -0.010634 0.051062 0.029573 -0.018300 0.057982 0.029685 0.017722 -0.030945 0.067147 -0.054318 -0.045844 -0.060349 -0.011372 0.065529 -0.010639 -0.107057 -0.039445 0.052437 0.098714 -0.109861 -0.021308 -0.013571 -0.011790 0.027524 -0.072551 -0.079797 0.021918 0.002104 0.036357 -0.071766 0.046879 -0.023798 -0.010357 0.062977 -0.002774 -0.044709 -0.013412 -0.087786 -0.038559 -0.019415 0.088579 -0.014445 0.029141 -0.007944 0.019421 -0.091713 -0.011149 -0.011514 0.071922 0.042735 -0.022384 -0.013681 -0.021190 -0.061312 0.049327 -0.020146 0.005149 -0.025137 -0.012692 0.004448 0.021805 0.020616 -0.046646 -0.025268 0.040641 -0.011456 0.058483 -0.040507 0.018541 -0.048310 -0.068805 0.022262 0.062186 0.160205 0.087862 -0.067099 -0.068748 0.066572 -0.041080 -0.031487 0.022042 0.050095 -0.026945 -0.042979 0.035058 -0.039000 -0.071887 0.018675 0.104508 -0.069671 -0.008129 -0.031911 -0.047056 0.002220 -0.073921 0.076396 0.039716 0.074163 -0.070898 0.001135 -0.039029 0.072348 -0.070026 -0.042842 -0.043094 -0.056467 0.048020 -0.046843 -0.080640 0.075654 0.006386 -0.061036 0.020956 -0.015808 0.003108 0.052377 0.020432 0.004705 0.049014 -0.008094 -0.039954 -0.098172 -0.017258 -0.007272 -0.003019 -0.103818 0.073022 -0.008895 -0.030793 -0.037989 -0.079257 0.024164 0.106106 0.021271 -0.058203 -0.021930 -0.037708 -0.048084 0.004864 -0.023664 -0.019444 0.073363 0.051078 -0.091683 0.040997 0.031880 -0.047614 -0.039208 -0.041556 0.022796 -0.028504 0.105017 0.124991 0.132495 -0.047836 -0.045164 -0.010968 0.009295 0.000764 0.022616 -0.038758 0.103002 0.033561 0.106455 -0.083753 0.039720 -0.096775 -0.085033 0.097842 0.012898 -0.048179 0.057697 -0.095868 -0.034217 -0.022754 0.110801 0.116200 -0.013818 0.006501 0.046009 -0.033737 -0.082793 -0.025456 -0.028285 -0.057560 0.027614 -0.051676 -0.033147 0.090737 -0.013522 0.002150 0.040556
te 0.006423 -0.089716 -0.029632 -0.006129 0.066432 -0.029384 -0.036633 0.017194 0.024158 -0.018548 0.071631 -0.023006 -0.073279 -0.092882 0.066907 0.038517 -0.056056 0.076171 0.038047 0.117858 0.152174 -0.069037 -0.009722 0.004437 -0.056633 -0.022184 -0.071004 0.022388 -0.100810 0.061813 -0.089471 0.010369 0.035181 0.030818 0.008865 -0.011366 -0.026424 -0.041618 -0.004510 -0.092892 0.004282 -0.042590 -0.020431 0.042185 0.038412 0.014990 0.023067 0.003779 0.081317 0.086976 0.014427 0.091863 -0.014623 0.165397 0.010369 0.033648 -0.017523 -0.051982 -0.035593 0.011741 0.026941 -0.015551 0.091007 -0.063064 0.045537 0.018084 -0.031627 -0.000709 -0.024374 -0.011383 -0.015689 -0.055097 -0.125314 -0.015771 -0.036898 0.169906 -0.001706 0.059268 -0.008948 -0.003109 0.016124 0.022455 -0.056722 0.014401 -0.009929 -0.067829 0.013023 0.019420 0.045199 -0.044348 0.003784 0.045796 0.132089 -0.010203 0.043384 -0.051192 -0.011089 -0.066656 -0.021634 0.023097 -0.081463 -0.115160 -0.057636 -0.109703 0.012958 -0.045624 0.043699 0.013112 0.025759 -0.025765 0.052910 0.021730 0.030321 -0.000109 -0.075489 -0.068033 -0.000402 -0.031882 0.040621 -0.049659 -0.023710 0.046242 -0.033013 -0.174806 -0.107119 0.021807 0.013306 -0.039220 0.117544 -0.020835 -0.080933 -0.129745 0.016858 -0.010200 0.024911 0.104011 0.057771 -0.060633 -0.087187 -0.055822 -0.104591 0.070829 -0.058528 0.035609 0.083580 -0.018367 -0.060575 -0.000881 0.070879 -0.017564 -0.000160 -0.020912 0.032642 -0.020105 0.012741 -0.019441 0.027659 0.007476 -0.106539 0.003053 -0.005382 -0.097486 0.087649 -0.115912 -0.098117 -0.036683 0.006196 0.056245 -0.016591 0.040502 -0.009895 -0.025845 -0.050798 0.031132 0.054223 0.033982 0.007557 -0.022358 -0.064628 -0.047459 0.041788 0.026316 0.113335 -0.011182 -0.029045 0.054868 -0.060012 0.076084 -0.018354 0.063290 -0.014536 0.003615 0.015157 -0.056464 -0.073632 -0.098828 -0.038424 0.004486 -0.002982 -0.044142 -0.071729 0.027494 0.015270 0.124152 -0.055938 -0.047955 -0.095532 0.001252 -0.019662 0.094737 -0.003977 -0.037010 -0.045387 -0.024309 -0.038874 -0.028519 -0.108516 0.053837 -0.039558 -0.127302 -0.009676 -0.006441 -0.038785 0.001223 -0.047044 -0.010516 0.058867 -0.001034 -0.083943 -0.075729 0.019178 -0.081611 0.018426 -0.084922 0.019152 0.030305 -0.072884 -0.086192 -0.092581 0.056763 0.107614 0.008521 -0.031017 -0.017773 -0.058564 0.013952 -0.027052 0.028850 -0.071766 -0.008539 0.028883 0.044896 0.013228 0.024257 -0.105803 0.094320 0.033342 0.002299 -0.020817 0.046772 0.064570 0.034312 -0.045024 -0.008517 -0.039294 0.105566 -0.048716 -0.042389 -0.036246 0.137569 0.018137 0.016168 0.019285 -0.059098 -0.055311 -0.000092 -0.003060 0.097712 -0.048212 -0.081063 0.014335 -0.031712 0.038977 0.165076 0.057097 -0.112499 -0.038201 0.009729 -0.025805 -0.055067 -0.012735 -0.043554 -0.062783 0.004245 0.007290 0.044461 -0.098133 -0.016181 -0.063945 -0.018211
los -0.018489 0.036911 0.045592 -0.006009 0.009740 0.062708 -0.017418 0.000362 0.136461 -0.123914 0.004111 0.012575 0.051185 -0.015960 -0.007032 -0.060143 -0.086755 -0.001579 -0.072407 -0.001173 0.030028 -0.120873 -0.011749 0.103469 -0.095740 0.016945 -0.052293 0.100694 0.026250 0.051805 0.050285 0.007062 0.019713 0.007554 0.003000 -0.007825 0.031388 -0.053674 -0.070242 0.014803 0.031444 -0.015814 0.005966 -0.035825 -0.056899 -0.066460 -0.031974 -0.094435 0.044974 0.109062 -0.010704 0.083039 -0.007427 0.055845 0.072120 0.040261 -0.072686 -0.086832 0.128521 0.062262 0.005739 0.067721 -0.113566 0.034305 0.041693 0.072097 -0.079644 0.062137 -0.035381 0.021093 -0.122759 -0.002234 0.097428 0.017932 -0.095214 0.080814 0.048575 -0.002102 -0.046335 -0.005699 -0.059984 0.031422 0.061613 0.030816 0.026701 -0.068000 0.067893 -0.032332 0.077142 0.013572 -0.053096 -0.071081 0.125338 -0.021719 -0.113427 0.020651 0.011522 0.018410 0.005999 0.108815 -0.081018 -0.031712 -0.030261 0.104312 0.036996 -0.031590 -0.045709 -0.118326 -0.037217 0.066981 0.054778 0.082154 0.015319 0.039584 -0.004972 -0.059101 0.059792 0.038955 -0.029077 -0.059071 -0.062213 0.017934 -0.033466 0.007342 -0.096879 0.091667 0.032268 0.007647 -0.046322 -0.036875 0.071908 0.011096 -0.063519 -0.037783 -0.027381 0.077523 -0.041995 -0.110935 0.080467 -0.030527 -0.063902 -0.096758 0.026814 0.024715 -0.056444 0.002252 -0.038416 -0.075330 0.110978 -0.131945 -0.017590 -0.022661 -0.105336 -0.058229 -0.031346 -0.033111 0.068825 -0.005905 -0.013079 -0.078876 0.117026 -0.049613 0.081184 -0.047651 -0.006850 0.026761 -0.015042 0.040951 0.031432 -0.046367 0.082599 -0.087242 0.054085 0.010322 0.015893 -0.068361 -0.051342 -0.045214 0.012072 0.041920 0.056213 0.004658 0.074050 0.015432 -0.012290 0.062163 -0.001665 -0.170216 0.015962 -0.020238 -0.048876 0.023480 0.016153 -0.027302 -0.005531 0.012621 -0.002982 0.037035 -0.040416 0.029351 -0.088106 -0.107750 0.024803 -0.050490 -0.033057 -0.055477 0.083738 0.056245 0.051557 0.056413 -0.003753 -0.014272 -0.025381 -0.018004 -0.008878 0.067367 0.000718 0.038998 -0.004634 -0.003219 -0.026742 0.036714 0.025285 0.055854 -0.072501 0.044095 0.052553 0.014116 -0.062374 -0.056877 0.002491 0.014094 -0.060129 0.054998 -0.061254 0.071453 0.003723 -0.036329 -0.027158 0.003534 0.093185 0.007992 -0.097294 -0.036056 -0.102298 -0.041867 -0.141788 -0.068675 0.008443 0.075905 0.054666 -0.019575 0.066365 0.044702 -0.065557 0.021451 0.062475 0.099107 -0.039205 -0.115370 0.040057 0.140246 0.054609 -0.027473 -0.026007 -0.037904 0.008885 0.011040 -0.034092 0.068014 -0.005894 0.070370 0.054927 -0.000015 0.091078 0.005293 0.065675 0.013272 0.025433 0.014886 -0.078631 -0.010623 -0.032067 0.011527 0.052344 0.038192 -0.032623 -0.011271 -0.040584 -0.032548 -0.038051 0.079366 0.045388 -0.066945 -0.042741 -0.073721 -0.011892 -0.114976 0.025161 0.012087
con -0.004608 0.028844 0.061221 -0.009102 -0.039825 0.065550 0.048233 -0.024033 0.107027 -0.043762 -0.013158 0.019558 0.056742 -0.036645 0.051411 -0.091598 0.005661 -0.013785 -0.062321 -0.018562 -0.060384 -0.007072 0.018149 0.033305 0.033362 -0.052593 -0.005732 0.098949 -0.015359 0.115702 -0.004842 -0.018587 -0.057282 0.049414 0.002815 -0.016940 -0.041010 -0.023386 0.015500 0.035886 -0.028348 -0.017615 -0.087628 -0.004581 -0.057040 -0.010606 0.051437 -0.055709 0.055379 0.068522 -0.037543 0.090817 -0.051960 0.127503 -0.010357 -0.037100 -0.019214 -0.012586 0.039616 0.034118 -0.053141 0.029718 -0.057437 -0.065805 0.006915 0.069572 -0.121175 0.071074 -0.137506 -0.011960 -0.047271 -0.050170 0.137105 -0.016424 -0.053205 0.084235 -0.031789 -0.016098 -0.042558 -0.028101 0.033904 -0.001449 0.005109 -0.035169 0.084872 -0.004624 -0.071622 0.025776 0.006925 0.004645 -0.022958 0.000886 0.061165 0.001494 -0.005061 0.036585 0.011846 0.010235 0.052756 0.139923 0.015530 -0.099962 -0.055931 0.032407 -0.021591 -0.080256 -0.069419 -0.169236 -0.005461 0.089369 0.070030 -0.012728 0.055116 0.139289 -0.043222 -0.042526 0.052856 0.047848 -0.065548 0.004284 -0.003900 0.013272 -0.071473 -0.023157 -0.145908 0.053854 0.004583 -0.039742 0.053912 -0.005689 -0.023479 0.038898 -0.074240 -0.022145 -0.025676 0.118607 -0.012758 -0.063973 0.099625 0.079316 0.047701 0.001096 -0.037486 -0.062071 0.023342 -0.007280 0.071201 -0.001866 0.147508 0.000840 0.057044 -0.017489 -0.095169 -0.115638 0.070947 -0.032790 0.040859 -0.018658 -0.054671 0.040837 0.010647 -0.097131 0.096018 -0.065020 -0.021489 -0.056052 -0.057042 -0.003259 0.041991 -0.034591 0.026204 -0.101456 -0.041639 0.019638 0.036137 -0.148979 -0.054339 -0.018871 0.020994 0.096526 0.084321 0.004820 0.048501 -0.112026 0.004446 -0.034754 0.031046 -0.057151 0.007922 -0.022980 -0.065637 -0.052756 0.006384 -0.041779 0.016618 0.072970 0.047357 0.095243 -0.060688 -0.006259 -0.058363 -0.064271 -0.001054 -0.012547 0.032702 -0.033978 0.004824 0.071502 0.117574 -0.015799 -0.023053 -0.161802 -0.065880 0.050373 0.055821 0.060687 0.035082 0.074488 -0.030884 0.028757 0.015449 -0.025186 0.051757 -0.010658 -0.038630 0.045016 0.008975 -0.014298 -0.171790 -0.101738 -0.049688 0.038475 -0.049957 -0.019805 -0.057559 0.077671 -0.002929 -0.030461 -0.080090 0.057934 0.073387 0.065693 0.015740 0.012927 -0.078910 -0.002718 -0.084392 -0.047663 -0.002496 0.051669 0.018087 0.073907 0.127002 0.056687 -0.009966 0.066436 -0.006639 0.002007 -0.078718 -0.039594 0.023180 0.121201 -0.046155 0.008542 0.030192 -0.064194 0.066647 -0.006639 -0.055712 0.027616 0.003854 0.035370 -0.005719 0.069698 -0.015182 -0.018359 0.048158 0.016020 -0.017105 0.020168 -0.085821 -0.121862 0.031929 0.019921 0.091731 0.049890 0.063306 0.002370 0.032391 -0.072334 -0.004275 -0.001333 -0.014907 -0.092821 -0.019799 -0.063177 0.030727 -0.029187 0.019458 -0.016335
una 0.070848 0.061038 0.051418 -0.051282 -0.009531 0.078806 0.057565 0.017617 0.126734 0.002343 -0.014974 -0.038427 0.072643 -0.059928 -0.029139 -0.029815 0.049705 -0.042540 -0.064426 0.022241 -0.077538 -0.077581 0.049219 0.103448 -0.042764 -0.014497 -0.005924 0.076430 0.023012 0.085189 0.064267 -0.001260 -0.066019 0.003756 0.026288 0.014680 -0.011793 0.002075 -0.071998 -0.001573 0.047051 -0.001480 -0.140045 0.001954 -0.110604 -0.055390 0.002884 -0.010788 0.069821 0.075911 -0.009920 0.071495 0.066615 0.130204 0.024504 0.021483 -0.156861 -0.080114 -0.030767 0.064097 0.041314 0.023843 -0.053044 -0.051270 0.045649 -0.002118 0.005056 0.034982 -0.049310 0.051032 -0.089897 0.010940 -0.007878 0.029284 -0.044307 0.031480 0.028146 0.062708 -0.068230 -0.037290 0.036428 -0.071474 -0.008680 0.043573 0.083402 -0.045395 -0.025907 0.025954 0.034630 0.037579 0.007042 -0.096242 -0.027558 0.024316 -0.096463 0.015893 -0.025115 0.026085 0.025074 0.057763 -0.084957 -0.051630 0.035996 0.107010 0.074566 -0.015202 -0.012782 -0.087012 0.069410 0.076716 0.083616 0.017406 0.058611 -0.036921 -0.068339 -0.051820 0.009487 -0.054841 -0.084501 -0.073793 0.023052 -0.093153 -0.061824 0.068491 -0.081196 0.059875 0.027842 0.039716 0.110663 -0.028906 0.036088 -0.007560 -0.044271 -0.029851 0.004305 -0.006017 -0.021385 -0.123098 0.063024 0.062868 -0.013283 0.044460 -0.022887 -0.035039 0.026590 0.004419 0.021615 -0.017581 0.144300 -0.085142 0.029826 0.001406 -0.019324 -0.046754 -0.001328 0.000126 0.088359 -0.015829 -0.088869 0.030886 0.002835 -0.010289 0.082446 0.019014 -0.083232 -0.139526 -0.008480 0.050992 0.041211 -0.097339 0.120683 -0.074650 -0.038160 -0.020875 0.064534 -0.121616 -0.019570 0.023025 -0.009057 -0.030341 0.002192 0.064039 0.047522 -0.031975 -0.052164 -0.010672 0.022804 -0.083566 -0.042025 -0.018952 -0.086523 0.055455 0.055301 -0.070962 0.055331 0.121763 0.032024 0.103870 -0.008311 0.013217 -0.083904 -0.011584 -0.034019 -0.039790 -0.014118 -0.103513 -0.040117 -0.014321 0.064237 0.065792 0.022056 0.001829 -0.068444 0.014947 0.021889 0.029459 0.048562 0.099798 0.021967 0.063675 -0.000699 -0.056205 0.068726 0.018080 -0.006967 0.076645 0.009796 -0.039733 -0.092102 -0.056398 0.062462 0.046617 0.011727 0.081356 -0.027664 0.035508 0.052436 -0.023739 -0.076492 0.003092 0.192887 0.009439 0.022050 -0.002707 -0.078308 -0.018924 -0.142399 -0.016936 -0.014484 0.037677 0.000304 0.123226 0.025428 0.032796 -0.057237 -0.026584 -0.012841 -0.005953 -0.054728 -0.105848 0.019855 0.022844 0.058817 -0.006236 0.135595 -0.018716 -0.080136 0.026299 -0.015021 0.142836 -0.019323 -0.000640 0.079909 0.007437 0.039093 0.008375 0.029469 0.025159 0.009590 -0.071039 -0.095034 -0.046293 -0.048815 0.010905 0.031753 0.056119 0.052850 -0.036223 -0.014646 -0.054362 -0.023414 0.020722 0.006973 -0.022783 -0.023960 -0.100917 -0.073600 -0.020670 -0.023742 0.046357
esta 0.028531 -0.000178 0.159021 0.036683 -0.077789 0.008363 -0.006452 -0.032168 0.055485 -0.010114 0.006878 -0.077532 0.032045 -0.021148 0.009934 -0.014629 -0.037207 -0.067430 -0.023522 0.040992 -0.003283 -0.045367 0.022554 0.111815 0.018322 -0.118876 -0.048263 0.082415 -0.028950 0.154345 0.099165 0.007073 0.014360 -0.048245 0.045513 0.020642 -0.054728 -0.079179 -0.018911 -0.053267 -0.030833 0.057793 -0.122129 -0.030929 -0.075090 -0.053048 0.043386 -0.018466 0.066229 0.106133 -0.041503 0.069093 -0.073332 0.058639 0.050253 0.050904 -0.017588 -0.065253 -0.037708 0.120773 0.016187 -0.040223 -0.003965 0.034342 -0.057876 0.017691 0.046024 0.097905 -0.113945 0.094453 -0.073395 -0.107484 0.016875 0.080011 -0.037604 0.135376 -0.044984 0.044349 -0.050979 0.002969 -0.001623 0.026189 0.036346 0.022520 -0.047104 0.087782 0.009590 0.057877 0.055476 0.048381 0.007893 -0.048157 0.085476 0.051083 -0.070758 -0.052077 -0.026300 -0.014335 -0.044670 0.037494 -0.143650 -0.002356 -0.035179 0.087059 0.020846 0.038535 0.017226 -0.080459 0.075515 0.097327 0.012243 0.071653 0.067994 0.053733 -0.098239 -0.040718 0.059274 -0.032368 -0.034007 -0.018730 -0.055702 0.044228 -0.013709 0.027835 -0.094380 0.088788 -0.017192 -0.060623 0.008968 -0.106814 0.074799 0.006288 -0.017761 -0.112703 -0.083404 0.119137 0.030391 -0.068089 0.039701 0.030227 0.010503 0.036466 -0.046241 0.095587 0.024135 -0.030179 0.020266 -0.055152 0.073307 -0.041720 0.013474 0.001250 -0.032471 -0.041517 0.072598 -0.021548 0.101064 0.048687 -0.044336 0.043488 -0.001051 -0.028064 0.045815 0.016824 -0.083273 -0.077187 0.036084 0.036212 0.017029 -0.059356 0.077881 -0.108533 0.092686 -0.037275 0.095309 -0.082015 0.043129 0.013306 0.008548 0.000551 0.066448 0.097165 0.034293 -0.006083 -0.034996 -0.031725 -0.032711 -0.020979 -0.000390 -0.040991 -0.114184 -0.075088 0.013597 -0.070760 0.007041 0.006781 0.076503 0.091615 -0.009357 -0.032526 -0.098132 -0.100868 -0.058940 -0.064399 0.006059 -0.014116 -0.035868 0.000857 0.010884 0.048105 -0.001480 0.011757 0.000800 -0.032716 0.043055 0.010144 -0.047308 0.071158 -0.005231 0.002592 -0.032172 -0.004675 0.049101 -0.034953 -0.048207 -0.000622 0.058626 -0.063838 -0.076718 -0.002152 0.059751 -0.003150 -0.021341 0.001197 -0.081777 -0.016894 0.026814 -0.012840 -0.122861 -0.034913 0.131079 -0.031729 -0.015614 0.006513 -0.086803 0.093185 -0.097804 0.027067 -0.084617 0.001669 0.019932 0.072313 -0.012577 -0.039385 -0.055217 0.026488 0.033049 -0.001656 -0.068468 -0.038753 -0.022476 0.093151 -0.012643 -0.021007 -0.028106 -0.009254 -0.090066 0.017121 -0.015725 0.132326 0.037117 0.069348 -0.022027 0.052572 -0.042585 -0.007511 0.115835 -0.001346 0.015433 -0.063485 -0.073532 0.080718 -0.005430 0.038664 0.054681 0.061870 0.042854 0.025178 -0.073537 -0.007740 -0.047496 0.036993 0.006756 -0.015997 -0.091355 -0.113929 0.002359 -0.031533 0.010849 0.054840
yo 0.044434 -0.039108 0.035220 0.011787 0.041341 -0.068104 -0.004606 -0.057456 0.055232 -0.009077 0.084844 -0.060939 -0.056473 -0.042185 0.047689 0.040822 -0.030466 0.071319 0.070418 0.076373 0.058885 -0.059265 -0.025867 -0.013508 -0.008027 -0.077122 -0.029317 0.082211 -0.152324 0.025513 -0.026035 -0.057531 -0.025708 -0.015000 0.043009 0.002820 0.020615 -0.016004 -0.042573 -0.013749 -0.016589 -0.021844 0.015648 -0.017437 0.032809 -0.040993 0.063337 -0.004913 -0.017902 0.040921 -0.057410 0.067224 0.007166 0.090524 -0.019689 0.037878 -0.045075 0.039082 -0.032788 0.044826 0.007248 0.056827 0.132698 -0.039140 -0.056501 0.114595 -0.089696 -0.011569 -0.074161 -0.023938 0.041031 -0.111164 -0.062409 0.088833 -0.048009 0.136925 -0.033912 0.016173 -0.049975 0.027207 0.039730 0.069677 0.001702 0.011062 -0.060071 -0.088272 0.045960 -0.027459 0.085559 0.044985 -0.005493 0.075282 0.069772 0.012286 -0.030626 -0.041560 0.018607 -0.075025 -0.052655 0.051657 -0.129411 -0.064357 -0.063186 -0.064105 -0.042287 -0.037925 -0.004859 -0.012281 -0.036675 -0.024499 -0.004221 0.054579 0.000671 -0.036695 -0.097301 -0.004692 0.021554 -0.051222 0.093096 -0.046011 0.032723 0.112490 -0.022419 -0.129990 -0.027687 0.001023 0.095391 0.021289 0.027613 -0.041578 -0.090118 -0.012912 -0.048547 -0.057136 -0.018235 0.053811 0.002948 -0.118600 -0.027956 0.017392 -0.116029 0.032776 -0.056247 0.034670 0.010566 -0.081426 -0.057322 -0.005990 0.109452 -0.032169 0.032510 -0.078230 -0.056652 0.043566 -0.037091 0.026141 0.013474 -0.014945 -0.085364 -0.018282 -0.046981 -0.133914 0.141645 -0.043170 -0.007461 -0.027748 0.088649 0.064763 0.008341 -0.048179 -0.008994 0.050014 -0.075444 -0.048441 0.082696 0.026759 -0.064235 0.009315 -0.024345 -0.052478 0.005028 0.171710 0.060632 -0.074035 -0.013721 -0.050986 0.066081 0.023764 0.018625 0.057716 -0.120772 -0.040902 0.005570 -0.043267 -0.131928 -0.100488 0.055359 0.006277 0.006730 -0.064782 -0.138051 0.044183 -0.000319 0.074270 -0.019523 -0.049472 -0.042694 -0.017138 -0.050247 0.060712 -0.009295 -0.017789 -0.051549 -0.012320 -0.006828 -0.037261 -0.126226 0.108437 -0.049864 -0.062830 0.039953 -0.002159 0.005993 0.006189 -0.034815 0.012705 0.022429 -0.034119 -0.043031 -0.010979 0.024968 -0.059502 0.020434 0.032659 0.001845 0.101731 -0.080478 -0.003943 -0.105261 0.032896 0.076242 -0.069513 -0.035927 0.038674 -0.066745 -0.017091 -0.048825 0.027728 -0.040023 -0.002826 0.098715 -0.011672 0.062901 -0.016191 -0.027058 -0.012754 0.017207 0.017678 -0.064166 0.006191 0.119633 0.017275 -0.105409 -0.018611 -0.067401 -0.026237 -0.127636 0.027275 -0.066483 0.082095 -0.055125 0.033477 -0.034075 -0.011895 -0.054153 -0.065416 -0.010110 0.114658 0.071591 -0.014750 -0.003179 -0.104223 -0.036697 0.127134 0.028985 -0.058132 -0.005917 0.025815 -0.070254 -0.001756 -0.051854 -0.003332 -0.045958 0.051701 -0.029145 0.021701 -0.077321 -0.040555 -0.011808 0.044814
mi -0.030380 -0.004916 0.064102 0.025610 0.005603 -0.043479 0.007141 -0.018869 0.046934 0.000875 0.092813 -0.084780 -0.076688 -0.069361 0.024619 0.029383 -0.029555 0.037874 0.104263 0.135498 0.058657 -0.052624 -0.015509 0.013402 0.025971 -0.067179 -0.037984 0.053562 -0.077241 0.061973 0.048798 0.014248 -0.029880 -0.032850 0.039916 -0.028520 -0.012218 -0.026607 0.016798 -0.041445 -0.005544 0.004725 -0.043502 0.012579 0.053702 -0.135248 0.085009 0.014206 0.010781 0.051718 0.022995 0.113931 -0.006749 0.008762 -0.012177 0.024185 -0.048213 -0.003540 -0.031010 0.005213 0.023400 0.068909 0.045524 -0.034376 -0.000624 0.054786 -0.095109 -0.027133 -0.105196 0.057173 -0.024966 -0.044577 0.027757 0.089622 0.017432 0.193154 -0.044920 0.074473 -0.054614 -0.056502 0.021259 0.030978 0.041993 0.056370 -0.017333 -0.094060 -0.005980 -0.005066 0.012769 0.053928 0.022759 0.055721 0.057104 -0.043590 -0.012741 -0.017010 0.017275 -0.054217 -0.036187 0.062184 -0.069263 -0.045797 -0.034925 -0.008025 -0.054356 -0.036740 0.038195 -0.017405 0.065620 -0.059443 -0.000915 0.031468 -0.037285 -0.055583 -0.078662 -0.036636 0.064403 -0.013661 0.048254 -0.029489 -0.036936 0.053824 -0.024056 -0.140542 -0.083007 0.000327 0.033026 0.047734 0.044126 -0.041960 -0.066750 -0.009305 -0.047736 -0.034443 -0.044695 0.052384 0.047806 -0.085443 -0.035937 0.013735 -0.093436 0.007747 -0.022158 0.034747 0.049208 0.002996 -0.036816 -0.033524 0.087980 0.005535 0.021809 -0.059293 -0.095612 -0.004514 -0.024239 0.016894 0.002779 0.027664 -0.045377 0.017845 0.002720 -0.149019 0.151876 -0.144753 -0.027829 -0.063534 0.065225 0.052839 0.014151 -0.061707 -0.021328 0.030909 -0.103607 0.084001 0.127450 0.063935 -0.050016 0.053158 -0.047934 0.042414 -0.020777 0.112535 0.095095 -0.128682 -0.005892 -0.056906 0.029560 0.052060 0.016429 0.030263 -0.119098 -0.043178 0.025399 -0.043240 -0.104774 -0.007148 0.085431 0.042913 0.003885 -0.091086 -0.087703 -0.011372 -0.017841 0.053976 -0.059217 -0.041362 -0.078016 -0.016478 -0.013958 0.033601 0.015937 -0.035086 -0.074195 0.000739 -0.084325 -0.040434 -0.140155 0.096017 0.027545 -0.070532 0.049925 -0.028598 0.009719 0.008870 -0.044803 0.012600 0.018938 -0.012500 -0.046496 -0.010295 0.083007 -0.027643 -0.028724 0.014822 0.032255 0.040020 -0.051146 -0.045507 -0.150583 0.062649 0.042524 -0.052060 -0.041639 0.046155 -0.027778 -0.012182 -0.072187 0.034109 -0.085127 -0.020649 0.058120 0.035668 0.078371 0.015518 -0.008652 -0.055213 0.053416 0.047670 0.004284 0.008961 0.096723 0.004208 -0.119696 -0.050798 -0.029266 0.106971 -0.159680 0.017732 -0.012148 0.077742 -0.037035 -0.045607 0.049586 0.011228 -0.089139 0.003996 0.007033 0.078582 0.018938 -0.041203 0.036992 -0.135350 -0.029088 0.129726 0.008619 -0.019333 0.024785 0.027021 -0.089822 -0.015849 0.010614 -0.050804 -0.056173 0.065072 -0.003819 -0.051961 -0.101495 -0.040344 -0.012662 0.071520
pero -0.006260 -0.051085 0.060162 0.016453 -0.001436 -0.049293 -0.006252 -0.019372 0.144943 0.004576 -0.029870 -0.045360 -0.005714 -0.076515 0.060698 -0.057322 -0.084712 -0.100487 -0.035346 0.060961 -0.022730 -0.041656 0.013818 0.035779 -0.019206 -0.121251 0.016118 0.112887 -0.092955 0.112893 0.055826 -0.094714 -0.027523 0.008194 -0.058957 -0.031324 -0.028942 0.004557 -0.005272 0.012519 0.031691 -0.023946 -0.057294 -0.009841 -0.020280 0.001859 0.063153 -0.017863 0.047362 0.100221 -0.077734 -0.001399 0.023511 0.125987 0.001303 0.030929 -0.029129 0.004655 0.027447 -0.000512 -0.052788 0.076776 0.000114 -0.052766 -0.025441 0.072837 -0.178464 0.087036 -0.102904 -0.011255 -0.043522 -0.074595 0.040464 0.021114 -0.148754 0.150234 -0.011025 -0.015844 -0.028388 -0.043898 -0.013008 0.009789 -0.011197 -0.056526 -0.027352 -0.033841 0.001779 0.006904 0.097768 0.033503 -0.096815 -0.027511 0.085177 -0.001361 -0.019123 -0.080419 -0.027868 0.004908 0.006760 0.101311 -0.069210 -0.044834 -0.042535 0.052111 0.020446 -0.036072 -0.001034 -0.106196 -0.012691 0.115535 0.043440 -0.007450 0.070412 0.052780 0.034052 0.010456 0.047250 0.000676 0.025464 -0.110307 -0.054449 0.039960 -0.138811 -0.076820 -0.066680 0.033188 0.035978 -0.058327 -0.019018 0.034769 -0.021327 -0.000065 0.028765 -0.059138 -0.016409 0.116296 0.050129 -0.081021 -0.005172 0.055544 -0.028467 0.037115 0.007398 -0.007371 0.049083 -0.042322 -0.054341 -0.013742 0.072764 0.041967 0.051136 -0.012664 -0.034075 -0.062574 -0.009226 -0.039784 0.082446 -0.012618 0.014220 0.015920 -0.016753 -0.045566 0.108216 0.019933 0.009108 0.032589 0.006925 0.033451 0.045685 -0.031370 0.088049 -0.094252 0.022707 -0.052750 -0.013435 -0.067248 -0.061161 0.019423 -0.070105 0.034566 0.107523 0.121357 0.129990 -0.044674 -0.034635 0.018123 0.004850 -0.050301 0.018878 0.065884 -0.058832 -0.043659 0.007999 -0.093325 0.005618 0.074466 0.090258 0.014990 -0.026360 -0.121042 -0.112045 0.075799 -0.062932 0.039379 0.007756 -0.002697 -0.001389 -0.025527 0.003267 -0.017231 -0.079674 -0.046845 -0.054763 0.042604 0.001583 0.033319 0.010050 0.099590 -0.045895 0.009099 -0.007680 0.006988 0.062260 -0.042409 0.005710 -0.037515 0.045531 -0.023874 -0.078419 -0.053270 0.007494 -0.031102 0.035905 -0.009336 -0.032075 0.029653 -0.027013 -0.078385 -0.125408 0.022823 0.154247 -0.043143 -0.046089 0.037018 -0.084505 -0.014004 -0.029028 -0.106094 0.042891 0.090543 0.072591 0.049588 0.048828 0.030564 0.011386 -0.059585 -0.008625 0.086730 -0.054801 0.018696 0.134567 0.074437 -0.005724 0.045003 0.034421 -0.033726 -0.036708 -0.019947 -0.046316 0.097625 0.056524 0.083367 -0.066281 0.097300 -0.031925 -0.032712 0.071148 0.038870 -0.017761 -0.017782 -0.091284 -0.028078 -0.050239 0.081271 0.057051 -0.013532 -0.030492 0.030996 -0.071568 -0.041707 -0.023147 0.027663 -0.041244 -0.004763 -0.043841 -0.101910 0.097853 -0.046930 0.008621 0.011411
porque 0.007966 -0.046470 0.057026 0.006063 -0.001381 -0.024561 -0.022388 -0.037400 0.090097 0.007211 0.004661 -0.101729 -0.062405 -0.090325 0.040763 0.046174 -0.038639 -0.012754 0.022944 0.096456 0.004674 -0.059694 -0.019593 -0.001540 -0.032385 -0.141980 -0.013328 0.061587 -0.072621 0.112734 0.032929 -0.100298 -0.032154 -0.003654 -0.011674 -0.006681 -0.049025 -0.041878 -0.023115 0.007281 0.016568 -0.037263 -0.080652 0.008438 0.027642 -0.001859 0.012055 -0.008913 0.050186 0.087446 -0.065493 0.052219 0.007590 0.095099 0.013676 0.013642 -0.029694 -0.012113 -0.006778 0.066571 0.003073 0.071895 0.021410 -0.054679 -0.039390 0.073302 -0.092118 0.016838 -0.109383 0.004949 -0.003682 -0.138822 -0.043056 0.061550 -0.093242 0.160093 -0.049007 0.021137 -0.063684 -0.016152 -0.019387 0.038266 0.038403 0.008206 -0.106625 -0.118739 0.018366 0.030589 0.124082 0.021183 -0.035384 -0.002898 0.118688 0.009119 -0.035165 -0.108481 0.032854 -0.010550 -0.013143 0.101720 -0.120522 -0.083781 -0.042694 0.045789 -0.007782 -0.000977 0.022378 -0.031384 -0.011168 0.079210 0.025391 0.047949 0.044453 0.020841 -0.026816 0.001889 0.093515 -0.063383 0.085659 -0.129365 -0.064095 0.071788 -0.084451 -0.095513 -0.037866 0.089082 0.056611 -0.038971 -0.000434 -0.004950 0.006395 -0.014969 0.023432 -0.046300 -0.011512 0.101507 0.051517 -0.108423 -0.021098 0.081806 -0.098117 0.099509 -0.019904 -0.012789 0.006023 -0.023519 -0.000543 -0.064680 0.074786 0.043074 0.102618 -0.068345 -0.064559 -0.054200 -0.027909 0.019099 0.044956 0.031359 -0.035018 0.053332 -0.041500 -0.026450 0.139023 0.004953 -0.015622 0.043191 0.071320 0.048163 0.032684 -0.056015 -0.007842 -0.102555 -0.011006 -0.056897 0.028793 -0.010631 -0.091317 0.012213 -0.057163 -0.040212 0.044251 0.090945 0.100765 -0.048105 -0.030689 -0.023046 -0.002891 -0.020233 0.022039 -0.005853 -0.055667 -0.036516 -0.002028 -0.009485 -0.108001 -0.039142 0.116678 0.034453 0.025256 -0.113241 -0.096738 0.031552 -0.066093 0.068577 -0.027472 0.019430 -0.044235 -0.002514 -0.036221 0.012257 -0.051634 0.017598 -0.074285 -0.003194 -0.047635 -0.038532 -0.037434 0.118804 -0.103142 0.008963 -0.027595 0.014185 0.027609 -0.035108 0.038443 -0.038108 0.072793 0.005442 -0.057740 -0.006001 0.055734 -0.051816 0.026460 -0.025305 -0.002377 0.013269 -0.037757 -0.062472 -0.108070 0.025268 0.071616 -0.087739 -0.078656 0.027175 -0.088439 -0.048684 0.015323 -0.066119 -0.002058 0.030490 0.122635 -0.037398 -0.004066 0.015484 -0.025757 -0.026140 0.011296 0.059417 -0.077491 -0.013213 0.144550 0.074695 -0.033335 -0.004808 -0.018703 -0.059100 -0.030852 0.007183 -0.066672 0.070632 0.023689 0.135538 -0.084979 0.072669 -0.056123 -0.021470 0.032856 0.022627 0.038728 -0.011982 -0.054574 -0.042145 -0.057996 0.118414 0.056648 -0.038703 -0.015962 0.025510 -0.082037 -0.064049 0.009878 -0.037114 -0.078820 0.069883 -0.028973 -0.053016 0.019456 -0.034867 0.014831 -0.029748
muy 0.091853 0.037242 0.084446 0.031917 0.032918 0.015729 0.005593 0.079353 0.093832 -0.028710 -0.017751 -0.170285 -0.006711 -0.056655 0.100270 0.024617 -0.035904 0.000086 0.052466 0.000213 -0.059837 -0.005833 -0.017863 0.075799 -0.021506 -0.027520 0.034034 0.026548 -0.082089 0.096062 0.038603 -0.069965 -0.059614 -0.004168 -0.016563 -0.095418 -0.025915 0.071203 0.001714 -0.019408 0.036457 0.025520 -0.028431 0.026191 0.011916 -0.040451 -0.006424 0.027856 0.022361 0.085907 0.020516 -0.013843 0.007219 0.082113 0.018182 -0.073024 0.021307 0.004834 0.043783 0.031321 -0.061488 0.034469 0.014948 -0.082808 -0.013470 0.084085 -0.100994 0.025709 -0.067841 0.075212 -0.006734 -0.072319 -0.040496 -0.025800 -0.071372 0.064964 0.027899 0.008003 0.009673 -0.000329 0.003134 -0.038730 -0.047883 0.003251 0.000475 -0.016758 -0.026613 0.098184 0.070264 0.024032 0.013154 -0.084656 0.014338 0.058306 -0.036177 -0.040467 0.035474 0.055282 0.019066 0.097018 -0.079523 0.026408 -0.055591 -0.000387 0.060701 -0.096231 -0.011586 -0.006784 0.003274 0.094352 0.015744 0.057988 -0.022265 0.035495 0.047613 -0.014926 0.066384 -0.009621 0.049046 -0.063759 -0.063662 0.009297 -0.075632 -0.115767 -0.065115 0.134190 -0.021314 0.039042 0.005610 0.012583 0.048468 0.004453 0.090765 -0.049908 -0.010016 0.087792 0.021997 -0.106566 0.023332 0.075566 0.020357 0.066068 0.044375 0.065388 0.000506 0.017660 -0.012579 0.002231 0.156975 0.107310 0.024275 -0.104129 -0.004626 -0.069764 -0.024814 -0.024200 0.026044 0.020917 -0.068956 -0.055461 -0.093656 -0.112271 0.030521 0.021929 0.023595 0.022736 0.031151 0.098300 0.073726 -0.091939 0.071065 -0.151234 -0.046009 -0.008497 0.121055 -0.102583 -0.010633 0.049033 -0.030523 0.022684 0.052163 0.102074 0.062639 -0.052276 -0.037858 -0.013118 0.051807 -0.033232 -0.039294 0.031104 -0.059820 -0.064829 0.001967 -0.074502 -0.058150 0.052240 0.030311 0.144738 -0.018104 -0.163623 -0.141746 -0.038839 -0.095717 0.069282 -0.003321 0.013935 0.049099 0.018031 -0.001714 0.053162 -0.067554 -0.034021 -0.115995 0.007310 -0.071123 0.004053 -0.052293 0.059593 -0.083831 0.028039 -0.071797 -0.049385 0.085623 -0.063068 0.037734 0.004667 0.082207 0.046845 -0.113621 -0.031707 0.026592 -0.035891 -0.004801 -0.073155 -0.020867 0.055080 -0.073234 -0.001882 -0.048212 -0.029890 0.071462 0.015501 -0.049961 -0.030801 -0.007183 -0.022809 -0.047081 -0.060858 -0.085217 0.037472 0.061829 0.035301 0.018905 -0.041698 -0.034956 -0.018189 0.033667 0.084209 0.004661 -0.059649 -0.007505 0.122479 -0.021762 -0.085577 -0.020254 -0.052498 -0.028570 -0.032125 -0.071903 0.060934 0.053590 0.109246 -0.051248 0.019363 -0.073565 -0.071781 0.052142 0.032149 0.027360 0.035484 -0.034406 -0.039073 0.054771 0.046050 0.105551 -0.038678 0.008085 0.079144 -0.060997 -0.000176 -0.009059 -0.050474 -0.041976 0.066731 -0.039055 -0.051109 0.065641 -0.074763 0.002709 -0.005460
o -0.065140 -0.090038 -0.014341 0.000055 0.017134 0.001304 -0.004613 0.026818 0.118208 -0.067786 -0.016078 0.037321 0.085889 -0.021970 0.032236 0.024366 -0.008036 0.029238 -0.024992 0.059687 0.058105 -0.106670 -0.072064 0.047608 -0.037321 -0.000019 0.064572 0.056383 0.013183 0.042346 0.011284 -0.087069 -0.057604 -0.010048 -0.047505 -0.046547 -0.037187 0.006596 -0.032562 0.078899 -0.005210 0.027437 -0.016743 0.010751 -0.033353 -0.001001 0.014883 -0.071905 0.082291 0.045127 0.010466 0.037643 0.009355 0.123281 0.045269 0.005646 0.019794 -0.111780 0.010447 -0.008227 0.010231 0.017393 -0.010983 -0.032155 0.092429 0.057923 -0.070833 0.007188 -0.037417 -0.036279 0.007093 0.027337 -0.031482 0.012994 -0.052117 0.027004 0.106608 -0.013431 -0.057688 -0.040178 0.021913 0.040689 -0.001044 0.024746 -0.032589 -0.006577 0.036458 -0.062549 0.057852 0.030274 -0.016888 0.072704 0.037804 0.097147 -0.055206 0.043151 0.096410 0.024668 0.074769 0.100437 -0.004774 -0.117756 -0.123565 0.088265 0.102972 -0.068995 -0.003315 -0.123613 0.012413 0.083668 0.089043 -0.008962 0.020470 0.070423 -0.061999 -0.068534 0.043775 0.083583 -0.043223 -0.035173 0.055619 0.034182 -0.065539 -0.036092 0.039180 0.023854 -0.027734 -0.019207 0.139394 0.000872 -0.020193 0.034577 -0.037227 -0.060122 -0.015723 0.031432 0.016623 -0.127679 0.066528 -0.022424 -0.037789 -0.019422 -0.031308 -0.020924 -0.044733 -0.022125 0.014706 -0.027137 0.105587 0.034127 0.045786 -0.031244 -0.087210 -0.020926 -0.063109 -0.038082 0.068911 -0.051188 -0.062611 -0.087475 0.045107 -0.051631 0.033578 0.060143 -0.038799 0.044995 -0.032766 0.054116 0.048749 -0.091053 0.104710 -0.074056 0.014945 -0.064647 0.046112 -0.137387 -0.033965 0.014470 0.056286 0.028059 0.051052 0.095383 0.024798 -0.081488 0.020774 -0.002881 -0.010424 -0.044350 0.006361 -0.006336 -0.091704 0.068895 -0.009132 -0.036967 0.005387 0.010313 0.007499 0.126985 0.056498 0.003452 -0.121557 -0.020765 -0.011033 0.008668 -0.020968 -0.014476 0.054840 0.065851 0.108716 0.038385 -0.022317 -0.014236 0.009482 0.059525 0.006260 0.073956 0.073189 0.091814 -0.005134 -0.019265 -0.001468 -0.001141 0.052382 0.041215 -0.046894 0.071292 0.035010 -0.077827 -0.038010 -0.069856 0.072474 0.022007 -0.002725 0.076104 -0.153754 0.066155 -0.011651 -0.005559 0.009892 0.023538 0.195614 -0.024351 -0.037189 -0.154319 -0.066354 0.019333 -0.005273 0.022297 -0.047108 0.069194 0.123285 -0.007538 0.027471 0.027378 -0.065969 0.085880 -0.023825 0.036897 -0.026305 -0.028823 0.100753 0.015000 -0.000728 -0.034699 -0.024032 0.013623 0.091754 -0.004029 -0.045707 0.090431 0.018465 0.056131 0.126000 -0.031989 -0.019376 -0.007040 -0.029465 -0.002883 0.018472 -0.041315 -0.079618 -0.068453 -0.068940 0.068283 0.039640 -0.023758 -0.003626 0.037076 -0.027887 -0.149257 0.027452 0.071892 0.010358 -0.031983 -0.021195 -0.104731 -0.048006 -0.164967 0.029793 0.039834
mas 0.088673 0.002618 0.059199 -0.017786 0.043926 0.010911 -0.028559 0.136729 0.072716 0.017680 -0.075941 -0.072226 0.032935 -0.087910 0.036117 0.022196 -0.111420 -0.045154 0.009988 0.120701 0.028495 0.001917 0.004704 0.085073 0.058020 -0.089358 -0.004137 0.029042 -0.149489 0.046430 0.070594 -0.088107 -0.005755 0.085505 -0.019318 -0.036371 -0.069303 -0.008740 -0.027722 0.023258 0.019056 0.036045 0.011796 -0.021751 0.038698 -0.005443 0.007701 0.058539 0.011597 0.018113 0.058817 0.000915 -0.022851 0.061615 0.006325 0.002019 -0.036001 0.039062 0.021897 0.013026 0.005032 0.064936 0.019445 0.002111 -0.029962 0.003865 -0.077814 0.088029 -0.062404 0.032019 -0.007533 -0.000555 -0.038874 0.097831 -0.045128 0.087786 0.040725 -0.030858 -0.039560 -0.006321 -0.034070 -0.045560 0.002739 -0.040719 -0.036345 -0.004861 -0.026993 -0.042355 0.012168 0.038696 -0.000267 -0.021308 0.132711 -0.049459 -0.045997 0.044199 0.073845 -0.040412 0.050983 0.062230 -0.049881 -0.040846 0.020476 -0.003238 -0.040592 -0.047562 0.065702 0.006718 -0.059526 0.077185 0.047236 0.027130 0.082848 0.074182 0.047300 -0.023872 0.038500 0.006837 0.023742 -0.020876 -0.088275 0.071684 -0.033335 -0.052738 0.019402 0.043484 0.000856 -0.143236 0.118160 -0.077668 -0.053219 -0.085797 0.081904 -0.093836 -0.096236 0.007218 -0.001790 -0.096290 0.050351 0.047350 0.006881 -0.007465 0.016360 0.007644 -0.002619 -0.007415 0.032290 -0.064194 0.092791 0.019962 0.043623 -0.093888 0.045846 -0.094649 0.040647 0.004655 0.046149 -0.039124 -0.043513 -0.065788 -0.034954 -0.043398 0.066509 0.106375 -0.077422 0.012182 0.022259 0.012100 0.103692 -0.069525 0.080792 -0.002001 0.003199 -0.017883 0.065715 -0.107701 0.005911 0.039041 0.025621 0.040052 -0.015041 0.167425 0.014826 -0.005925 -0.046548 0.001791 -0.003260 -0.102584 -0.003687 -0.011819 -0.050056 -0.027000 -0.015621 0.010620 -0.009504 0.004757 0.044132 0.063122 -0.020102 -0.081072 -0.011068 -0.036065 -0.021319 0.039189 -0.005429 0.033896 0.026116 -0.031654 -0.004636 0.039633 -0.048891 -0.069871 -0.026244 -0.058309 -0.062244 0.002393 0.008051 0.078535 -0.000083 -0.035410 -0.047405 -0.062116 0.049866 -0.052579 -0.031901 -0.038481 0.105145 -0.056677 -0.150275 -0.068078 0.045518 -0.030761 0.038592 -0.103662 -0.027656 0.093509 -0.047025 -0.052657 -0.085267 0.039862 0.061024 -0.002279 0.068596 -0.135353 -0.064592 0.049322 -0.034456 -0.017085 -0.037244 0.063250 0.058154 -0.042601 0.027744 -0.104504 -0.059879 -0.017371 0.022238 0.090083 0.005756 -0.061651 0.058199 0.169351 -0.089461 -0.091689 -0.005196 0.045074 -0.053981 -0.024278 -0.127009 0.118745 0.055987 0.060263 0.025616 -0.022487 -0.062399 -0.113507 0.044881 0.080706 0.053529 0.003933 -0.006301 -0.002629 0.004710 0.063428 0.051591 -0.099419 -0.025140 0.044445 -0.067064 -0.044025 -0.109037 -0.010537 0.008450 0.033927 -0.073540 -0.128897 0.043205 -0.118274 -0.007794 -0.001500
si 0.022079 -0.062667 0.077319 -0.009931 0.008520 -0.014782 -0.042917 -0.065580 0.095934 0.080654 -0.029164 -0.052523 -0.047641 -0.098996 0.085313 -0.022511 -0.057599 -0.029776 0.039535 0.022506 0.010781 -0.067234 -0.092235 -0.065709 -0.015088 -0.129032 -0.056559 0.085521 -0.114509 0.057573 -0.024732 -0.023375 -0.004363 -0.023780 0.007656 0.001064 -0.086461 -0.020679 -0.036343 -0.013240 0.009596 -0.030678 -0.051094 -0.007944 0.046073 0.053681 0.012430 -0.038808 0.070350 0.051190 -0.077311 0.064465 0.018871 0.041375 0.051148 0.067633 -0.071007 -0.109391 -0.026789 0.005250 -0.000633 0.028187 0.083756 -0.090049 -0.015390 0.003390 -0.043308 -0.006776 -0.098137 -0.044043 0.066726 -0.099555 -0.050070 0.145326 -0.139815 0.102279 -0.091103 0.002343 -0.083817 -0.012889 0.022959 0.067252 0.005567 -0.042072 -0.104504 0.036129 0.035010 0.034013 0.108132 0.022159 -0.061103 -0.007820 0.116083 0.071459 -0.003538 -0.056460 0.033407 -0.014786 0.036238 0.087876 -0.064874 -0.030492 -0.095415 0.070650 -0.053000 -0.002296 0.038395 -0.040803 0.030318 0.027852 0.090082 0.054607 0.035360 0.040489 -0.028494 -0.051717 0.081682 -0.034134 0.005425 -0.054452 -0.085438 0.137347 -0.108899 -0.028957 -0.038774 0.113317 -0.048277 -0.059373 0.008138 -0.025110 0.030558 0.077689 0.021527 -0.020069 -0.006875 0.104899 -0.000144 -0.164304 -0.052121 -0.037842 -0.046757 0.087917 0.010704 -0.011768 -0.003714 -0.078699 -0.055456 -0.019766 0.050987 0.033710 0.040082 -0.021609 -0.020937 -0.017346 -0.012848 0.083989 0.094632 0.059459 0.017848 0.008534 -0.053444 -0.056024 0.078256 -0.009802 -0.040579 -0.021061 0.011234 0.020298 0.032675 -0.056424 -0.012570 -0.080626 0.051168 -0.096671 -0.065117 -0.041064 -0.002853 0.009635 0.040538 -0.043390 0.049711 0.088653 0.041299 -0.076004 -0.043429 0.031926 -0.020236 -0.036400 -0.001675 0.107710 0.000697 -0.003000 0.017569 0.014887 -0.085368 -0.038440 0.050837 0.021278 0.035066 -0.104032 -0.108274 -0.021991 -0.031749 0.134148 -0.034862 0.005454 -0.137823 -0.005507 -0.005199 0.046780 -0.054407 0.067128 -0.034531 -0.008896 0.012355 0.069415 -0.037274 0.054315 -0.107454 -0.040767 -0.020217 0.040198 0.013699 -0.044342 0.042704 -0.041901 0.013792 0.010497 -0.022365 -0.031273 0.067816 -0.018672 0.046474 0.045437 -0.014230 0.048000 -0.078361 -0.042888 -0.032794 0.038717 0.094641 -0.038612 -0.060443 -0.058305 -0.098245 0.054196 -0.004903 -0.048623 -0.013654 0.057905 0.053946 0.001112 0.057732 0.043587 -0.030982 0.057369 -0.033385 -0.063364 -0.067570 -0.006609 0.150741 0.059773 -0.078663 -0.023733 0.001524 -0.057044 -0.012409 -0.019072 -0.033340 0.100264 0.010964 0.053440 -0.060046 -0.021188 -0.015502 -0.010931 0.044253 -0.027370 0.052951 0.018018 -0.116705 -0.072561 0.033333 0.103881 0.039379 0.003352 0.005213 0.018868 -0.002457 -0.101752 -0.035181 -0.011675 -0.063618 -0.002523 -0.046356 -0.049254 0.037902 -0.112792 0.080003 0.019709
para -0.108934 0.060015 0.061517 -0.035602 0.017557 0.076679 -0.022617 0.002056 0.028970 0.024695 -0.040134 0.030851 -0.012264 -0.131860 0.024434 -0.019409 0.014110 0.019729 -0.000960 -0.007393 -0.026111 -0.030337 0.028414 -0.001603 -0.067821 -0.087173 0.010217 0.105915 0.017211 0.166696 0.025828 -0.127141 -0.023309 -0.015059 0.028839 0.050583 -0.082647 0.020812 0.031380 -0.056491 -0.004346 -0.023113 -0.044782 0.023245 -0.049543 -0.072861 0.043214 -0.030922 0.014302 0.033416 -0.001629 0.060845 -0.046773 0.038034 -0.020992 -0.008759 -0.028011 -0.091639 0.079511 0.051033 -0.029350 0.071767 -0.031002 -0.048862 -0.023702 0.055368 -0.017805 0.096587 -0.070969 0.017008 -0.115021 -0.071827 0.054074 0.009789 -0.042125 0.119296 0.024287 0.059032 -0.031814 -0.063383 0.007924 -0.040071 0.044024 0.018113 -0.004411 0.019344 0.008204 -0.036478 0.062917 0.017292 0.041664 0.060044 0.091451 0.083932 -0.038433 0.021344 0.031792 -0.025992 -0.025228 0.116232 -0.043489 -0.077932 0.039838 0.092555 0.030935 -0.071246 -0.010836 0.015830 0.018264 0.097993 0.046977 0.082928 0.124301 0.030226 0.039208 0.018579 0.117986 0.007821 -0.042277 -0.058978 -0.145041 0.028656 -0.089917 0.019973 -0.054155 0.020224 0.016060 -0.062549 0.001571 -0.042013 0.020799 -0.018403 -0.070206 -0.029204 -0.111263 0.069370 0.000761 -0.088434 0.030054 -0.019406 0.012812 0.003349 -0.026197 -0.063516 0.015284 -0.010576 -0.005589 -0.075158 0.104785 -0.027732 0.089455 0.004568 -0.056315 -0.054237 -0.035270 -0.016899 0.010302 -0.021551 -0.070282 0.019313 -0.000486 -0.085573 0.067060 -0.034286 0.033678 -0.037538 -0.033152 0.049938 0.005137 0.038668 -0.040897 -0.054478 0.007672 0.058575 -0.011989 -0.113986 -0.034306 -0.072052 -0.011915 -0.039865 0.095158 0.037618 0.101094 -0.065311 -0.066149 -0.013837 -0.013027 -0.139652 0.008978 0.011207 -0.114328 0.010748 0.089267 -0.028717 0.034083 0.104602 0.066013 0.052361 -0.027087 -0.041849 -0.141316 -0.099071 0.044431 0.017476 -0.049830 -0.030881 0.069433 0.019198 0.005561 0.040474 -0.076220 -0.033156 -0.028317 -0.016874 -0.037852 0.148316 -0.013717 0.077601 0.008648 0.034091 -0.043218 0.040978 0.049273 -0.116688 -0.084124 -0.022221 0.053625 -0.005248 -0.053539 -0.022220 0.010312 -0.019978 0.032364 0.022334 -0.101140 0.072599 0.035604 -0.062608 -0.086996 0.026973 0.122303 -0.027456 0.002887 0.005300 -0.134202 0.025223 -0.042874 -0.063082 0.045291 0.102469 0.029790 -0.026717 0.022012 -0.007633 -0.078791 -0.035635 0.020034 0.024808 -0.013604 -0.031980 0.104956 0.130676 -0.070286 0.002454 -0.027146 -0.078894 -0.016602 -0.035638 -0.033179 0.079856 -0.023521 0.072419 -0.010248 0.057826 -0.002765 -0.021809 0.018751 -0.004520 -0.000769 -0.006907 -0.087068 -0.062833 -0.088837 0.052366 0.052836 0.002425 0.051773 0.080086 -0.045583 -0.125552 -0.019570 -0.021274 0.030072 -0.028756 0.029466 -0.129301 0.026537 -0.121747 -0.011613 0.034873
este -0.000220 -0.027338 0.077337 -0.001771 -0.101123 0.062984 -0.052322 -0.012399 0.153995 0.000345 -0.043255 -0.100056 0.020730 -0.023484 0.047417 -0.031982 -0.015678 0.010780 0.059340 0.120566 0.037757 -0.057443 0.012686 0.063752 0.006335 -0.103718 -0.013463 0.030055 0.028213 0.086172 0.003911 -0.073831 -0.099559 0.009397 0.076281 0.043653 -0.094678 -0.016752 -0.048993 -0.054935 0.062734 0.056367 -0.049753 -0.014389 -0.051316 -0.092528 0.005672 -0.013225 0.039428 0.048122 -0.094087 0.073074 -0.047975 0.039076 -0.004800 0.085549 0.041722 -0.062819 0.008402 0.028498 -0.020881 -0.001943 0.018474 -0.039860 -0.044217 -0.024739 0.027085 0.127415 -0.077488 0.040656 0.003397 -0.067465 0.084535 -0.011896 -0.091155 0.172808 -0.092249 0.019039 -0.001158 0.073668 -0.019300 0.010573 0.040271 0.005698 -0.007364 0.015795 0.061525 0.042547 0.000905 0.042365 0.050722 0.029922 0.048099 -0.002670 -0.019010 -0.066515 0.022213 0.015980 0.166229 0.084233 -0.109411 -0.098386 -0.085182 0.082799 0.047411 0.061870 -0.073152 -0.087080 -0.015279 0.059988 0.038155 0.068349 -0.037230 -0.016917 0.000380 -0.051390 0.092108 -0.091812 -0.036155 -0.045746 -0.047185 0.055177 0.037532 -0.004104 -0.062152 0.057014 -0.049731 -0.053699 0.023498 0.014381 0.043090 -0.003127 -0.104400 -0.096335 -0.094962 0.083855 -0.003819 -0.023281 0.104677 0.004049 0.027063 -0.037797 -0.005199 0.002887 0.002689 -0.010827 0.056481 -0.068888 0.085242 0.006034 0.040147 0.051966 -0.020881 -0.060484 0.016978 -0.048864 0.096494 -0.029288 -0.062093 -0.051101 -0.015336 -0.103426 0.061320 -0.024500 -0.030522 0.069658 0.012824 0.003358 0.093944 -0.040957 0.087695 -0.072499 0.058202 0.025190 0.013273 -0.081303 -0.020551 -0.051259 0.058672 0.066549 0.010995 0.057289 0.103360 -0.038034 0.053232 0.002677 -0.066625 -0.025154 -0.071971 0.006836 -0.095878 -0.068329 0.066884 -0.023012 -0.038411 -0.013350 -0.009840 0.106247 -0.010505 0.010923 -0.168573 -0.049099 -0.058257 -0.060431 -0.049574 -0.066063 0.030066 -0.071912 0.012140 -0.001669 -0.013698 -0.088747 -0.036395 0.036203 -0.004254 0.040096 -0.110419 0.085266 -0.012799 0.071533 0.014322 -0.000413 0.030684 -0.033041 -0.100952 -0.036096 0.017918 -0.020561 -0.098320 -0.024463 0.025464 0.038945 -0.058372 -0.000599 -0.016228 -0.032959 -0.046332 0.039021 -0.064328 0.034380 0.071353 -0.032870 -0.026833 -0.019562 -0.073487 0.042700 -0.092266 -0.033946 -0.001739 -0.026621 -0.013370 0.017173 0.023637 -0.055997 0.064798 -0.020498 0.003094 -0.026715 -0.115066 0.013768 -0.010510 0.054652 -0.018711 -0.072586 -0.075479 -0.043501 -0.050376 -0.023905 0.012481 0.004693 0.054132 0.055168 0.005221 0.031532 -0.047060 0.053399 0.061782 -0.007549 0.005110 -0.094674 -0.114004 0.077989 0.005956 0.088589 0.085386 0.047242 0.016334 0.076764 -0.077761 -0.070041 -0.101473 0.073871 -0.010056 -0.062498 -0.058137 -0.085655 -0.043908 -0.053615 -0.014633 -0.052435
nada -0.013956 -0.060462 0.074569 -0.016505 0.052677 -0.005167 0.003001 -0.036139 0.096371 0.057365 0.062257 -0.041012 -0.010895 -0.004483 0.046793 -0.006984 -0.082880 0.015179 -0.002215 0.046971 0.025468 -0.035161 0.009756 -0.064708 -0.038994 -0.121746 0.027797 0.092402 -0.113755 0.060483 0.054961 -0.083813 -0.020177 0.054503 -0.000789 0.017172 -0.043563 -0.049061 -0.005333 -0.067716 -0.006850 0.010267 -0.059625 -0.008655 -0.008230 0.047641 0.021362 -0.019402 0.016356 0.083227 -0.096142 0.083309 -0.000741 0.065534 0.031405 0.027448 -0.067498 -0.049004 -0.046026 -0.029458 -0.009759 0.021518 0.120609 -0.005238 -0.039195 0.084205 -0.100237 -0.026194 -0.101529 0.003937 0.043321 -0.091967 -0.060816 0.070578 -0.094826 0.108307 -0.053461 0.051772 -0.041818 -0.022630 -0.025274 0.047320 -0.020195 -0.010766 -0.070603 -0.073174 0.041051 -0.007910 0.048611 0.069128 -0.045182 -0.032809 0.077272 -0.001868 -0.006987 -0.099161 -0.016699 -0.000426 -0.010990 0.104275 -0.150763 -0.091997 -0.080274 0.015762 -0.028059 0.000463 0.020398 0.004202 -0.064090 0.025945 0.127558 -0.031611 0.014838 0.001236 0.084606 -0.064340 -0.004571 -0.065038 0.062157 -0.090586 0.021303 0.056654 -0.111347 -0.096328 -0.001500 -0.003382 0.024390 -0.028088 0.016192 0.003907 0.021146 -0.062532 -0.049544 -0.056812 0.029341 0.087598 0.035136 -0.045269 -0.094999 0.065157 -0.126019 0.030655 0.024369 0.000845 -0.036730 -0.003197 -0.022051 -0.034027 0.114286 0.013391 -0.032494 -0.016958 -0.041473 -0.037563 0.004510 0.070658 0.067689 0.015582 -0.036974 -0.034988 -0.057420 -0.035529 0.062588 -0.003669 -0.027866 -0.034415 0.028036 0.024333 0.020754 -0.027553 0.050133 -0.018240 0.003083 -0.108392 0.041138 -0.016628 -0.061388 0.004993 -0.011164 -0.006930 0.007106 0.046265 0.083591 -0.043435 0.038848 0.043481 -0.059774 -0.079446 -0.035635 0.038398 -0.099876 -0.091422 -0.020518 -0.079010 -0.043807 -0.051053 0.076865 -0.102877 0.035192 -0.130567 -0.102226 -0.058546 0.017948 0.061136 -0.046527 -0.028066 -0.011129 0.040320 -0.040591 0.001473 -0.024314 -0.040803 -0.070892 -0.050236 0.039217 -0.024727 -0.029552 0.142206 -0.025218 -0.008610 0.016421 -0.042628 -0.061688 -0.021340 -0.006141 -0.060088 0.059556 -0.010471 -0.030398 0.027089 0.052738 -0.048130 0.074590 0.065639 -0.057278 0.051873 -0.104067 -0.080819 -0.077956 0.148188 0.159937 -0.092726 -0.025906 0.009062 -0.010209 -0.028648 -0.050748 -0.037732 -0.065281 -0.022909 0.002825 -0.080943 0.042396 -0.021645 -0.018756 0.019392 0.094482 -0.021925 -0.099263 0.026664 0.141180 0.081717 -0.026540 0.031266 -0.045998 -0.063691 -0.054567 0.020775 -0.035463 0.023856 0.031711 0.092232 -0.061420 0.039958 -0.151791 -0.023594 -0.015391 -0.001507 0.038256 -0.045760 -0.031276 -0.099847 -0.015577 0.104882 -0.015809 -0.067998 0.008779 -0.041581 -0.078025 -0.080848 -0.031410 0.008863 -0.090141 0.096599 0.016071 0.008217 0.000041 -0.011515 -0.082872 -0.062786
las -0.045902 -0.101509 0.055191 -0.026781 -0.061883 0.078972 -0.039359 0.029789 0.165141 -0.067984 -0.007242 0.011875 -0.026713 -0.009051 0.087765 0.051914 0.016028 0.017924 -0.030619 0.059823 -0.009068 0.001048 0.025704 0.110085 -0.045468 -0.025854 0.012852 0.074426 0.056596 0.097159 -0.009724 -0.024049 0.065951 -0.000906 -0.039687 -0.066429 -0.104143 0.026597 0.001523 -0.012678 -0.020978 0.024651 -0.036089 0.043450 -0.093524 -0.047822 -0.017511 -0.108208 -0.028344 0.027543 0.058789 0.067032 -0.057913 0.033560 -0.056634 0.035677 0.038288 -0.045854 0.016020 0.077117 -0.080542 0.073114 -0.112512 -0.099931 0.004829 0.037511 -0.024278 0.026341 -0.077209 0.069708 -0.084826 -0.021239 0.104413 -0.015030 -0.062251 0.093610 -0.104150 0.020435 -0.026402 -0.070562 0.058071 0.017621 0.022189 -0.013072 -0.001065 0.017766 0.028689 0.033173 0.057333 -0.025811 0.073135 0.006525 0.051471 0.008562 -0.023167 -0.038855 0.026364 -0.009212 -0.016949 0.067877 -0.086526 -0.103990 -0.085566 0.078681 0.051318 -0.057197 0.000068 -0.130041 0.002861 0.072987 -0.045447 0.085582 0.042154 -0.010529 -0.034549 -0.050506 0.076961 -0.037973 -0.096567 -0.053746 -0.063958 0.171855 -0.028694 -0.045437 -0.033240 0.055994 0.055228 0.056576 0.101031 0.026860 0.021481 0.014506 0.011863 -0.021242 -0.056297 0.047184 -0.059351 -0.072948 0.036494 -0.017929 0.042328 -0.053713 -0.002492 -0.082479 -0.057737 -0.040326 0.038356 0.041311 0.132074 -0.164216 0.007604 -0.009788 -0.069222 -0.075753 -0.041899 -0.056211 0.041753 -0.012913 0.006522 -0.027512 0.077015 0.042175 0.064855 0.028927 -0.016761 0.037070 -0.054685 -0.017375 0.060488 -0.000633 0.172845 -0.119389 -0.022452 -0.016893 0.014169 -0.093047 -0.006868 -0.004720 -0.063188 0.030912 0.070994 0.068482 0.067007 -0.036474 -0.006851 0.036830 0.004072 -0.136989 -0.067986 0.013026 -0.037472 -0.040651 0.000573 -0.024865 -0.008368 0.034247 -0.039335 0.071568 0.033217 -0.036727 -0.067849 -0.036981 -0.082811 -0.023134 0.028559 0.052184 0.033476 0.018803 0.022209 0.051357 -0.070180 -0.080940 0.006724 -0.041470 0.045139 0.055937 -0.002505 0.066347 -0.009604 -0.000076 -0.002054 -0.021086 -0.005087 0.042724 -0.115101 -0.006303 0.064211 0.107132 -0.081641 0.000399 0.003049 0.037566 -0.062453 0.092128 -0.029701 0.176064 -0.018490 -0.004029 -0.071326 -0.002931 0.076402 -0.058721 -0.040697 0.014541 -0.149439 0.061045 0.052919 -0.018311 -0.023167 0.039926 0.062126 -0.018252 0.005584 -0.043290 -0.040458 0.025729 -0.025068 -0.016270 -0.061681 -0.042156 -0.019587 0.114858 -0.046347 0.000299 -0.008244 -0.011241 -0.037962 0.024948 -0.055977 0.074363 0.037606 0.020093 0.024466 0.051595 0.042064 0.031034 -0.058104 -0.019669 0.017469 -0.007943 -0.012579 0.017082 0.006544 0.064276 0.055123 -0.002028 0.019387 0.063842 0.007264 -0.183644 -0.015956 0.103320 0.032968 -0.037961 -0.045306 -0.058103 0.079606 0.006348 0.027749 0.002535
por -0.008394 -0.032819 -0.024895 -0.023825 0.029532 0.019513 0.026071 -0.033229 0.164453 -0.026779 -0.055630 0.060668 0.021754 -0.064510 0.027485 -0.008021 -0.014490 -0.014748 -0.067291 0.008409 -0.061070 -0.090044 -0.005298 0.136302 -0.069010 0.041336 0.055198 0.071982 0.099259 0.071969 0.027202 -0.107471 -0.024240 0.032431 0.003722 -0.032486 -0.036167 -0.009522 -0.030590 0.071491 -0.043052 -0.027720 -0.050031 -0.023850 -0.070454 -0.093503 0.055867 -0.055630 0.038975 0.064343 -0.002883 0.064794 0.032186 0.107785 0.078966 0.016431 -0.063119 0.030682 0.017025 0.078083 0.015021 0.060256 -0.072546 -0.028444 -0.015310 0.073616 -0.098240 0.061435 -0.088384 -0.060628 -0.065357 -0.023822 0.007592 0.011904 0.007005 0.044305 0.117632 0.089135 -0.099077 0.017717 -0.006055 0.001231 0.057862 0.004462 0.008890 -0.008269 0.003458 0.039512 0.034480 0.043902 -0.084140 -0.002719 -0.037932 0.032413 -0.125238 0.015624 0.004068 0.057467 0.039877 0.089071 -0.019380 -0.082043 -0.070103 0.068303 0.081846 -0.093015 -0.098341 -0.105605 -0.011521 0.047838 0.076075 0.007732 0.089213 0.039646 -0.059363 -0.024190 0.097771 0.048623 -0.047637 -0.089956 -0.069934 -0.131889 -0.032213 -0.044905 -0.115680 0.048402 0.012445 0.005187 0.032056 -0.024778 0.023802 0.061923 -0.027704 -0.018866 -0.067337 0.066531 -0.044441 -0.053784 0.045768 0.024264 0.110410 -0.034496 -0.034133 -0.048109 -0.041977 -0.005198 -0.003097 0.035279 0.175055 -0.072125 0.115761 0.053907 -0.068219 -0.043537 -0.009080 -0.060856 0.043671 0.005039 -0.008640 -0.049110 0.066419 -0.026239 0.114529 -0.026378 -0.001093 0.038674 0.068556 0.030590 0.049790 -0.046536 0.103088 -0.043885 -0.039868 0.009718 -0.001279 -0.053600 0.013243 0.012313 -0.030616 -0.014002 0.038406 0.018591 0.072226 0.008468 -0.090570 0.004042 0.010843 -0.066918 -0.016355 -0.059667 -0.069722 0.050276 0.043037 0.013866 0.007053 0.059723 0.023863 0.080272 0.018950 0.022766 -0.096760 -0.022990 -0.043095 0.056410 -0.028706 -0.043188 -0.016280 0.051292 0.009174 0.065333 -0.018678 -0.006485 -0.073303 0.045326 -0.045946 0.092772 -0.008889 0.064143 -0.033934 0.019086 -0.036621 -0.065762 0.124331 0.063278 -0.098377 0.006672 0.070113 -0.043513 -0.083172 0.000413 -0.002328 0.114137 -0.028428 0.022263 -0.115311 0.072526 0.056074 -0.016730 -0.043639 0.000135 0.183420 0.030759 -0.029959 -0.050656 -0.081412 0.016691 -0.121929 -0.057037 0.078352 0.029771 0.038326 0.033773 0.012162 0.002722 -0.035972 -0.045770 0.023171 0.072850 -0.049930 -0.037977 0.091447 0.085589 -0.039268 -0.065438 0.016933 -0.057953 -0.002838 0.020152 0.039496 0.019235 0.010270 0.045948 0.034731 0.062130 -0.011913 0.025411 0.028845 0.048769 -0.005123 0.041814 -0.070100 0.069897 -0.061265 0.000626 0.074594 0.002672 0.006857 -0.025100 -0.000335 -0.100820 0.000585 0.080131 0.021983 -0.089483 -0.006528 -0.118155 0.005929 -0.060432 0.003725 0.084615
verdad 0.030242 -0.045931 0.024080 -0.015270 -0.018814 -0.091278 -0.060980 -0.021087 0.003208 0.064627 0.022754 -0.079122 -0.076546 0.074904 0.015350 0.031453 -0.002272 0.011266 0.016161 0.094848 -0.002307 -0.048034 0.033152 -0.025498 -0.037963 -0.053027 0.000470 0.138266 -0.115945 0.098211 0.019184 -0.049244 -0.049767 0.008685 -0.002402 -0.038072 -0.060766 0.019687 -0.069363 -0.035466 0.039033 0.041397 0.037414 -0.042728 -0.019204 0.008281 -0.002476 -0.016687 0.047125 0.094073 0.008350 0.053882 0.009308 0.136895 -0.046369 0.016199 -0.041892 -0.020790 -0.050948 0.010854 0.065332 0.070353 0.056018 -0.065370 -0.001970 0.092534 -0.118299 0.045251 -0.089691 0.021035 0.017712 -0.062769 -0.101354 0.104782 -0.017591 0.061394 -0.050931 0.055566 -0.062078 -0.004439 -0.069001 -0.022905 -0.007183 0.053955 -0.001204 -0.017840 0.038165 -0.032162 0.081257 0.030706 -0.048926 0.035625 0.065249 -0.002072 -0.051220 -0.083048 0.028167 0.009736 -0.030055 0.050737 -0.101087 -0.065885 -0.098210 0.014588 0.004455 -0.033390 0.112623 -0.036181 -0.043619 0.069233 0.010776 -0.036837 0.076912 -0.038416 0.010495 0.015756 0.071638 -0.004524 0.080007 -0.042450 -0.004927 0.108215 -0.076967 -0.143418 -0.039059 0.062604 0.072132 -0.011883 0.009142 -0.059871 0.014186 -0.002798 -0.010565 -0.088545 0.004902 0.107798 0.023650 -0.072274 -0.037439 0.040323 -0.040028 0.040240 0.018889 0.073501 -0.078413 -0.051023 0.007935 -0.068810 0.051874 -0.024186 -0.026585 -0.044895 -0.052352 -0.039014 0.004194 0.078310 0.014518 -0.061989 -0.034863 0.029669 -0.035007 -0.065372 0.090388 -0.048666 -0.020346 0.007818 -0.063318 0.089917 -0.030376 -0.020798 -0.079447 -0.056794 0.050721 -0.042621 0.107395 0.089384 -0.032108 -0.084611 -0.059442 -0.015679 -0.028420 0.170425 0.045937 -0.015207 0.013050 -0.010626 -0.008083 -0.023632 -0.010909 0.031733 -0.059045 -0.079497 0.050093 0.056604 -0.150795 0.001115 0.054171 -0.107034 0.083646 -0.149939 -0.099574 -0.037813 -0.074814 0.098217 -0.007987 -0.020450 -0.035871 -0.024657 -0.021171 0.104388 -0.071603 0.006556 -0.084360 0.009274 -0.003517 -0.010263 -0.058738 0.070472 0.018858 -0.082111 0.076909 -0.008662 0.018711 0.061142 -0.046182 -0.026682 0.036327 0.026793 0.001896 0.014616 0.035731 0.013674 0.070251 -0.002304 -0.043642 0.015161 -0.124626 -0.093303 -0.151193 0.064278 0.044773 -0.020931 -0.017013 -0.019794 -0.117482 -0.029453 -0.010568 -0.067824 0.011083 -0.040694 0.076211 0.029775 0.048122 -0.013714 -0.007430 -0.020048 0.035237 -0.013763 -0.083686 0.022106 0.102105 0.158010 -0.090603 -0.018963 0.027267 -0.127795 -0.082771 -0.009963 -0.066662 0.066404 0.008263 0.056282 -0.066068 0.000696 -0.076923 -0.028509 0.016944 0.090772 0.028197 0.050008 0.012875 -0.063616 -0.040463 0.075042 0.024206 0.022903 0.042330 -0.011785 -0.052714 0.009215 -0.034147 0.012602 -0.065708 -0.002395 -0.042069 0.062710 0.011314 -0.018042 0.023773 0.018132
